\data\
ngram 1=7339
ngram 2=35655

\1-grams:
-4.572492	<unk>	0
0	<s>	-0.4290596
-2.6305342	</s>	0
-3.3913305	while	-0.19292235
-4.430429	roth	-0.10502439
-2.1568277	-	-0.32078788
-3.2003102	american	-0.21007077
-2.0225863	said	-0.8050017
-2.6202524	it	-0.55584145
-2.3179052	is	-0.30401975
-3.4558809	still	-0.1149877
-3.7404974	interested	-0.6349843
-1.8241884	in	-0.48846126
-4.010452	acquiring	-0.10502439
-4.430429	turco	-0.10502439
-1.4058433	,	-0.47502488
-4.157543	atcor	-0.10502439
-3.040495	now	-0.15069827
-3.900773	reviewing	-0.20723446
-2.5543816	its	-0.1761476
-3.4921515	options	-0.16288792
-2.4676132	with	-0.29937047
-3.0273256	other	-0.123230696
-3.813283	potential	-0.10502439
-3.678177	buyers	-0.13299316
-3.3913305	who	-0.1778236
-2.7494786	have	-0.2743853
-3.813283	expressed	-0.1427312
-2.990057	interest	-0.5455663
-3.5752792	consumer	-0.19974689
-3.0273256	products	-0.25315547
-4.010452	businesses	-0.10502439
-1.5369785	.	-1.0150925
-3.678177	german	-0.1234687
-2.8848476	net	-0.44528025
-3.3913305	currency	-0.19621362
-3.1814091	reserves	-0.20943367
-3.3351443	fall	-0.2248942
-2.9138236	5	-1.0293982
-2.894293	4	-1.0037115
-2.5414782	billion	-0.6227978
-3.678177	marks	-0.18549243
-1.7283329	to	-0.3616372
-3.813283	81	-0.19838524
-3.0021281	7	-0.864917
-3.900773	bundesbank	-0.12616876
-1.9171591	the	-0.4214586
-3.0825825	1987	-0.35543865
-3.3351443	annual	-0.2387362
-3.2407753	dividend	-0.2806652
-2.4640527	will	-0.35709164
-3.2003102	be	-0.21010041
-3.5317295	40	-0.26347598
-2.5722048	cts	-1.0520782
-2.099597	a	-0.31212944
-3.3095613	share	-0.45653945
-4.283945	speed	-0.10502439
-4.010452	o	-0.9366291
-4.430429	print	-0.10502439
-3.1632962	business	-0.244155
-2.354893	&	-2.3661098
-4.430429	lt	-2.3661098
-3.813283	;	-0.1268217
-4.430429	sbm	-0.10502439
-2.2457368	>	-0.44060922
-3.678177	4th	-1.1263461
-3.4558809	qtr	-0.6213331
-3.1459088	shr	-0.38558874
-3.1632962	loss	-0.29997116
-3.3913305	seven	-0.28341305
-2.7563744	vs	-0.4903863
-3.3095613	profit	-0.16842932
-3.2407753	17	-0.64392704
-3.900773	102	-0.28641573
-4.283945	000	-0.8070322
-4.157543	258	-0.23704433
-3.1632962	revs	-0.21127887
-2.5813985	1	-1.1854151
-4.430429	695	-0.10502439
-4.430429	371	-0.10502439
-2.8756032	year	-0.5299542
-3.4224074	33	-0.34174997
-3.6236877	26	-0.2232026
-4.283945	488	-0.10502439
-4.010452	384	-0.16288792
-2.9668772	6	-0.9824474
-3.813283	700	-0.25538728
-4.283945	774	-0.10502439
-3.3351443	note	-1.0866637
-3.5752792	:	-0.28323406
-2.9039485	1986	-0.43307722
-3.2003102	results	-0.19321178
-3.5317295	include	-0.11971665
-3.1814091	operations	-0.3864762
-1.7816509	of	-0.36495817
-4.010452	radio	-0.10502439
-4.430429	stations	-0.10502439
-4.430429	wjye	-0.10502439
-4.430429	fm	-0.10502439
-2.0277493	for	-0.31948772
-3.4921515	full	-0.26730022
-1.8004713	and	-0.2554491
-4.430429	wnnr	-0.10502439
-4.283945	am	-0.10502439
-2.6410656	last	-0.65434945
-3.0021281	six	-0.33370507
-3.3351443	months	-0.26687676
-4.010452	economics	-0.16288792
-3.5317295	ministry	-0.25597492
-4.157543	commenting	-0.29178125
-2.1894858	on	-0.36453962
-3.2003102	figures	-0.30144888
-3.7404974	gnp	-0.17182136
-3.2003102	first	-0.33696634
-3.3095613	quarter	-0.3810115
-2.3360054	was	-0.21806543
-2.7851079	also	-0.2433377
-3.2407753	expected	-0.5397662
-4.283945	relatively	-0.10502439
-3.900773	weak	-0.10502439
-2.70405	"	-0.36063716
-4.010452	although	-0.15881886
-3.4224074	short	-0.3858378
-3.6236877	run	-0.10502439
-3.7404974	difficult	-0.18696395
-3.900773	see	-0.14473277
-4.010452	direct	-0.10502439
-4.157543	link	-0.10502439
-3.0145442	between	-0.23484796
-3.813283	arab	-0.16603702
-4.157543	anger	-0.10502439
-4.430429	threats	-0.10502439
-2.6979315	oil	-0.3226828
-3.678177	supplies	-0.16603702
-3.2625155	current	-0.24864936
-3.900773	environment	-0.10502439
-4.010452	increasingly	-0.10502439
-4.157543	moderate	-0.10502439
-4.010452	leaders	-0.16288792
-3.4921515	seen	-0.12202175
-2.4933882	as	-0.32102746
-4.283945	friendly	-0.10502439
-2.685947	u	-2.2126
-3.4921515	s	-0.3908728
-3.7404974	interests	-0.17549734
-2.5248494	,"	-0.47021574
-4.430429	ebinger	-0.10502439
-4.157543	lot	-0.15068202
-4.430429	winterkill	-0.10502439
-2.9783125	could	-0.20079586
-3.900773	occur	-0.10502439
-3.0825825	during	-0.4364426
-3.4224074	next	-0.2790604
-3.3623295	month	-0.28945595
-3.3623295	half	-0.22884789
-4.283945	martell	-0.10502439
-3.678177	chicago	-0.10502439
-3.678177	soybean	-0.15606456
-4.283945	complex	-0.10502439
-2.5500376	has	-0.25062633
-3.4921515	been	-0.13040486
-4.430429	nervous	-0.10502439
-3.1130924	some	-0.14792265
-3.2407753	time	-0.21875516
-2.7851079	about	-0.22804128
-3.3623295	large	-0.10502439
-3.2854016	south	-0.39756614
-3.813283	crops	-0.17182136
-3.6236877	developing	-0.371792
-2.8665514	under	-0.3300531
-3.678177	near	-0.20170969
-4.430429	ideal	-0.10502439
-3.6236877	conditions	-0.12979509
-4.010452	towards	-0.10502439
-3.2003102	record	-0.25978446
-3.813283	yields	-0.1427312
-3.2854016	japanese	-0.13372603
-4.430429	crushers	-0.10502439
-3.900773	continue	-0.3665815
-4.283945	concentrate	-0.29178125
-3.813283	rapeseed	-0.13713989
-3.5752792	purchases	-0.16498476
-3.0975695	since	-0.26968494
-4.430429	converts	-0.10502439
-3.1814091	higher	-0.16570343
-3.678177	percentage	-0.35950884
-3.2854016	than	-0.17715195
-4.430429	oilseeds	-0.10502439
-3.054076	they	-0.34944883
-3.5317295	royal	-0.2418392
-3.3623295	resources	-0.35514364
-2.5207899	corp	-0.67829007
-4.430429	rrco	-0.22966352
-3.900773	2nd	-0.89384127
-3.813283	dec	-0.23348932
-3.1632962	31	-0.5508285
-3.7404974	72	-0.24585597
-3.7404974	48	-0.17803833
-2.5248494	dlrs	-0.86796033
-4.430429	466	-0.10502439
-4.430429	006	-0.10502439
-3.1291907	9	-0.84493476
-4.430429	091	-0.22966352
-4.010452	688	-0.15068202
-4.430429	608	-0.10502439
-4.157543	181	-0.10502439
-4.157543	280	-0.10502439
-4.430429	727	-0.10502439
-3.4224074	avg	-1.2716925
-4.430429	shrs	-0.26030827
-4.283945	194	-0.29178125
-4.283945	155	-0.18402584
-4.430429	461	-0.10502439
-3.813283	77	-0.22193116
-3.4558809	51	-0.3418412
-4.430429	752	-0.10502439
-4.430429	455	-0.10502439
-4.430429	265	-0.10502439
-4.430429	457	-0.10502439
-4.430429	444	-0.10502439
-4.157543	149	-0.18402584
-2.736007	2	-0.9074661
-4.283945	791	-0.10502439
-4.283945	188	-0.10502439
-4.430429	174	-0.10502439
-4.283945	731	-0.10502439
-3.3913305	losses	-0.1326723
-4.157543	charges	-0.18402584
-3.1291907	0	-1.0356103
-2.3204453	mln	-0.80567485
-3.3351443	both	-0.13277493
-3.7404974	periods	-0.16855153
-3.1291907	14	-0.40047833
-3.2200718	1985	-0.45093632
-4.283945	write	-0.22966352
-3.2407753	down	-0.26721328
-3.678177	gas	-0.2180384
-4.157543	properties	-0.10502439
-4.010452	california	-0.10502439
-3.7404974	water	-0.10502439
-3.4558809	service	-0.14768338
-3.0273256	co	-0.38299012
-4.430429	cwtr	-0.10502439
-3.900773	3rd	-1.1570827
-2.894293	10	-0.45057407
-3.678177	83	-0.23184559
-4.283945	919	-0.10502439
-4.157543	168	-0.18402584
-3.4224074	35	-0.28280127
-3.4921515	34	-0.4145658
-2.9557354	3	-0.89560634
-3.2854016	nine	-0.57739705
-4.010452	mths	-0.754072
-4.283945	09	-0.49339592
-3.7404974	55	-0.20856309
-4.430429	391	-0.10502439
-4.430429	099	-0.10502439
-3.900773	88	-0.10502439
-4.430429	curent	-0.10502439
-4.430429	mth	-0.10502439
-3.2625155	dlr	-0.21754728
-2.716552	or	-0.16323723
-3.900773	79	-0.2193247
-3.1291907	per	-0.5352502
-3.3351443	gain	-0.381159
-3.900773	resulting	-0.23457013
-2.3307564	from	-0.31548178
-3.5317295	change	-0.25326473
-3.900773	accounting	-0.15068202
-4.430429	method	-0.10502439
-4.430429	unbilled	-0.10502439
-3.4921515	revenues	-0.29185772
-2.9239287	but	-0.23942256
-2.3281555	that	-0.30396846
-2.9138236	if	-0.32790318
-2.590791	had	-0.2914834
-2.9342742	not	-0.24045256
-2.736007	one	-0.3436076
-3.5752792	day	-0.17849292
-4.430429	miss	-0.10502439
-3.5317295	fed	-0.26828867
-2.2522194	'	-1.117123
-3.4558809	reserve	-0.2495842
-4.430429	projections	-0.10502439
-3.5752792	borrowings	-0.14473277
-3.3913305	target	-0.18368135
-2.5500376	would	-0.34912995
-3.678177	probably	-0.12725344
-3.5752792	reached	-0.16872676
-3.1632962	government	-0.2653965
-3.900773	unlikely	-0.5380743
-3.2200718	cut	-0.22481768
-3.900773	expenditure	-0.10502439
-3.678177	gross	-0.24953777
-3.5752792	domestic	-0.1794128
-3.6236877	product	-0.13649532
-3.3623295	major	-0.1303638
-3.0975695	tax	-0.21383913
-3.3095613	increase	-0.54860127
-4.430429	unavoidable	-0.10502439
-4.430429	bayliss	-0.10502439
-3.4558809	m	-0.5093323
-3.5752792	showed	-0.2433252
-3.1459088	rise	-0.40994054
-2.6464286	pct	-0.59061587
-3.2854016	january	-0.3456559
-2.2207322	at	-0.41161022
-3.813283	68	-0.3015169
-4.283945	rand	-0.25966385
-2.8158777	after	-0.30220738
-3.1459088	30	-0.40325952
-3.4224074	december	-0.23890088
-3.0975695	16	-0.5466374
-3.0975695	12	-0.5199314
-3.4224074	80	-0.33668792
-4.430429	1a	-0.10502439
-3.2854016	22	-0.4259965
-2.990057	20	-0.40382054
-3.5752792	54	-0.33148012
-4.283945	heller	-0.10502439
-3.4224074	sees	-0.1179621
-3.678177	return	-0.28819686
-4.283945	slower	-0.10502439
-3.2200718	money	-0.5267391
-3.5752792	supply	-0.14062788
-3.0680952	growth	-0.19481613
-4.283945	consequently	-0.22966352
-3.1632962	he	-0.61968726
-3.4224074	well	-0.2518025
-3.900773	known	-0.10502439
-3.813283	abroad	-0.1427312
-3.3351443	his	-0.15847126
-4.283945	views	-0.15068202
-3.6236877	issues	-0.10502439
-3.4224074	such	-0.31125665
-3.3351443	less	-0.27145854
-4.283945	developed	-0.10502439
-3.6236877	country	-0.2823783
-3.2200718	debt	-0.22742279
-2.7426906	may	-0.23688498
-4.010452	initially	-0.10502439
-3.900773	carry	-0.25538728
-4.283945	weight	-0.10502439
-3.2854016	those	-0.15847126
-4.430429	mr	-0.10502439
-4.010452	volcker	-0.17549734
-2.716552	."	-1.6659184
-4.283945	kapok	-0.22966352
-4.430429	kpk	-0.10502439
-4.010452	technical	-0.10502439
-4.283945	default	-0.10502439
-4.430429	techical	-0.10502439
-3.4224074	loans	-0.20823896
-4.430429	southeast	-0.10502439
-3.5752792	banking	-0.17544685
-4.430429	stb	-0.10502439
-4.283945	murray	-0.10502439
-4.430429	steinfeld	-0.10502439
-3.900773	negotiating	-0.10502439
-4.430429	lenders	-0.10502439
-2.685947	this	-0.38725638
-4.157543	certainly	-0.10502439
-3.900773	reason	-0.21352543
-4.430429	heightened	-0.10502439
-4.430429	watchfulness	-0.10502439
-4.430429	stimulative	-0.10502439
-4.283945	steps	-0.10502439
-4.283945	published	-0.10502439
-3.6236877	figure	-0.17086963
-2.9668772	foreign	-0.2791246
-3.1814091	exchange	-0.29695156
-3.5317295	37	-0.3688083
-3.2200718	end	-0.5786758
-3.5317295	september	-0.19777243
-3.678177	47	-0.41518018
-3.2625155	june	-0.18773717
-3.900773	59	-0.23260085
-3.5752792	dutch	-0.12518497
-3.4558809	cocoa	-0.14066291
-4.157543	processors	-0.10502439
-4.283945	unhappy	-0.22966352
-4.010452	icco	-0.10502439
-3.6236877	buffer	-0.8654333
-2.6518588	are	-0.14232327
-4.430429	intermittent	-0.10502439
-3.4558809	buying	-0.11878367
-4.157543	activities	-0.10502439
-3.0273256	international	-0.26452905
-3.900773	organization	-0.13299316
-2.9239287	stock	-0.35063976
-3.813283	manager	-0.12518497
-3.2003102	industry	-0.20610254
-3.4224074	sources	-0.6121963
-2.9342742	told	-0.6924753
-4.157543	reuters	-0.39279518
-3.6236877	these	-0.11971665
-3.1459088	rates	-0.2407392
-3.1814091	compared	-1.0699325
-4.430429	averages	-0.10502439
-3.678177	53	-0.18622757
-2.9448721	three	-0.3255585
-4.010452	63	-0.18696395
-3.900773	bills	-0.10502439
-3.4224074	sold	-0.15743953
-3.2200718	week	-0.3587786
-4.157543	miyazawa	-0.10502439
-3.6236877	expects	-0.33198655
-3.2003102	dollar	-0.19299631
-4.430429	rebound	-0.10502439
-3.813283	soon	-0.13299316
-3.4224074	spokesman	-0.5028244
-3.054076	says	-0.2475713
-2.9138236	price	-0.23460753
-3.4558809	much	-0.20361868
-3.3623295	below	-0.15581515
-4.157543	380	-0.10502439
-4.283945	390	-0.10502439
-2.6052718	an	-0.19649835
-4.010452	ounce	-0.10502439
-3.678177	range	-0.13299316
-4.010452	430	-0.20170969
-4.283945	hockin	-0.10502439
-4.430429	responding	-0.10502439
-4.283945	questions	-0.10502439
-3.5752792	house	-0.13129717
-4.430429	commons	-0.10502439
-3.900773	why	-0.15068202
-3.2407753	credit	-0.17198218
-4.283945	card	-0.13299316
-2.8404758	which	-0.25960973
-3.2407753	high	-0.19468468
-3.2407753	28	-0.34635967
-3.4921515	remain	-0.12979509
-3.1632962	when	-0.26744726
-3.5752792	falling	-0.10502439
-4.430429	braatz	-0.10502439
-4.157543	block	-0.10502439
-4.430429	advertising	-0.10502439
-3.4921515	budget	-0.14768338
-3.7404974	same	-0.20181675
-4.430429	helped	-0.10502439
-4.430429	bit	-0.10502439
-2.28853	by	-0.29868346
-3.3351443	lower	-0.16180542
-3.1632962	costs	-0.2225889
-4.010452	television	-0.10502439
-4.283945	ads	-0.10502439
-3.4224074	terms	-0.46908468
-3.4224074	contract	-0.14273123
-2.6800766	were	-0.18381765
-4.010452	disclosed	-0.33668792
-4.157543	kellogg	-0.18402584
-3.0680952	total	-0.20641185
-3.3623295	cost	-0.31648454
-3.678177	plant	-0.12725344
-3.4921515	300	-0.3015842
-2.9783125	exports	-0.3323643
-4.430429	905	-0.10502439
-2.9557354	against	-0.27563158
-4.283945	929	-0.10502439
-3.6236877	revised	-0.17552984
-4.283945	971	-0.10502439
-4.157543	816	-0.10502439
-3.1814091	earlier	-0.41012555
-3.2003102	imports	-0.21023843
-3.0021281	fell	-0.33956018
-4.430429	858	-0.10502439
-4.430429	895	-0.10502439
-4.283945	928	-0.18402584
-4.430429	888	-0.10502439
-3.3095613	output	-0.1641448
-3.4224074	off	-0.1912908
-3.0975695	8	-0.8709687
-4.157543	bpd	-0.27159986
-3.0273256	march	-0.30143723
-3.0680952	13	-0.5110268
-3.4224074	petroleum	-0.16072896
-3.7404974	institute	-0.13713989
-4.010452	itc	-0.10502439
-3.7404974	case	-0.12979509
-3.3623295	being	-0.15606456
-4.010452	presented	-0.16288792
-4.283945	professor	-0.10502439
-4.430429	rosalyn	-0.10502439
-4.430429	higgins	-0.10502439
-3.678177	take	-0.17440099
-3.0825825	further	-0.12295974
-2.894293	two	-0.29338208
-3.7404974	days	-0.12725344
-3.3913305	another	-0.10502443
-3.3351443	added	-0.5429416
-4.283945	americans	-0.10502439
-3.2854016	do	-0.3221319
-3.813283	get	-0.10502439
-3.4921515	what	-0.15068202
-3.900773	want	-0.31337923
-4.283945	push	-0.20723446
-4.283945	regardless	-0.22966352
-3.6236877	g	-0.67637706
-3.040495	april	-0.30587843
-4.157543	heating	-0.29178125
-3.813283	91	-0.17182136
-4.430429	gallon	-0.10502439
-3.678177	pre	-0.71774995
-4.430429	corresponded	-0.10502439
-3.3913305	stocks	-0.14191991
-3.5752792	sector	-0.23272143
-4.430429	beginning	-0.29178125
-3.4224074	open	-0.14066291
-4.430429	secret	-0.10502439
-2.9668772	japan	-0.31089097
-3.900773	largest	-0.10502439
-4.283945	chip	-0.10502439
-4.157543	maker	-0.10502439
-4.430429	nec	-0.10502439
-4.283945	happy	-0.10502439
-4.430429	viewed	-0.10502439
-4.430429	draconian	-0.10502439
-3.678177	measures	-0.12725344
-4.430429	miti	-0.10502439
-3.7404974	taking	-0.12979509
-4.430429	implement	-0.18402584
-3.4921515	pact	-0.19217302
-3.4921515	included	-0.12202175
-4.430429	enforced	-0.10502439
-2.9783125	production	-0.19856974
-3.4921515	cuts	-0.15231211
-3.3095613	february	-0.2562964
-3.900773	retail	-0.21718955
-2.9557354	sales	-0.2667647
-3.6236877	above	-0.2322103
-3.813283	ago	-0.2518025
-3.3913305	level	-0.32074195
-4.010452	117	-0.10502439
-3.4224074	department	-0.47358066
-4.283945	austrian	-0.10502439
-3.0273256	banks	-0.17722821
-4.157543	divided	-0.22966352
-2.9783125	over	-0.24530704
-2.9668772	rate	-0.31392658
-3.7404974	calls	-0.25538728
-4.430429	grown	-0.10502439
-3.5317295	recent	-0.13670032
-2.8756032	bank	-0.39605203
-4.430429	chiefs	-0.10502439
-3.4224074	issue	-0.21260154
-2.662927	/	-0.48987597
-4.283945	87	-0.2187791
-3.900773	86	-0.1794128
-4.157543	04	-0.4106614
-4.283945	03	-0.4137019
-4.283945	usage	-0.18402584
-3.2854016	--	-0.13713992
-4.430429	01	-0.10502439
-3.5752792	66	-0.31337923
-3.900773	76	-0.29529524
-4.157543	96	-0.17182136
-3.5752792	36	-0.3078031
-3.6236877	49	-0.1884405
-4.283945	avge	-0.22966352
-4.010452	x	-0.13713989
-3.900773	56	-0.23348932
-3.1632962	50	-0.45385987
-4.430429	weighted	-0.10502439
-3.4224074	average	-0.1704262
-3.1291907	five	-0.30503342
-3.678177	marketing	-0.12979509
-4.283945	projection	-0.10502439
-3.813283	johnson	-0.18696395
-3.1291907	operating	-0.23733675
-4.157543	licensing	-0.10502439
-3.0021281	agreement	-0.31902698
-4.430429	tate	-0.10502439
-4.430429	lyle	-0.10502439
-4.157543	whose	-0.10502439
-4.430429	collaborative	-0.10502439
-3.813283	research	-0.10502439
-4.430429	scientists	-0.10502439
-4.283945	queen	-0.10502439
-4.430429	elizabeth	-0.10502439
-4.430429	college	-0.10502439
-3.4921515	london	-0.1948424
-3.813283	led	-0.680832
-4.430429	discovery	-0.10502439
-4.430429	sucralose	-0.10502439
-4.430429	1976	-0.10502439
-4.157543	bombay	-0.18402584
-3.3913305	part	-0.6890428
-3.813283	offshore	-0.12979509
-3.900773	field	-0.1884405
-4.430429	stabilised	-0.10502439
-3.2407753	around	-0.20663638
-3.4921515	500	-0.3346516
-4.010452	barrels	-0.3291203
-3.3913305	years	-0.3520314
-3.813283	sosnoff	-0.13713989
-3.2625155	made	-0.18773717
-4.430429	numerous	-0.10502439
-3.7404974	efforts	-0.23348932
-4.157543	express	-0.10502439
-3.2854016	management	-0.14115837
-4.283945	ways	-0.10502439
-4.430429	maximizing	-0.10502439
-3.678177	shareholder	-0.17544685
-3.900773	values	-0.10502439
-3.900773	caesars	-0.10502439
-4.430429	twicce	-0.10502439
-4.283945	refused	-0.10502439
-4.283945	request	-0.22966352
-3.1632962	board	-0.23042476
-4.157543	seat	-0.10502439
-4.430429	woodville	-0.10502439
-3.7404974	makes	-0.1234687
-3.5317295	technology	-0.12202175
-4.283945	precision	-0.10502439
-4.157543	aerospace	-0.18402584
-4.157543	automotive	-0.10502439
-3.4224074	industries	-0.22529493
-3.2407753	24	-0.37410814
-3.813283	stg	-0.28869686
-3.678177	dropped	-0.31337923
-4.430429	taka	-0.10502439
-3.678177	october	-0.24348865
-3.813283	unadjusted	-0.10502439
-3.7404974	index	-0.32666647
-3.813283	104	-0.28641573
-3.3095613	traders	-0.33595008
-4.283945	growers	-0.10502439
-2.9783125	new	-0.24365997
-3.0680952	because	-0.4845149
-4.430429	mechanism	-0.10502439
-3.4558809	likely	-0.5148573
-4.430429	interefere	-0.10502439
-3.5752792	free	-0.14632718
-2.7705035	market	-0.27559307
-4.157543	forces	-0.10502439
-4.157543	prevent	-0.16288792
-3.7404974	sharp	-0.16288792
-3.6236877	rubber	-0.10502439
-3.813283	rises	-0.13299316
-3.3913305	dealers	-0.46652064
-3.1459088	only	-0.15884192
-4.157543	temporary	-0.10502439
-3.678177	support	-0.12518497
-3.678177	150	-0.30725133
-3.2407753	yen	-0.25605267
-3.813283	toward	-0.10502439
-3.5752792	early	-0.1234687
-2.8404758	group	-0.27188525
-3.4558809	industrial	-0.21374287
-3.3913305	nations	-0.14066291
-4.283945	meets	-0.10502439
-4.430429	discuss	-0.10502439
-3.5317295	currencies	-0.15589528
-3.7404974	again	-0.16288792
-4.283945	rainbow	-0.10502439
-3.4558809	proposed	-0.13129717
-3.5317295	merger	-0.2693827
-4.157543	progressive	-0.18402584
-4.010452	form	-0.20170969
-2.990057	company	-0.4263544
-4.430429	astral	-0.10502439
-3.5317295	pacific	-0.13971162
-2.9448721	ltd	-0.5353675
-3.7404974	>.	-0.71774995
-3.813283	limited	-0.19838524
-4.283945	ability	-0.18402584
-3.5752792	buy	-0.17081232
-4.283945	sgl	-0.22966352
-2.8002203	shares	-0.41386193
-4.010452	dart	-0.10502439
-4.010452	yield	-0.10502439
-4.283945	harvested	-0.10502439
-4.157543	acre	-0.10502439
-4.283945	219	-0.10502439
-4.283945	cwt	-0.22966352
-4.283945	218	-0.10502439
-3.3623295	previously	-0.2702859
-3.4224074	estimated	-0.16872676
-4.430429	lost	-0.10502439
-4.157543	658	-0.29178125
-3.1814091	11	-0.52812266
-3.678177	ended	-0.26683465
-3.4224074	july	-0.17546764
-4.430429	committing	-0.10502439
-4.430429	himself	-0.10502439
-3.678177	action	-0.12725344
-4.430429	lawmakers	-0.10502439
-4.430429	examine	-0.10502439
-4.430429	findings	-0.10502439
-4.157543	indicate	-0.10502439
-3.813283	certificates	-0.10502439
-2.8665514	more	-0.20897041
-3.1814091	cash	-0.2177375
-3.4558809	payments	-0.16220072
-4.430429	compares	-0.10502439
-3.4558809	forecast	-0.1967555
-4.157543	shortage	-0.16288792
-3.2625155	system	-0.17140235
-3.054076	today	-0.4758275
-4.430429	showboat	-0.10502439
-4.157543	opened	-0.10502439
-4.283945	hotel	-0.10502439
-3.678177	third	-0.38683352
-4.283945	gaming	-0.10502439
-3.7404974	began	-0.13713989
-4.010452	thursday	-0.16288792
-4.010452	regular	-0.10502439
-3.678177	basis	-0.12979509
-4.010452	test	-0.10502439
-3.813283	completed	-0.26189476
-3.0680952	no	-0.18202333
-3.5317295	comment	-0.48332995
-3.1632962	official	-0.35583037
-4.010452	press	-0.15068202
-3.1814091	reported	-0.16169167
-3.3913305	farmers	-0.13299316
-4.283945	fear	-0.18402584
-3.4224074	farm	-0.1179621
-3.1814091	policy	-0.17744216
-4.430429	putting	-0.10502439
-2.9239287	their	-0.13751559
-4.430429	wealth	-0.10502439
-2.9783125	into	-0.1939829
-3.7404974	building	-0.13299316
-4.430429	graves	-0.10502439
-4.430429	memorial	-0.10502439
-4.430429	halls	-0.10502439
-4.430429	ancestors	-0.10502439
-4.430429	homes	-0.10502439
-3.2854016	point	-0.20175816
-3.4921515	drop	-0.3241664
-3.813283	instead	-0.41313562
-4.157543	usual	-0.10502439
-4.430429	avoid	-0.10502439
-4.430429	hurting	-0.10502439
-4.430429	sebaana	-0.10502439
-4.430429	kizito	-0.10502439
-4.430429	squeeze	-0.10502439
-4.157543	resolved	-0.10502439
-3.678177	weeks	-0.28535053
-3.900773	sterling	-0.1427312
-3.4224074	futures	-0.13492341
-3.6236877	make	-0.27911878
-4.283945	highs	-0.22966352
-2.8321207	up	-0.41499984
-4.430429	6300	-0.10502439
-4.430429	6500	-0.10502439
-3.6236877	positive	-0.15312949
-4.430429	atmosphere	-0.10502439
-4.430429	prevail	-0.10502439
-3.1291907	before	-0.32223684
-3.6236877	british	-0.15231211
-4.430429	elections	-0.10502439
-4.157543	possibly	-0.10502439
-4.430429	horner	-0.10502439
-4.430429	principles	-0.10502439
-3.813283	draft	-0.10502439
-3.3351443	proposal	-0.24458663
-4.283945	establishing	-0.10502439
-3.0975695	offer	-0.3256127
-4.010452	rather	-0.16288792
-3.678177	posted	-0.18696395
-3.900773	limit	-0.10502439
-3.678177	amount	-0.371792
-3.3095613	non	-1.2460238
-3.678177	member	-0.18402584
-3.1291907	can	-0.23068732
-3.5752792	bought	-0.14768338
-3.813283	differentials	-0.13713989
-3.6236877	paid	-0.14852934
-4.010452	different	-0.10502439
-4.430429	varieties	-0.10502439
-4.157543	comprising	-0.10502439
-4.010452	delegates	-0.51363
-4.157543	ruling	-0.10502439
-3.7404974	key	-0.10502439
-4.157543	condition	-0.10502439
-4.430429	completing	-0.10502439
-4.010452	deal	-0.15606456
-3.900773	agency	-0.14473277
-4.430429	rent	-0.10502439
-3.813283	car	-0.10502439
-2.489611	inc	-0.6058987
-4.430429	agnc	-0.10502439
-3.813283	jan	-0.40907505
-3.678177	21	-0.3858378
-4.430429	553	-0.10502439
-4.430429	307	-0.10502439
-3.2854016	45	-0.43825746
-3.900773	67	-0.23457013
-3.2625155	18	-0.39750928
-4.283945	161	-0.10502439
-3.813283	118	-0.23457013
-3.5752792	adjusted	-0.15451728
-4.010452	dividends	-0.10502439
-4.430429	tuesday	-0.16288792
-3.3351443	federal	-0.28395745
-3.678177	statistics	-0.13299316
-3.900773	office	-0.27151737
-3.1632962	national	-0.22130111
-4.283945	stagnated	-0.10502439
-3.3913305	real	-0.2885209
-4.010452	seasonally	-0.6349843
-4.157543	calendar	-0.35950884
-3.7404974	fourth	-0.5242326
-4.430429	understands	-0.10502439
-3.4224074	already	-0.15743953
-3.5317295	asked	-0.22213624
-4.283945	institutional	-0.10502439
-3.5752792	investors	-0.16498476
-3.7404974	reduce	-0.1858585
-3.7404974	head	-0.33039933
-3.040495	should	-0.244155
-3.7404974	rice	-0.13713989
-3.3623295	producer	-0.14647408
-3.4224074	reduced	-0.13649532
-4.430429	tetsuo	-0.10502439
-4.430429	kondo	-0.10502439
-3.900773	director	-0.13713989
-3.3913305	general	-0.15165928
-3.0021281	economic	-0.17607206
-4.157543	planning	-0.23704433
-2.56768	(	-0.16524877
-4.283945	epa	-0.10502439
-3.1459088	),	-0.11283338
-4.283945	reporters	-0.1794128
-4.430429	incudes	-0.10502439
-4.010452	right	-0.15881886
-4.430429	gm	-0.10502439
-3.2407753	canadian	-0.16288792
-4.430429	transit	-0.10502439
-4.430429	bus	-0.10502439
-3.900773	parts	-0.15068202
-4.283945	contingent	-0.10502439
-4.430429	satisfactory	-0.10502439
-4.283945	labor	-0.10502439
-4.430429	cri	-0.10502439
-3.7404974	yet	-0.17086963
-3.7404974	declared	-0.32266986
-3.5752792	distribution	-0.12725344
-4.283945	park	-0.10502439
-4.430429	meadows	-0.10502439
-3.5317295	loan	-0.16872676
-4.430429	disposition	-0.10502439
-4.283945	babcock	-0.10502439
-4.430429	progress	-0.10502439
-3.5752792	plc	-0.4516819
-4.430429	babk	-0.10502439
-3.813283	l	-0.3533625
-3.3913305	statement	-0.2466859
-4.430429	accompanying	-0.10502439
-3.4921515	final	-0.14406456
-4.157543	showing	-0.10502439
-3.813283	pretax	-0.15606456
-3.5752792	profits	-0.15068202
-3.7404974	overall	-0.10502439
-4.430429	lister	-0.10502439
-4.157543	manufacturer	-0.10502439
-4.430429	dyer	-0.10502439
-4.430429	finisher	-0.10502439
-3.900773	cotton	-0.10502439
-4.430429	silk	-0.10502439
-4.430429	wool	-0.10502439
-4.157543	man	-0.10502439
-4.430429	fibres	-0.10502439
-3.900773	morocco	-0.1427312
-4.430429	tenders	-0.10502439
-4.010452	pl	-0.20723446
-4.283945	480	-0.10502439
-3.2003102	wheat	-0.19160879
-3.2854016	tender	-0.28662676
-4.010452	120	-0.16288792
-4.157543	210	-0.18402584
-3.0021281	tonnes	-0.55355453
-4.430429	cheapest	-0.10502439
-4.283945	variety	-0.10502439
-3.900773	preferred	-0.10502439
-3.5752792	shipments	-0.12518497
-3.4921515	private	-0.13999878
-2.9783125	export	-0.21324834
-4.283945	permanent	-0.10502439
-3.813283	health	-0.1427312
-3.7404974	insurance	-0.13299316
-4.157543	leader	-0.10502439
-2.9783125	unit	-0.22567101
-3.7404974	trust	-0.12979509
-3.678177	second	-0.2400378
-3.900773	k	-0.7230903
-4.430429	eagle	-0.10502439
-4.283945	star	-0.10502439
-4.157543	premiums	-0.10502439
-2.9342742	rose	-0.34740245
-3.678177	32	-0.3566297
-4.283945	anything	-0.10502439
-3.4224074	possible	-0.11723315
-4.010452	phase	-0.15068202
-3.4921515	even	-0.15413453
-4.430429	adjournment	-0.10502439
-3.2854016	meeting	-0.2448916
-3.3913305	until	-0.13492341
-4.283945	altus	-0.22966352
-4.430429	alts	-0.10502439
-4.283945	fails	-0.22966352
-4.010452	reach	-0.19838524
-4.283945	able	-0.41671997
-4.430429	definitive	-0.5928112
-4.283945	horizon	-0.10502439
-3.1130924	financial	-0.21636786
-4.283945	funding	-0.22966352
-4.010452	servicing	-0.10502439
-4.283945	victor	-0.10502439
-3.4558809	savings	-0.28535053
-3.4558809	association	-0.306951
-4.283945	intermagnetics	-0.22966352
-4.430429	inma	-0.10502439
-4.283945	completes	-0.1427312
-3.7404974	purchase	-0.21050537
-4.283945	advanced	-0.10502439
-3.5317295	air	-0.24596904
-4.157543	chemicals	-0.10502439
-4.430429	apd	-0.10502439
-4.430429	geodome	-0.10502439
-3.7404974	ore	-0.13299316
-4.430429	zone	-0.10502439
-4.430429	discovered	-0.10502439
-4.157543	summer	-0.10502439
-4.430429	calculations	-0.10502439
-4.430429	metropolitan	-0.10502439
-4.157543	acquire	-0.15705581
-3.900773	option	-0.10502439
-3.1632962	all	-0.16259599
-4.283945	metex	-0.10502439
-3.4558809	owned	-0.5027578
-3.900773	william	-0.10502439
-4.430429	hack	-0.10502439
-4.010452	together	-0.20723446
-4.430429	wife	-0.10502439
-4.010452	holds	-0.16603702
-3.900773	750	-0.23348932
-3.1291907	common	-0.6626028
-4.430429	citybank	-0.10502439
-4.157543	moving	-0.10502439
-4.283945	rapidly	-0.10502439
-3.6236877	move	-0.12979509
-3.3913305	us	-0.13299316
-4.157543	fifth	-0.10502439
-4.283945	wells	-0.10502439
-4.430429	fargo	-0.10502439
-4.430429	varying	-0.10502439
-3.4224074	reports	-0.1858585
-4.430429	dresdner	-0.10502439
-3.2003102	shareholders	-0.24187541
-3.4224074	offered	-0.16603702
-4.010452	every	-0.16288792
-3.0273256	15	-0.49550375
-3.2003102	held	-0.23193155
-3.900773	bahrain	-0.10502439
-3.4558809	based	-0.34149662
-3.4558809	gulf	-0.17113528
-4.430429	bsc	-0.10502439
-3.3095613	increased	-0.167491
-4.157543	presence	-0.10502439
-3.5317295	saudi	-0.67637706
-4.430429	busy	-0.10502439
-4.430429	upgrading	-0.10502439
-4.010452	representative	-0.17549734
-3.900773	offices	-0.10502439
-4.157543	branch	-0.10502439
-4.157543	status	-0.10502439
-4.010452	allow	-0.10502439
-4.283945	dealing	-0.10502439
-4.157543	saturday	-0.10502439
-3.7404974	cattle	-0.16603702
-4.430429	slaughter	-0.10502439
-4.430429	guesstimated	-0.10502439
-3.7404974	usda	-0.10502443
-3.813283	350	-0.4145658
-3.2003102	corn	-0.15660465
-4.283945	unknown	-0.20723446
-3.4921515	agriculture	-0.37416086
-3.813283	exporters	-0.10502439
-3.900773	delivery	-0.18696395
-4.430429	destinations	-0.10502439
-3.813283	season	-0.1427312
-3.678177	italy	-0.17086963
-4.430429	attend	-0.10502439
-3.7404974	paris	-0.15589528
-4.283945	grounds	-0.16288792
-4.430429	grouping	-0.10502439
-3.900773	united	-0.5989588
-3.678177	states	-0.28062293
-3.2003102	west	-0.7246065
-4.010452	germany	-0.2261032
-3.5317295	france	-0.28026783
-3.813283	britain	-0.3533625
-4.010452	role	-0.22966352
-4.430429	stamping	-0.10502439
-3.6236877	agreements	-0.17365544
-3.678177	taken	-0.16288792
-4.157543	purpose	-0.10502439
-4.283945	consider	-0.10502439
-3.7404974	transaction	-0.30316094
-4.157543	explained	-0.18402584
-3.4224074	each	-0.16498476
-3.5752792	study	-0.13971162
-4.283945	found	-0.10502439
-3.5752792	little	-0.12725344
-4.157543	evidence	-0.22966352
-4.157543	factor	-0.10502439
-3.1814091	any	-0.11723315
-3.3913305	impact	-0.3685099
-2.7633815	trade	-0.2714644
-3.4224074	deficit	-0.2200093
-4.157543	african	-0.13299316
-3.678177	sharply	-0.12979509
-4.283945	africa	-0.10502439
-3.4558809	gold	-0.1179621
-3.1130924	assets	-0.24273907
-3.4921515	rising	-0.15413453
-3.6236877	almost	-0.10502439
-3.900773	governor	-0.10502439
-4.430429	gerhard	-0.10502439
-3.813283	de	-0.10502439
-4.430429	kock	-0.10502439
-4.010452	colombia	-0.15068202
-3.2003102	coffee	-0.17309721
-4.157543	registrations	-0.18402584
-3.2003102	there	-0.51304495
-3.1814091	plans	-0.62083864
-3.6236877	close	-0.14852934
-3.4558809	them	-0.13713989
-4.010452	means	-0.10502439
-4.283945	unlimited	-0.10502439
-4.157543	registered	-0.10502439
-4.430429	gilberto	-0.10502439
-4.283945	arango	-0.10502439
-3.2625155	president	-0.21028249
-3.7404974	city	-0.10502439
-3.678177	seeking	-0.28464183
-4.010452	improving	-0.10502439
-4.430429	realizing	-0.10502439
-4.283945	inherent	-0.22966352
-4.010452	subsidiaries	-0.15068202
-3.5317295	future	-0.20909378
-4.157543	discussions	-0.10502439
-4.430429	topics	-0.10502439
-4.283945	commitment	-0.29178125
-4.430429	privatization	-0.10502439
-3.3095613	trading	-0.12845555
-4.283945	entities	-0.10502439
-3.5752792	public	-0.13129717
-4.283945	disclosure	-0.22966352
-3.7404974	involved	-0.28819686
-4.430429	recognition	-0.10502439
-4.283945	reductions	-0.10502439
-3.900773	kept	-0.10502439
-3.2407753	world	-0.2136832
-2.8079784	prices	-0.34362215
-4.283945	otherwise	-0.10502439
-4.430429	organizations	-0.22966352
-3.678177	australian	-0.138833
-3.813283	proposals	-0.10502439
-4.283945	welcome	-0.10502439
-4.430429	assessments	-0.10502439
-3.1459088	we	-0.38190955
-3.5752792	august	-0.13713989
-4.157543	produce	-0.13713989
-3.3913305	our	-0.11599671
-3.7404974	own	-0.12078537
-3.678177	quota	-0.10502439
-3.7404974	sell	-0.18139146
-3.7404974	additional	-0.10502439
-3.900773	amounts	-0.10502439
-3.813283	ecuador	-0.10502439
-4.430429	repaying	-0.10502439
-3.1814091	yesterday	-0.37573004
-3.900773	rebate	-0.10502439
-4.157543	ever	-0.10502439
-4.010452	granted	-0.10502439
-2.6979315	)	-0.22314878
-4.283945	aid	-0.10502439
-3.900773	package	-0.15068202
-3.7404974	called	-0.1949936
-3.678177	exploration	-0.18696395
-3.3913305	development	-0.1611881
-4.283945	incentive	-0.10502439
-3.2003102	program	-0.25514957
-4.283945	restrict	-0.10502439
-4.283945	individual	-0.10502439
-4.283945	claim	-0.10502439
-4.283945	.-	-0.13713989
-4.010452	ussr	-0.13713989
-4.157543	grains	-0.16288792
-4.157543	amounted	-0.29178125
-4.157543	152	-0.18402584
-4.283945	600	-0.30433974
-4.430429	808	-0.22966352
-3.1291907	100	-0.3801598
-4.430429	518	-0.22966352
-3.900773	soybeans	-0.12979509
-3.678177	met	-0.13299316
-4.430429	coil	-0.10502439
-3.4921515	systems	-0.25208724
-4.430429	mets	-0.10502439
-4.010452	feb	-0.15589528
-4.283945	206	-0.18402584
-3.6236877	38	-0.29978296
-4.157543	228	-0.16288792
-4.430429	649	-0.10502439
-4.010452	qtly	-0.92860335
-3.900773	div	-0.12845555
-3.900773	prior	-0.34109277
-3.4921515	pay	-0.22587667
-3.4558809	monetary	-0.38961667
-3.4224074	declined	-0.5345193
-3.7404974	57	-0.2741141
-4.283945	146	-0.10502439
-3.3095613	report	-0.24408424
-3.813283	charge	-0.13713989
-4.010452	bad	-0.10502439
-4.157543	doubtful	-0.10502439
-4.283945	debts	-0.10502439
-4.283945	187	-0.10502439
-4.010452	162	-0.16288792
-3.5317295	recently	-0.12518497
-4.157543	pumping	-0.10502439
-4.010452	260	-0.51363
-3.900773	sept	-0.1427312
-4.283945	nov	-0.10502439
-4.283945	mississippi	-0.10502439
-3.900773	river	-0.20723446
-4.430429	memphis	-0.10502439
-4.430429	cairo	-0.10502439
-3.900773	137	-0.10502439
-3.3623295	bid	-0.3217876
-3.678177	145	-0.15606456
-4.283945	section	-0.10502439
-3.900773	125	-0.20951465
-4.283945	135	-0.10502439
-4.157543	comparison	-0.16288792
-3.4558809	western	-0.12979509
-3.678177	taiwan	-0.17741162
-3.7404974	holding	-0.17549734
-3.4224074	talks	-0.19104986
-3.900773	clear	-0.15068202
-3.678177	how	-0.23348932
-3.5752792	far	-0.138833
-3.7404974	washington	-0.12725344
-3.5752792	wants	-0.5082644
-4.430429	albany	-0.10502439
-4.430429	aaica	-0.10502439
-3.5317295	27	-0.19845493
-4.430429	584	-0.10502439
-4.430429	276	-0.10502439
-4.157543	97	-0.20723446
-3.900773	84	-0.13299316
-3.813283	39	-0.15606456
-4.430429	848	-0.10502439
-4.157543	290	-0.10502439
-4.430429	241	-0.10502439
-3.0975695	25	-0.39426607
-4.157543	rains	-0.10502439
-4.430429	replenished	-0.10502439
-4.283945	formerly	-0.10502439
-3.3913305	low	-0.15068202
-4.430429	soil	-0.10502439
-3.900773	moisture	-0.15068202
-3.4921515	areas	-0.15413453
-4.157543	rated	-0.10502439
-3.4921515	good	-0.10502439
-4.430429	ic	-0.10502439
-3.5752792	use	-0.19225147
-3.7404974	proceeds	-0.24574296
-4.010452	asset	-0.10502439
-3.4224074	sale	-0.4633615
-4.430429	invest	-0.16288792
-3.3623295	goods	-0.15606456
-3.5752792	services	-0.23457013
-3.7404974	feed	-0.13713989
-3.6236877	400	-0.15881886
-4.010452	460	-0.10502439
-3.5752792	85	-0.21551023
-4.430429	ttl	-0.10502439
-4.430429	domes	-0.10502439
-4.283945	485	-0.10502439
-4.283945	543	-0.10502439
-3.900773	487	-0.15068202
-4.157543	545	-0.10502439
-4.430429	stcks	-0.10502439
-3.813283	111	-0.1884405
-4.283945	184	-0.10502439
-4.430429	avgprice	-0.10502439
-4.283945	00	-0.28026783
-3.5317295	23	-0.2412898
-4.430429	bushel	-0.16288792
-4.430429	cooperative	-0.10502439
-3.900773	enterprises	-0.20723446
-4.430429	employing	-0.10502439
-3.3913305	people	-0.18191002
-3.900773	marathon	-0.10502439
-4.010452	78	-0.10502439
-4.283945	725	-0.10502439
-4.283945	451	-0.10502439
-3.7404974	98	-0.2769508
-3.7404974	deposits	-0.10502439
-3.900773	90	-0.21352543
-4.157543	warships	-0.18402584
-4.430429	protected	-0.10502439
-4.283945	kuwaiti	-0.18402584
-3.6236877	ship	-0.1234687
-4.283945	sailed	-0.10502439
-4.283945	arms	-0.10502439
-3.900773	kuwait	-0.10502439
-4.430429	neyra	-0.10502439
-3.813283	peru	-0.25538728
-3.813283	term	-0.15319097
-3.813283	including	-0.16246156
-3.678177	lines	-0.12979509
-4.283945	million	-0.10502439
-3.6236877	dollars	-0.19688252
-3.3913305	so	-0.19472058
-3.813283	working	-0.1884405
-3.1130924	capital	-0.20774929
-3.678177	credits	-0.22311184
-4.283945	adsteam	-0.10502439
-3.5752792	rights	-0.20723446
-3.7404974	raise	-0.20035341
-4.430429	adelaide	-0.10502439
-4.430429	steamship	-0.10502439
-4.430429	adsa	-0.10502439
-3.0145442	investment	-0.24282323
-3.4921515	australia	-0.19838524
-3.900773	overseas	-0.10502439
-4.157543	201	-0.16288792
-3.813283	mine	-0.13713989
-3.900773	life	-0.13713989
-3.900773	171	-0.20170969
-4.010452	covered	-0.10502439
-4.010452	dairy	-0.18402584
-4.430429	peanuts	-0.10502439
-3.2407753	sugar	-0.1492009
-3.4224074	energy	-0.16452405
-3.900773	increases	-0.15068202
-3.678177	units	-0.2240585
-3.6236877	outstanding	-0.21979102
-3.6236877	raises	-0.2741141
-4.430429	proved	-0.10502439
-4.157543	seoul	-0.10502439
-4.430429	announces	-0.10502439
-3.900773	tariff	-0.20723446
-4.157543	korea	-0.20457636
-3.5752792	import	-0.15068202
-3.900773	taxes	-0.15068202
-4.010452	items	-0.16288792
-3.7404974	construction	-0.10502439
-3.4224074	equipment	-0.2032792
-4.430429	photographic	-0.10502439
-4.430429	film	-0.10502439
-4.430429	cigarettes	-0.10502439
-4.283945	pipe	-0.10502439
-4.283945	tobacco	-0.10502439
-3.813283	help	-0.1234687
-3.3913305	surplus	-0.19903362
-3.3913305	finance	-0.29700112
-4.157543	running	-0.10502439
-4.430429	wind	-0.10502439
-4.157543	affairs	-0.10502439
-4.430429	proceeding	-0.10502439
-4.157543	quickly	-0.10502439
-3.2407753	acquisition	-0.3049832
-4.010452	substantially	-0.10502439
-4.283945	lessen	-0.10502439
-3.7404974	competition	-0.10502439
-4.157543	harm	-0.16288792
-4.430429	niskanen	-0.10502439
-4.283945	vulnerable	-0.22966352
-4.430429	resurgence	-0.22966352
-4.430429	nationalism	-0.10502439
-3.2407753	canada	-0.24418296
-3.3913305	very	-0.12979509
-3.5752792	heavy	-0.1427312
-4.430429	workload	-0.10502439
-3.0975695	due	-0.8618783
-3.5752792	number	-0.6314293
-3.900773	applications	-0.33395433
-4.010452	programs	-0.10502439
-3.813283	conservation	-0.23348932
-4.283945	hertz	-0.22966352
-4.283945	welbilt	-0.10502439
-4.430429	welb	-0.10502439
-3.900773	acquisitions	-0.10502439
-3.4224074	announced	-0.15596151
-3.6236877	manufacturing	-0.15068202
-3.6236877	food	-0.10502439
-3.813283	machinery	-0.1427312
-3.900773	engineering	-0.1427312
-4.157543	manufacturers	-0.10502439
-4.430429	automated	-0.10502439
-4.430429	bakery	-0.10502439
-4.430429	headquartered	-0.10502439
-4.157543	toronto	-0.20723446
-4.283945	trades	-0.10502439
-3.813283	post	-0.18402588
-4.010452	war	-0.10502439
-4.283945	139	-0.29178125
-3.678177	tokyo	-0.1427312
-3.900773	brokers	-0.10502439
-4.283945	linotype	-0.10502439
-4.430429	eschborn	-0.10502439
-3.678177	200	-0.31655425
-4.430429	joined	-0.10502439
-3.7404974	later	-0.10502439
-4.010452	debate	-0.16288792
-4.283945	coordination	-0.10502439
-3.813283	standard	-0.13713989
-3.7404974	poor	-0.16288792
-4.430429	weaker	-0.10502439
-4.157543	competitiveness	-0.10502439
-3.900773	face	-0.17549734
-3.813283	labour	-0.1427312
-4.010452	mean	-0.10502439
-4.430429	deteriorating	-0.10502439
-3.6236877	account	-0.28048885
-3.5317295	balance	-0.24862714
-4.283945	external	-0.22966352
-4.157543	experts	-0.10502439
-4.430429	refloat	-0.10502439
-4.157543	bodies	-0.10502439
-4.430429	trapped	-0.10502439
-4.430429	amid	-0.10502439
-4.430429	debris	-0.10502439
-4.157543	operators	-0.10502439
-4.010452	find	-0.10502439
-4.157543	hard	-0.18402584
-4.010452	either	-0.10502439
-3.5752792	way	-0.18622757
-4.430429	concerted	-0.10502439
-3.5317295	central	-0.45889118
-3.4558809	intervention	-0.17546764
-3.4224074	details	-0.2419116
-3.3351443	crop	-0.14444731
-4.430429	enrollment	-0.10502439
-4.010452	enrolled	-0.10502439
-4.010452	acres	-0.16603702
-3.900773	latest	-0.14852934
-4.430429	signup	-0.10502439
-3.1632962	four	-0.24593136
-4.157543	specialists	-0.18402584
-4.283945	deputy	-0.10502439
-3.5752792	prime	-0.4121169
-3.4558809	minister	-0.1149877
-4.430429	kim	-0.10502439
-4.430429	mahn	-0.10502439
-4.430429	je	-0.10502439
-3.7404974	local	-0.10502439
-4.157543	businessmen	-0.10502439
-4.010452	question	-0.15068202
-4.430429	revaluing	-0.10502439
-3.900773	won	-0.10502439
-4.157543	maintain	-0.20951465
-4.430429	steadfast	-0.10502439
-3.5752792	position	-0.21943104
-4.430429	newscope	-0.10502439
-3.813283	94	-0.23260085
-4.430429	319	-0.10502439
-4.283945	337	-0.10502439
-4.430429	702	-0.10502439
-4.430429	016	-0.10502439
-4.430429	899	-0.10502439
-4.430429	513	-0.10502439
-4.283945	239	-0.10502439
-4.010452	106	-0.23704433
-3.5752792	includes	-0.18906163
-3.7404974	250	-0.37775445
-4.283945	writedown	-0.41671997
-4.430429	doubly	-0.10502439
-4.430429	susceptible	-0.10502439
-4.283945	encouraged	-0.10502439
-4.283945	fertilisers	-0.10502439
-4.430429	insecticides	-0.10502439
-4.430429	treat	-0.10502439
-4.283945	pod	-0.10502439
-4.430429	rot	-0.10502439
-3.7404974	better	-0.10502439
-4.010452	sectors	-0.10502439
-4.010452	offset	-0.1884405
-3.4558809	financing	-0.13713989
-4.430429	sperry	-0.10502439
-4.283945	sharing	-0.10502439
-3.3623295	subsidiary	-0.17091721
-4.157543	honeywell	-0.10502439
-4.430429	bull	-0.10502439
-4.010452	light	-0.15068202
-3.4558809	iran	-0.28535053
-4.430429	deployment	-0.10502439
-3.813283	chinese	-0.1427312
-4.283945	built	-0.10502439
-4.010452	missiles	-0.10502439
-4.010452	cover	-0.1427312
-4.430429	entrance	-0.10502439
-4.283945	thai	-0.10502439
-4.157543	tin	-0.10502439
-3.813283	thailand	-0.13713989
-3.813283	exported	-0.1427312
-3.7404974	metal	-0.13299316
-4.430429	330	-0.16288792
-4.010452	mineral	-0.10502439
-3.813283	restructuring	-0.10502439
-4.157543	consolidation	-0.10502439
-3.3095613	brazil	-0.25391075
-3.6236877	weather	-0.12979509
-4.430429	summary	-0.10502439
-4.430429	noaa	-0.10502439
-4.157543	wet	-0.10502439
-4.283945	rio	-0.10502439
-4.430429	grande	-0.10502439
-4.430429	sul	-0.10502439
-4.283945	benefitting	-0.10502439
-4.010452	mostly	-0.10502439
-4.010452	setting	-0.10502439
-4.430429	filling	-0.10502439
-4.430429	pods	-0.10502439
-3.7404974	joint	-0.26294705
-3.678177	agricultural	-0.10502439
-3.7404974	facility	-0.10502439
-3.6236877	commerce	-0.16288792
-4.430429	departments	-0.10502439
-3.7404974	usair	-0.12979509
-3.813283	closed	-0.10502439
-3.7404974	volume	-0.31337923
-4.157543	z	-0.3450399
-3.3913305	fund	-0.16967219
-4.157543	earn	-0.10502439
-4.430429	comprised	-0.10502439
-3.7404974	41	-0.2044633
-3.3623295	crude	-0.43897367
-4.283945	sunflowerseed	-0.10502439
-3.900773	bulk	-0.10502439
-4.283945	ranging	-0.29178125
-4.283945	344	-0.10502439
-4.283945	348	-0.10502439
-4.283945	refined	-0.10502439
-4.430429	drums	-0.10502439
-4.430429	517	-0.10502439
-4.430429	522	-0.10502439
-3.813283	tonne	-0.14955306
-4.157543	freight	-0.1884405
-4.430429	alexandria	-0.10502439
-4.430429	delivered	-0.10502439
-4.010452	quality	-0.10502439
-3.7404974	base	-0.20865817
-4.157543	1980	-0.1884405
-3.900773	stood	-0.20723446
-4.283945	116	-0.10502439
-3.5752792	november	-0.14632718
-3.3095613	firm	-0.19324914
-4.157543	tvx	-0.10502439
-4.430429	tvxg	-0.10502439
-3.1814091	stake	-0.47782367
-4.430429	wedge	-0.10502439
-3.813283	houston	-0.1427312
-3.5752792	raised	-0.32074195
-4.283945	broadcast	-0.10502439
-4.283945	682	-0.10502439
-4.430429	419	-0.10502439
-4.283945	559	-0.10502439
-4.010452	crazy	-0.41671997
-4.430429	eddie	-0.16288792
-3.1814091	agreed	-0.5383333
-4.283945	oppose	-0.10502439
-4.430429	slate	-0.10502439
-4.283945	candidates	-0.10502439
-3.678177	committee	-0.12078537
-4.430429	restore	-0.10502439
-4.430429	stockholder	-0.10502439
-3.6236877	value	-0.29529524
-4.430429	oppenheimer	-0.10502439
-4.430429	palmieri	-0.10502439
-4.157543	p	-0.2844908
-4.283945	.>	-0.10502439
-4.157543	entertainment	-0.15068202
-4.430429	em	-0.10502439
-3.1291907	>,	-0.27560496
-4.430429	oust	-0.10502439
-4.283945	brennan	-0.22966352
-3.5317295	payment	-0.21943104
-4.430429	moratorium	-0.10502439
-4.283945	campbell	-0.29178125
-4.010452	taft	-0.17549734
-4.283945	narragansett	-0.10502439
-4.430429	requsted	-0.10502439
-3.813283	response	-0.6543925
-4.010452	creditors	-0.10502439
-3.900773	brought	-0.10502439
-4.157543	actions	-0.10502439
-3.678177	council	-0.19966087
-4.157543	application	-0.16288792
-4.010452	governments	-0.10502439
-4.283945	strike	-0.10502439
-3.1291907	out	-0.2696305
-3.900773	j	-0.41313562
-4.010452	h	-0.41671997
-4.430429	writeoff	-0.10502439
-3.678177	resulted	-0.41671997
-3.4224074	43	-0.3845515
-3.6236877	shearson	-0.33039933
-4.430429	lehman	-0.23457013
-3.678177	growing	-0.10502439
-3.813283	described	-0.18402584
-3.4224074	analysts	-0.50641507
-3.813283	top	-0.12725344
-4.010452	brokerage	-0.10502439
-3.7404974	give	-0.10502439
-4.283945	nippon	-0.22966352
-4.430429	ringside	-0.10502439
-4.430429	commissions	-0.10502439
-3.813283	wall	-0.65975803
-4.283945	street	-0.10502439
-3.900773	where	-0.12979509
-4.430429	invests	-0.10502439
-3.678177	increasing	-0.15068202
-4.430429	topic	-0.10502439
-3.813283	continued	-0.10502439
-4.157543	slide	-0.10502439
-4.283945	lebanese	-0.10502439
-4.010452	pound	-0.10502439
-4.430429	undermining	-0.10502439
-3.813283	effective	-0.13713989
-4.430429	danish	-0.10502439
-4.283945	downgrading	-0.10502439
-4.157543	dramatic	-0.10502439
-4.430429	palle	-0.10502439
-4.430429	simonsen	-0.10502439
-4.157543	denmark	-0.16288792
-4.430429	rating	-0.10502439
-4.430429	dramatised	-0.10502439
-4.010452	cited	-0.10502439
-4.430429	recheduling	-0.10502439
-3.6236877	improved	-0.12202175
-4.430429	perceptions	-0.10502439
-3.5317295	economy	-0.17777644
-4.157543	congressional	-0.10502439
-4.430429	panels	-0.10502439
-4.430429	portions	-0.10502439
-4.430429	wideranging	-0.10502439
-3.5752792	bill	-0.15842506
-4.283945	intends	-0.10502439
-3.0975695	companies	-0.15800667
-4.283945	fight	-0.10502439
-4.010452	unfair	-0.10502439
-4.010452	practices	-0.16288792
-3.813283	owns	-0.10502439
-4.283945	cvn	-0.10502439
-4.157543	name	-0.17544685
-3.4921515	decision	-0.2356188
-4.430429	ordnance	-0.10502439
-4.283945	defence	-0.10502439
-3.4558809	secretary	-0.28456634
-4.283945	george	-0.10502439
-4.430429	younger	-0.10502439
-4.283945	announce	-0.10502439
-3.3623295	state	-0.20506139
-4.430429	parliamentary	-0.10502439
-4.283945	venture	-0.10502439
-4.157543	merchant	-0.18402584
-3.5317295	china	-0.19078857
-4.430429	ibjt	-0.10502439
-4.157543	t	-0.20660298
-4.283945	town	-0.10502439
-4.430429	jewelry	-0.10502439
-4.430429	wasn	-0.10502439
-3.7404974	wednesday	-0.23272143
-4.283945	turned	-0.10502439
-4.430429	avalanche	-0.10502439
-4.430429	expatriate	-0.10502439
-4.157543	workforce	-0.10502439
-4.157543	fallen	-0.1427312
-4.430429	citgo	-0.10502439
-4.157543	postings	-0.19838524
-4.283945	wti	-0.26585865
-4.283945	bbl	-0.33996588
-4.283945	ors	-0.10502439
-3.900773	seeks	-0.10502439
-3.4921515	funds	-0.1967555
-4.157543	dominion	-0.10502439
-3.3623295	securities	-0.25597492
-4.430429	alberta	-0.10502439
-4.430429	appointed	-0.10502439
-4.430429	canadaina	-0.10502439
-4.283945	organized	-0.10502439
-4.430429	exploit	-0.10502439
-3.900773	opportunities	-0.15068202
-3.900773	europe	-0.13299316
-3.678177	estimates	-0.10502439
-3.678177	put	-0.12979509
-3.3623295	european	-0.44282648
-3.900773	1990	-0.1884405
-3.813283	ecus	-0.24953777
-4.430429	kistler	-0.10502439
-3.7404974	result	-0.4908306
-4.430429	fhl	-0.10502439
-3.7404974	sets	-0.17552984
-3.900773	offering	-0.17182136
-3.6236877	home	-0.14632718
-3.1459088	set	-0.27342018
-3.7404974	70	-0.20538506
-4.430429	065	-0.10502439
-3.678177	65	-0.37775445
-4.157543	375	-0.18402584
-4.283945	lipc	-0.10502439
-3.678177	beef	-0.10502439
-4.283945	livestock	-0.10502439
-4.283945	promotion	-0.10502439
-4.283945	515	-0.23704433
-3.5752792	fiscal	-0.43581098
-3.7404974	started	-0.13713989
-4.430429	simultaneous	-0.10502439
-4.430429	813	-0.10502439
-4.157543	smaller	-0.10502439
-4.157543	seasonal	-0.10502439
-4.157543	decrease	-0.10502439
-4.010452	particularly	-0.1427312
-4.010452	cold	-0.1884405
-4.430429	delaying	-0.10502439
-3.7404974	work	-0.10502439
-4.283945	morgan	-0.10502439
-4.283945	stanley	-0.10502439
-4.430429	salomon	-0.10502439
-4.283945	brothers	-0.41671997
-4.430429	hired	-0.10502439
-4.430429	1983	-0.10502439
-4.430429	advise	-0.10502439
-3.813283	southern	-0.1427312
-4.283945	santa	-0.10502439
-4.430429	fe	-0.10502439
-4.430429	appraised	-0.10502439
-3.4558809	worth	-0.12202175
-3.813283	800	-0.24342032
-4.010452	internal	-0.10502439
-4.430429	valuations	-0.10502439
-4.430429	acmex	-0.10502439
-4.283945	presently	-0.10502439
-4.157543	entitled	-0.33395433
-4.430429	cheetham	-0.10502439
-3.6236877	issued	-0.12979509
-3.4558809	discount	-0.34309664
-4.430429	mcgroarty	-0.10502439
-4.430429	impressive	-0.10502439
-4.430429	".	-0.10502439
-3.678177	french	-0.13999878
-3.813283	repayment	-0.28641573
-3.3095613	19	-0.35793424
-3.6236877	following	-0.17086963
-4.430429	contracted	-0.10502439
-4.010452	cooperation	-0.10502439
-4.157543	weekly	-0.15068202
-3.3913305	data	-0.20035341
-4.283945	massive	-0.10502439
-4.430429	docks	-0.10502439
-4.157543	handle	-0.16288792
-3.5752792	ships	-0.17182136
-4.283945	tankers	-0.10502439
-4.283945	load	-0.10502439
-4.430429	unload	-0.10502439
-4.157543	harbour	-0.10502439
-4.283945	addition	-0.20170969
-4.430429	streamlining	-0.10502439
-4.430429	efficiency	-0.10502439
-3.678177	division	-0.13299316
-4.430429	exert	-0.10502439
-4.430429	branching	-0.10502439
-4.430429	estate	-0.16603702
-4.157543	travel	-0.10502439
-4.283945	agencies	-0.10502439
-4.157543	philippines	-0.10502439
-4.430429	540	-0.10502439
-4.157543	coconut	-0.29178125
-4.430429	959	-0.10502439
-4.430429	physio	-0.10502439
-4.283945	changing	-0.10502439
-3.5752792	force	-0.14852934
-3.813283	independent	-0.10502439
-3.813283	representatives	-0.1427312
-3.7404974	employees	-0.13713989
-4.010452	significantly	-0.10502439
-3.3913305	fixed	-0.15231211
-4.283945	overhead	-0.10502439
-3.900773	enable	-0.15881886
-4.430429	accelerate	-0.10502439
-3.0975695	earnings	-0.22978248
-3.7404974	ending	-0.12725344
-4.010452	twa	-0.10502439
-3.813283	however	-0.8884757
-4.430429	discussing	-0.10502439
-3.6236877	among	-0.17803833
-4.283945	piedmont	-0.10502439
-4.430429	suna	-0.10502439
-4.430429	monitored	-0.10502439
-4.283945	broadcasting	-0.16288792
-3.7404974	corporation	-0.28464183
-4.430429	omer	-0.10502439
-3.900773	remarks	-0.1427312
-4.430429	khartoum	-0.10502439
-4.283945	imf	-0.10502439
-4.430429	envoy	-0.10502439
-4.430429	abdel	-0.10502439
-4.430429	shakour	-0.10502439
-4.430429	shaalan	-0.10502439
-4.010452	suspended	-0.16288792
-4.430429	owed	-0.10502439
-4.430429	credibility	-0.10502439
-3.3623295	opec	-0.13425107
-3.900773	come	-0.13713989
-4.283945	fresh	-0.10502439
-4.283945	scrutiny	-0.10502439
-3.900773	monday	-0.17803833
-3.7404974	activity	-0.13713989
-3.1459088	markets	-0.23733817
-3.2407753	through	-0.17246948
-3.900773	clark	-0.15068202
-4.430429	copy	-0.10502439
-3.813283	majority	-0.16603702
-4.430429	interactive	-0.10502439
-3.4921515	computer	-0.1492009
-4.430429	aids	-0.10502439
-4.283945	norway	-0.10502439
-3.4921515	i	-0.30252942
-3.813283	dome	-0.1884405
-4.430429	bothersome	-0.10502439
-4.010452	reflects	-0.16288792
-3.678177	split	-0.24342032
-4.157543	sports	-0.10502439
-4.283945	edward	-0.10502439
-3.7404974	c	-0.35950884
-4.430429	horowitz	-0.10502439
-4.157543	mike	-0.10502439
-4.430429	warren	-0.10502439
-4.430429	typical	-0.10502439
-4.430429	salaried	-0.10502439
-4.430429	employee	-0.10502439
-4.283945	reflecting	-0.10502439
-4.283945	pointing	-0.10502439
-4.157543	buoyant	-0.10502439
-3.813283	released	-0.13713989
-4.010452	lawson	-0.1427312
-3.813283	done	-0.10502439
-4.010452	resist	-0.16288792
-4.157543	pressures	-0.18402584
-3.3351443	income	-0.18528262
-4.283945	expense	-0.10502439
-4.157543	borrowing	-0.10502439
-4.157543	listed	-0.18402584
-4.430429	zurich	-0.10502439
-4.430429	basle	-0.10502439
-4.283945	geneva	-0.10502439
-4.157543	exchanges	-0.10502439
-4.430429	amsterdam	-0.10502439
-4.430429	aims	-0.10502439
-3.678177	quoted	-0.18622757
-4.430429	frankfurt	-0.10502439
-4.430429	dusseldorf	-0.10502439
-4.157543	van	-0.18402584
-4.430429	driel	-0.10502439
-4.430429	idled	-0.10502439
-3.6236877	92	-0.23249736
-3.900773	acreage	-0.10502439
-4.430429	prompting	-0.10502439
-3.813283	idle	-0.1427312
-4.283945	cropland	-0.10502439
-4.157543	according	-0.960788
-4.283945	dynalectron	-0.10502439
-4.430429	dyn	-0.10502439
-3.900773	buys	-0.13299316
-4.430429	aviation	-0.10502439
-3.813283	purchased	-0.12518497
-3.3913305	certain	-0.12979509
-4.430429	aero	-0.10502439
-4.430429	leasehold	-0.10502439
-4.157543	aircraft	-0.10502439
-4.430429	modification	-0.10502439
-4.010452	maintenance	-0.10502439
-4.430429	phoenix	-0.10502439
-4.430429	ariz	-0.10502439
-3.1814091	grain	-0.12888566
-4.157543	loading	-0.10502439
-4.283945	portland	-0.10502439
-4.430429	waiting	-0.10502439
-4.157543	merchants	-0.10502439
-3.900773	provisions	-0.15068202
-3.900773	risk	-0.15068202
-4.157543	borrowers	-0.10502439
-3.813283	provision	-0.1427312
-4.430429	pension	-0.10502439
-4.010452	obligations	-0.10502439
-3.813283	attack	-0.25538728
-4.430429	dilemmas	-0.10502439
-4.010452	military	-0.10502439
-3.3623295	say	-0.23795451
-4.283945	faces	-0.10502439
-4.430429	dilemma	-0.10502439
-4.430429	destruction	-0.10502439
-3.678177	iranian	-0.138833
-4.283945	platform	-0.10502439
-3.7404974	retaliation	-0.24953777
-4.430429	flagged	-0.10502439
-4.283945	tanker	-0.10502439
-4.157543	roughly	-0.10502439
-3.900773	equal	-0.15068202
-3.900773	originally	-0.10502439
-4.430429	invested	-0.10502439
-4.430429	coasts	-0.10502439
-3.4921515	late	-0.16072896
-4.283945	though	-0.10502439
-4.283945	retain	-0.10502439
-3.813283	...	-0.1884405
-4.430429	expediency	-0.10502439
-4.430429	sinclair	-0.10502439
-4.283945	mize	-0.22966352
-4.283945	dna	-0.10502439
-4.283945	become	-0.10502439
-3.3095613	chairman	-0.26537848
-4.283945	expand	-0.10502439
-4.157543	provide	-0.10502439
-4.157543	him	-0.16288792
-4.157543	representation	-0.10502439
-4.283945	upper	-0.10502439
-4.430429	strikers	-0.10502439
-4.430429	returned	-0.10502439
-4.283945	night	-0.1884405
-3.6236877	port	-0.16006683
-4.010452	authorities	-0.10502439
-3.813283	workers	-0.10502439
-3.5752792	without	-0.12518497
-3.900773	giving	-0.13713989
-4.430429	wim	-0.10502439
-4.430429	duisenberg	-0.10502439
-4.430429	defended	-0.10502439
-4.010452	saying	-0.17803833
-3.3913305	most	-0.15165928
-4.157543	noting	-0.16288792
-4.283945	moment	-0.10502439
-3.900773	important	-0.10502439
-3.900773	equivalent	-0.23457013
-4.430429	06	-0.3450399
-4.010452	provisional	-0.13299316
-3.5317295	show	-0.14647408
-4.283945	jack	-0.10502439
-3.900773	winter	-0.1884405
-4.430429	jwi	-0.10502439
-4.430429	410	-0.10502439
-4.283945	245	-0.22966352
-4.430429	748	-0.10502439
-4.430429	571	-0.22966352
-3.5317295	46	-0.52850914
-4.283945	reacting	-0.10502439
-4.430429	irish	-0.10502439
-3.900773	continues	-0.26585865
-4.430429	brewery	-0.10502439
-4.010452	side	-0.10502439
-4.283945	guinness	-0.10502439
-4.430429	galactic	-0.10502439
-4.430429	galcf	-0.10502439
-3.6236877	given	-0.13299316
-4.430429	rivet	-0.10502439
-4.283945	machine	-0.10502439
-4.430429	cvr	-0.10502439
-3.3351443	60	-0.25534192
-4.283945	156	-0.22966352
-4.430429	576	-0.10502439
-4.430429	443	-0.10502439
-4.430429	404	-0.10502439
-4.430429	309	-0.22966352
-4.430429	519	-0.10502439
-4.283945	381	-0.22966352
-4.283945	264	-0.10502439
-4.430429	788	-0.10502439
-4.430429	220	-0.10502439
-4.283945	151	-0.10502439
-4.157543	big	-0.10502439
-4.430429	taikoo	-0.10502439
-4.430429	shing	-0.10502439
-4.430429	iggi	-0.10502439
-3.900773	groups	-0.10502439
-4.283945	industrialised	-0.10502439
-4.283945	donor	-0.10502439
-3.2200718	countries	-0.2419116
-3.7404974	gave	-0.3684274
-3.4921515	indonesia	-0.16078907
-4.010452	soft	-0.20723446
-4.283945	grants	-0.10502439
-3.5317295	changes	-0.18631789
-3.7404974	lead	-0.31337923
-4.430429	pickup	-0.10502439
-4.283945	pik	-0.10502439
-4.283945	roll	-0.10502439
-4.283945	klopfenstein	-0.22966352
-4.283945	likelihood	-0.18402584
-4.430429	provisiion	-0.10502439
-3.678177	cause	-0.15312949
-4.430429	acreages	-0.10502439
-4.430429	removed	-0.10502439
-4.283945	quite	-0.10502439
-3.6236877	small	-0.12725344
-4.430429	conditional	-0.10502439
-4.157543	upon	-0.10502439
-4.430429	examination	-0.10502439
-4.430429	gordon	-0.10502439
-4.430429	pagecorp	-0.10502439
-3.900773	revenue	-0.20170969
-4.430429	bilateral	-0.10502439
-3.7404974	negotiations	-0.16603702
-3.5317295	must	-0.14473277
-4.430429	concluded	-0.10502439
-4.430429	least	-0.12518497
-4.430429	progressing	-0.10502439
-4.157543	yeutter	-0.1884405
-4.283945	difficulties	-0.10502439
-4.430429	clayton	-0.29178125
-4.430429	unsure	-0.10502439
-3.5317295	whether	-0.18034084
-4.430429	straining	-0.10502439
-4.010452	relations	-0.16288792
-4.157543	really	-0.10502439
-3.3351443	strong	-0.1356274
-4.430429	rationale	-0.10502439
-3.5752792	need	-0.18622757
-3.813283	gatt	-0.13713989
-3.900773	round	-0.15068202
-4.157543	nation	-0.10502439
-4.430429	verification	-0.10502439
-4.430429	papua	-0.10502439
-4.283945	guinea	-0.10502439
-4.157543	combined	-0.10502439
-4.010452	barley	-0.16288792
-4.430429	02	-0.16288792
-3.2407753	period	-0.3963226
-4.430429	welch	-0.10502439
-4.283945	doesn	-0.22966352
-4.157543	exposure	-0.10502439
-3.7404974	defense	-0.10502439
-3.5317295	analyst	-0.13971162
-4.283945	heard	-0.10502439
-4.157543	rumors	-0.10502439
-4.430429	doubted	-0.10502439
-4.430429	accuracy	-0.10502439
-4.430429	marcom	-0.10502439
-3.900773	telecommunications	-0.10502439
-4.283945	kay	-0.10502439
-4.430429	pursuing	-0.10502439
-4.283945	placement	-0.10502439
-4.010452	corporate	-0.10502439
-4.430429	purposes	-0.10502439
-3.6236877	treasury	-0.29700112
-3.678177	baker	-0.21979102
-3.4558809	within	-0.26707283
-4.430429	ranges	-0.10502439
-3.813283	reflect	-0.10502439
-4.283945	fundamentals	-0.10502439
-4.157543	wanted	-0.33395433
-4.157543	lending	-0.10502439
-4.157543	appropriate	-0.10502439
-4.430429	ultimately	-0.10502439
-4.430429	fnb	-0.10502439
-3.5317295	1st	-0.7963523
-4.283945	wholly	-0.26585865
-4.430429	decide	-0.10502439
-4.283945	follow	-0.10502439
-4.430429	throw	-0.10502439
-4.430429	dunn	-0.10502439
-4.157543	ease	-0.10502439
-4.010452	easier	-0.16288792
-4.157543	begun	-0.10502439
-4.430429	quick	-0.10502439
-4.157543	dealer	-0.23704433
-4.283945	intervened	-0.10502439
-4.430429	opening	-0.10502439
-3.3913305	here	-0.18191002
-4.430429	confirm	-0.10502439
-4.430429	telexed	-0.10502439
-4.430429	insisted	-0.10502439
-4.430429	cancel	-0.10502439
-4.430429	elsewhere	-0.10502439
-4.430429	santana	-0.10502439
-3.900773	times	-0.10502439
-4.430429	exploiting	-0.10502439
-4.157543	profitable	-0.10502439
-4.010452	best	-0.10502439
-4.430429	partner	-0.10502439
-4.010452	jobless	-0.10502439
-4.283945	699	-0.10502439
-4.430429	671	-0.10502439
-4.430429	rainier	-0.10502439
-4.283945	merge	-0.33039933
-4.010452	security	-0.10502439
-4.430429	spc	-0.10502439
-4.010452	lowered	-0.15068202
-3.5752792	special	-0.13129717
-4.157543	advances	-0.10502439
-3.5752792	repurchase	-0.2669724
-4.430429	cathay	-0.10502439
-4.430429	airways	-0.10502439
-4.430429	caph	-0.10502439
-4.283945	hk	-0.10502439
-4.283945	toledo	-0.10502439
-4.430429	elevators	-0.10502439
-4.430429	finishing	-0.10502439
-4.283945	boats	-0.10502439
-3.5317295	shipping	-0.12518497
-4.430429	supporting	-0.10502439
-3.813283	spot	-0.10502439
-4.010452	terminal	-0.10502439
-3.900773	points	-0.15068202
-3.3623295	long	-0.27553016
-4.283945	secondary	-0.10502439
-4.010452	debentures	-0.15068202
-3.7404974	bankers	-0.17803833
-4.430429	kubota	-0.10502439
-4.430429	kub	-0.10502439
-3.6236877	58	-0.26391536
-4.430429	248	-0.10502439
-4.430429	789	-0.10502439
-4.430429	127	-0.10502439
-4.010452	130	-0.20723446
-3.900773	134	-0.15068202
-3.813283	119	-0.23457013
-4.430429	446	-0.10502439
-3.813283	extended	-0.13713989
-3.6236877	tomorrow	-0.15068202
-4.430429	breakthrough	-0.10502439
-3.900773	session	-0.23457013
-4.010452	genova	-0.16288792
-4.430429	gnva	-0.10502439
-3.5317295	approved	-0.30161786
-4.430429	consumated	-0.10502439
-3.900773	few	-0.13299316
-4.430429	bradford	-0.10502439
-4.430429	recommending	-0.10502439
-4.157543	usx	-0.16288792
-4.430429	gabelli	-0.10502439
-4.157543	filing	-0.16288792
-3.7404974	commission	-0.21229398
-4.430429	digiorgio	-0.10502439
-4.430429	gamco	-0.10502439
-4.010452	seek	-0.17182136
-3.678177	control	-0.15312949
-4.430429	stone	-0.10502439
-3.813283	available	-0.17549734
-3.4921515	just	-0.17552984
-3.678177	enough	-0.33039933
-4.157543	prompt	-0.10502439
-4.430429	pig	-0.10502439
-3.678177	170	-0.23348932
-4.157543	versus	-0.10502439
-4.430429	poultry	-0.10502439
-4.283945	287	-0.10502439
-3.900773	256	-0.20723446
-4.010452	rejects	-0.15068202
-4.010452	buyout	-0.20170969
-4.430429	theta	-0.22966352
-4.430429	faygo	-0.10502439
-4.157543	excess	-0.23704433
-4.283945	beverage	-0.10502439
-4.430429	federated	-0.10502439
-4.157543	ask	-0.10502439
-4.283945	approve	-0.1884405
-4.010452	authorized	-0.23457013
-4.283945	shoe	-0.10502439
-4.283945	irna	-0.10502439
-3.6236877	received	-0.15589528
-4.430429	nicosia	-0.10502439
-4.283945	informed	-0.10502439
-3.7404974	source	-0.25538728
-4.283945	identified	-0.10502439
-4.157543	platforms	-0.10502439
-4.430429	resalat	-0.10502439
-4.430429	reshadat	-0.10502439
-3.900773	miles	-0.15068202
-4.430429	lavan	-0.10502439
-3.813283	island	-0.1884405
-3.900773	storage	-0.13713989
-4.157543	site	-0.10502439
-4.430429	infinitesimal	-0.10502439
-4.430429	magnitude	-0.10502439
-4.430429	collander	-0.10502439
-4.430429	touche	-0.10502439
-4.283945	ross	-0.10502439
-4.430429	cti	-0.10502439
-4.430429	rabbit	-0.10502439
-4.430429	intermedics	-0.10502439
-4.430429	itm	-0.10502439
-3.5317295	oper	-0.9460447
-4.283945	877	-0.22966352
-4.283945	838	-0.22966352
-3.813283	44	-0.13299316
-3.900773	excludes	-0.26958945
-4.430429	carryforward	-0.16288792
-4.283945	694	-0.22966352
-4.283945	ends	-0.10502439
-3.4558809	firms	-0.13713989
-4.283945	becoming	-0.10502439
-4.283945	aggressive	-0.10502439
-4.283945	sort	-0.22966352
-4.430429	sum	-0.10502439
-4.283945	unilever	-0.10502439
-4.157543	hoped	-0.18402584
-4.430429	realise	-0.10502439
-4.010452	operation	-0.15068202
-4.283945	beyond	-0.10502439
-4.430429	chesebrough	-0.10502439
-4.430429	stauffer	-0.10502439
-4.010452	chemical	-0.16288792
-4.430429	operates	-0.10502439
-3.900773	outside	-0.10502439
-4.157543	core	-0.18402584
-3.678177	totalled	-0.13299316
-3.5317295	eight	-0.19442175
-4.430429	metric	-0.10502439
-4.283945	cra	-0.10502439
-3.900773	cents	-0.1884405
-4.430429	craa	-0.10502439
-3.7404974	making	-0.11971665
-4.430429	forthe	-0.10502439
-4.283945	donald	-0.10502439
-4.157543	prepared	-0.16288792
-4.430429	york	-0.16233149
-4.430429	household	-0.10502439
-4.430429	excellent	-0.10502439
-3.7404974	equity	-0.12725344
-4.010452	santos	-0.10502439
-4.430429	alvite	-0.10502439
-3.5752792	cargo	-0.12725344
-4.157543	leave	-0.18402584
-4.430429	maracaibo	-0.10502439
-4.157543	weekend	-0.10502439
-4.430429	refineries	-0.10502439
-4.430429	guayaquil	-0.10502439
-4.157543	approach	-0.10502439
-3.678177	needed	-0.16603702
-4.430429	revival	-0.10502439
-4.157543	postponed	-0.10502439
-4.430429	explosive	-0.10502439
-4.430429	fabricators	-0.10502439
-4.430429	724	-0.10502439
-4.283945	329	-0.10502439
-4.430429	556	-0.10502439
-4.283945	504	-0.10502439
-3.4558809	commercial	-0.14505461
-3.900773	paper	-0.10502439
-4.157543	falls	-0.10502439
-4.010452	shift	-0.16288792
-4.010452	strategy	-0.10502439
-3.813283	designed	-0.4800824
-4.430429	appease	-0.10502439
-4.283945	mounting	-0.10502439
-3.813283	policies	-0.17182136
-4.010452	comes	-0.16288792
-4.430429	reconvene	-0.10502439
-3.7404974	review	-0.13299316
-4.430429	stabilize	-0.10502439
-4.430429	stiff	-0.10502439
-4.157543	rally	-0.10502439
-4.010452	bring	-0.17549734
-3.900773	bonds	-0.10502439
-4.430429	quinn	-0.10502439
-3.5317295	economists	-0.48799396
-3.4224074	gains	-0.20538506
-4.010452	outlook	-0.28641573
-4.157543	ems	-0.10502439
-4.430429	transferred	-0.10502439
-4.430429	autonomous	-0.10502439
-4.430429	geodynamics	-0.10502439
-4.430429	gdyn	-0.10502439
-4.430429	596	-0.10502439
-4.157543	594	-0.29178125
-4.430429	693	-0.10502439
-4.430429	164	-0.10502439
-3.813283	61	-0.18696395
-4.283945	784	-0.22966352
-4.430429	653	-0.10502439
-4.283945	strength	-0.10502439
-4.010452	allowed	-0.22966352
-4.283945	asian	-0.10502439
-4.430429	neighbours	-0.10502439
-4.283945	traditional	-0.10502439
-4.283945	frozen	-0.10502439
-4.283945	completion	-0.22966352
-3.813283	subject	-1.01878
-4.283945	regulatory	-0.22966352
-4.430429	approvals	-0.10502439
-4.157543	refinery	-0.10502439
-3.5317295	capacity	-0.14632718
-4.430429	overhaul	-0.10502439
-4.430429	interstate	-0.10502439
-4.283945	skewed	-0.10502439
-3.678177	soviet	-0.43502527
-3.5752792	union	-0.10502443
-4.283945	difference	-0.10502439
-4.283945	premium	-0.10502439
-4.283945	interior	-0.10502439
-3.4224074	levels	-0.20009108
-4.430429	872	-0.10502439
-3.900773	came	-0.10502439
-4.430429	completions	-0.10502439
-4.430429	765	-0.10502439
-4.283945	accounts	-0.10502439
-4.430429	ethiopian	-0.10502439
-3.4558809	despite	-0.26391536
-4.283945	rules	-0.10502439
-4.283945	forthcoming	-0.10502439
-4.283945	believes	-0.10502439
-4.157543	stabilise	-0.10502439
-4.283945	pentron	-0.22966352
-4.430429	pen	-0.10502439
-4.283945	ice	-0.22966352
-4.430429	creations	-0.10502439
-4.430429	rotational	-0.10502439
-4.430429	molding	-0.10502439
-4.010452	privately	-0.16288792
-4.157543	undisclosed	-0.20723446
-4.283945	considerations	-0.10502439
-4.010452	cargoes	-0.10502439
-4.157543	often	-0.10502439
-4.430429	resold	-0.10502439
-4.430429	shipowners	-0.10502439
-4.157543	know	-0.10502439
-4.157543	start	-0.28464183
-4.430429	voyage	-0.10502439
-3.678177	al	-0.71774995
-4.430429	rai	-0.10502439
-4.430429	aam	-0.10502439
-3.900773	newspaper	-0.16288792
-4.157543	ceiling	-0.18402584
-4.283945	consumers	-0.10502439
-4.430429	drawing	-0.10502439
-4.430429	cuba	-0.10502439
-4.430429	cuban	-0.10502439
-4.283945	suggest	-0.22966352
-4.430429	ericsson	-0.10502439
-4.430429	ericy	-0.10502439
-4.283945	rest	-0.31337923
-4.010452	spanish	-0.10502439
-4.283945	banker	-0.10502439
-4.157543	speculated	-0.10502439
-4.430429	bolivia	-0.10502439
-3.4921515	might	-0.28322792
-3.678177	back	-0.21718955
-4.157543	written	-0.10502439
-4.430429	mim	-0.10502439
-3.813283	copper	-0.1427312
-4.283945	mount	-0.10502439
-4.430429	isa	-0.10502439
-3.900773	mines	-0.15068202
-3.678177	primary	-0.14768338
-4.430429	norddeutsche	-0.10502439
-4.430429	affinerie	-0.10502439
-3.7404974	ag	-0.16603702
-4.430429	metallgesellschaft	-0.10502439
-4.430429	sparks	-0.10502439
-3.678177	does	-0.4516819
-3.678177	pressure	-0.17544685
-4.283945	bearish	-0.10502439
-4.283945	positions	-0.10502439
-3.5752792	daily	-0.12518497
-4.430429	peasant	-0.10502439
-4.430429	ortheast	-0.10502439
-4.010452	province	-0.10502439
-4.430429	heilongjiang	-0.10502439
-3.900773	108	-0.15068202
-4.283945	yuan	-0.22966352
-4.430429	mu	-0.18402584
-4.430429	0667	-0.10502439
-4.283945	hectares	-0.10502439
-4.157543	112	-0.10502439
-4.430429	sugarbeet	-0.10502439
-4.430429	columbia	-0.10502439
-4.430429	ferc	-0.10502439
-4.430429	rleated	-0.10502439
-3.900773	liabilities	-0.15068202
-4.010452	laws	-0.10502439
-4.430429	gone	-0.10502439
-4.157543	confidence	-0.18402584
-4.283945	commented	-0.10502439
-4.157543	saw	-0.10502439
-3.900773	having	-0.10502439
-4.283945	marginal	-0.10502439
-4.010452	influence	-0.17549734
-4.283945	fundamental	-0.10502439
-3.6236877	problems	-0.15068202
-4.283945	detail	-0.10502439
-3.900773	settlement	-0.1427312
-4.283945	explaining	-0.10502439
-4.430429	favour	-0.10502439
-3.900773	legal	-0.10502439
-4.430429	answer	-0.10502439
-4.430429	unresolved	-0.10502439
-4.430429	disputes	-0.10502439
-3.6236877	court	-0.12518497
-4.430429	hearings	-0.10502439
-4.430429	expiry	-0.10502439
-3.3913305	ec	-0.22481768
-4.283945	series	-0.23704433
-3.813283	white	-0.3688083
-4.430429	rebates	-0.20723446
-3.900773	maximum	-0.10502439
-4.430429	496	-0.10502439
-4.010452	kilos	-0.23333825
-3.900773	community	-0.26503977
-3.813283	payable	-0.28819686
-3.3095613	officials	-0.43364596
-4.430429	amounting	-0.10502439
-4.283945	805	-0.10502439
-4.157543	launched	-0.10502439
-4.283945	att	-0.10502439
-4.283945	cgct	-0.10502439
-4.430429	abandoned	-0.10502439
-4.283945	introduction	-0.10502439
-4.430429	privatisation	-0.10502439
-4.430429	reopened	-0.10502439
-4.283945	bidding	-0.10502439
-4.430429	wider	-0.10502439
-4.430429	applicants	-0.10502439
-4.283945	declining	-0.10502439
-4.430429	compound	-0.10502439
-4.430429	coarse	-0.10502439
-4.283945	355	-0.10502439
-4.157543	cif	-0.10502439
-4.283945	358	-0.10502439
-4.283945	bellies	-0.10502439
-4.157543	neutral	-0.10502439
-3.7404974	negative	-0.13299316
-4.157543	mercantile	-0.10502439
-4.157543	floor	-0.10502439
-4.157543	immediate	-0.10502439
-4.010452	reaction	-0.33395433
-3.813283	pork	-0.1427312
-4.430429	slightly	-0.10502439
-4.283945	amvestors	-0.22966352
-4.430429	avfc	-0.10502439
-3.900773	holders	-0.31337923
-4.010452	legislation	-0.16288792
-3.7404974	natural	-0.6349843
-4.430429	lousiana	-0.10502439
-4.283945	democrat	-0.10502439
-4.283945	agree	-0.10502439
-4.430429	demands	-0.10502439
-4.010452	benefits	-0.10502439
-4.157543	institutes	-0.10502439
-4.157543	believed	-0.18402584
-4.283945	dynamic	-0.10502439
-4.157543	jobs	-0.10502439
-4.283945	created	-0.10502439
-4.283945	origins	-0.10502439
-4.010452	cooper	-0.16288792
-4.157543	basin	-0.18402584
-4.283945	api	-0.23704433
-4.430429	distillate	-0.29178125
-3.5752792	52	-0.18622757
-4.430429	bbls	-0.29178125
-3.7404974	gasoline	-0.14852934
-4.430429	arisen	-0.10502439
-4.430429	quantity	-0.10502439
-4.283945	320	-0.10502439
-3.813283	predicted	-0.10502439
-4.430429	dismal	-0.10502439
-4.430429	logging	-0.10502439
-3.678177	left	-0.13299316
-4.283945	especially	-0.10502439
-4.430429	careful	-0.10502439
-4.430429	flare	-0.10502439
-3.4921515	inflation	-0.14505461
-4.430429	accelerating	-0.10502439
-4.430429	berger	-0.10502439
-4.430429	devalued	-0.10502439
-4.430429	depressions	-0.10502439
-3.900773	partners	-0.13713989
-3.813283	america	-0.13299316
-4.430429	fujitsu	-0.10502439
-4.283945	executives	-0.10502439
-4.283945	enthusiastic	-0.10502439
-4.430429	fairchild	-0.10502439
-4.430429	sumita	-0.10502439
-3.7404974	access	-0.41198668
-3.678177	steel	-0.10502439
-4.283945	ensure	-0.10502439
-4.430429	accurate	-0.10502439
-3.7404974	used	-0.17086963
-4.430429	backdoor	-0.10502439
-4.430429	suppliers	-0.10502439
-4.283945	carney	-0.22966352
-4.157543	structural	-0.18402584
-3.813283	adjustments	-0.1427312
-4.157543	1993	-0.10502439
-4.430429	criticism	-0.10502439
-4.283945	damages	-0.10502439
-4.010452	nakasone	-0.10502439
-4.283945	jamaica	-0.10502439
-4.157543	agrees	-0.10502439
-4.283945	rescheduling	-0.10502439
-4.283945	principle	-0.41135445
-4.157543	advisory	-0.10502439
-3.900773	1989	-0.20723446
-4.430429	jamaican	-0.10502439
-3.5752792	information	-0.10502439
-4.283945	kenya	-0.10502439
-4.157543	relied	-0.29178125
-4.157543	pakistan	-0.10502439
-4.157543	egypt	-0.10502439
-4.430429	lesser	-0.10502439
-4.157543	extent	-0.10502439
-3.900773	tea	-0.1427312
-3.813283	consolidated	-0.10502439
-3.5752792	stores	-0.15068202
-4.430429	cns	-0.10502439
-4.430429	602	-0.22966352
-4.430429	879	-0.10502439
-4.430429	141	-0.10502439
-4.010452	71	-0.3533625
-3.7404974	42	-0.3176558
-4.283945	397	-0.18402584
-4.157543	esso	-0.10502439
-4.430429	keen	-0.10502439
-4.283945	diversify	-0.10502439
-4.430429	gippsland	-0.10502439
-4.157543	lyng	-0.16288792
-3.3623295	did	-1.0973823
-4.010452	think	-0.22098966
-4.430429	eni	-0.10502439
-4.430429	agip	-0.10502439
-4.430429	carbone	-0.10502439
-4.010452	sign	-0.20170969
-3.813283	letter	-0.46317035
-4.430429	intent	-0.33668792
-4.430429	caracas	-0.10502439
-4.430429	enter	-0.16288792
-3.900773	partnership	-0.13299316
-4.283945	pdvsa	-0.10502439
-4.283945	coal	-0.10502439
-4.430429	guasare	-0.10502439
-4.430429	zulia	-0.10502439
-4.157543	suit	-0.10502439
-4.430429	alleges	-0.10502439
-4.430429	harcourt	-0.10502439
-4.283945	exceeds	-0.10502439
-4.430429	harcout	-0.10502439
-3.900773	law	-0.15068202
-4.430429	contstitutes	-0.10502439
-4.430429	fraudulent	-0.10502439
-4.430429	conveyance	-0.10502439
-3.900773	larger	-0.10502439
-4.283945	miller	-0.10502439
-4.283945	bruce	-0.10502439
-4.157543	fields	-0.16288792
-3.2407753	producers	-0.16233149
-4.283945	intend	-0.22966352
-3.813283	present	-0.10502439
-4.010452	single	-0.10502439
-4.430429	candidate	-0.10502439
-4.430429	edouard	-0.10502439
-4.430429	kouame	-0.10502439
-4.430429	ivory	-0.10502439
-4.157543	coast	-0.18402584
-4.157543	failure	-0.23704433
-4.430429	address	-0.18402584
-3.5752792	decline	-0.27560496
-3.6236877	remains	-0.12979509
-4.430429	worrying	-0.10502439
-4.010452	appears	-0.16288792
-4.157543	approached	-0.10502439
-4.283945	cautiously	-0.10502439
-4.430429	montagu	-0.10502439
-4.283945	reluctant	-0.22966352
-4.430429	countenance	-0.10502439
-4.430429	wished	-0.10502439
-4.283945	delay	-0.10502439
-3.813283	reduction	-0.15312949
-4.430429	thereby	-0.10502439
-4.430429	preserving	-0.10502439
-4.157543	chancellor	-0.18402584
-4.157543	exchequer	-0.22966352
-4.430429	nigel	-0.22966352
-3.813283	call	-0.28641573
-4.283945	active	-0.10502439
-4.283945	dropping	-0.10502439
-4.283945	appropriations	-0.22966352
-4.283945	demonstrated	-0.10502439
-4.283945	process	-0.10502439
-4.010452	warrants	-0.10502439
-4.283945	exercisable	-0.10502439
-4.430429	nonetheless	-0.10502439
-3.813283	expect	-0.17086963
-4.430429	unstable	-0.10502439
-4.010452	concerned	-0.16288792
-4.430429	officially	-0.10502439
-4.430429	trintoc	-0.10502439
-3.7404974	land	-0.13299316
-3.7404974	purolator	-0.2985732
-4.430429	nicholas	-0.10502439
-3.7404974	f	-0.4478977
-4.430429	brady	-0.10502439
-4.157543	emery	-0.10502439
-3.813283	john	-0.10502439
-4.430429	prefer	-0.10502439
-4.283945	negotiate	-0.10502439
-4.430429	structure	-0.10502439
-4.430429	format	-0.10502439
-4.283945	drafting	-0.10502439
-4.430429	separate	-0.10502439
-3.3095613	plan	-0.23121472
-4.430429	reconciled	-0.10502439
-3.900773	senate	-0.15068202
-4.430429	version	-0.10502439
-3.813283	spain	-0.18622757
-3.813283	overnight	-0.10502439
-4.157543	view	-0.20723446
-4.430429	disappointing	-0.10502439
-4.283945	discounted	-0.10502439
-4.283945	young	-0.10502439
-3.6236877	planned	-0.15068202
-4.283945	protect	-0.10502439
-3.813283	itself	-0.13713989
-4.010452	chance	-0.10502439
-4.430429	complicated	-0.10502439
-4.430429	hedging	-0.10502439
-4.283945	instrument	-0.10502439
-4.283945	england	-0.23272143
-4.283945	signals	-0.10502439
-4.157543	referred	-0.10502439
-4.157543	marked	-0.10502439
-4.283945	downturn	-0.22966352
-4.283945	textiles	-0.10502439
-4.430429	leather	-0.10502439
-4.430429	furniture	-0.10502439
-4.157543	particular	-0.10502439
-3.7404974	decided	-0.3533625
-4.430429	ita	-0.10502439
-4.430429	wound	-0.10502439
-4.157543	expires	-0.23704433
-4.430429	delegate	-0.10502439
-4.430429	rarely	-0.10502439
-4.430429	invites	-0.10502439
-3.900773	ordinary	-0.25538728
-3.7404974	assistance	-0.18696395
-4.430429	abms	-0.10502439
-3.900773	zinc	-0.20170969
-4.430429	slab	-0.10502439
-4.430429	smelters	-0.10502439
-4.430429	735	-0.10502439
-4.010452	tons	-0.21352543
-4.010452	bureau	-0.15068202
-4.157543	iraq	-0.1427312
-4.430429	foiled	-0.10502439
-4.430429	pronged	-0.10502439
-4.283945	thrust	-0.10502439
-4.157543	km	-0.18402584
-4.430429	basra	-0.10502439
-4.430429	admitted	-0.10502439
-4.430429	iranians	-0.10502439
-4.430429	occupied	-0.10502439
-4.283945	ground	-0.10502439
-4.430429	mohammed	-0.10502439
-4.283945	qassem	-0.10502439
-4.430429	divisions	-0.10502439
-4.283945	attacked	-0.10502439
-4.157543	redstone	-0.10502439
-4.283945	arsenal	-0.10502439
-3.6236877	holdings	-0.2628177
-4.430429	amusements	-0.10502439
-4.157543	viacom	-0.10502439
-3.3623295	takeover	-0.17309335
-4.283945	conagra	-0.10502439
-4.430429	cag	-0.10502439
-3.900773	diluted	-0.17123951
-4.283945	closely	-0.10502439
-4.430429	computerland	-0.10502439
-4.157543	pc	-0.10502439
-4.430429	retailing	-0.10502439
-4.430429	chain	-0.10502439
-4.010452	investor	-0.1884405
-3.813283	e	-0.4800824
-4.430429	warburg	-0.10502439
-4.430429	pincus	-0.10502439
-4.430429	cigra	-0.10502439
-4.157543	89	-0.10502439
-4.430429	transcontinental	-0.10502439
-4.430429	windfall	-0.10502439
-4.430429	acts	-0.10502439
-4.430429	disincentive	-0.10502439
-3.813283	existing	-0.1427312
-4.430429	reduces	-0.10502439
-4.157543	flow	-0.20723446
-4.430429	864	-0.10502439
-4.283945	678	-0.10502439
-3.900773	previous	-0.20823896
-4.157543	indications	-0.10502439
-3.900773	planted	-0.10502439
-3.7404974	69	-0.4137019
-4.010452	unchanged	-0.10502439
-3.900773	moves	-0.15068202
-4.430429	divest	-0.10502439
-4.430429	encor	-0.10502439
-4.430429	favor	-0.10502439
-4.430429	retaining	-0.10502439
-3.813283	go	-0.13713989
-4.430429	directly	-0.22966352
-3.6236877	members	-0.17803833
-4.157543	malaysia	-0.10502439
-4.010452	nearby	-0.10502439
-4.157543	intermediate	-0.10502439
-4.157543	forward	-0.10502439
-4.010452	richard	-0.15068202
-4.430429	visit	-0.22966352
-4.430429	alusuisse	-0.10502439
-4.157543	swiss	-0.1884405
-3.6236877	francs	-0.15815265
-4.283945	restated	-0.10502439
-4.283945	756	-0.22966352
-4.430429	comsat	-0.10502439
-4.430429	1962	-0.10502439
-3.813283	act	-0.16288792
-3.5752792	congress	-0.12518497
-4.430429	contel	-0.10502439
-4.010452	telephone	-0.10502439
-3.7404974	communications	-0.2044633
-3.900773	filed	-0.15068202
-4.430429	giorgio	-0.10502439
-4.430429	boutique	-0.10502439
-4.430429	beverly	-0.10502439
-4.283945	hills	-0.10502439
-4.430429	calif	-0.29178125
-3.3623295	.,	-0.21948422
-4.283945	fred	-0.10502439
-4.430429	hayman	-0.10502439
-4.430429	operate	-0.10502439
-4.283945	independently	-0.10502439
-4.430429	avon	-0.10502439
-3.900773	firmed	-0.15068202
-4.283945	ideas	-0.10502439
-4.157543	fact	-0.16288792
-4.010452	generally	-0.10502439
-4.430429	yielding	-0.10502439
-4.157543	substantial	-0.10502439
-4.430429	sensitively	-0.10502439
-3.900773	looking	-0.31319767
-4.430429	happening	-0.10502439
-4.283945	averaging	-0.10502439
-4.283945	whole	-0.10502439
-4.283945	requirement	-0.10502439
-4.430429	thackeray	-0.10502439
-4.430429	thk	-0.10502439
-4.430429	013	-0.10502439
-4.010452	74	-0.17549734
-4.157543	107	-0.18402584
-4.430429	401	-0.10502439
-4.430429	361	-0.10502439
-4.430429	793	-0.10502439
-4.283945	surcharge	-0.10502439
-4.430429	urgently	-0.10502439
-4.430429	depreciation	-0.10502439
-3.5752792	n	-0.58744574
-4.430429	foremost	-0.10502439
-3.7404974	stability	-0.16288792
-4.283945	successful	-0.10502439
-3.7404974	nothing	-0.10502439
-4.283945	else	-0.22966352
-4.283945	build	-0.10502439
-4.283945	auto	-0.10502439
-4.430429	inventories	-0.10502439
-4.283945	steep	-0.10502439
-4.283945	finally	-0.10502439
-4.430429	caught	-0.10502439
-3.813283	ahead	-0.41313562
-3.900773	exxon	-0.23348932
-4.010452	ratio	-0.10502439
-4.430429	ankara	-0.10502439
-4.010452	greece	-0.10502439
-4.430429	contravening	-0.10502439
-4.430429	courts	-0.10502439
-4.283945	none	-0.10502439
-4.430429	fired	-0.10502439
-4.430429	forecaster	-0.10502439
-4.430429	wales	-0.10502439
-4.430429	queensland	-0.10502439
-4.010452	suffered	-0.10502439
-4.430429	subscribers	-0.10502439
-4.283945	carried	-0.10502439
-4.430429	fiber	-0.10502439
-4.430429	optic	-0.10502439
-4.430429	leased	-0.10502439
-3.7404974	news	-0.4559585
-3.678177	conference	-0.18027402
-4.430429	create	-0.10502439
-4.430429	expedite	-0.10502439
-4.157543	processing	-0.10502439
-4.010452	tonnage	-0.10502439
-3.813283	required	-0.25538728
-4.430429	preference	-0.10502439
-4.283945	goes	-0.10502439
-3.813283	going	-0.3533625
-4.283945	harder	-0.10502439
-4.010452	meet	-0.17549734
-3.900773	confirmed	-0.15068202
-4.010452	preliminary	-0.10502439
-4.157543	turkey	-0.10502439
-4.010452	respectively	-0.51843727
-3.6236877	tariffs	-0.17544685
-4.283945	imposed	-0.18402584
-4.157543	recommended	-0.10502439
-4.283945	curbs	-0.10502439
-4.283945	panel	-0.10502439
-4.283945	headed	-0.10502439
-4.283945	pierson	-0.10502439
-4.430429	heldring	-0.10502439
-4.430429	en	-0.10502439
-3.900773	estimate	-0.10502439
-4.283945	sentiment	-0.10502439
-3.678177	hit	-0.27151737
-3.7404974	leading	-0.10502439
-4.430429	onshore	-0.10502439
-4.430429	stos	-0.10502439
-4.430429	condensate	-0.10502439
-4.430429	liquefied	-0.10502439
-4.283945	lpg	-0.10502439
-3.678177	).	-0.71774995
-4.157543	porex	-0.10502439
-4.430429	porx	-0.10502439
-4.283945	medco	-0.10502439
-4.430429	mccs	-0.10502439
-4.430429	technologies	-0.10502439
-4.010452	partly	-0.10502439
-4.430429	containment	-0.10502439
-4.283945	striking	-0.22966352
-3.678177	brazilian	-0.18402588
-4.430429	seamen	-0.10502439
-3.900773	hold	-0.10502439
-4.430429	158	-0.10502439
-4.430429	halted	-0.10502439
-4.430429	janeiro	-0.10502439
-4.430429	almir	-0.10502439
-4.430429	pazzianotto	-0.10502439
-4.430429	shocked	-0.10502439
-3.6236877	spending	-0.10502439
-4.157543	oct	-0.18402584
-4.283945	affandi	-0.10502439
-4.430429	fel	-0.10502439
-4.430429	159	-0.10502439
-4.157543	bankamerica	-0.10502439
-4.430429	bac	-0.10502439
-4.010452	mortgage	-0.10502439
-4.283945	ireland	-0.10502439
-4.430429	words	-0.10502439
-4.430429	sometimes	-0.10502439
-4.430429	diametrically	-0.10502439
-3.900773	opposed	-0.15068202
-4.430429	bywater	-0.10502439
-4.157543	backed	-0.10502439
-4.283945	science	-0.10502439
-4.430429	task	-0.10502439
-4.283945	consortium	-0.10502439
-4.430429	develop	-0.10502439
-4.010452	electronic	-0.10502439
-4.430429	processes	-0.10502439
-4.430429	industory	-0.10502439
-4.157543	competitive	-0.10502439
-4.430429	repossession	-0.10502439
-4.430429	gould	-0.10502439
-4.010452	focus	-0.16288792
-4.157543	electronics	-0.10502439
-4.430429	replace	-0.10502439
-4.430429	learn	-0.10502439
-3.6236877	you	-0.14632718
-3.813283	cannot	-0.10502439
-4.430429	deemed	-0.10502439
-3.813283	quotas	-0.14852934
-4.010452	regional	-0.10502439
-4.430429	spoke	-0.10502439
-4.283945	named	-0.10502439
-4.157543	bags	-0.13299316
-4.010452	behind	-0.10502439
-4.283945	leaving	-0.10502439
-3.7404974	shipped	-0.27151737
-3.900773	electric	-0.13299316
-4.430429	nes	-0.10502439
-3.5317295	75	-0.2183626
-4.010452	73	-0.16288792
-4.283945	632	-0.10502439
-4.157543	629	-0.18402584
-4.157543	173	-0.18402584
-4.157543	165	-0.16288792
-3.7404974	chrysler	-0.13713989
-4.010452	rival	-0.15068202
-4.430429	dilution	-0.10502439
-4.430429	heinl	-0.10502439
-4.283945	nursery	-0.10502439
-4.430429	shade	-0.10502439
-4.157543	houses	-0.10502439
-4.430429	square	-0.10502439
-3.900773	feet	-0.20170969
-4.430429	greenhouses	-0.10502439
-4.010452	facilities	-0.10502439
-3.7404974	using	-0.10502439
-4.430429	obtain	-0.10502439
-3.900773	liquidity	-0.15068202
-4.430429	foresake	-0.10502439
-4.157543	underlying	-0.15068202
-4.430429	unaffected	-0.10502439
-3.6236877	accord	-0.20369393
-4.430429	permits	-0.10502439
-4.430429	493	-0.10502439
-4.283945	502	-0.22966352
-4.010452	gained	-0.16288792
-3.900773	forced	-0.4800824
-4.010452	india	-0.10502439
-3.900773	delhi	-0.10502439
-3.900773	gencorp	-0.17182136
-4.430429	gy	-0.22966352
-3.678177	110	-0.16288792
-4.430429	multilaterals	-0.10502439
-4.430429	performing	-0.22966352
-4.430429	debtors	-0.10502439
-4.430429	someone	-0.10502439
-4.430429	silas	-0.10502439
-4.430429	revitalize	-0.10502439
-3.5752792	texas	-0.10502439
-4.430429	exempt	-0.10502439
-4.430429	stripper	-0.10502439
-4.157543	severance	-0.18402584
-4.010452	reaffirmed	-0.16288792
-4.430429	coordinate	-0.10502439
-4.157543	inflationary	-0.10502439
-3.900773	stable	-0.10502439
-3.813283	reagan	-0.33359692
-4.283945	tide	-0.10502439
-4.157543	vessel	-0.10502439
-4.283945	list	-0.18402584
-4.430429	degrees	-0.10502439
-3.6236877	changed	-0.12725344
-4.010452	comments	-0.16288792
-3.900773	senior	-0.10502439
-4.430429	thought	-0.22966352
-4.283945	undervalued	-0.10502439
-4.283945	replied	-0.10502439
-4.283945	counter	-0.10502439
-3.900773	hope	-0.18402584
-4.430429	join	-0.10502439
-4.430429	telecom	-0.10502439
-4.430429	discreetly	-0.10502439
-4.010452	confident	-0.10502439
-4.430429	adopt	-0.10502439
-4.157543	instruments	-0.10502439
-4.283945	tightening	-0.10502439
-4.430429	choke	-0.10502439
-4.157543	modest	-0.10502439
-3.678177	expansion	-0.10502439
-4.157543	threaten	-0.10502439
-3.900773	recession	-0.15068202
-3.4921515	several	-0.11971665
-4.430429	contacts	-0.10502439
-4.430429	indication	-0.10502439
-4.430429	wishes	-0.10502439
-4.430429	mention	-0.10502439
-4.430429	senators	-0.10502439
-4.430429	propose	-0.10502439
-3.813283	ban	-0.1427312
-4.283945	toshiba	-0.10502439
-4.010452	went	-0.16288792
-3.900773	signed	-0.4414233
-4.283945	calling	-0.22966352
-4.430429	exchanged	-0.10502439
-4.430429	barnett	-0.10502439
-4.283945	moved	-0.10502439
-4.430429	sdr	-0.10502439
-4.283945	mtech	-0.10502439
-4.430429	mtch	-0.10502439
-4.430429	467	-0.10502439
-4.430429	nudged	-0.10502439
-4.283945	goal	-0.10502439
-4.283945	pessimistic	-0.22966352
-4.010452	social	-0.10502439
-4.430429	ces	-0.10502439
-4.283945	body	-0.10502439
-4.430429	industrialists	-0.10502439
-4.430429	unionists	-0.10502439
-4.010452	limits	-0.10502439
-4.430429	minimised	-0.10502439
-4.157543	boosted	-0.10502439
-4.430429	radius	-0.10502439
-4.430429	prawiro	-0.10502439
-3.7404974	aimed	-0.4800824
-4.430429	preventing	-0.10502439
-4.283945	refiners	-0.10502439
-4.430429	marketers	-0.10502439
-4.430429	predatory	-0.10502439
-4.430429	monopolistic	-0.10502439
-4.430429	franchised	-0.10502439
-4.430429	specifications	-0.10502439
-4.430429	resemble	-0.10502439
-4.283945	audio	-0.29178125
-3.678177	video	-0.12518497
-4.430429	ava	-0.10502439
-4.430429	sweetens	-0.10502439
-4.010452	cyclops	-0.10502439
-4.430429	cyl	-0.10502439
-4.157543	affiliates	-0.10502439
-4.430429	astra	-0.10502439
-4.430429	paint	-0.10502439
-4.157543	manufacture	-0.16288792
-4.283945	motor	-0.10502439
-4.283945	vehicles	-0.10502439
-4.430429	earthmoving	-0.10502439
-4.430429	qualities	-0.10502439
-3.7404974	sought	-0.13713989
-4.430429	hamburg	-0.10502439
-4.283945	green	-0.10502439
-3.3913305	demand	-0.23909327
-4.430429	coffees	-0.10502439
-4.283945	past	-0.12725344
-4.430429	unsatisfactory	-0.10502439
-4.430429	brockton	-0.10502439
-4.430429	pbkb	-0.10502439
-4.430429	646	-0.10502439
-4.157543	470	-0.41671997
-4.010452	cumulative	-0.10502439
-4.430429	roastings	-0.10502439
-4.430429	845	-0.10502439
-4.430429	070	-0.10502439
-4.283945	reuter	-0.13713989
-4.157543	forecasts	-0.10502439
-4.430429	schrader	-0.10502439
-4.283945	maremont	-0.22966352
-3.5317295	acquired	-0.13299316
-4.430429	bu	-0.10502439
-4.430429	forfeited	-0.10502439
-4.283945	portuguese	-0.10502439
-4.010452	crisis	-0.10502439
-4.157543	portugal	-0.29178125
-4.430429	enjoying	-0.10502439
-4.283945	decade	-0.10502439
-4.430429	shrug	-0.10502439
-4.283945	heinz	-0.23704433
-4.430429	sight	-0.10502439
-4.430429	22nd	-0.10502439
-4.157543	consecutive	-0.18402584
-4.430429	records	-0.10502439
-4.157543	chief	-0.3688083
-4.010452	executive	-0.23333825
-4.430429	officer	-0.10502439
-4.430429	anthony	-0.10502439
-4.430429	reilly	-0.10502439
-4.283945	arkla	-0.10502439
-4.430429	alg	-0.10502439
-4.430429	settle	-0.10502439
-4.283945	dispute	-0.10502439
-4.283945	ip	-0.10502439
-4.430429	arkansas	-0.10502439
-4.157543	resolve	-0.10502439
-4.283945	pipelines	-0.10502439
-4.283945	mill	-0.10502439
-4.283945	pine	-0.10502439
-4.430429	bluff	-0.10502439
-4.430429	camden	-0.10502439
-4.430429	utilisation	-0.10502439
-4.430429	mode	-0.10502439
-4.430429	{	-0.10502439
-4.430429	nised	-0.10502439
-4.157543	mills	-0.16288792
-4.430429	lucht	-0.10502439
-4.430429	function	-0.10502439
-4.010452	innovex	-0.10502439
-4.157543	whatever	-0.18402584
-4.283945	stick	-0.29178125
-4.283945	keeping	-0.10502439
-4.430429	guilder	-0.10502439
-4.283945	sure	-0.10502439
-4.010452	getting	-0.10502439
-4.430429	solomon	-0.10502439
-4.010452	medium	-0.20723446
-3.7404974	commodity	-0.14852934
-4.430429	injuries	-0.10502439
-4.430429	emirate	-0.10502439
-4.430429	fujairah	-0.10502439
-3.7404974	power	-0.10502439
-4.283945	fire	-0.10502439
-4.157543	order	-0.28641573
-4.157543	living	-0.10502439
-3.678177	north	-0.12725344
-4.430429	rhine	-0.10502439
-4.430429	westphalia	-0.10502439
-4.430429	populous	-0.10502439
-4.010452	mid	-0.71774995
-4.283945	stand	-0.10502439
-4.430429	esquire	-0.10502439
-4.430429	ee	-0.10502439
-4.157543	yr	-0.16288792
-4.430429	075	-0.10502439
-4.283945	203	-0.22966352
-4.010452	stockholders	-0.15068202
-4.430429	conable	-0.10502439
-4.010452	pressing	-0.16288792
-4.430429	arguing	-0.10502439
-4.430429	possibility	-0.51363
-4.010452	global	-0.10502439
-4.157543	imperial	-0.10502439
-3.4921515	contracts	-0.1884405
-4.430429	cote	-0.10502439
-4.430429	cancelling	-0.10502439
-4.157543	suspending	-0.10502439
-4.283945	buyer	-0.10502439
-4.157543	discussed	-0.10502439
-4.283945	table	-0.10502439
-4.430429	hormuz	-0.10502439
-4.430429	strait	-0.10502439
-4.430429	everyone	-0.10502439
-4.157543	intelligent	-0.18402584
-4.430429	inp	-0.10502439
-4.010452	initial	-0.17182136
-4.010452	payout	-0.10502439
-4.283945	master	-0.22966352
-3.7404974	quarterly	-0.41313562
-4.010452	investments	-0.10502439
-4.010452	parent	-0.20723446
-4.283945	recapitalization	-0.10502439
-3.7404974	alternative	-0.10502439
-3.6236877	receive	-0.1234687
-3.7404974	approval	-0.2944818
-4.430429	narrows	-0.22966352
-4.157543	narrowed	-0.33395433
-4.430429	336	-0.10502439
-4.430429	escudos	-0.10502439
-4.430429	354	-0.10502439
-4.430429	rtrs	-0.22966352
-4.430429	associates	-0.22966352
-4.430429	169	-0.10502439
-3.900773	others	-0.10502439
-3.813283	bp	-0.13713989
-4.010452	course	-0.20723446
-4.430429	retained	-0.10502439
-4.283945	boston	-0.29178125
-4.430429	cravath	-0.10502439
-4.430429	swaine	-0.10502439
-4.283945	moore	-0.10502439
-3.900773	advisers	-0.13299316
-3.6236877	too	-0.18696395
-4.157543	determine	-0.13713989
-4.283945	parties	-0.10502439
-4.010452	longer	-0.10502439
-4.010452	doubt	-0.10502439
-4.157543	greenmail	-0.10502439
-4.430429	surprises	-0.10502439
-4.283945	me	-0.10502439
-4.430429	anymore	-0.10502439
-4.283945	crushing	-0.10502439
-4.283945	873	-0.29178125
-4.430429	904	-0.10502439
-4.010452	bushels	-0.21352543
-4.430429	459	-0.10502439
-4.430429	238	-0.10502439
-4.283945	apparently	-0.10502439
-4.430429	anyone	-0.10502439
-4.430429	regret	-0.10502439
-3.813283	threatened	-0.25966385
-4.283945	protest	-0.22966352
-4.430429	regarded	-0.10502439
-4.430429	vital	-0.10502439
-4.283945	smooth	-0.10502439
-3.900773	transactions	-0.20951465
-4.430429	doubled	-0.10502439
-4.430429	alan	-0.10502439
-4.430429	garcia	-0.10502439
-4.430429	directed	-0.10502439
-3.678177	drilling	-0.16603702
-4.430429	rigs	-0.18402584
-4.430429	caspar	-0.10502439
-4.430429	weinberger	-0.10502439
-4.283945	sunday	-0.10502439
-4.430429	specifics	-0.10502439
-4.283945	necessary	-0.10502439
-4.283945	keep	-0.13299316
-4.283945	anti	-0.22966352
-4.430429	region	-0.10502439
-4.157543	w	-0.28641573
-4.430429	manufactured	-0.10502439
-4.430429	ifo	-0.10502439
-4.430429	conrac	-0.10502439
-4.430429	marketer	-0.10502439
-4.010452	related	-0.10502439
-4.430429	display	-0.10502439
-4.157543	produces	-0.10502439
-4.430429	architectural	-0.10502439
-4.430429	macandrews	-0.10502439
-4.010452	revlon	-0.10502439
-4.430429	plaintiff	-0.10502439
-4.430429	pending	-0.10502439
-4.283945	litigation	-0.10502439
-4.430429	challenging	-0.10502439
-4.430429	macanrews	-0.10502439
-4.283945	cnt	-0.10502439
-4.430429	quantum	-0.10502439
-4.430429	exercising	-0.10502439
-4.157543	bringing	-0.18402584
-4.283945	philips	-0.18402584
-4.430429	electrical	-0.10502439
-4.010452	sells	-0.10502439
-4.157543	unidare	-0.10502439
-4.283945	arranged	-0.10502439
-4.010452	aluminium	-0.16288792
-4.430429	nsbk	-0.10502439
-4.430429	289	-0.10502439
-4.283945	849	-0.22966352
-4.430429	980	-0.10502439
-4.430429	814	-0.10502439
-3.7404974	consumption	-0.10502439
-3.813283	continuing	-0.10502439
-4.430429	rhetoric	-0.10502439
-4.430429	marlin	-0.10502439
-4.283945	fitzwater	-0.22966352
-4.157543	statements	-0.10502439
-4.283945	borg	-0.22966352
-4.283945	warner	-0.10502439
-4.430429	irwin	-0.10502439
-4.157543	jacobs	-0.16288792
-4.283945	jamesway	-0.10502439
-4.430429	jmy	-0.10502439
-4.430429	intec	-0.10502439
-4.430429	intk	-0.10502439
-4.430429	029	-0.22966352
-4.430429	930	-0.22966352
-4.283945	764	-0.10502439
-4.430429	544	-0.10502439
-4.430429	463	-0.10502439
-4.430429	718	-0.10502439
-4.430429	566	-0.10502439
-4.430429	680	-0.10502439
-4.283945	window	-0.26585865
-4.157543	averaged	-0.10502439
-4.430429	302	-0.10502439
-4.157543	interview	-0.16288792
-4.430429	aired	-0.10502439
-4.157543	don	-0.5928112
-4.430429	encompassed	-0.10502439
-4.430429	087	-0.10502439
-4.430429	19th	-0.10502439
-4.010452	exceeding	-0.10502439
-4.430429	398	-0.22966352
-4.430429	liffe	-0.10502439
-4.430429	studies	-0.10502439
-4.430429	aside	-0.10502439
-4.283945	county	-0.10502439
-4.157543	trigger	-0.10502439
-4.010452	requirements	-0.10502439
-4.010452	staff	-0.10502439
-4.157543	double	-0.10502439
-4.430429	indicates	-0.10502439
-4.430429	jump	-0.10502439
-4.430429	bhp	-0.10502439
-4.283945	ounces	-0.18402584
-4.283945	mcm	-0.22966352
-4.283945	yearend	-0.10502439
-4.010452	release	-0.15068202
-4.157543	effects	-0.10502439
-4.283945	sheet	-0.10502439
-4.283945	outright	-0.10502439
-4.430429	band	-0.18402584
-4.430429	jorge	-0.10502439
-4.283945	cardenas	-0.10502439
-4.430429	colombian	-0.10502439
-4.157543	federation	-0.10502439
-4.430429	rosenbaum	-0.10502439
-4.283945	mutual	-0.18402584
-4.283945	adding	-0.1427312
-4.430429	860	-0.10502439
-4.430429	vicinity	-0.10502439
-4.430429	seismic	-0.10502439
-4.283945	underway	-0.10502439
-4.430429	evaluate	-0.10502439
-3.813283	meat	-0.10502439
-4.430429	packers	-0.10502439
-4.157543	promising	-0.10502439
-4.430429	1981	-0.10502439
-4.430429	subroto	-0.10502439
-4.430429	granting	-0.10502439
-4.430429	remote	-0.10502439
-4.157543	deep	-0.10502439
-4.430429	lichtblau	-0.10502439
-4.430429	dependency	-0.10502439
-4.283945	happen	-0.10502439
-4.157543	impose	-0.10502439
-4.430429	dls	-0.10502439
-4.157543	alleged	-0.10502439
-4.430429	live	-0.10502439
-4.283945	microchip	-0.10502439
-4.283945	rainfall	-0.10502439
-3.900773	recorded	-0.20723446
-4.283945	hours	-0.10502439
-4.283945	parana	-0.10502439
-4.430429	umuarama	-0.10502439
-3.678177	nil	-0.20723446
-4.430429	paranavai	-0.10502439
-4.430429	londrina	-0.10502439
-4.430429	maringa	-0.10502439
-4.430429	pushing	-0.10502439
-4.430429	permission	-0.10502439
-4.010452	lay	-0.10502439
-4.157543	cable	-0.10502439
-4.283945	widened	-0.22966352
-4.430429	drs	-0.10502439
-4.430429	rospatch	-0.10502439
-3.813283	provided	-0.23348932
-4.283945	prudential	-0.10502439
-4.157543	encourage	-0.10502439
-4.430429	foreseeable	-0.10502439
-4.157543	largely	-0.10502439
-4.430429	upsetting	-0.10502439
-4.283945	wage	-0.10502439
-4.430429	shiments	-0.10502439
-4.430429	instill	-0.10502439
-4.430429	willingness	-0.10502439
-4.430429	pcc	-0.29178125
-3.900773	courier	-0.19838524
-4.430429	flowering	-0.10502439
-3.900773	followed	-0.20723446
-4.430429	onset	-0.22966352
-4.430429	subsequent	-0.10502439
-4.430429	dissappointing	-0.10502439
-4.430429	suspension	-0.10502439
-4.430429	forseeable	-0.10502439
-4.430429	category	-0.10502439
-4.430429	sunflower	-0.10502439
-4.010452	oils	-0.15068202
-4.283945	importers	-0.10502439
-4.430429	basket	-0.10502439
-4.430429	categories	-0.10502439
-4.283945	paying	-0.10502439
-3.813283	specific	-0.15312949
-4.430429	nevertheless	-0.10502439
-4.283945	gurria	-0.22966352
-3.900773	mexico	-0.20723446
-4.430429	draw	-0.10502439
-4.430429	contingency	-0.10502439
-3.813283	mining	-0.10502439
-4.430429	pt	-0.10502439
-4.430429	tambang	-0.10502439
-4.430429	timah	-0.10502439
-4.430429	easy	-0.10502439
-4.430429	516	-0.10502439
-4.157543	636	-0.18402584
-4.010452	discontinued	-0.81465995
-4.430429	922	-0.10502439
-4.430429	dominated	-0.10502439
-4.157543	reporting	-0.10502439
-4.157543	involving	-0.10502439
-4.430429	fnma	-0.10502439
-4.283945	arbitrage	-0.10502439
-4.430429	beatty	-0.10502439
-4.430429	packer	-0.10502439
-4.430429	morrell	-0.10502439
-4.430429	soymeal	-0.10502439
-4.283945	quantities	-0.10502439
-4.010452	imported	-0.10502439
-4.283945	quarters	-0.10502439
-4.430429	argentina	-0.10502439
-4.430429	refining	-0.10502439
-4.430429	worried	-0.10502439
-4.430429	environmental	-0.10502439
-4.283945	regulations	-0.10502439
-3.813283	grade	-0.10502439
-4.283945	unleaded	-0.10502439
-4.430429	dearly	-0.10502439
-4.430429	recovering	-0.10502439
-4.283945	slump	-0.10502439
-4.430429	chauvco	-0.10502439
-4.157543	476	-0.29178125
-4.430429	creditwatch	-0.10502439
-4.283945	affects	-0.10502439
-3.813283	notes	-0.16288792
-4.157543	guaranteed	-0.10502439
-4.430429	eurobond	-0.10502439
-4.430429	warn	-0.10502439
-4.157543	warned	-0.18402584
-4.283945	excessive	-0.10502439
-4.430429	goodwill	-0.10502439
-4.283945	delegations	-0.10502439
-4.430429	hesse	-0.10502439
-4.430429	advises	-0.10502439
-4.010452	italian	-0.10502439
-4.010452	declines	-0.10502439
-4.283945	surprised	-0.10502439
-4.283945	disbursed	-0.10502439
-4.430429	slaughtered	-0.10502439
-4.430429	herd	-0.10502439
-4.430429	gaf	-0.10502439
-4.283945	bayer	-0.18402584
-4.430429	usa	-0.10502439
-4.430429	bayry	-0.10502439
-4.283945	affiliated	-0.10502439
-4.430429	cmpanies	-0.10502439
-4.430429	manoeuvres	-0.10502439
-4.010452	narrow	-0.10502439
-4.430429	variable	-0.10502439
-4.010452	seriously	-0.10502439
-4.430429	eastman	-0.10502439
-4.430429	kodak	-0.10502439
-4.283945	acquires	-0.10502439
-4.430429	enzon	-0.10502439
-4.430429	idea	-0.10502439
-4.010452	require	-0.20723446
-4.430429	bureacracy	-0.10502439
-4.430429	administer	-0.10502439
-4.283945	numac	-0.22966352
-4.430429	nmc	-0.10502439
-3.900773	significant	-0.1427312
-3.900773	improvement	-0.23348932
-3.6236877	performance	-0.19442175
-4.157543	argentine	-0.18402584
-4.430429	243	-0.10502439
-4.283945	217	-0.10502439
-4.157543	ual	-0.10502439
-4.430429	citing	-0.10502439
-4.283945	unusual	-0.10502439
-4.430429	ramifications	-0.10502439
-4.010452	believe	-0.10502439
-4.430429	affiliation	-0.10502439
-4.283945	amoskeag	-0.10502439
-4.430429	portsmouth	-0.10502439
-4.430429	bushnell	-0.10502439
-4.283945	reflected	-0.10502439
-3.4921515	noted	-0.25208724
-4.430429	blocks	-0.10502439
-4.430429	7219	-0.10502439
-4.430429	7220	-0.10502439
-4.283945	awarded	-0.10502439
-4.430429	norsk	-0.10502439
-4.430429	hydro	-0.10502439
-4.430429	operator	-0.10502439
-4.430429	statoil	-0.10502439
-4.157543	mobil	-0.23704433
-4.430429	mob	-0.10502439
-4.430429	petrofina	-0.10502439
-4.010452	sa	-0.16288792
-4.430429	petb	-0.10502439
-4.430429	br	-0.10502439
-4.430429	norske	-0.10502439
-4.430429	fina	-0.10502439
-4.283945	meridian	-0.18402584
-4.157543	castone	-0.10502439
-4.430429	jointly	-0.10502439
-4.430429	terminate	-0.10502439
-4.430429	widespread	-0.10502439
-4.283945	speculation	-0.10502439
-4.430429	autumn	-0.10502439
-4.283945	darman	-0.10502439
-4.283945	job	-0.10502439
-4.157543	valley	-0.10502439
-4.430429	fivc	-0.10502439
-3.813283	62	-0.1884405
-3.813283	99	-0.10502439
-4.430429	scientific	-0.10502439
-4.430429	measurement	-0.10502439
-4.430429	scms	-0.10502439
-4.430429	352	-0.10502439
-4.430429	568	-0.10502439
-4.283945	640	-0.22966352
-4.430429	377	-0.10502439
-4.430429	865	-0.10502439
-4.430429	063	-0.10502439
-4.430429	333	-0.10502439
-4.283945	singapore	-0.10502439
-4.283945	netherlands	-0.24953777
-4.430429	complying	-0.10502439
-4.283945	lumber	-0.10502439
-4.430429	softwood	-0.10502439
-3.813283	circulation	-0.28641573
-4.430429	235	-0.10502439
-4.157543	eased	-0.10502439
-4.157543	solid	-0.10502439
-4.430429	michelin	-0.10502439
-4.430429	spika	-0.10502439
-4.430429	raiders	-0.10502439
-4.010452	once	-0.16288792
-4.157543	communique	-0.1884405
-4.430429	alter	-0.10502439
-4.010452	prevailing	-0.10502439
-3.900773	needs	-0.15068202
-4.430429	redress	-0.10502439
-4.010452	huge	-0.16288792
-4.430429	imbalance	-0.10502439
-4.283945	kellwood	-0.10502439
-4.430429	kwd	-0.10502439
-4.010452	robert	-0.10502439
-4.283945	scott	-0.10502439
-4.283945	david	-0.10502439
-4.430429	brooks	-0.10502439
-4.430429	andrew	-0.10502439
-4.430429	harvey	-0.10502439
-4.430429	dedham	-0.10502439
-4.283945	mass	-0.10502439
-4.157543	sent	-0.10502439
-4.283945	consideration	-0.10502439
-4.430429	committees	-0.10502439
-4.157543	seemed	-0.18402584
-4.430429	repeat	-0.10502439
