\data\
ngram 1=9052
ngram 2=18099
ngram 3=9049

\1-grams:
-4.5586367	<unk>	0
0	<s>	-0.9687931
-0.301054	</s>	0
-4.257631	While	-0.07397488
-4.257631	Roth	-0.07397488
-4.257631	-	-0.07397488
-4.257631	American	-0.07397488
-4.257631	said	-0.07397488
-4.257631	it	-0.07397488
-4.257631	is	-0.07397488
-4.257631	still	-0.07397488
-4.257631	interested	-0.07397488
-4.257631	in	-0.07397488
-4.257631	acquiring	-0.07397488
-4.257631	Turco	-0.07397488
-4.257631	,	-0.07397488
-4.257631	Atcor	-0.07397488
-4.257631	now	-0.07397488
-4.257631	reviewing	-0.07397488
-4.257631	its	-0.07397488
-4.257631	options	-0.07397488
-4.257631	with	-0.07397488
-4.257631	other	-0.07397488
-4.257631	potential	-0.07397488
-4.257631	buyers	-0.07397488
-4.257631	who	-0.07397488
-4.257631	have	-0.07397488
-4.257631	expressed	-0.07397488
-4.257631	interest	-0.07397488
-4.257631	consumer	-0.07397488
-4.257631	products	-0.07397488
-4.257631	businesses	-0.07397488
-4.257631	.	-0.07397488
-4.257631	German	-0.07397488
-4.257631	net	-0.07397488
-4.257631	currency	-0.07397488
-4.257631	reserves	-0.07397488
-4.257631	fall	-0.07397488
-4.257631	5	-0.07397488
-4.257631	4	-0.07397488
-4.257631	billion	-0.07397488
-4.257631	marks	-0.07397488
-4.257631	to	-0.07397488
-4.257631	81	-0.07397488
-4.257631	7	-0.07397488
-4.257631	Bundesbank	-0.07397488
-4.257631	The	-0.07397488
-4.257631	1987	-0.07397488
-4.257631	annual	-0.07397488
-4.257631	dividend	-0.07397488
-4.257631	will	-0.07397488
-4.257631	be	-0.07397488
-4.257631	40	-0.07397488
-4.257631	cts	-0.07397488
-4.257631	a	-0.07397488
-4.257631	share	-0.07397488
-4.257631	SPEED	-0.07397488
-4.257631	O	-0.07397488
-4.257631	PRINT	-0.07397488
-4.257631	BUSINESS	-0.07397488
-4.257631	&	-0.07397488
-4.257631	lt	-0.07397488
-4.257631	;	-0.07397488
-4.257631	SBM	-0.07397488
-4.257631	>	-0.07397488
-4.257631	4TH	-0.07397488
-4.257631	QTR	-0.07397488
-4.257631	NET	-0.07397488
-4.257631	Shr	-0.07397488
-4.257631	loss	-0.07397488
-4.257631	seven	-0.07397488
-4.257631	vs	-0.07397488
-4.257631	profit	-0.07397488
-4.257631	17	-0.07397488
-4.257631	Net	-0.07397488
-4.257631	102	-0.07397488
-4.257631	000	-0.07397488
-4.257631	258	-0.07397488
-4.257631	Revs	-0.07397488
-4.257631	1	-0.07397488
-4.257631	695	-0.07397488
-4.257631	371	-0.07397488
-4.257631	Year	-0.07397488
-4.257631	33	-0.07397488
-4.257631	26	-0.07397488
-4.257631	488	-0.07397488
-4.257631	384	-0.07397488
-4.257631	6	-0.07397488
-4.257631	700	-0.07397488
-4.257631	774	-0.07397488
-4.257631	NOTE	-0.07397488
-4.257631	:	-0.07397488
-4.257631	1986	-0.07397488
-4.257631	results	-0.07397488
-4.257631	include	-0.07397488
-4.257631	operations	-0.07397488
-4.257631	of	-0.07397488
-4.257631	radio	-0.07397488
-4.257631	stations	-0.07397488
-4.257631	WJYE	-0.07397488
-4.257631	FM	-0.07397488
-4.257631	for	-0.07397488
-4.257631	the	-0.07397488
-4.257631	full	-0.07397488
-4.257631	year	-0.07397488
-4.257631	and	-0.07397488
-4.257631	WNNR	-0.07397488
-4.257631	AM	-0.07397488
-4.257631	last	-0.07397488
-4.257631	six	-0.07397488
-4.257631	months	-0.07397488
-4.257631	Economics	-0.07397488
-4.257631	Ministry	-0.07397488
-4.257631	commenting	-0.07397488
-4.257631	on	-0.07397488
-4.257631	figures	-0.07397488
-4.257631	GNP	-0.07397488
-4.257631	first	-0.07397488
-4.257631	quarter	-0.07397488
-4.257631	was	-0.07397488
-4.257631	also	-0.07397488
-4.257631	expected	-0.07397488
-4.257631	relatively	-0.07397488
-4.257631	weak	-0.07397488
-4.257631	"	-0.07397488
-4.257631	Although	-0.07397488
-4.257631	short	-0.07397488
-4.257631	run	-0.07397488
-4.257631	difficult	-0.07397488
-4.257631	see	-0.07397488
-4.257631	direct	-0.07397488
-4.257631	link	-0.07397488
-4.257631	between	-0.07397488
-4.257631	Arab	-0.07397488
-4.257631	anger	-0.07397488
-4.257631	threats	-0.07397488
-4.257631	oil	-0.07397488
-4.257631	supplies	-0.07397488
-4.257631	current	-0.07397488
-4.257631	environment	-0.07397488
-4.257631	increasingly	-0.07397488
-4.257631	moderate	-0.07397488
-4.257631	leaders	-0.07397488
-4.257631	seen	-0.07397488
-4.257631	as	-0.07397488
-4.257631	friendly	-0.07397488
-4.257631	U	-0.07397488
-4.257631	S	-0.07397488
-4.257631	interests	-0.07397488
-4.257631	,"	-0.07397488
-4.257631	Ebinger	-0.07397488
-4.257631	A	-0.07397488
-4.257631	lot	-0.07397488
-4.257631	winterkill	-0.07397488
-4.257631	could	-0.07397488
-4.257631	occur	-0.07397488
-4.257631	during	-0.07397488
-4.257631	next	-0.07397488
-4.257631	month	-0.07397488
-4.257631	half	-0.07397488
-4.257631	Martell	-0.07397488
-4.257631	Chicago	-0.07397488
-4.257631	soybean	-0.07397488
-4.257631	complex	-0.07397488
-4.257631	has	-0.07397488
-4.257631	been	-0.07397488
-4.257631	nervous	-0.07397488
-4.257631	some	-0.07397488
-4.257631	time	-0.07397488
-4.257631	about	-0.07397488
-4.257631	large	-0.07397488
-4.257631	South	-0.07397488
-4.257631	crops	-0.07397488
-4.257631	developing	-0.07397488
-4.257631	under	-0.07397488
-4.257631	near	-0.07397488
-4.257631	ideal	-0.07397488
-4.257631	conditions	-0.07397488
-4.257631	towards	-0.07397488
-4.257631	record	-0.07397488
-4.257631	yields	-0.07397488
-4.257631	Japanese	-0.07397488
-4.257631	crushers	-0.07397488
-4.257631	continue	-0.07397488
-4.257631	concentrate	-0.07397488
-4.257631	rapeseed	-0.07397488
-4.257631	purchases	-0.07397488
-4.257631	since	-0.07397488
-4.257631	converts	-0.07397488
-4.257631	higher	-0.07397488
-4.257631	percentage	-0.07397488
-4.257631	than	-0.07397488
-4.257631	oilseeds	-0.07397488
-4.257631	they	-0.07397488
-4.257631	ROYAL	-0.07397488
-4.257631	RESOURCES	-0.07397488
-4.257631	CORP	-0.07397488
-4.257631	RRCO	-0.07397488
-4.257631	2ND	-0.07397488
-4.257631	DEC	-0.07397488
-4.257631	31	-0.07397488
-4.257631	LOSS	-0.07397488
-4.257631	72	-0.07397488
-4.257631	48	-0.07397488
-4.257631	dlrs	-0.07397488
-4.257631	466	-0.07397488
-4.257631	006	-0.07397488
-4.257631	9	-0.07397488
-4.257631	091	-0.07397488
-4.257631	688	-0.07397488
-4.257631	608	-0.07397488
-4.257631	181	-0.07397488
-4.257631	280	-0.07397488
-4.257631	727	-0.07397488
-4.257631	Avg	-0.07397488
-4.257631	shrs	-0.07397488
-4.257631	194	-0.07397488
-4.257631	155	-0.07397488
-4.257631	461	-0.07397488
-4.257631	First	-0.07397488
-4.257631	77	-0.07397488
-4.257631	51	-0.07397488
-4.257631	752	-0.07397488
-4.257631	455	-0.07397488
-4.257631	265	-0.07397488
-4.257631	457	-0.07397488
-4.257631	444	-0.07397488
-4.257631	149	-0.07397488
-4.257631	2	-0.07397488
-4.257631	791	-0.07397488
-4.257631	188	-0.07397488
-4.257631	174	-0.07397488
-4.257631	731	-0.07397488
-4.257631	Losses	-0.07397488
-4.257631	charges	-0.07397488
-4.257631	0	-0.07397488
-4.257631	mln	-0.07397488
-4.257631	both	-0.07397488
-4.257631	periods	-0.07397488
-4.257631	14	-0.07397488
-4.257631	1985	-0.07397488
-4.257631	write	-0.07397488
-4.257631	down	-0.07397488
-4.257631	gas	-0.07397488
-4.257631	properties	-0.07397488
-4.257631	CALIFORNIA	-0.07397488
-4.257631	WATER	-0.07397488
-4.257631	SERVICE	-0.07397488
-4.257631	CO	-0.07397488
-4.257631	CWTR	-0.07397488
-4.257631	3RD	-0.07397488
-4.257631	10	-0.07397488
-4.257631	83	-0.07397488
-4.257631	919	-0.07397488
-4.257631	168	-0.07397488
-4.257631	35	-0.07397488
-4.257631	34	-0.07397488
-4.257631	3	-0.07397488
-4.257631	Nine	-0.07397488
-4.257631	Mths	-0.07397488
-4.257631	09	-0.07397488
-4.257631	55	-0.07397488
-4.257631	391	-0.07397488
-4.257631	099	-0.07397488
-4.257631	88	-0.07397488
-4.257631	Note	-0.07397488
-4.257631	Curent	-0.07397488
-4.257631	nine	-0.07397488
-4.257631	mth	-0.07397488
-4.257631	dlr	-0.07397488
-4.257631	or	-0.07397488
-4.257631	79	-0.07397488
-4.257631	per	-0.07397488
-4.257631	gain	-0.07397488
-4.257631	resulting	-0.07397488
-4.257631	from	-0.07397488
-4.257631	change	-0.07397488
-4.257631	accounting	-0.07397488
-4.257631	method	-0.07397488
-4.257631	unbilled	-0.07397488
-4.257631	revenues	-0.07397488
-4.257631	But	-0.07397488
-4.257631	that	-0.07397488
-4.257631	if	-0.07397488
-4.257631	had	-0.07397488
-4.257631	not	-0.07397488
-4.257631	one	-0.07397488
-4.257631	day	-0.07397488
-4.257631	miss	-0.07397488
-4.257631	Fed	-0.07397488
-4.257631	'	-0.07397488
-4.257631	s	-0.07397488
-4.257631	reserve	-0.07397488
-4.257631	projections	-0.07397488
-4.257631	borrowings	-0.07397488
-4.257631	target	-0.07397488
-4.257631	would	-0.07397488
-4.257631	probably	-0.07397488
-4.257631	reached	-0.07397488
-4.257631	Since	-0.07397488
-4.257631	government	-0.07397488
-4.257631	unlikely	-0.07397488
-4.257631	cut	-0.07397488
-4.257631	expenditure	-0.07397488
-4.257631	gross	-0.07397488
-4.257631	domestic	-0.07397488
-4.257631	product	-0.07397488
-4.257631	major	-0.07397488
-4.257631	tax	-0.07397488
-4.257631	increase	-0.07397488
-4.257631	unavoidable	-0.07397488
-4.257631	Bayliss	-0.07397488
-4.257631	M	-0.07397488
-4.257631	showed	-0.07397488
-4.257631	rise	-0.07397488
-4.257631	pct	-0.07397488
-4.257631	January	-0.07397488
-4.257631	at	-0.07397488
-4.257631	68	-0.07397488
-4.257631	rand	-0.07397488
-4.257631	after	-0.07397488
-4.257631	30	-0.07397488
-4.257631	December	-0.07397488
-4.257631	16	-0.07397488
-4.257631	12	-0.07397488
-4.257631	80	-0.07397488
-4.257631	1A	-0.07397488
-4.257631	22	-0.07397488
-4.257631	20	-0.07397488
-4.257631	54	-0.07397488
-4.257631	FED	-0.07397488
-4.257631	HELLER	-0.07397488
-4.257631	SEES	-0.07397488
-4.257631	RETURN	-0.07397488
-4.257631	TO	-0.07397488
-4.257631	SLOWER	-0.07397488
-4.257631	MONEY	-0.07397488
-4.257631	SUPPLY	-0.07397488
-4.257631	GROWTH	-0.07397488
-4.257631	Consequently	-0.07397488
-4.257631	although	-0.07397488
-4.257631	he	-0.07397488
-4.257631	well	-0.07397488
-4.257631	known	-0.07397488
-4.257631	abroad	-0.07397488
-4.257631	his	-0.07397488
-4.257631	views	-0.07397488
-4.257631	issues	-0.07397488
-4.257631	such	-0.07397488
-4.257631	Less	-0.07397488
-4.257631	Developed	-0.07397488
-4.257631	Country	-0.07397488
-4.257631	Debt	-0.07397488
-4.257631	may	-0.07397488
-4.257631	initially	-0.07397488
-4.257631	carry	-0.07397488
-4.257631	less	-0.07397488
-4.257631	weight	-0.07397488
-4.257631	those	-0.07397488
-4.257631	Mr	-0.07397488
-4.257631	Volcker	-0.07397488
-4.257631	."	-0.07397488
-4.257631	KAPOK	-0.07397488
-4.257631	KPK	-0.07397488
-4.257631	IN	-0.07397488
-4.257631	TECHNICAL	-0.07397488
-4.257631	DEFAULT	-0.07397488
-4.257631	Kapok	-0.07397488
-4.257631	Corp	-0.07397488
-4.257631	techical	-0.07397488
-4.257631	default	-0.07397488
-4.257631	loans	-0.07397488
-4.257631	Southeast	-0.07397488
-4.257631	Banking	-0.07397488
-4.257631	STB	-0.07397488
-4.257631	Murray	-0.07397488
-4.257631	Steinfeld	-0.07397488
-4.257631	but	-0.07397488
-4.257631	negotiating	-0.07397488
-4.257631	lenders	-0.07397488
-4.257631	This	-0.07397488
-4.257631	certainly	-0.07397488
-4.257631	reason	-0.07397488
-4.257631	heightened	-0.07397488
-4.257631	watchfulness	-0.07397488
-4.257631	stimulative	-0.07397488
-4.257631	steps	-0.07397488
-4.257631	published	-0.07397488
-4.257631	figure	-0.07397488
-4.257631	foreign	-0.07397488
-4.257631	exchange	-0.07397488
-4.257631	37	-0.07397488
-4.257631	end	-0.07397488
-4.257631	September	-0.07397488
-4.257631	47	-0.07397488
-4.257631	June	-0.07397488
-4.257631	59	-0.07397488
-4.257631	DUTCH	-0.07397488
-4.257631	COCOA	-0.07397488
-4.257631	PROCESSORS	-0.07397488
-4.257631	UNHAPPY	-0.07397488
-4.257631	WITH	-0.07397488
-4.257631	ICCO	-0.07397488
-4.257631	BUFFER	-0.07397488
-4.257631	Dutch	-0.07397488
-4.257631	cocoa	-0.07397488
-4.257631	processors	-0.07397488
-4.257631	are	-0.07397488
-4.257631	unhappy	-0.07397488
-4.257631	intermittent	-0.07397488
-4.257631	buying	-0.07397488
-4.257631	activities	-0.07397488
-4.257631	International	-0.07397488
-4.257631	Cocoa	-0.07397488
-4.257631	Organization	-0.07397488
-4.257631	buffer	-0.07397488
-4.257631	stock	-0.07397488
-4.257631	manager	-0.07397488
-4.257631	industry	-0.07397488
-4.257631	sources	-0.07397488
-4.257631	told	-0.07397488
-4.257631	Reuters	-0.07397488
-4.257631	These	-0.07397488
-4.257631	rates	-0.07397488
-4.257631	compared	-0.07397488
-4.257631	averages	-0.07397488
-4.257631	53	-0.07397488
-4.257631	three	-0.07397488
-4.257631	63	-0.07397488
-4.257631	bills	-0.07397488
-4.257631	sold	-0.07397488
-4.257631	week	-0.07397488
-4.257631	Miyazawa	-0.07397488
-4.257631	expects	-0.07397488
-4.257631	dollar	-0.07397488
-4.257631	rebound	-0.07397488
-4.257631	soon	-0.07397488
-4.257631	spokesman	-0.07397488
-4.257631	says	-0.07397488
-4.257631	price	-0.07397488
-4.257631	much	-0.07397488
-4.257631	below	-0.07397488
-4.257631	380	-0.07397488
-4.257631	390	-0.07397488
-4.257631	an	-0.07397488
-4.257631	ounce	-0.07397488
-4.257631	range	-0.07397488
-4.257631	430	-0.07397488
-4.257631	this	-0.07397488
-4.257631	Hockin	-0.07397488
-4.257631	responding	-0.07397488
-4.257631	questions	-0.07397488
-4.257631	House	-0.07397488
-4.257631	Commons	-0.07397488
-4.257631	why	-0.07397488
-4.257631	credit	-0.07397488
-4.257631	card	-0.07397488
-4.257631	which	-0.07397488
-4.257631	high	-0.07397488
-4.257631	28	-0.07397488
-4.257631	remain	-0.07397488
-4.257631	when	-0.07397488
-4.257631	falling	-0.07397488
-4.257631	Braatz	-0.07397488
-4.257631	Block	-0.07397488
-4.257631	advertising	-0.07397488
-4.257631	budget	-0.07397488
-4.257631	same	-0.07397488
-4.257631	helped	-0.07397488
-4.257631	bit	-0.07397488
-4.257631	by	-0.07397488
-4.257631	lower	-0.07397488
-4.257631	costs	-0.07397488
-4.257631	television	-0.07397488
-4.257631	ads	-0.07397488
-4.257631	Terms	-0.07397488
-4.257631	contract	-0.07397488
-4.257631	were	-0.07397488
-4.257631	disclosed	-0.07397488
-4.257631	Kellogg	-0.07397488
-4.257631	total	-0.07397488
-4.257631	cost	-0.07397488
-4.257631	plant	-0.07397488
-4.257631	300	-0.07397488
-4.257631	Exports	-0.07397488
-4.257631	905	-0.07397488
-4.257631	against	-0.07397488
-4.257631	929	-0.07397488
-4.257631	revised	-0.07397488
-4.257631	971	-0.07397488
-4.257631	816	-0.07397488
-4.257631	earlier	-0.07397488
-4.257631	while	-0.07397488
-4.257631	imports	-0.07397488
-4.257631	fell	-0.07397488
-4.257631	858	-0.07397488
-4.257631	895	-0.07397488
-4.257631	928	-0.07397488
-4.257631	888	-0.07397488
-4.257631	output	-0.07397488
-4.257631	off	-0.07397488
-4.257631	8	-0.07397488
-4.257631	bpd	-0.07397488
-4.257631	March	-0.07397488
-4.257631	13	-0.07397488
-4.257631	Petroleum	-0.07397488
-4.257631	Institute	-0.07397488
-4.257631	ITC	-0.07397488
-4.257631	case	-0.07397488
-4.257631	being	-0.07397488
-4.257631	presented	-0.07397488
-4.257631	Professor	-0.07397488
-4.257631	Rosalyn	-0.07397488
-4.257631	Higgins	-0.07397488
-4.257631	take	-0.07397488
-4.257631	further	-0.07397488
-4.257631	two	-0.07397488
-4.257631	days	-0.07397488
-4.257631	Another	-0.07397488
-4.257631	added	-0.07397488
-4.257631	If	-0.07397488
-4.257631	Americans	-0.07397488
-4.257631	do	-0.07397488
-4.257631	get	-0.07397488
-4.257631	what	-0.07397488
-4.257631	want	-0.07397488
-4.257631	push	-0.07397488
-4.257631	regardless	-0.07397488
-4.257631	G	-0.07397488
-4.257631	April	-0.07397488
-4.257631	heating	-0.07397488
-4.257631	91	-0.07397488
-4.257631	gallon	-0.07397488
-4.257631	pre	-0.07397488
-4.257631	corresponded	-0.07397488
-4.257631	losses	-0.07397488
-4.257631	stocks	-0.07397488
-4.257631	sector	-0.07397488
-4.257631	beginning	-0.07397488
-4.257631	They	-0.07397488
-4.257631	open	-0.07397488
-4.257631	secret	-0.07397488
-4.257631	Japan	-0.07397488
-4.257631	largest	-0.07397488
-4.257631	chip	-0.07397488
-4.257631	maker	-0.07397488
-4.257631	NEC	-0.07397488
-4.257631	happy	-0.07397488
-4.257631	viewed	-0.07397488
-4.257631	draconian	-0.07397488
-4.257631	measures	-0.07397488
-4.257631	MITI	-0.07397488
-4.257631	taking	-0.07397488
-4.257631	implement	-0.07397488
-4.257631	pact	-0.07397488
-4.257631	included	-0.07397488
-4.257631	enforced	-0.07397488
-4.257631	production	-0.07397488
-4.257631	cuts	-0.07397488
-4.257631	February	-0.07397488
-4.257631	retail	-0.07397488
-4.257631	sales	-0.07397488
-4.257631	above	-0.07397488
-4.257631	ago	-0.07397488
-4.257631	level	-0.07397488
-4.257631	117	-0.07397488
-4.257631	department	-0.07397488
-4.257631	AUSTRIAN	-0.07397488
-4.257631	BANKS	-0.07397488
-4.257631	DIVIDED	-0.07397488
-4.257631	OVER	-0.07397488
-4.257631	INTEREST	-0.07397488
-4.257631	RATE	-0.07397488
-4.257631	CUT	-0.07397488
-4.257631	Calls	-0.07397488
-4.257631	Austrian	-0.07397488
-4.257631	grown	-0.07397488
-4.257631	recent	-0.07397488
-4.257631	bank	-0.07397488
-4.257631	chiefs	-0.07397488
-4.257631	divided	-0.07397488
-4.257631	over	-0.07397488
-4.257631	issue	-0.07397488
-4.257631	/	-0.07397488
-4.257631	87	-0.07397488
-4.257631	86	-0.07397488
-4.257631	04	-0.07397488
-4.257631	03	-0.07397488
-4.257631	Usage	-0.07397488
-4.257631	--	-0.07397488
-4.257631	Domestic	-0.07397488
-4.257631	01	-0.07397488
-4.257631	66	-0.07397488
-4.257631	76	-0.07397488
-4.257631	96	-0.07397488
-4.257631	Total	-0.07397488
-4.257631	36	-0.07397488
-4.257631	End	-0.07397488
-4.257631	Stocks	-0.07397488
-4.257631	49	-0.07397488
-4.257631	Avge	-0.07397488
-4.257631	Price	-0.07397488
-4.257631	X	-0.07397488
-4.257631	56	-0.07397488
-4.257631	50	-0.07397488
-4.257631	weighted	-0.07397488
-4.257631	average	-0.07397488
-4.257631	five	-0.07397488
-4.257631	marketing	-0.07397488
-4.257631	projection	-0.07397488
-4.257631	Johnson	-0.07397488
-4.257631	operating	-0.07397488
-4.257631	licensing	-0.07397488
-4.257631	agreement	-0.07397488
-4.257631	Tate	-0.07397488
-4.257631	Lyle	-0.07397488
-4.257631	whose	-0.07397488
-4.257631	collaborative	-0.07397488
-4.257631	research	-0.07397488
-4.257631	scientists	-0.07397488
-4.257631	Queen	-0.07397488
-4.257631	Elizabeth	-0.07397488
-4.257631	College	-0.07397488
-4.257631	London	-0.07397488
-4.257631	led	-0.07397488
-4.257631	discovery	-0.07397488
-4.257631	Sucralose	-0.07397488
-4.257631	1976	-0.07397488
-4.257631	Production	-0.07397488
-4.257631	Bombay	-0.07397488
-4.257631	High	-0.07397488
-4.257631	part	-0.07397488
-4.257631	offshore	-0.07397488
-4.257631	field	-0.07397488
-4.257631	stabilised	-0.07397488
-4.257631	around	-0.07397488
-4.257631	500	-0.07397488
-4.257631	barrels	-0.07397488
-4.257631	years	-0.07397488
-4.257631	Sosnoff	-0.07397488
-4.257631	made	-0.07397488
-4.257631	numerous	-0.07397488
-4.257631	efforts	-0.07397488
-4.257631	express	-0.07397488
-4.257631	management	-0.07397488
-4.257631	ways	-0.07397488
-4.257631	maximizing	-0.07397488
-4.257631	shareholder	-0.07397488
-4.257631	values	-0.07397488
-4.257631	Caesars	-0.07397488
-4.257631	twicce	-0.07397488
-4.257631	refused	-0.07397488
-4.257631	request	-0.07397488
-4.257631	board	-0.07397488
-4.257631	seat	-0.07397488
-4.257631	Woodville	-0.07397488
-4.257631	makes	-0.07397488
-4.257631	technology	-0.07397488
-4.257631	precision	-0.07397488
-4.257631	aerospace	-0.07397488
-4.257631	automotive	-0.07397488
-4.257631	industries	-0.07397488
-4.257631	24	-0.07397488
-4.257631	stg	-0.07397488
-4.257631	Imports	-0.07397488
-4.257631	dropped	-0.07397488
-4.257631	Taka	-0.07397488
-4.257631	October	-0.07397488
-4.257631	unadjusted	-0.07397488
-4.257631	index	-0.07397488
-4.257631	104	-0.07397488
-4.257631	traders	-0.07397488
-4.257631	growers	-0.07397488
-4.257631	new	-0.07397488
-4.257631	because	-0.07397488
-4.257631	mechanism	-0.07397488
-4.257631	likely	-0.07397488
-4.257631	interefere	-0.07397488
-4.257631	free	-0.07397488
-4.257631	market	-0.07397488
-4.257631	forces	-0.07397488
-4.257631	prevent	-0.07397488
-4.257631	sharp	-0.07397488
-4.257631	rubber	-0.07397488
-4.257631	rises	-0.07397488
-4.257631	Dealers	-0.07397488
-4.257631	only	-0.07397488
-4.257631	temporary	-0.07397488
-4.257631	support	-0.07397488
-4.257631	150	-0.07397488
-4.257631	yen	-0.07397488
-4.257631	toward	-0.07397488
-4.257631	early	-0.07397488
-4.257631	Group	-0.07397488
-4.257631	Seven	-0.07397488
-4.257631	industrial	-0.07397488
-4.257631	nations	-0.07397488
-4.257631	meets	-0.07397488
-4.257631	discuss	-0.07397488
-4.257631	currencies	-0.07397488
-4.257631	again	-0.07397488
-4.257631	Rainbow	-0.07397488
-4.257631	proposed	-0.07397488
-4.257631	merger	-0.07397488
-4.257631	Progressive	-0.07397488
-4.257631	form	-0.07397488
-4.257631	company	-0.07397488
-4.257631	Astral	-0.07397488
-4.257631	Pacific	-0.07397488
-4.257631	Ltd	-0.07397488
-4.257631	>.	-0.07397488
-4.257631	limited	-0.07397488
-4.257631	ability	-0.07397488
-4.257631	buy	-0.07397488
-4.257631	SGL	-0.07397488
-4.257631	shares	-0.07397488
-4.257631	Dart	-0.07397488
-4.257631	Yield	-0.07397488
-4.257631	harvested	-0.07397488
-4.257631	acre	-0.07397488
-4.257631	219	-0.07397488
-4.257631	cwt	-0.07397488
-4.257631	218	-0.07397488
-4.257631	previously	-0.07397488
-4.257631	estimated	-0.07397488
-4.257631	lost	-0.07397488
-4.257631	658	-0.07397488
-4.257631	11	-0.07397488
-4.257631	ended	-0.07397488
-4.257631	July	-0.07397488
-4.257631	committing	-0.07397488
-4.257631	himself	-0.07397488
-4.257631	action	-0.07397488
-4.257631	lawmakers	-0.07397488
-4.257631	examine	-0.07397488
-4.257631	findings	-0.07397488
-4.257631	indicate	-0.07397488
-4.257631	certificates	-0.07397488
-4.257631	more	-0.07397488
-4.257631	cash	-0.07397488
-4.257631	payments	-0.07397488
-4.257631	compares	-0.07397488
-4.257631	forecast	-0.07397488
-4.257631	shortage	-0.07397488
-4.257631	system	-0.07397488
-4.257631	today	-0.07397488
-4.257631	Showboat	-0.07397488
-4.257631	opened	-0.07397488
-4.257631	hotel	-0.07397488
-4.257631	third	-0.07397488
-4.257631	gaming	-0.07397488
-4.257631	began	-0.07397488
-4.257631	Thursday	-0.07397488
-4.257631	regular	-0.07397488
-4.257631	basis	-0.07397488
-4.257631	test	-0.07397488
-4.257631	completed	-0.07397488
-4.257631	no	-0.07397488
-4.257631	comment	-0.07397488
-4.257631	official	-0.07397488
-4.257631	press	-0.07397488
-4.257631	reported	-0.07397488
-4.257631	farmers	-0.07397488
-4.257631	fear	-0.07397488
-4.257631	farm	-0.07397488
-4.257631	policy	-0.07397488
-4.257631	putting	-0.07397488
-4.257631	their	-0.07397488
-4.257631	wealth	-0.07397488
-4.257631	into	-0.07397488
-4.257631	building	-0.07397488
-4.257631	graves	-0.07397488
-4.257631	memorial	-0.07397488
-4.257631	halls	-0.07397488
-4.257631	ancestors	-0.07397488
-4.257631	homes	-0.07397488
-4.257631	point	-0.07397488
-4.257631	drop	-0.07397488
-4.257631	instead	-0.07397488
-4.257631	usual	-0.07397488
-4.257631	avoid	-0.07397488
-4.257631	hurting	-0.07397488
-4.257631	Sebaana	-0.07397488
-4.257631	Kizito	-0.07397488
-4.257631	squeeze	-0.07397488
-4.257631	resolved	-0.07397488
-4.257631	weeks	-0.07397488
-4.257631	sterling	-0.07397488
-4.257631	futures	-0.07397488
-4.257631	make	-0.07397488
-4.257631	another	-0.07397488
-4.257631	highs	-0.07397488
-4.257631	up	-0.07397488
-4.257631	6300	-0.07397488
-4.257631	6500	-0.07397488
-4.257631	positive	-0.07397488
-4.257631	atmosphere	-0.07397488
-4.257631	prevail	-0.07397488
-4.257631	before	-0.07397488
-4.257631	British	-0.07397488
-4.257631	elections	-0.07397488
-4.257631	possibly	-0.07397488
-4.257631	rate	-0.07397488
-4.257631	Horner	-0.07397488
-4.257631	principles	-0.07397488
-4.257631	draft	-0.07397488
-4.257631	proposal	-0.07397488
-4.257631	establishing	-0.07397488
-4.257631	offer	-0.07397488
-4.257631	rather	-0.07397488
-4.257631	posted	-0.07397488
-4.257631	limit	-0.07397488
-4.257631	amount	-0.07397488
-4.257631	non	-0.07397488
-4.257631	member	-0.07397488
-4.257631	can	-0.07397488
-4.257631	bought	-0.07397488
-4.257631	differentials	-0.07397488
-4.257631	paid	-0.07397488
-4.257631	different	-0.07397488
-4.257631	varieties	-0.07397488
-4.257631	comprising	-0.07397488
-4.257631	delegates	-0.07397488
-4.257631	It	-0.07397488
-4.257631	ruling	-0.07397488
-4.257631	key	-0.07397488
-4.257631	condition	-0.07397488
-4.257631	completing	-0.07397488
-4.257631	deal	-0.07397488
-4.257631	AGENCY	-0.07397488
-4.257631	RENT	-0.07397488
-4.257631	CAR	-0.07397488
-4.257631	INC	-0.07397488
-4.257631	AGNC	-0.07397488
-4.257631	JAN	-0.07397488
-4.257631	21	-0.07397488
-4.257631	553	-0.07397488
-4.257631	307	-0.07397488
-4.257631	45	-0.07397488
-4.257631	67	-0.07397488
-4.257631	18	-0.07397488
-4.257631	161	-0.07397488
-4.257631	118	-0.07397488
-4.257631	Share	-0.07397488
-4.257631	adjusted	-0.07397488
-4.257631	dividends	-0.07397488
-4.257631	On	-0.07397488
-4.257631	Tuesday	-0.07397488
-4.257631	Federal	-0.07397488
-4.257631	Statistics	-0.07397488
-4.257631	Office	-0.07397488
-4.257631	national	-0.07397488
-4.257631	stagnated	-0.07397488
-4.257631	real	-0.07397488
-4.257631	seasonally	-0.07397488
-4.257631	calendar	-0.07397488
-4.257631	terms	-0.07397488
-4.257631	fourth	-0.07397488
-4.257631	JAPAN	-0.07397488
-4.257631	UNDERSTANDS	-0.07397488
-4.257631	already	-0.07397488
-4.257631	asked	-0.07397488
-4.257631	institutional	-0.07397488
-4.257631	investors	-0.07397488
-4.257631	reduce	-0.07397488
-4.257631	HEAD	-0.07397488
-4.257631	SAYS	-0.07397488
-4.257631	SHOULD	-0.07397488
-4.257631	RICE	-0.07397488
-4.257631	PRICE	-0.07397488
-4.257631	should	-0.07397488
-4.257631	rice	-0.07397488
-4.257631	producer	-0.07397488
-4.257631	reduced	-0.07397488
-4.257631	Tetsuo	-0.07397488
-4.257631	Kondo	-0.07397488
-4.257631	director	-0.07397488
-4.257631	general	-0.07397488
-4.257631	Economic	-0.07397488
-4.257631	Planning	-0.07397488
-4.257631	Agency	-0.07397488
-4.257631	(	-0.07397488
-4.257631	EPA	-0.07397488
-4.257631	),	-0.07397488
-4.257631	reporters	-0.07397488
-4.257631	incudes	-0.07397488
-4.257631	right	-0.07397488
-4.257631	GM	-0.07397488
-4.257631	Canadian	-0.07397488
-4.257631	Transit	-0.07397488
-4.257631	Bus	-0.07397488
-4.257631	Parts	-0.07397488
-4.257631	business	-0.07397488
-4.257631	contingent	-0.07397488
-4.257631	satisfactory	-0.07397488
-4.257631	labor	-0.07397488
-4.257631	CRI	-0.07397488
-4.257631	yet	-0.07397488
-4.257631	declared	-0.07397488
-4.257631	distribution	-0.07397488
-4.257631	Park	-0.07397488
-4.257631	Meadows	-0.07397488
-4.257631	loan	-0.07397488
-4.257631	disposition	-0.07397488
-4.257631	BABCOCK	-0.07397488
-4.257631	EXPECTS	-0.07397488
-4.257631	FURTHER	-0.07397488
-4.257631	PROGRESS	-0.07397488
-4.257631	Babcock	-0.07397488
-4.257631	Plc	-0.07397488
-4.257631	BABK	-0.07397488
-4.257631	L	-0.07397488
-4.257631	statement	-0.07397488
-4.257631	accompanying	-0.07397488
-4.257631	final	-0.07397488
-4.257631	showing	-0.07397488
-4.257631	pretax	-0.07397488
-4.257631	profits	-0.07397488
-4.257631	overall	-0.07397488
-4.257631	progress	-0.07397488
-4.257631	Lister	-0.07397488
-4.257631	manufacturer	-0.07397488
-4.257631	dyer	-0.07397488
-4.257631	finisher	-0.07397488
-4.257631	cotton	-0.07397488
-4.257631	silk	-0.07397488
-4.257631	wool	-0.07397488
-4.257631	man	-0.07397488
-4.257631	fibres	-0.07397488
-4.257631	MOROCCO	-0.07397488
-4.257631	TENDERS	-0.07397488
-4.257631	THURSDAY	-0.07397488
-4.257631	FOR	-0.07397488
-4.257631	PL	-0.07397488
-4.257631	480	-0.07397488
-4.257631	WHEAT	-0.07397488
-4.257631	Morocco	-0.07397488
-4.257631	tender	-0.07397488
-4.257631	120	-0.07397488
-4.257631	210	-0.07397488
-4.257631	tonnes	-0.07397488
-4.257631	wheat	-0.07397488
-4.257631	cheapest	-0.07397488
-4.257631	variety	-0.07397488
-4.257631	preferred	-0.07397488
-4.257631	May	-0.07397488
-4.257631	shipments	-0.07397488
-4.257631	private	-0.07397488
-4.257631	export	-0.07397488
-4.257631	Its	-0.07397488
-4.257631	permanent	-0.07397488
-4.257631	health	-0.07397488
-4.257631	insurance	-0.07397488
-4.257631	leader	-0.07397488
-4.257631	Unit	-0.07397488
-4.257631	Trust	-0.07397488
-4.257631	group	-0.07397488
-4.257631	second	-0.07397488
-4.257631	K	-0.07397488
-4.257631	Eagle	-0.07397488
-4.257631	Star	-0.07397488
-4.257631	premiums	-0.07397488
-4.257631	rose	-0.07397488
-4.257631	32	-0.07397488
-4.257631	Anything	-0.07397488
-4.257631	possible	-0.07397488
-4.257631	phase	-0.07397488
-4.257631	even	-0.07397488
-4.257631	adjournment	-0.07397488
-4.257631	meeting	-0.07397488
-4.257631	until	-0.07397488
-4.257631	ALTUS	-0.07397488
-4.257631	BANK	-0.07397488
-4.257631	ALTS	-0.07397488
-4.257631	FAILS	-0.07397488
-4.257631	REACH	-0.07397488
-4.257631	AGREEMENT	-0.07397488
-4.257631	Altus	-0.07397488
-4.257631	Bank	-0.07397488
-4.257631	able	-0.07397488
-4.257631	reach	-0.07397488
-4.257631	definitive	-0.07397488
-4.257631	Horizon	-0.07397488
-4.257631	Financial	-0.07397488
-4.257631	Funding	-0.07397488
-4.257631	servicing	-0.07397488
-4.257631	Victor	-0.07397488
-4.257631	Savings	-0.07397488
-4.257631	Loan	-0.07397488
-4.257631	Association	-0.07397488
-4.257631	INTERMAGNETICS	-0.07397488
-4.257631	GENERAL	-0.07397488
-4.257631	INMA	-0.07397488
-4.257631	COMPLETES	-0.07397488
-4.257631	BUY	-0.07397488
-4.257631	Intermagnetics	-0.07397488
-4.257631	General	-0.07397488
-4.257631	purchase	-0.07397488
-4.257631	advanced	-0.07397488
-4.257631	Air	-0.07397488
-4.257631	Products	-0.07397488
-4.257631	Chemicals	-0.07397488
-4.257631	Inc	-0.07397488
-4.257631	APD	-0.07397488
-4.257631	Geodome	-0.07397488
-4.257631	ore	-0.07397488
-4.257631	zone	-0.07397488
-4.257631	discovered	-0.07397488
-4.257631	summer	-0.07397488
-4.257631	calculations	-0.07397488
-4.257631	Metropolitan	-0.07397488
-4.257631	acquire	-0.07397488
-4.257631	option	-0.07397488
-4.257631	all	-0.07397488
-4.257631	Metex	-0.07397488
-4.257631	owned	-0.07397488
-4.257631	William	-0.07397488
-4.257631	Hack	-0.07397488
-4.257631	together	-0.07397488
-4.257631	wife	-0.07397488
-4.257631	holds	-0.07397488
-4.257631	750	-0.07397488
-4.257631	common	-0.07397488
-4.257631	CityBank	-0.07397488
-4.257631	moving	-0.07397488
-4.257631	rapidly	-0.07397488
-4.257631	move	-0.07397488
-4.257631	us	-0.07397488
-4.257631	fifth	-0.07397488
-4.257631	Wells	-0.07397488
-4.257631	Fargo	-0.07397488
-4.257631	varying	-0.07397488
-4.257631	reports	-0.07397488
-4.257631	Dresdner	-0.07397488
-4.257631	shareholders	-0.07397488
-4.257631	offered	-0.07397488
-4.257631	every	-0.07397488
-4.257631	15	-0.07397488
-4.257631	held	-0.07397488
-4.257631	Bahrain	-0.07397488
-4.257631	based	-0.07397488
-4.257631	international	-0.07397488
-4.257631	banks	-0.07397488
-4.257631	Gulf	-0.07397488
-4.257631	BSC	-0.07397488
-4.257631	increased	-0.07397488
-4.257631	presence	-0.07397488
-4.257631	Saudi	-0.07397488
-4.257631	busy	-0.07397488
-4.257631	upgrading	-0.07397488
-4.257631	representative	-0.07397488
-4.257631	offices	-0.07397488
-4.257631	branch	-0.07397488
-4.257631	status	-0.07397488
-4.257631	allow	-0.07397488
-4.257631	dealing	-0.07397488
-4.257631	Saturday	-0.07397488
-4.257631	cattle	-0.07397488
-4.257631	slaughter	-0.07397488
-4.257631	guesstimated	-0.07397488
-4.257631	head	-0.07397488
-4.257631	USDA	-0.07397488
-4.257631	REPORTS	-0.07397488
-4.257631	350	-0.07397488
-4.257631	TONNES	-0.07397488
-4.257631	CORN	-0.07397488
-4.257631	UNKNOWN	-0.07397488
-4.257631	Agriculture	-0.07397488
-4.257631	Department	-0.07397488
-4.257631	exporters	-0.07397488
-4.257631	corn	-0.07397488
-4.257631	delivery	-0.07397488
-4.257631	unknown	-0.07397488
-4.257631	destinations	-0.07397488
-4.257631	season	-0.07397488
-4.257631	Italy	-0.07397488
-4.257631	attend	-0.07397488
-4.257631	Paris	-0.07397488
-4.257631	grounds	-0.07397488
-4.257631	grouping	-0.07397488
-4.257631	United	-0.07397488
-4.257631	States	-0.07397488
-4.257631	West	-0.07397488
-4.257631	Germany	-0.07397488
-4.257631	France	-0.07397488
-4.257631	Britain	-0.07397488
-4.257631	role	-0.07397488
-4.257631	stamping	-0.07397488
-4.257631	agreements	-0.07397488
-4.257631	taken	-0.07397488
-4.257631	One	-0.07397488
-4.257631	purpose	-0.07397488
-4.257631	consider	-0.07397488
-4.257631	transaction	-0.07397488
-4.257631	explained	-0.07397488
-4.257631	In	-0.07397488
-4.257631	each	-0.07397488
-4.257631	study	-0.07397488
-4.257631	found	-0.07397488
-4.257631	little	-0.07397488
-4.257631	evidence	-0.07397488
-4.257631	factor	-0.07397488
-4.257631	any	-0.07397488
-4.257631	impact	-0.07397488
-4.257631	trade	-0.07397488
-4.257631	deficit	-0.07397488
-4.257631	SOUTH	-0.07397488
-4.257631	AFRICAN	-0.07397488
-4.257631	FOREIGN	-0.07397488
-4.257631	RESERVES	-0.07397488
-4.257631	UP	-0.07397488
-4.257631	SHARPLY	-0.07397488
-4.257631	Africa	-0.07397488
-4.257631	gold	-0.07397488
-4.257631	assets	-0.07397488
-4.257631	rising	-0.07397488
-4.257631	almost	-0.07397488
-4.257631	Reserve	-0.07397488
-4.257631	Governor	-0.07397488
-4.257631	Gerhard	-0.07397488
-4.257631	de	-0.07397488
-4.257631	Kock	-0.07397488
-4.257631	COLOMBIA	-0.07397488
-4.257631	COFFEE	-0.07397488
-4.257631	REGISTRATIONS	-0.07397488
-4.257631	REMAIN	-0.07397488
-4.257631	OPEN	-0.07397488
-4.257631	Colombia	-0.07397488
-4.257631	coffee	-0.07397488
-4.257631	registrations	-0.07397488
-4.257631	there	-0.07397488
-4.257631	plans	-0.07397488
-4.257631	close	-0.07397488
-4.257631	them	-0.07397488
-4.257631	means	-0.07397488
-4.257631	unlimited	-0.07397488
-4.257631	registered	-0.07397488
-4.257631	Gilberto	-0.07397488
-4.257631	Arango	-0.07397488
-4.257631	president	-0.07397488
-4.257631	association	-0.07397488
-4.257631	City	-0.07397488
-4.257631	seeking	-0.07397488
-4.257631	improving	-0.07397488
-4.257631	realizing	-0.07397488
-4.257631	inherent	-0.07397488
-4.257631	subsidiaries	-0.07397488
-4.257631	Future	-0.07397488
-4.257631	discussions	-0.07397488
-4.257631	topics	-0.07397488
-4.257631	commitment	-0.07397488
-4.257631	privatization	-0.07397488
-4.257631	trading	-0.07397488
-4.257631	entities	-0.07397488
-4.257631	public	-0.07397488
-4.257631	disclosure	-0.07397488
-4.257631	involved	-0.07397488
-4.257631	recognition	-0.07397488
-4.257631	supply	-0.07397488
-4.257631	reductions	-0.07397488
-4.257631	kept	-0.07397488
-4.257631	world	-0.07397488
-4.257631	prices	-0.07397488
-4.257631	otherwise	-0.07397488
-4.257631	organizations	-0.07397488
-4.257631	Australian	-0.07397488
-4.257631	proposals	-0.07397488
-4.257631	welcome	-0.07397488
-4.257631	assessments	-0.07397488
-4.257631	we	-0.07397488
-4.257631	august	-0.07397488
-4.257631	produce	-0.07397488
-4.257631	our	-0.07397488
-4.257631	own	-0.07397488
-4.257631	quota	-0.07397488
-4.257631	sell	-0.07397488
-4.257631	additional	-0.07397488
-4.257631	amounts	-0.07397488
-4.257631	ecuador	-0.07397488
-4.257631	repaying	-0.07397488
-4.257631	yesterday	-0.07397488
-4.257631	rebate	-0.07397488
-4.257631	ever	-0.07397488
-4.257631	granted	-0.07397488
-4.257631	)	-0.07397488
-4.257631	aid	-0.07397488
-4.257631	package	-0.07397488
-4.257631	called	-0.07397488
-4.257631	Exploration	-0.07397488
-4.257631	Development	-0.07397488
-4.257631	Incentive	-0.07397488
-4.257631	Program	-0.07397488
-4.257631	restrict	-0.07397488
-4.257631	individual	-0.07397488
-4.257631	claim	-0.07397488
-4.257631	.-	-0.07397488
-4.257631	USSR	-0.07397488
-4.257631	grains	-0.07397488
-4.257631	amounted	-0.07397488
-4.257631	152	-0.07397488
-4.257631	600	-0.07397488
-4.257631	808	-0.07397488
-4.257631	100	-0.07397488
-4.257631	518	-0.07397488
-4.257631	soybeans	-0.07397488
-4.257631	MET	-0.07397488
-4.257631	COIL	-0.07397488
-4.257631	SYSTEMS	-0.07397488
-4.257631	METS	-0.07397488
-4.257631	FEB	-0.07397488
-4.257631	206	-0.07397488
-4.257631	Sales	-0.07397488
-4.257631	mths	-0.07397488
-4.257631	38	-0.07397488
-4.257631	228	-0.07397488
-4.257631	649	-0.07397488
-4.257631	Qtly	-0.07397488
-4.257631	div	-0.07397488
-4.257631	prior	-0.07397488
-4.257631	Pay	-0.07397488
-4.257631	Record	-0.07397488
-4.257631	monetary	-0.07397488
-4.257631	declined	-0.07397488
-4.257631	57	-0.07397488
-4.257631	146	-0.07397488
-4.257631	report	-0.07397488
-4.257631	charge	-0.07397488
-4.257631	bad	-0.07397488
-4.257631	doubtful	-0.07397488
-4.257631	debts	-0.07397488
-4.257631	187	-0.07397488
-4.257631	162	-0.07397488
-4.257631	Ecuador	-0.07397488
-4.257631	recently	-0.07397488
-4.257631	pumping	-0.07397488
-4.257631	260	-0.07397488
-4.257631	Sept	-0.07397488
-4.257631	Nov	-0.07397488
-4.257631	Lower	-0.07397488
-4.257631	Mississippi	-0.07397488
-4.257631	River	-0.07397488
-4.257631	Memphis	-0.07397488
-4.257631	Cairo	-0.07397488
-4.257631	137	-0.07397488
-4.257631	bid	-0.07397488
-4.257631	145	-0.07397488
-4.257631	Dec	-0.07397488
-4.257631	section	-0.07397488
-4.257631	125	-0.07397488
-4.257631	135	-0.07397488
-4.257631	comparison	-0.07397488
-4.257631	Western	-0.07397488
-4.257631	Taiwan	-0.07397488
-4.257631	Have	-0.07397488
-4.257631	holding	-0.07397488
-4.257631	talks	-0.07397488
-4.257631	clear	-0.07397488
-4.257631	how	-0.07397488
-4.257631	far	-0.07397488
-4.257631	Washington	-0.07397488
-4.257631	wants	-0.07397488
-4.257631	ALBANY	-0.07397488
-4.257631	INTERNATIONAL	-0.07397488
-4.257631	AAICA	-0.07397488
-4.257631	27	-0.07397488
-4.257631	584	-0.07397488
-4.257631	276	-0.07397488
-4.257631	97	-0.07397488
-4.257631	84	-0.07397488
-4.257631	39	-0.07397488
-4.257631	848	-0.07397488
-4.257631	290	-0.07397488
-4.257631	241	-0.07397488
-4.257631	25	-0.07397488
-4.257631	rains	-0.07397488
-4.257631	replenished	-0.07397488
-4.257631	formerly	-0.07397488
-4.257631	low	-0.07397488
-4.257631	soil	-0.07397488
-4.257631	moisture	-0.07397488
-4.257631	areas	-0.07397488
-4.257631	rated	-0.07397488
-4.257631	good	-0.07397488
-4.257631	IC	-0.07397488
-4.257631	use	-0.07397488
-4.257631	proceeds	-0.07397488
-4.257631	asset	-0.07397488
-4.257631	sale	-0.07397488
-4.257631	invest	-0.07397488
-4.257631	return	-0.07397488
-4.257631	goods	-0.07397488
-4.257631	services	-0.07397488
-4.257631	Feed	-0.07397488
-4.257631	400	-0.07397488
-4.257631	460	-0.07397488
-4.257631	Other	-0.07397488
-4.257631	85	-0.07397488
-4.257631	Ttl	-0.07397488
-4.257631	Domes	-0.07397488
-4.257631	485	-0.07397488
-4.257631	543	-0.07397488
-4.257631	487	-0.07397488
-4.257631	545	-0.07397488
-4.257631	Stcks	-0.07397488
-4.257631	111	-0.07397488
-4.257631	184	-0.07397488
-4.257631	AvgPrice	-0.07397488
-4.257631	00	-0.07397488
-4.257631	23	-0.07397488
-4.257631	Average	-0.07397488
-4.257631	bushel	-0.07397488
-4.257631	cooperative	-0.07397488
-4.257631	enterprises	-0.07397488
-4.257631	employing	-0.07397488
-4.257631	people	-0.07397488
-4.257631	MARATHON	-0.07397488
-4.257631	NATIONAL	-0.07397488
-4.257631	YEAR	-0.07397488
-4.257631	78	-0.07397488
-4.257631	725	-0.07397488
-4.257631	451	-0.07397488
-4.257631	Assets	-0.07397488
-4.257631	98	-0.07397488
-4.257631	Loans	-0.07397488
-4.257631	Deposits	-0.07397488
-4.257631	90	-0.07397488
-4.257631	warships	-0.07397488
-4.257631	gulf	-0.07397488
-4.257631	protected	-0.07397488
-4.257631	Kuwaiti	-0.07397488
-4.257631	ship	-0.07397488
-4.257631	sailed	-0.07397488
-4.257631	arms	-0.07397488
-4.257631	Kuwait	-0.07397488
-4.257631	Neyra	-0.07397488
-4.257631	reuters	-0.07397488
-4.257631	peru	-0.07397488
-4.257631	term	-0.07397488
-4.257631	debt	-0.07397488
-4.257631	including	-0.07397488
-4.257631	lines	-0.07397488
-4.257631	million	-0.07397488
-4.257631	dollars	-0.07397488
-4.257631	so	-0.07397488
-4.257631	working	-0.07397488
-4.257631	capital	-0.07397488
-4.257631	credits	-0.07397488
-4.257631	ADSTEAM	-0.07397488
-4.257631	RIGHTS	-0.07397488
-4.257631	ISSUE	-0.07397488
-4.257631	RAISE	-0.07397488
-4.257631	MLN	-0.07397488
-4.257631	DLRS	-0.07397488
-4.257631	Adelaide	-0.07397488
-4.257631	Steamship	-0.07397488
-4.257631	Co	-0.07397488
-4.257631	ADSA	-0.07397488
-4.257631	Adsteam	-0.07397488
-4.257631	rights	-0.07397488
-4.257631	raise	-0.07397488
-4.257631	investment	-0.07397488
-4.257631	Australia	-0.07397488
-4.257631	overseas	-0.07397488
-4.257631	Operating	-0.07397488
-4.257631	201	-0.07397488
-4.257631	mine	-0.07397488
-4.257631	life	-0.07397488
-4.257631	171	-0.07397488
-4.257631	covered	-0.07397488
-4.257631	dairy	-0.07397488
-4.257631	peanuts	-0.07397488
-4.257631	sugar	-0.07397488
-4.257631	Energy	-0.07397488
-4.257631	increases	-0.07397488
-4.257631	units	-0.07397488
-4.257631	outstanding	-0.07397488
-4.257631	raises	-0.07397488
-4.257631	proved	-0.07397488
-4.257631	SEOUL	-0.07397488
-4.257631	ANNOUNCES	-0.07397488
-4.257631	MORE	-0.07397488
-4.257631	TARIFF	-0.07397488
-4.257631	CUTS	-0.07397488
-4.257631	Korea	-0.07397488
-4.257631	import	-0.07397488
-4.257631	taxes	-0.07397488
-4.257631	items	-0.07397488
-4.257631	construction	-0.07397488
-4.257631	equipment	-0.07397488
-4.257631	photographic	-0.07397488
-4.257631	film	-0.07397488
-4.257631	cigarettes	-0.07397488
-4.257631	pipe	-0.07397488
-4.257631	tobacco	-0.07397488
-4.257631	help	-0.07397488
-4.257631	surplus	-0.07397488
-4.257631	finance	-0.07397488
-4.257631	ministry	-0.07397488
-4.257631	running	-0.07397488
-4.257631	wind	-0.07397488
-4.257631	affairs	-0.07397488
-4.257631	proceeding	-0.07397488
-4.257631	quickly	-0.07397488
-4.257631	acquisition	-0.07397488
-4.257631	substantially	-0.07397488
-4.257631	lessen	-0.07397488
-4.257631	competition	-0.07397488
-4.257631	harm	-0.07397488
-4.257631	Niskanen	-0.07397488
-4.257631	vulnerable	-0.07397488
-4.257631	resurgence	-0.07397488
-4.257631	economic	-0.07397488
-4.257631	nationalism	-0.07397488
-4.257631	exports	-0.07397488
-4.257631	Canada	-0.07397488
-4.257631	very	-0.07397488
-4.257631	heavy	-0.07397488
-4.257631	workload	-0.07397488
-4.257631	due	-0.07397488
-4.257631	number	-0.07397488
-4.257631	applications	-0.07397488
-4.257631	programs	-0.07397488
-4.257631	Conservation	-0.07397488
-4.257631	Hertz	-0.07397488
-4.257631	WELBILT	-0.07397488
-4.257631	WELB	-0.07397488
-4.257631	ACQUISITIONS	-0.07397488
-4.257631	Welbilt	-0.07397488
-4.257631	announced	-0.07397488
-4.257631	acquisitions	-0.07397488
-4.257631	Manufacturing	-0.07397488
-4.257631	Food	-0.07397488
-4.257631	Machinery	-0.07397488
-4.257631	Engineering	-0.07397488
-4.257631	manufacturers	-0.07397488
-4.257631	automated	-0.07397488
-4.257631	bakery	-0.07397488
-4.257631	headquartered	-0.07397488
-4.257631	Toronto	-0.07397488
-4.257631	Dollar	-0.07397488
-4.257631	trades	-0.07397488
-4.257631	post	-0.07397488
-4.257631	war	-0.07397488
-4.257631	139	-0.07397488
-4.257631	Tokyo	-0.07397488
-4.257631	brokers	-0.07397488
-4.257631	Linotype	-0.07397488
-4.257631	unit	-0.07397488
-4.257631	Eschborn	-0.07397488
-4.257631	200	-0.07397488
-4.257631	Five	-0.07397488
-4.257631	joined	-0.07397488
-4.257631	later	-0.07397488
-4.257631	debate	-0.07397488
-4.257631	coordination	-0.07397488
-4.257631	Standard	-0.07397488
-4.257631	Poor	-0.07397488
-4.257631	weaker	-0.07397488
-4.257631	competitiveness	-0.07397488
-4.257631	face	-0.07397488
-4.257631	labour	-0.07397488
-4.257631	mean	-0.07397488
-4.257631	deteriorating	-0.07397488
-4.257631	account	-0.07397488
-4.257631	balance	-0.07397488
-4.257631	external	-0.07397488
-4.257631	Experts	-0.07397488
-4.257631	refloat	-0.07397488
-4.257631	bodies	-0.07397488
-4.257631	trapped	-0.07397488
-4.257631	amid	-0.07397488
-4.257631	debris	-0.07397488
-4.257631	operators	-0.07397488
-4.257631	find	-0.07397488
-4.257631	hard	-0.07397488
-4.257631	either	-0.07397488
-4.257631	way	-0.07397488
-4.257631	concerted	-0.07397488
-4.257631	central	-0.07397488
-4.257631	intervention	-0.07397488
-4.257631	DETAILS	-0.07397488
-4.257631	CONSERVATION	-0.07397488
-4.257631	CROP	-0.07397488
-4.257631	ENROLLMENT	-0.07397488
-4.257631	Farmers	-0.07397488
-4.257631	enrolled	-0.07397488
-4.257631	acres	-0.07397488
-4.257631	program	-0.07397488
-4.257631	latest	-0.07397488
-4.257631	conservation	-0.07397488
-4.257631	signup	-0.07397488
-4.257631	four	-0.07397488
-4.257631	specialists	-0.07397488
-4.257631	Deputy	-0.07397488
-4.257631	prime	-0.07397488
-4.257631	minister	-0.07397488
-4.257631	Kim	-0.07397488
-4.257631	Mahn	-0.07397488
-4.257631	Je	-0.07397488
-4.257631	local	-0.07397488
-4.257631	businessmen	-0.07397488
-4.257631	question	-0.07397488
-4.257631	revaluing	-0.07397488
-4.257631	won	-0.07397488
-4.257631	maintain	-0.07397488
-4.257631	steadfast	-0.07397488
-4.257631	position	-0.07397488
-4.257631	NEWSCOPE	-0.07397488
-4.257631	LTD	-0.07397488
-4.257631	94	-0.07397488
-4.257631	319	-0.07397488
-4.257631	337	-0.07397488
-4.257631	702	-0.07397488
-4.257631	016	-0.07397488
-4.257631	899	-0.07397488
-4.257631	513	-0.07397488
-4.257631	239	-0.07397488
-4.257631	106	-0.07397488
-4.257631	includes	-0.07397488
-4.257631	250	-0.07397488
-4.257631	writedown	-0.07397488
-4.257631	crop	-0.07397488
-4.257631	doubly	-0.07397488
-4.257631	susceptible	-0.07397488
-4.257631	poor	-0.07397488
-4.257631	encouraged	-0.07397488
-4.257631	fertilisers	-0.07397488
-4.257631	insecticides	-0.07397488
-4.257631	treat	-0.07397488
-4.257631	pod	-0.07397488
-4.257631	rot	-0.07397488
-4.257631	Better	-0.07397488
-4.257631	sectors	-0.07397488
-4.257631	offset	-0.07397488
-4.257631	financing	-0.07397488
-4.257631	Sperry	-0.07397488
-4.257631	Aerospace	-0.07397488
-4.257631	sharing	-0.07397488
-4.257631	Systems	-0.07397488
-4.257631	subsidiary	-0.07397488
-4.257631	Honeywell	-0.07397488
-4.257631	Bull	-0.07397488
-4.257631	light	-0.07397488
-4.257631	Iran	-0.07397488
-4.257631	deployment	-0.07397488
-4.257631	Chinese	-0.07397488
-4.257631	built	-0.07397488
-4.257631	missiles	-0.07397488
-4.257631	cover	-0.07397488
-4.257631	entrance	-0.07397488
-4.257631	THAI	-0.07397488
-4.257631	TIN	-0.07397488
-4.257631	EXPORTS	-0.07397488
-4.257631	RISE	-0.07397488
-4.257631	JANUARY	-0.07397488
-4.257631	Thailand	-0.07397488
-4.257631	exported	-0.07397488
-4.257631	tin	-0.07397488
-4.257631	metal	-0.07397488
-4.257631	330	-0.07397488
-4.257631	Mineral	-0.07397488
-4.257631	Resources	-0.07397488
-4.257631	restructuring	-0.07397488
-4.257631	consolidation	-0.07397488
-4.257631	BRAZIL	-0.07397488
-4.257631	WEATHER	-0.07397488
-4.257631	SUMMARY	-0.07397488
-4.257631	NOAA	-0.07397488
-4.257631	Wet	-0.07397488
-4.257631	weather	-0.07397488
-4.257631	Rio	-0.07397488
-4.257631	Grande	-0.07397488
-4.257631	Sul	-0.07397488
-4.257631	Brazil	-0.07397488
-4.257631	benefitting	-0.07397488
-4.257631	mostly	-0.07397488
-4.257631	setting	-0.07397488
-4.257631	filling	-0.07397488
-4.257631	pods	-0.07397488
-4.257631	Joint	-0.07397488
-4.257631	Agricultural	-0.07397488
-4.257631	Facility	-0.07397488
-4.257631	Commerce	-0.07397488
-4.257631	Departments	-0.07397488
-4.257631	USAir	-0.07397488
-4.257631	closed	-0.07397488
-4.257631	volume	-0.07397488
-4.257631	Z	-0.07397488
-4.257631	SEVEN	-0.07397488
-4.257631	FUND	-0.07397488
-4.257631	HIGHER	-0.07397488
-4.257631	Fund	-0.07397488
-4.257631	earn	-0.07397488
-4.257631	comprised	-0.07397488
-4.257631	41	-0.07397488
-4.257631	crude	-0.07397488
-4.257631	sunflowerseed	-0.07397488
-4.257631	bulk	-0.07397488
-4.257631	ranging	-0.07397488
-4.257631	344	-0.07397488
-4.257631	348	-0.07397488
-4.257631	refined	-0.07397488
-4.257631	drums	-0.07397488
-4.257631	517	-0.07397488
-4.257631	522	-0.07397488
-4.257631	tonne	-0.07397488
-4.257631	freight	-0.07397488
-4.257631	Alexandria	-0.07397488
-4.257631	delivered	-0.07397488
-4.257631	quality	-0.07397488
-4.257631	office	-0.07397488
-4.257631	base	-0.07397488
-4.257631	1980	-0.07397488
-4.257631	stood	-0.07397488
-4.257631	116	-0.07397488
-4.257631	November	-0.07397488
-4.257631	INVESTMENT	-0.07397488
-4.257631	FIRM	-0.07397488
-4.257631	RAISES	-0.07397488
-4.257631	TVX	-0.07397488
-4.257631	TVXG	-0.07397488
-4.257631	STAKE	-0.07397488
-4.257631	WEDGE	-0.07397488
-4.257631	Houston	-0.07397488
-4.257631	firm	-0.07397488
-4.257631	raised	-0.07397488
-4.257631	stake	-0.07397488
-4.257631	Broadcast	-0.07397488
-4.257631	682	-0.07397488
-4.257631	419	-0.07397488
-4.257631	559	-0.07397488
-4.257631	Yesterday	-0.07397488
-4.257631	Crazy	-0.07397488
-4.257631	Eddie	-0.07397488
-4.257631	agreed	-0.07397488
-4.257631	oppose	-0.07397488
-4.257631	slate	-0.07397488
-4.257631	candidates	-0.07397488
-4.257631	Committee	-0.07397488
-4.257631	Restore	-0.07397488
-4.257631	Stockholder	-0.07397488
-4.257631	Value	-0.07397488
-4.257631	Oppenheimer	-0.07397488
-4.257631	Palmieri	-0.07397488
-4.257631	P	-0.07397488
-4.257631	.>	-0.07397488
-4.257631	Entertainment	-0.07397488
-4.257631	Marketing	-0.07397488
-4.257631	EM	-0.07397488
-4.257631	>,	-0.07397488
-4.257631	oust	-0.07397488
-4.257631	Brennan	-0.07397488
-4.257631	payment	-0.07397488
-4.257631	moratorium	-0.07397488
-4.257631	Royal	-0.07397488
-4.257631	CAMPBELL	-0.07397488
-4.257631	SHR	-0.07397488
-4.257631	PROFIT	-0.07397488
-4.257631	THREE	-0.07397488
-4.257631	CTS	-0.07397488
-4.257631	VS	-0.07397488
-4.257631	Taft	-0.07397488
-4.257631	Narragansett	-0.07397488
-4.257631	requsted	-0.07397488
-4.257631	response	-0.07397488
-4.257631	creditors	-0.07397488
-4.257631	brought	-0.07397488
-4.257631	actions	-0.07397488
-4.257631	Council	-0.07397488
-4.257631	states	-0.07397488
-4.257631	application	-0.07397488
-4.257631	governments	-0.07397488
-4.257631	strike	-0.07397488
-4.257631	out	-0.07397488
-4.257631	these	-0.07397488
-4.257631	J	-0.07397488
-4.257631	H	-0.07397488
-4.257631	writeoff	-0.07397488
-4.257631	resulted	-0.07397488
-4.257631	43	-0.07397488
-4.257631	Shearson	-0.07397488
-4.257631	Lehman	-0.07397488
-4.257631	growing	-0.07397488
-4.257631	described	-0.07397488
-4.257631	analysts	-0.07397488
-4.257631	top	-0.07397488
-4.257631	Retail	-0.07397488
-4.257631	brokerage	-0.07397488
-4.257631	give	-0.07397488
-4.257631	Nippon	-0.07397488
-4.257631	Life	-0.07397488
-4.257631	ringside	-0.07397488
-4.257631	commissions	-0.07397488
-4.257631	Wall	-0.07397488
-4.257631	Street	-0.07397488
-4.257631	where	-0.07397488
-4.257631	invests	-0.07397488
-4.257631	increasing	-0.07397488
-4.257631	topic	-0.07397488
-4.257631	continued	-0.07397488
-4.257631	slide	-0.07397488
-4.257631	Lebanese	-0.07397488
-4.257631	pound	-0.07397488
-4.257631	undermining	-0.07397488
-4.257631	effective	-0.07397488
-4.257631	DANISH	-0.07397488
-4.257631	CREDIT	-0.07397488
-4.257631	DOWNGRADING	-0.07397488
-4.257631	NOT	-0.07397488
-4.257631	DRAMATIC	-0.07397488
-4.257631	MINISTER	-0.07397488
-4.257631	Finance	-0.07397488
-4.257631	Minister	-0.07397488
-4.257631	Palle	-0.07397488
-4.257631	Simonsen	-0.07397488
-4.257631	downgrading	-0.07397488
-4.257631	Denmark	-0.07397488
-4.257631	rating	-0.07397488
-4.257631	dramatised	-0.07397488
-4.257631	cited	-0.07397488
-4.257631	recheduling	-0.07397488
-4.257631	improved	-0.07397488
-4.257631	perceptions	-0.07397488
-4.257631	African	-0.07397488
-4.257631	economy	-0.07397488
-4.257631	Four	-0.07397488
-4.257631	congressional	-0.07397488
-4.257631	panels	-0.07397488
-4.257631	met	-0.07397488
-4.257631	portions	-0.07397488
-4.257631	wideranging	-0.07397488
-4.257631	bill	-0.07397488
-4.257631	intends	-0.07397488
-4.257631	companies	-0.07397488
-4.257631	fight	-0.07397488
-4.257631	unfair	-0.07397488
-4.257631	practices	-0.07397488
-4.257631	owns	-0.07397488
-4.257631	CVN	-0.07397488
-4.257631	name	-0.07397488
-4.257631	DECISION	-0.07397488
-4.257631	EXPECTED	-0.07397488
-4.257631	ON	-0.07397488
-4.257631	ORDNANCE	-0.07397488
-4.257631	SALE	-0.07397488
-4.257631	Defence	-0.07397488
-4.257631	secretary	-0.07397488
-4.257631	George	-0.07397488
-4.257631	Younger	-0.07397488
-4.257631	announce	-0.07397488
-4.257631	decision	-0.07397488
-4.257631	state	-0.07397488
-4.257631	Ordnance	-0.07397488
-4.257631	parliamentary	-0.07397488
-4.257631	joint	-0.07397488
-4.257631	venture	-0.07397488
-4.257631	merchant	-0.07397488
-4.257631	China	-0.07397488
-4.257631	National	-0.07397488
-4.257631	Industrial	-0.07397488
-4.257631	IBJT	-0.07397488
-4.257631	T	-0.07397488
-4.257631	Town	-0.07397488
-4.257631	Jewelry	-0.07397488
-4.257631	wasn	-0.07397488
-4.257631	t	-0.07397488
-4.257631	Wednesday	-0.07397488
-4.257631	turned	-0.07397488
-4.257631	avalanche	-0.07397488
-4.257631	expatriate	-0.07397488
-4.257631	workforce	-0.07397488
-4.257631	fallen	-0.07397488
-4.257631	sharply	-0.07397488
-4.257631	CITGO	-0.07397488
-4.257631	CRUDE	-0.07397488
-4.257631	POSTINGS	-0.07397488
-4.257631	TODAY	-0.07397488
-4.257631	WTI	-0.07397488
-4.257631	BBL	-0.07397488
-4.257631	ORS	-0.07397488
-4.257631	SEEKS	-0.07397488
-4.257631	CANADIAN	-0.07397488
-4.257631	FUNDS	-0.07397488
-4.257631	HEAVY	-0.07397488
-4.257631	OIL	-0.07397488
-4.257631	TEST	-0.07397488
-4.257631	Dominion	-0.07397488
-4.257631	Securities	-0.07397488
-4.257631	Alberta	-0.07397488
-4.257631	appointed	-0.07397488
-4.257631	Canadaina	-0.07397488
-4.257631	organized	-0.07397488
-4.257631	exploit	-0.07397488
-4.257631	opportunities	-0.07397488
-4.257631	Europe	-0.07397488
-4.257631	Recent	-0.07397488
-4.257631	estimates	-0.07397488
-4.257631	put	-0.07397488
-4.257631	European	-0.07397488
-4.257631	Currency	-0.07397488
-4.257631	Units	-0.07397488
-4.257631	1990	-0.07397488
-4.257631	Ecus	-0.07397488
-4.257631	Kistler	-0.07397488
-4.257631	result	-0.07397488
-4.257631	savings	-0.07397488
-4.257631	FHL	-0.07397488
-4.257631	SETS	-0.07397488
-4.257631	RATES	-0.07397488
-4.257631	DEBT	-0.07397488
-4.257631	OFFERING	-0.07397488
-4.257631	Home	-0.07397488
-4.257631	Banks	-0.07397488
-4.257631	set	-0.07397488
-4.257631	offering	-0.07397488
-4.257631	70	-0.07397488
-4.257631	065	-0.07397488
-4.257631	65	-0.07397488
-4.257631	375	-0.07397488
-4.257631	LIPC	-0.07397488
-4.257631	BEEF	-0.07397488
-4.257631	APRIL	-0.07397488
-4.257631	Livestock	-0.07397488
-4.257631	Industry	-0.07397488
-4.257631	Promotion	-0.07397488
-4.257631	515	-0.07397488
-4.257631	beef	-0.07397488
-4.257631	fiscal	-0.07397488
-4.257631	started	-0.07397488
-4.257631	simultaneous	-0.07397488
-4.257631	813	-0.07397488
-4.257631	smaller	-0.07397488
-4.257631	seasonal	-0.07397488
-4.257631	decrease	-0.07397488
-4.257631	particularly	-0.07397488
-4.257631	cold	-0.07397488
-4.257631	delaying	-0.07397488
-4.257631	work	-0.07397488
-4.257631	EXPORTERS	-0.07397488
-4.257631	REPORT	-0.07397488
-4.257631	SOLD	-0.07397488
-4.257631	DESTINATIONS	-0.07397488
-4.257631	Morgan	-0.07397488
-4.257631	Stanley	-0.07397488
-4.257631	Salomon	-0.07397488
-4.257631	Brothers	-0.07397488
-4.257631	hired	-0.07397488
-4.257631	1983	-0.07397488
-4.257631	advise	-0.07397488
-4.257631	Southern	-0.07397488
-4.257631	Santa	-0.07397488
-4.257631	Fe	-0.07397488
-4.257631	appraised	-0.07397488
-4.257631	worth	-0.07397488
-4.257631	800	-0.07397488
-4.257631	internal	-0.07397488
-4.257631	valuations	-0.07397488
-4.257631	Acmex	-0.07397488
-4.257631	presently	-0.07397488
-4.257631	entitled	-0.07397488
-4.257631	Cheetham	-0.07397488
-4.257631	issued	-0.07397488
-4.257631	Discount	-0.07397488
-4.257631	McGroarty	-0.07397488
-4.257631	impressive	-0.07397488
-4.257631	".	-0.07397488
-4.257631	FRENCH	-0.07397488
-4.257631	FALL	-0.07397488
-4.257631	REPAYMENT	-0.07397488
-4.257631	French	-0.07397488
-4.257631	19	-0.07397488
-4.257631	following	-0.07397488
-4.257631	repayment	-0.07397488
-4.257631	contracted	-0.07397488
-4.257631	Monetary	-0.07397488
-4.257631	Cooperation	-0.07397488
-4.257631	weekly	-0.07397488
-4.257631	August	-0.07397488
-4.257631	data	-0.07397488
-4.257631	Deficit	-0.07397488
-4.257631	massive	-0.07397488
-4.257631	docks	-0.07397488
-4.257631	handle	-0.07397488
-4.257631	ships	-0.07397488
-4.257631	tankers	-0.07397488
-4.257631	load	-0.07397488
-4.257631	unload	-0.07397488
-4.257631	harbour	-0.07397488
-4.257631	addition	-0.07397488
-4.257631	streamlining	-0.07397488
-4.257631	efficiency	-0.07397488
-4.257631	division	-0.07397488
-4.257631	exert	-0.07397488
-4.257631	branching	-0.07397488
-4.257631	estate	-0.07397488
-4.257631	travel	-0.07397488
-4.257631	agencies	-0.07397488
-4.257631	Philippines	-0.07397488
-4.257631	540	-0.07397488
-4.257631	coconut	-0.07397488
-4.257631	959	-0.07397488
-4.257631	Physio	-0.07397488
-4.257631	Technology	-0.07397488
-4.257631	changing	-0.07397488
-4.257631	force	-0.07397488
-4.257631	independent	-0.07397488
-4.257631	representatives	-0.07397488
-4.257631	dealers	-0.07397488
-4.257631	employees	-0.07397488
-4.257631	significantly	-0.07397488
-4.257631	fixed	-0.07397488
-4.257631	overhead	-0.07397488
-4.257631	Day	-0.07397488
-4.257631	enable	-0.07397488
-4.257631	accelerate	-0.07397488
-4.257631	earnings	-0.07397488
-4.257631	ending	-0.07397488
-4.257631	TWA	-0.07397488
-4.257631	however	-0.07397488
-4.257631	discussing	-0.07397488
-4.257631	among	-0.07397488
-4.257631	Piedmont	-0.07397488
-4.257631	SUNA	-0.07397488
-4.257631	monitored	-0.07397488
-4.257631	Broadcasting	-0.07397488
-4.257631	Corporation	-0.07397488
-4.257631	Omer	-0.07397488
-4.257631	remarks	-0.07397488
-4.257631	Khartoum	-0.07397488
-4.257631	IMF	-0.07397488
-4.257631	envoy	-0.07397488
-4.257631	Abdel	-0.07397488
-4.257631	Shakour	-0.07397488
-4.257631	Shaalan	-0.07397488
-4.257631	suspended	-0.07397488
-4.257631	owed	-0.07397488
-4.257631	credibility	-0.07397488
-4.257631	OPEC	-0.07397488
-4.257631	come	-0.07397488
-4.257631	fresh	-0.07397488
-4.257631	scrutiny	-0.07397488
-4.257631	Monday	-0.07397488
-4.257631	activity	-0.07397488
-4.257631	markets	-0.07397488
-4.257631	through	-0.07397488
-4.257631	Clark	-0.07397488
-4.257631	Copy	-0.07397488
-4.257631	majority	-0.07397488
-4.257631	Interactive	-0.07397488
-4.257631	Computer	-0.07397488
-4.257631	Aids	-0.07397488
-4.257631	Norway	-0.07397488
-4.257631	I	-0.07397488
-4.257631	Dome	-0.07397488
-4.257631	bothersome	-0.07397488
-4.257631	Earnings	-0.07397488
-4.257631	reflects	-0.07397488
-4.257631	split	-0.07397488
-4.257631	Sports	-0.07397488
-4.257631	Edward	-0.07397488
-4.257631	C	-0.07397488
-4.257631	Horowitz	-0.07397488
-4.257631	Mike	-0.07397488
-4.257631	Warren	-0.07397488
-4.257631	typical	-0.07397488
-4.257631	salaried	-0.07397488
-4.257631	employee	-0.07397488
-4.257631	reflecting	-0.07397488
-4.257631	Pointing	-0.07397488
-4.257631	buoyant	-0.07397488
-4.257631	released	-0.07397488
-4.257631	Lawson	-0.07397488
-4.257631	done	-0.07397488
-4.257631	resist	-0.07397488
-4.257631	pressures	-0.07397488
-4.257631	income	-0.07397488
-4.257631	expense	-0.07397488
-4.257631	borrowing	-0.07397488
-4.257631	listed	-0.07397488
-4.257631	Zurich	-0.07397488
-4.257631	Basle	-0.07397488
-4.257631	Geneva	-0.07397488
-4.257631	exchanges	-0.07397488
-4.257631	Amsterdam	-0.07397488
-4.257631	aims	-0.07397488
-4.257631	quoted	-0.07397488
-4.257631	Frankfurt	-0.07397488
-4.257631	Dusseldorf	-0.07397488
-4.257631	van	-0.07397488
-4.257631	Driel	-0.07397488
-4.257631	AROUND	-0.07397488
-4.257631	ACRES	-0.07397488
-4.257631	SAID	-0.07397488
-4.257631	BE	-0.07397488
-4.257631	IDLED	-0.07397488
-4.257631	BY	-0.07397488
-4.257631	92	-0.07397488
-4.257631	acreage	-0.07397488
-4.257631	prompting	-0.07397488
-4.257631	idle	-0.07397488
-4.257631	cropland	-0.07397488
-4.257631	according	-0.07397488
-4.257631	DYNALECTRON	-0.07397488
-4.257631	DYN	-0.07397488
-4.257631	BUYS	-0.07397488
-4.257631	AVIATION	-0.07397488
-4.257631	FACILITY	-0.07397488
-4.257631	Dynalectron	-0.07397488
-4.257631	purchased	-0.07397488
-4.257631	certain	-0.07397488
-4.257631	Aero	-0.07397488
-4.257631	leasehold	-0.07397488
-4.257631	aircraft	-0.07397488
-4.257631	modification	-0.07397488
-4.257631	maintenance	-0.07397488
-4.257631	facility	-0.07397488
-4.257631	Phoenix	-0.07397488
-4.257631	Ariz	-0.07397488
-4.257631	GRAIN	-0.07397488
-4.257631	SHIPS	-0.07397488
-4.257631	LOADING	-0.07397488
-4.257631	AT	-0.07397488
-4.257631	PORTLAND	-0.07397488
-4.257631	There	-0.07397488
-4.257631	grain	-0.07397488
-4.257631	loading	-0.07397488
-4.257631	waiting	-0.07397488
-4.257631	Portland	-0.07397488
-4.257631	Merchants	-0.07397488
-4.257631	Exchange	-0.07397488
-4.257631	provisions	-0.07397488
-4.257631	risk	-0.07397488
-4.257631	borrowers	-0.07397488
-4.257631	provision	-0.07397488
-4.257631	future	-0.07397488
-4.257631	pension	-0.07397488
-4.257631	fund	-0.07397488
-4.257631	obligations	-0.07397488
-4.257631	LATEST	-0.07397488
-4.257631	ATTACK	-0.07397488
-4.257631	SEEN	-0.07397488
-4.257631	POINTING	-0.07397488
-4.257631	DILEMMAS	-0.07397488
-4.257631	US	-0.07397488
-4.257631	Military	-0.07397488
-4.257631	experts	-0.07397488
-4.257631	say	-0.07397488
-4.257631	faces	-0.07397488
-4.257631	dilemma	-0.07397488
-4.257631	destruction	-0.07397488
-4.257631	Iranian	-0.07397488
-4.257631	platform	-0.07397488
-4.257631	retaliation	-0.07397488
-4.257631	attack	-0.07397488
-4.257631	flagged	-0.07397488
-4.257631	tanker	-0.07397488
-4.257631	roughly	-0.07397488
-4.257631	equal	-0.07397488
-4.257631	originally	-0.07397488
-4.257631	invested	-0.07397488
-4.257631	Coasts	-0.07397488
-4.257631	late	-0.07397488
-4.257631	though	-0.07397488
-4.257631	retain	-0.07397488
-4.257631	...	-0.07397488
-4.257631	expediency	-0.07397488
-4.257631	Sinclair	-0.07397488
-4.257631	Under	-0.07397488
-4.257631	Mize	-0.07397488
-4.257631	DNA	-0.07397488
-4.257631	become	-0.07397488
-4.257631	chairman	-0.07397488
-4.257631	expand	-0.07397488
-4.257631	provide	-0.07397488
-4.257631	him	-0.07397488
-4.257631	representation	-0.07397488
-4.257631	upper	-0.07397488
-4.257631	strikers	-0.07397488
-4.257631	returned	-0.07397488
-4.257631	night	-0.07397488
-4.257631	port	-0.07397488
-4.257631	authorities	-0.07397488
-4.257631	Port	-0.07397488
-4.257631	Workers	-0.07397488
-4.257631	without	-0.07397488
-4.257631	giving	-0.07397488
-4.257631	details	-0.07397488
-4.257631	Central	-0.07397488
-4.257631	Wim	-0.07397488
-4.257631	Duisenberg	-0.07397488
-4.257631	defended	-0.07397488
-4.257631	saying	-0.07397488
-4.257631	most	-0.07397488
-4.257631	money	-0.07397488
-4.257631	noting	-0.07397488
-4.257631	discount	-0.07397488
-4.257631	moment	-0.07397488
-4.257631	important	-0.07397488
-4.257631	AUSTRALIAN	-0.07397488
-4.257631	FEBRUARY	-0.07397488
-4.257631	equivalent	-0.07397488
-4.257631	Dlrs	-0.07397488
-4.257631	06	-0.07397488
-4.257631	RETAIL	-0.07397488
-4.257631	SALES	-0.07397488
-4.257631	PCT	-0.07397488
-4.257631	provisional	-0.07397488
-4.257631	Trade	-0.07397488
-4.257631	show	-0.07397488
-4.257631	JACK	-0.07397488
-4.257631	WINTER	-0.07397488
-4.257631	JWI	-0.07397488
-4.257631	410	-0.07397488
-4.257631	245	-0.07397488
-4.257631	748	-0.07397488
-4.257631	571	-0.07397488
-4.257631	46	-0.07397488
-4.257631	reacting	-0.07397488
-4.257631	Irish	-0.07397488
-4.257631	He	-0.07397488
-4.257631	continues	-0.07397488
-4.257631	brewery	-0.07397488
-4.257631	side	-0.07397488
-4.257631	Guinness	-0.07397488
-4.257631	GALACTIC	-0.07397488
-4.257631	GALCF	-0.07397488
-4.257631	Prior	-0.07397488
-4.257631	given	-0.07397488
-4.257631	CHICAGO	-0.07397488
-4.257631	RIVET	-0.07397488
-4.257631	AND	-0.07397488
-4.257631	MACHINE	-0.07397488
-4.257631	CVR	-0.07397488
-4.257631	60	-0.07397488
-4.257631	156	-0.07397488
-4.257631	576	-0.07397488
-4.257631	443	-0.07397488
-4.257631	404	-0.07397488
-4.257631	309	-0.07397488
-4.257631	519	-0.07397488
-4.257631	381	-0.07397488
-4.257631	264	-0.07397488
-4.257631	788	-0.07397488
-4.257631	220	-0.07397488
-4.257631	151	-0.07397488
-4.257631	big	-0.07397488
-4.257631	Taikoo	-0.07397488
-4.257631	Shing	-0.07397488
-4.257631	IGGI	-0.07397488
-4.257631	groups	-0.07397488
-4.257631	industrialised	-0.07397488
-4.257631	donor	-0.07397488
-4.257631	countries	-0.07397488
-4.257631	gave	-0.07397488
-4.257631	Indonesia	-0.07397488
-4.257631	soft	-0.07397488
-4.257631	grants	-0.07397488
-4.257631	changes	-0.07397488
-4.257631	lead	-0.07397488
-4.257631	pickup	-0.07397488
-4.257631	PIK	-0.07397488
-4.257631	roll	-0.07397488
-4.257631	Klopfenstein	-0.07397488
-4.257631	likelihood	-0.07397488
-4.257631	provisiion	-0.07397488
-4.257631	cause	-0.07397488
-4.257631	acreages	-0.07397488
-4.257631	removed	-0.07397488
-4.257631	quite	-0.07397488
-4.257631	small	-0.07397488
-4.257631	conditional	-0.07397488
-4.257631	upon	-0.07397488
-4.257631	examination	-0.07397488
-4.257631	Gordon	-0.07397488
-4.257631	Pagecorp	-0.07397488
-4.257631	revenue	-0.07397488
-4.257631	growth	-0.07397488
-4.257631	Bilateral	-0.07397488
-4.257631	negotiations	-0.07397488
-4.257631	must	-0.07397488
-4.257631	concluded	-0.07397488
-4.257631	least	-0.07397488
-4.257631	progressing	-0.07397488
-4.257631	YEUTTER	-0.07397488
-4.257631	TRADE	-0.07397488
-4.257631	DIFFICULTIES	-0.07397488
-4.257631	Representative	-0.07397488
-4.257631	Clayton	-0.07397488
-4.257631	Yeutter	-0.07397488
-4.257631	unsure	-0.07397488
-4.257631	whether	-0.07397488
-4.257631	straining	-0.07397488
-4.257631	relations	-0.07397488
-4.257631	That	-0.07397488
-4.257631	really	-0.07397488
-4.257631	strong	-0.07397488
-4.257631	rationale	-0.07397488
-4.257631	need	-0.07397488
-4.257631	GATT	-0.07397488
-4.257631	round	-0.07397488
-4.257631	nation	-0.07397488
-4.257631	verification	-0.07397488
-4.257631	Papua	-0.07397488
-4.257631	New	-0.07397488
-4.257631	Guinea	-0.07397488
-4.257631	combined	-0.07397488
-4.257631	barley	-0.07397488
-4.257631	02	-0.07397488
-4.257631	period	-0.07397488
-4.257631	Jack	-0.07397488
-4.257631	Welch	-0.07397488
-4.257631	doesn	-0.07397488
-4.257631	exposure	-0.07397488
-4.257631	defense	-0.07397488
-4.257631	analyst	-0.07397488
-4.257631	heard	-0.07397488
-4.257631	rumors	-0.07397488
-4.257631	doubted	-0.07397488
-4.257631	accuracy	-0.07397488
-4.257631	Full	-0.07397488
-4.257631	Marcom	-0.07397488
-4.257631	Telecommunications	-0.07397488
-4.257631	Kay	-0.07397488
-4.257631	pursuing	-0.07397488
-4.257631	placement	-0.07397488
-4.257631	securities	-0.07397488
-4.257631	corporate	-0.07397488
-4.257631	purposes	-0.07397488
-4.257631	TREASURY	-0.07397488
-4.257631	BAKER	-0.07397488
-4.257631	CURRENCIES	-0.07397488
-4.257631	WITHIN	-0.07397488
-4.257631	RANGES	-0.07397488
-4.257631	THAT	-0.07397488
-4.257631	BETTER	-0.07397488
-4.257631	REFLECT	-0.07397488
-4.257631	FUNDAMENTALS	-0.07397488
-4.257631	Asked	-0.07397488
-4.257631	wanted	-0.07397488
-4.257631	Interest	-0.07397488
-4.257631	lending	-0.07397488
-4.257631	appropriate	-0.07397488
-4.257631	ultimately	-0.07397488
-4.257631	pay	-0.07397488
-4.257631	AMERICAN	-0.07397488
-4.257631	FNB	-0.07397488
-4.257631	1ST	-0.07397488
-4.257631	wholly	-0.07397488
-4.257631	decide	-0.07397488
-4.257631	follow	-0.07397488
-4.257631	Or	-0.07397488
-4.257631	throw	-0.07397488
-4.257631	Dunn	-0.07397488
-4.257631	POLICY	-0.07397488
-4.257631	EASE	-0.07397488
-4.257631	MAY	-0.07397488
-4.257631	END	-0.07397488
-4.257631	easier	-0.07397488
-4.257631	begun	-0.07397488
-4.257631	quick	-0.07397488
-4.257631	dealer	-0.07397488
-4.257631	intervened	-0.07397488
-4.257631	opening	-0.07397488
-4.257631	here	-0.07397488
-4.257631	confirm	-0.07397488
-4.257631	We	-0.07397488
-4.257631	telexed	-0.07397488
-4.257631	insisted	-0.07397488
-4.257631	cancel	-0.07397488
-4.257631	elsewhere	-0.07397488
-4.257631	Santana	-0.07397488
-4.257631	times	-0.07397488
-4.257631	exploiting	-0.07397488
-4.257631	profitable	-0.07397488
-4.257631	best	-0.07397488
-4.257631	partner	-0.07397488
-4.257631	jobless	-0.07397488
-4.257631	699	-0.07397488
-4.257631	671	-0.07397488
-4.257631	Rainier	-0.07397488
-4.257631	merge	-0.07397488
-4.257631	Security	-0.07397488
-4.257631	SPC	-0.07397488
-4.257631	Last	-0.07397488
-4.257631	lowered	-0.07397488
-4.257631	special	-0.07397488
-4.257631	advances	-0.07397488
-4.257631	repurchase	-0.07397488
-4.257631	CATHAY	-0.07397488
-4.257631	PACIFIC	-0.07397488
-4.257631	AIRWAYS	-0.07397488
-4.257631	CAPH	-0.07397488
-4.257631	HK	-0.07397488
-4.257631	Toledo	-0.07397488
-4.257631	elevators	-0.07397488
-4.257631	finishing	-0.07397488
-4.257631	boats	-0.07397488
-4.257631	shipping	-0.07397488
-4.257631	supporting	-0.07397488
-4.257631	spot	-0.07397488
-4.257631	terminal	-0.07397488
-4.257631	points	-0.07397488
-4.257631	LONG	-0.07397488
-4.257631	TERM	-0.07397488
-4.257631	PRIME	-0.07397488
-4.257631	RECORD	-0.07397488
-4.257631	LOW	-0.07397488
-4.257631	SOON	-0.07397488
-4.257631	long	-0.07397488
-4.257631	secondary	-0.07397488
-4.257631	debentures	-0.07397488
-4.257631	bankers	-0.07397488
-4.257631	KUBOTA	-0.07397488
-4.257631	KUB	-0.07397488
-4.257631	THIRD	-0.07397488
-4.257631	QUARTER	-0.07397488
-4.257631	shr	-0.07397488
-4.257631	58	-0.07397488
-4.257631	Pretax	-0.07397488
-4.257631	248	-0.07397488
-4.257631	789	-0.07397488
-4.257631	127	-0.07397488
-4.257631	130	-0.07397488
-4.257631	134	-0.07397488
-4.257631	119	-0.07397488
-4.257631	446	-0.07397488
-4.257631	Talks	-0.07397488
-4.257631	extended	-0.07397488
-4.257631	tomorrow	-0.07397488
-4.257631	breakthrough	-0.07397488
-4.257631	session	-0.07397488
-4.257631	GENOVA	-0.07397488
-4.257631	GNVA	-0.07397488
-4.257631	MERGE	-0.07397488
-4.257631	INTO	-0.07397488
-4.257631	PRODUCTS	-0.07397488
-4.257631	Genova	-0.07397488
-4.257631	approved	-0.07397488
-4.257631	consumated	-0.07397488
-4.257631	within	-0.07397488
-4.257631	few	-0.07397488
-4.257631	Bradford	-0.07397488
-4.257631	recommending	-0.07397488
-4.257631	USX	-0.07397488
-4.257631	Earlier	-0.07397488
-4.257631	Gabelli	-0.07397488
-4.257631	filing	-0.07397488
-4.257631	Commission	-0.07397488
-4.257631	DiGiorgio	-0.07397488
-4.257631	Gamco	-0.07397488
-4.257631	Investors	-0.07397488
-4.257631	seek	-0.07397488
-4.257631	control	-0.07397488
-4.257631	Stone	-0.07397488
-4.257631	available	-0.07397488
-4.257631	just	-0.07397488
-4.257631	enough	-0.07397488
-4.257631	prompt	-0.07397488
-4.257631	Pig	-0.07397488
-4.257631	feed	-0.07397488
-4.257631	170	-0.07397488
-4.257631	versus	-0.07397488
-4.257631	poultry	-0.07397488
-4.257631	287	-0.07397488
-4.257631	256	-0.07397488
-4.257631	TAFT	-0.07397488
-4.257631	BROADCASTING	-0.07397488
-4.257631	REJECTS	-0.07397488
-4.257631	DLR	-0.07397488
-4.257631	PER	-0.07397488
-4.257631	SHARE	-0.07397488
-4.257631	BUYOUT	-0.07397488
-4.257631	OFFER	-0.07397488
-4.257631	FROM	-0.07397488
-4.257631	THETA	-0.07397488
-4.257631	Faygo	-0.07397488
-4.257631	excess	-0.07397488
-4.257631	Beverage	-0.07397488
-4.257631	At	-0.07397488
-4.257631	Federated	-0.07397488
-4.257631	ask	-0.07397488
-4.257631	approve	-0.07397488
-4.257631	authorized	-0.07397488
-4.257631	SHOE	-0.07397488
-4.257631	IRNA	-0.07397488
-4.257631	received	-0.07397488
-4.257631	Nicosia	-0.07397488
-4.257631	informed	-0.07397488
-4.257631	source	-0.07397488
-4.257631	identified	-0.07397488
-4.257631	platforms	-0.07397488
-4.257631	Resalat	-0.07397488
-4.257631	Reshadat	-0.07397488
-4.257631	miles	-0.07397488
-4.257631	Lavan	-0.07397488
-4.257631	island	-0.07397488
-4.257631	storage	-0.07397488
-4.257631	site	-0.07397488
-4.257631	infinitesimal	-0.07397488
-4.257631	magnitude	-0.07397488
-4.257631	Collander	-0.07397488
-4.257631	Touche	-0.07397488
-4.257631	Ross	-0.07397488
-4.257631	federal	-0.07397488
-4.257631	CTI	-0.07397488
-4.257631	Rabbit	-0.07397488
-4.257631	INTERMEDICS	-0.07397488
-4.257631	ITM	-0.07397488
-4.257631	ONE	-0.07397488
-4.257631	Oper	-0.07397488
-4.257631	877	-0.07397488
-4.257631	838	-0.07397488
-4.257631	44	-0.07397488
-4.257631	Current	-0.07397488
-4.257631	1st	-0.07397488
-4.257631	qtr	-0.07397488
-4.257631	oper	-0.07397488
-4.257631	excludes	-0.07397488
-4.257631	carryforward	-0.07397488
-4.257631	694	-0.07397488
-4.257631	ends	-0.07397488
-4.257631	firms	-0.07397488
-4.257631	becoming	-0.07397488
-4.257631	aggressive	-0.07397488
-4.257631	sort	-0.07397488
-4.257631	sum	-0.07397488
-4.257631	Unilever	-0.07397488
-4.257631	hoped	-0.07397488
-4.257631	realise	-0.07397488
-4.257631	operation	-0.07397488
-4.257631	beyond	-0.07397488
-4.257631	Chesebrough	-0.07397488
-4.257631	Stauffer	-0.07397488
-4.257631	Chemical	-0.07397488
-4.257631	operates	-0.07397488
-4.257631	outside	-0.07397488
-4.257631	core	-0.07397488
-4.257631	Refined	-0.07397488
-4.257631	totalled	-0.07397488
-4.257631	eight	-0.07397488
-4.257631	metric	-0.07397488
-4.257631	CRA	-0.07397488
-4.257631	PAY	-0.07397488
-4.257631	FINAL	-0.07397488
-4.257631	DIVIDEND	-0.07397488
-4.257631	OF	-0.07397488
-4.257631	CENTS	-0.07397488
-4.257631	CRAA	-0.07397488
-4.257631	cents	-0.07397488
-4.257631	making	-0.07397488
-4.257631	forthe	-0.07397488
-4.257631	Chairman	-0.07397488
-4.257631	Donald	-0.07397488
-4.257631	prepared	-0.07397488
-4.257631	York	-0.07397488
-4.257631	security	-0.07397488
-4.257631	Household	-0.07397488
-4.257631	Services	-0.07397488
-4.257631	excellent	-0.07397488
-4.257631	equity	-0.07397488
-4.257631	Santos	-0.07397488
-4.257631	Alvite	-0.07397488
-4.257631	cargo	-0.07397488
-4.257631	leave	-0.07397488
-4.257631	Maracaibo	-0.07397488
-4.257631	weekend	-0.07397488
-4.257631	refineries	-0.07397488
-4.257631	Guayaquil	-0.07397488
-4.257631	approach	-0.07397488
-4.257631	needed	-0.07397488
-4.257631	revival	-0.07397488
-4.257631	postponed	-0.07397488
-4.257631	EXPLOSIVE	-0.07397488
-4.257631	FABRICATORS	-0.07397488
-4.257631	724	-0.07397488
-4.257631	329	-0.07397488
-4.257631	556	-0.07397488
-4.257631	504	-0.07397488
-4.257631	COMMERCIAL	-0.07397488
-4.257631	PAPER	-0.07397488
-4.257631	FALLS	-0.07397488
-4.257631	WEEK	-0.07397488
-4.257631	shift	-0.07397488
-4.257631	strategy	-0.07397488
-4.257631	designed	-0.07397488
-4.257631	appease	-0.07397488
-4.257631	mounting	-0.07397488
-4.257631	Congressional	-0.07397488
-4.257631	policies	-0.07397488
-4.257631	comes	-0.07397488
-4.257631	reconvene	-0.07397488
-4.257631	review	-0.07397488
-4.257631	stabilize	-0.07397488
-4.257631	stiff	-0.07397488
-4.257631	rally	-0.07397488
-4.257631	bring	-0.07397488
-4.257631	bonds	-0.07397488
-4.257631	yield	-0.07397488
-4.257631	Quinn	-0.07397488
-4.257631	Even	-0.07397488
-4.257631	economists	-0.07397488
-4.257631	manufacturing	-0.07397488
-4.257631	gains	-0.07397488
-4.257631	outlook	-0.07397488
-4.257631	EMS	-0.07397488
-4.257631	transferred	-0.07397488
-4.257631	autonomous	-0.07397488
-4.257631	GEODYNAMICS	-0.07397488
-4.257631	GDYN	-0.07397488
-4.257631	596	-0.07397488
-4.257631	594	-0.07397488
-4.257631	693	-0.07397488
-4.257631	164	-0.07397488
-4.257631	61	-0.07397488
-4.257631	784	-0.07397488
-4.257631	653	-0.07397488
-4.257631	strength	-0.07397488
-4.257631	allowed	-0.07397488
-4.257631	Asian	-0.07397488
-4.257631	neighbours	-0.07397488
-4.257631	traditional	-0.07397488
-4.257631	frozen	-0.07397488
-4.257631	completion	-0.07397488
-4.257631	subject	-0.07397488
-4.257631	regulatory	-0.07397488
-4.257631	approvals	-0.07397488
-4.257631	refinery	-0.07397488
-4.257631	capacity	-0.07397488
-4.257631	overhaul	-0.07397488
-4.257631	Interstate	-0.07397488
-4.257631	MARKET	-0.07397488
-4.257631	SKEWED	-0.07397488
-4.257631	SOVIET	-0.07397488
-4.257631	BUYING	-0.07397488
-4.257631	Soviet	-0.07397488
-4.257631	Union	-0.07397488
-4.257631	skewed	-0.07397488
-4.257631	difference	-0.07397488
-4.257631	premium	-0.07397488
-4.257631	interior	-0.07397488
-4.257631	levels	-0.07397488
-4.257631	872	-0.07397488
-4.257631	came	-0.07397488
-4.257631	completions	-0.07397488
-4.257631	765	-0.07397488
-4.257631	Coffee	-0.07397488
-4.257631	accounts	-0.07397488
-4.257631	Ethiopian	-0.07397488
-4.257631	country	-0.07397488
-4.257631	despite	-0.07397488
-4.257631	rules	-0.07397488
-4.257631	forthcoming	-0.07397488
-4.257631	believes	-0.07397488
-4.257631	stabilise	-0.07397488
-4.257631	PENTRON	-0.07397488
-4.257631	PEN	-0.07397488
-4.257631	UNIT	-0.07397488
-4.257631	ICE	-0.07397488
-4.257631	CREATIONS	-0.07397488
-4.257631	Pentron	-0.07397488
-4.257631	Rotational	-0.07397488
-4.257631	Molding	-0.07397488
-4.257631	privately	-0.07397488
-4.257631	Ice	-0.07397488
-4.257631	Creations	-0.07397488
-4.257631	Unlimited	-0.07397488
-4.257631	undisclosed	-0.07397488
-4.257631	considerations	-0.07397488
-4.257631	Oil	-0.07397488
-4.257631	cargoes	-0.07397488
-4.257631	often	-0.07397488
-4.257631	resold	-0.07397488
-4.257631	shipowners	-0.07397488
-4.257631	know	-0.07397488
-4.257631	start	-0.07397488
-4.257631	voyage	-0.07397488
-4.257631	al	-0.07397488
-4.257631	Rai	-0.07397488
-4.257631	Aam	-0.07397488
-4.257631	newspaper	-0.07397488
-4.257631	ceiling	-0.07397488
-4.257631	consumers	-0.07397488
-4.257631	drawing	-0.07397488
-4.257631	petroleum	-0.07397488
-4.257631	CUBA	-0.07397488
-4.257631	SUGAR	-0.07397488
-4.257631	LEAST	-0.07397488
-4.257631	SAME	-0.07397488
-4.257631	AS	-0.07397488
-4.257631	LAST	-0.07397488
-4.257631	Cuban	-0.07397488
-4.257631	suggest	-0.07397488
-4.257631	ERICSSON	-0.07397488
-4.257631	ERICY	-0.07397488
-4.257631	REST	-0.07397488
-4.257631	SPANISH	-0.07397488
-4.257631	banker	-0.07397488
-4.257631	speculated	-0.07397488
-4.257631	Bolivia	-0.07397488
-4.257631	might	-0.07397488
-4.257631	back	-0.07397488
-4.257631	commercial	-0.07397488
-4.257631	paper	-0.07397488
-4.257631	written	-0.07397488
-4.257631	MIM	-0.07397488
-4.257631	ACQUIRE	-0.07397488
-4.257631	GERMAN	-0.07397488
-4.257631	COPPER	-0.07397488
-4.257631	PRODUCER	-0.07397488
-4.257631	Mount	-0.07397488
-4.257631	Isa	-0.07397488
-4.257631	Mines	-0.07397488
-4.257631	Holding	-0.07397488
-4.257631	primary	-0.07397488
-4.257631	copper	-0.07397488
-4.257631	Norddeutsche	-0.07397488
-4.257631	Affinerie	-0.07397488
-4.257631	AG	-0.07397488
-4.257631	Metallgesellschaft	-0.07397488
-4.257631	Sparks	-0.07397488
-4.257631	JOHNSON	-0.07397488
-4.257631	HE	-0.07397488
-4.257631	DOES	-0.07397488
-4.257631	SEE	-0.07397488
-4.257631	INCREASING	-0.07397488
-4.257631	PRESSURE	-0.07397488
-4.257631	Analysts	-0.07397488
-4.257631	bearish	-0.07397488
-4.257631	positions	-0.07397488
-4.257631	Daily	-0.07397488
-4.257631	peasant	-0.07397488
-4.257631	ortheast	-0.07397488
-4.257631	province	-0.07397488
-4.257631	Heilongjiang	-0.07397488
-4.257631	108	-0.07397488
-4.257631	yuan	-0.07397488
-4.257631	mu	-0.07397488
-4.257631	0667	-0.07397488
-4.257631	hectares	-0.07397488
-4.257631	112	-0.07397488
-4.257631	sugarbeet	-0.07397488
-4.257631	Columbia	-0.07397488
-4.257631	Gas	-0.07397488
-4.257631	FERC	-0.07397488
-4.257631	rleated	-0.07397488
-4.257631	liabilities	-0.07397488
-4.257631	laws	-0.07397488
-4.257631	gone	-0.07397488
-4.257631	confidence	-0.07397488
-4.257631	commented	-0.07397488
-4.257631	saw	-0.07397488
-4.257631	having	-0.07397488
-4.257631	marginal	-0.07397488
-4.257631	influence	-0.07397488
-4.257631	fundamental	-0.07397488
-4.257631	problems	-0.07397488
-4.257631	detail	-0.07397488
-4.257631	settlement	-0.07397488
-4.257631	explaining	-0.07397488
-4.257631	commission	-0.07397488
-4.257631	Delegates	-0.07397488
-4.257631	favour	-0.07397488
-4.257631	legal	-0.07397488
-4.257631	answer	-0.07397488
-4.257631	unresolved	-0.07397488
-4.257631	disputes	-0.07397488
-4.257631	court	-0.07397488
-4.257631	hearings	-0.07397488
-4.257631	expiry	-0.07397488
-4.257631	INTERVENTION	-0.07397488
-4.257631	BOARD	-0.07397488
-4.257631	EC	-0.07397488
-4.257631	series	-0.07397488
-4.257631	white	-0.07397488
-4.257631	rebates	-0.07397488
-4.257631	maximum	-0.07397488
-4.257631	496	-0.07397488
-4.257631	kilos	-0.07397488
-4.257631	Community	-0.07397488
-4.257631	payable	-0.07397488
-4.257631	officials	-0.07397488
-4.257631	amounting	-0.07397488
-4.257631	805	-0.07397488
-4.257631	launched	-0.07397488
-4.257631	ATT	-0.07397488
-4.257631	CGCT	-0.07397488
-4.257631	abandoned	-0.07397488
-4.257631	introduction	-0.07397488
-4.257631	privatisation	-0.07397488
-4.257631	reopened	-0.07397488
-4.257631	bidding	-0.07397488
-4.257631	wider	-0.07397488
-4.257631	applicants	-0.07397488
-4.257631	declining	-0.07397488
-4.257631	compound	-0.07397488
-4.257631	coarse	-0.07397488
-4.257631	355	-0.07397488
-4.257631	cif	-0.07397488
-4.257631	358	-0.07397488
-4.257631	COLD	-0.07397488
-4.257631	STORAGE	-0.07397488
-4.257631	BELLIES	-0.07397488
-4.257631	NEUTRAL	-0.07397488
-4.257631	NEGATIVE	-0.07397488
-4.257631	Mercantile	-0.07397488
-4.257631	floor	-0.07397488
-4.257631	immediate	-0.07397488
-4.257631	reaction	-0.07397488
-4.257631	pork	-0.07397488
-4.257631	bellies	-0.07397488
-4.257631	neutral	-0.07397488
-4.257631	slightly	-0.07397488
-4.257631	negative	-0.07397488
-4.257631	AMVESTORS	-0.07397488
-4.257631	FINANCIAL	-0.07397488
-4.257631	AVFC	-0.07397488
-4.257631	STOCK	-0.07397488
-4.257631	AmVestors	-0.07397488
-4.257631	holders	-0.07397488
-4.257631	legislation	-0.07397488
-4.257631	natural	-0.07397488
-4.257631	Lousiana	-0.07397488
-4.257631	Democrat	-0.07397488
-4.257631	workers	-0.07397488
-4.257631	agree	-0.07397488
-4.257631	demands	-0.07397488
-4.257631	benefits	-0.07397488
-4.257631	institutes	-0.07397488
-4.257631	believed	-0.07397488
-4.257631	dynamic	-0.07397488
-4.257631	jobs	-0.07397488
-4.257631	created	-0.07397488
-4.257631	origins	-0.07397488
-4.257631	Cooper	-0.07397488
-4.257631	Basin	-0.07397488
-4.257631	API	-0.07397488
-4.257631	DISTILLATE	-0.07397488
-4.257631	STOCKS	-0.07397488
-4.257631	OFF	-0.07397488
-4.257631	52	-0.07397488
-4.257631	BBLS	-0.07397488
-4.257631	GASOLINE	-0.07397488
-4.257631	Certain	-0.07397488
-4.257631	difficulties	-0.07397488
-4.257631	arisen	-0.07397488
-4.257631	machine	-0.07397488
-4.257631	quantity	-0.07397488
-4.257631	320	-0.07397488
-4.257631	Economists	-0.07397488
-4.257631	predicted	-0.07397488
-4.257631	dismal	-0.07397488
-4.257631	logging	-0.07397488
-4.257631	left	-0.07397488
-4.257631	especially	-0.07397488
-4.257631	careful	-0.07397488
-4.257631	flare	-0.07397488
-4.257631	inflation	-0.07397488
-4.257631	accelerating	-0.07397488
-4.257631	Berger	-0.07397488
-4.257631	devalued	-0.07397488
-4.257631	depressions	-0.07397488
-4.257631	partners	-0.07397488
-4.257631	America	-0.07397488
-4.257631	Fujitsu	-0.07397488
-4.257631	executives	-0.07397488
-4.257631	enthusiastic	-0.07397488
-4.257631	Fairchild	-0.07397488
-4.257631	Sumita	-0.07397488
-4.257631	To	-0.07397488
-4.257631	access	-0.07397488
-4.257631	steel	-0.07397488
-4.257631	ensure	-0.07397488
-4.257631	accurate	-0.07397488
-4.257631	used	-0.07397488
-4.257631	backdoor	-0.07397488
-4.257631	suppliers	-0.07397488
-4.257631	Carney	-0.07397488
-4.257631	structural	-0.07397488
-4.257631	adjustments	-0.07397488
-4.257631	1993	-0.07397488
-4.257631	Criticism	-0.07397488
-4.257631	damages	-0.07397488
-4.257631	Nakasone	-0.07397488
-4.257631	JAMAICA	-0.07397488
-4.257631	AGREES	-0.07397488
-4.257631	DRAFT	-0.07397488
-4.257631	RESCHEDULING	-0.07397488
-4.257631	Jamaica	-0.07397488
-4.257631	principle	-0.07397488
-4.257631	advisory	-0.07397488
-4.257631	committee	-0.07397488
-4.257631	rescheduling	-0.07397488
-4.257631	1989	-0.07397488
-4.257631	Jamaican	-0.07397488
-4.257631	Information	-0.07397488
-4.257631	Service	-0.07397488
-4.257631	Kenya	-0.07397488
-4.257631	relied	-0.07397488
-4.257631	Pakistan	-0.07397488
-4.257631	Egypt	-0.07397488
-4.257631	lesser	-0.07397488
-4.257631	extent	-0.07397488
-4.257631	tea	-0.07397488
-4.257631	CONSOLIDATED	-0.07397488
-4.257631	STORES	-0.07397488
-4.257631	CNS	-0.07397488
-4.257631	602	-0.07397488
-4.257631	879	-0.07397488
-4.257631	141	-0.07397488
-4.257631	71	-0.07397488
-4.257631	42	-0.07397488
-4.257631	397	-0.07397488
-4.257631	Esso	-0.07397488
-4.257631	keen	-0.07397488
-4.257631	diversify	-0.07397488
-4.257631	Gippsland	-0.07397488
-4.257631	Lyng	-0.07397488
-4.257631	did	-0.07397488
-4.257631	think	-0.07397488
-4.257631	ENI	-0.07397488
-4.257631	Agip	-0.07397488
-4.257631	Carbone	-0.07397488
-4.257631	sign	-0.07397488
-4.257631	letter	-0.07397488
-4.257631	intent	-0.07397488
-4.257631	Caracas	-0.07397488
-4.257631	enter	-0.07397488
-4.257631	partnership	-0.07397488
-4.257631	PDVSA	-0.07397488
-4.257631	coal	-0.07397488
-4.257631	deposits	-0.07397488
-4.257631	guasare	-0.07397488
-4.257631	western	-0.07397488
-4.257631	zulia	-0.07397488
-4.257631	suit	-0.07397488
-4.257631	alleges	-0.07397488
-4.257631	Harcourt	-0.07397488
-4.257631	exceeds	-0.07397488
-4.257631	Harcout	-0.07397488
-4.257631	law	-0.07397488
-4.257631	contstitutes	-0.07397488
-4.257631	fraudulent	-0.07397488
-4.257631	conveyance	-0.07397488
-4.257631	Early	-0.07397488
-4.257631	development	-0.07397488
-4.257631	larger	-0.07397488
-4.257631	Miller	-0.07397488
-4.257631	Bruce	-0.07397488
-4.257631	fields	-0.07397488
-4.257631	Producers	-0.07397488
-4.257631	intend	-0.07397488
-4.257631	present	-0.07397488
-4.257631	single	-0.07397488
-4.257631	candidate	-0.07397488
-4.257631	Edouard	-0.07397488
-4.257631	Kouame	-0.07397488
-4.257631	Ivory	-0.07397488
-4.257631	Coast	-0.07397488
-4.257631	failure	-0.07397488
-4.257631	address	-0.07397488
-4.257631	decline	-0.07397488
-4.257631	remains	-0.07397488
-4.257631	worrying	-0.07397488
-4.257631	appears	-0.07397488
-4.257631	approached	-0.07397488
-4.257631	cautiously	-0.07397488
-4.257631	Montagu	-0.07397488
-4.257631	reluctant	-0.07397488
-4.257631	countenance	-0.07397488
-4.257631	wished	-0.07397488
-4.257631	delay	-0.07397488
-4.257631	reduction	-0.07397488
-4.257631	Budget	-0.07397488
-4.257631	thereby	-0.07397488
-4.257631	preserving	-0.07397488
-4.257631	Chancellor	-0.07397488
-4.257631	Exchequer	-0.07397488
-4.257631	Nigel	-0.07397488
-4.257631	Call	-0.07397488
-4.257631	active	-0.07397488
-4.257631	dropping	-0.07397488
-4.257631	treasury	-0.07397488
-4.257631	Appropriations	-0.07397488
-4.257631	demonstrated	-0.07397488
-4.257631	process	-0.07397488
-4.257631	warrants	-0.07397488
-4.257631	exercisable	-0.07397488
-4.257631	Gasoline	-0.07397488
-4.257631	nonetheless	-0.07397488
-4.257631	does	-0.07397488
-4.257631	expect	-0.07397488
-4.257631	unstable	-0.07397488
-4.257631	concerned	-0.07397488
-4.257631	officially	-0.07397488
-4.257631	Trintoc	-0.07397488
-4.257631	land	-0.07397488
-4.257631	machinery	-0.07397488
-4.257631	Purolator	-0.07397488
-4.257631	Nicholas	-0.07397488
-4.257631	F	-0.07397488
-4.257631	Brady	-0.07397488
-4.257631	Emery	-0.07397488
-4.257631	John	-0.07397488
-4.257631	prefer	-0.07397488
-4.257631	negotiate	-0.07397488
-4.257631	Shareholders	-0.07397488
-4.257631	structure	-0.07397488
-4.257631	format	-0.07397488
-4.257631	drafting	-0.07397488
-4.257631	separate	-0.07397488
-4.257631	plan	-0.07397488
-4.257631	reconciled	-0.07397488
-4.257631	Senate	-0.07397488
-4.257631	version	-0.07397488
-4.257631	Spain	-0.07397488
-4.257631	overnight	-0.07397488
-4.257631	call	-0.07397488
-4.257631	view	-0.07397488
-4.257631	disappointing	-0.07397488
-4.257631	reflect	-0.07397488
-4.257631	discounted	-0.07397488
-4.257631	value	-0.07397488
-4.257631	Young	-0.07397488
-4.257631	planned	-0.07397488
-4.257631	protect	-0.07397488
-4.257631	itself	-0.07397488
-4.257631	chance	-0.07397488
-4.257631	complicated	-0.07397488
-4.257631	hedging	-0.07397488
-4.257631	instrument	-0.07397488
-4.257631	ENGLAND	-0.07397488
-4.257631	SIGNALS	-0.07397488
-4.257631	HALF	-0.07397488
-4.257631	POINT	-0.07397488
-4.257631	SHORT	-0.07397488
-4.257631	DEALERS	-0.07397488
-4.257631	referred	-0.07397488
-4.257631	marked	-0.07397488
-4.257631	downturn	-0.07397488
-4.257631	textiles	-0.07397488
-4.257631	leather	-0.07397488
-4.257631	furniture	-0.07397488
-4.257631	particular	-0.07397488
-4.257631	decided	-0.07397488
-4.257631	ITA	-0.07397488
-4.257631	wound	-0.07397488
-4.257631	expires	-0.07397488
-4.257631	delegate	-0.07397488
-4.257631	rarely	-0.07397488
-4.257631	invites	-0.07397488
-4.257631	ordinary	-0.07397488
-4.257631	assistance	-0.07397488
-4.257631	ABMS	-0.07397488
-4.257631	ZINC	-0.07397488
-4.257631	slab	-0.07397488
-4.257631	zinc	-0.07397488
-4.257631	smelters	-0.07397488
-4.257631	735	-0.07397488
-4.257631	tons	-0.07397488
-4.257631	Bureau	-0.07397488
-4.257631	Metal	-0.07397488
-4.257631	Iraq	-0.07397488
-4.257631	foiled	-0.07397488
-4.257631	pronged	-0.07397488
-4.257631	thrust	-0.07397488
-4.257631	km	-0.07397488
-4.257631	Basra	-0.07397488
-4.257631	admitted	-0.07397488
-4.257631	Iranians	-0.07397488
-4.257631	occupied	-0.07397488
-4.257631	ground	-0.07397488
-4.257631	Mohammed	-0.07397488
-4.257631	Qassem	-0.07397488
-4.257631	divisions	-0.07397488
-4.257631	attacked	-0.07397488
-4.257631	Redstone	-0.07397488
-4.257631	Arsenal	-0.07397488
-4.257631	Holdings	-0.07397488
-4.257631	Amusements	-0.07397488
-4.257631	Viacom	-0.07397488
-4.257631	takeover	-0.07397488
-4.257631	CONAGRA	-0.07397488
-4.257631	CAG	-0.07397488
-4.257631	diluted	-0.07397488
-4.257631	closely	-0.07397488
-4.257631	Computerland	-0.07397488
-4.257631	PC	-0.07397488
-4.257631	retailing	-0.07397488
-4.257631	chain	-0.07397488
-4.257631	investor	-0.07397488
-4.257631	E	-0.07397488
-4.257631	Warburg	-0.07397488
-4.257631	Pincus	-0.07397488
-4.257631	Cigra	-0.07397488
-4.257631	89	-0.07397488
-4.257631	TRANSCONTINENTAL	-0.07397488
-4.257631	GROUP	-0.07397488
-4.257631	windfall	-0.07397488
-4.257631	acts	-0.07397488
-4.257631	disincentive	-0.07397488
-4.257631	existing	-0.07397488
-4.257631	reduces	-0.07397488
-4.257631	flow	-0.07397488
-4.257631	exploration	-0.07397488
-4.257631	864	-0.07397488
-4.257631	678	-0.07397488
-4.257631	previous	-0.07397488
-4.257631	Indications	-0.07397488
-4.257631	planted	-0.07397488
-4.257631	69	-0.07397488
-4.257631	unchanged	-0.07397488
-4.257631	However	-0.07397488
-4.257631	moves	-0.07397488
-4.257631	divest	-0.07397488
-4.257631	Encor	-0.07397488
-4.257631	favor	-0.07397488
-4.257631	retaining	-0.07397488
-4.257631	go	-0.07397488
-4.257631	directly	-0.07397488
-4.257631	Purchases	-0.07397488
-4.257631	members	-0.07397488
-4.257631	Malaysia	-0.07397488
-4.257631	nearby	-0.07397488
-4.257631	intermediate	-0.07397488
-4.257631	forward	-0.07397488
-4.257631	Secretary	-0.07397488
-4.257631	Richard	-0.07397488
-4.257631	visit	-0.07397488
-4.257631	Alusuisse	-0.07397488
-4.257631	Swiss	-0.07397488
-4.257631	francs	-0.07397488
-4.257631	restated	-0.07397488
-4.257631	756	-0.07397488
-4.257631	Comsat	-0.07397488
-4.257631	1962	-0.07397488
-4.257631	act	-0.07397488
-4.257631	Congress	-0.07397488
-4.257631	Contel	-0.07397488
-4.257631	corporation	-0.07397488
-4.257631	telephone	-0.07397488
-4.257631	communications	-0.07397488
-4.257631	filed	-0.07397488
-4.257631	Communications	-0.07397488
-4.257631	Giorgio	-0.07397488
-4.257631	boutique	-0.07397488
-4.257631	Beverly	-0.07397488
-4.257631	Hills	-0.07397488
-4.257631	Calif	-0.07397488
-4.257631	.,	-0.07397488
-4.257631	Fred	-0.07397488
-4.257631	Hayman	-0.07397488
-4.257631	operate	-0.07397488
-4.257631	independently	-0.07397488
-4.257631	Avon	-0.07397488
-4.257631	Board	-0.07397488
-4.257631	firmed	-0.07397488
-4.257631	ideas	-0.07397488
-4.257631	fact	-0.07397488
-4.257631	generally	-0.07397488
-4.257631	yielding	-0.07397488
-4.257631	substantial	-0.07397488
-4.257631	sensitively	-0.07397488
-4.257631	looking	-0.07397488
-4.257631	happening	-0.07397488
-4.257631	averaging	-0.07397488
-4.257631	whole	-0.07397488
-4.257631	requirement	-0.07397488
-4.257631	THACKERAY	-0.07397488
-4.257631	THK	-0.07397488
-4.257631	013	-0.07397488
-4.257631	74	-0.07397488
-4.257631	107	-0.07397488
-4.257631	401	-0.07397488
-4.257631	361	-0.07397488
-4.257631	793	-0.07397488
-4.257631	DOLLAR	-0.07397488
-4.257631	An	-0.07397488
-4.257631	surcharge	-0.07397488
-4.257631	urgently	-0.07397488
-4.257631	depreciation	-0.07397488
-4.257631	N	-0.07397488
-4.257631	foremost	-0.07397488
-4.257631	stability	-0.07397488
-4.257631	successful	-0.07397488
-4.257631	nothing	-0.07397488
-4.257631	else	-0.07397488
-4.257631	build	-0.07397488
-4.257631	auto	-0.07397488
-4.257631	inventories	-0.07397488
-4.257631	steep	-0.07397488
-4.257631	finally	-0.07397488
-4.257631	caught	-0.07397488
-4.257631	slower	-0.07397488
-4.257631	ahead	-0.07397488
-4.257631	Exxon	-0.07397488
-4.257631	ratio	-0.07397488
-4.257631	Ankara	-0.07397488
-4.257631	Greece	-0.07397488
-4.257631	contravening	-0.07397488
-4.257631	courts	-0.07397488
-4.257631	None	-0.07397488
-4.257631	fired	-0.07397488
-4.257631	forecaster	-0.07397488
-4.257631	Wales	-0.07397488
-4.257631	Queensland	-0.07397488
-4.257631	suffered	-0.07397488
-4.257631	By	-0.07397488
-4.257631	subscribers	-0.07397488
-4.257631	carried	-0.07397488
-4.257631	fiber	-0.07397488
-4.257631	optic	-0.07397488
-4.257631	leased	-0.07397488
-4.257631	Traders	-0.07397488
-4.257631	news	-0.07397488
-4.257631	conference	-0.07397488
-4.257631	create	-0.07397488
-4.257631	bureau	-0.07397488
-4.257631	expedite	-0.07397488
-4.257631	processing	-0.07397488
-4.257631	As	-0.07397488
-4.257631	tonnage	-0.07397488
-4.257631	required	-0.07397488
-4.257631	preference	-0.07397488
-4.257631	goes	-0.07397488
-4.257631	going	-0.07397488
-4.257631	harder	-0.07397488
-4.257631	meet	-0.07397488
-4.257631	confirmed	-0.07397488
-4.257631	preliminary	-0.07397488
-4.257631	Turkey	-0.07397488
-4.257631	respectively	-0.07397488
-4.257631	tariffs	-0.07397488
-4.257631	imposed	-0.07397488
-4.257631	recommended	-0.07397488
-4.257631	curbs	-0.07397488
-4.257631	panel	-0.07397488
-4.257631	headed	-0.07397488
-4.257631	Merchant	-0.07397488
-4.257631	Pierson	-0.07397488
-4.257631	Heldring	-0.07397488
-4.257631	en	-0.07397488
-4.257631	estimate	-0.07397488
-4.257631	sentiment	-0.07397488
-4.257631	SANTOS	-0.07397488
-4.257631	PROFITS	-0.07397488
-4.257631	HIT	-0.07397488
-4.257631	Leading	-0.07397488
-4.257631	onshore	-0.07397488
-4.257631	STOS	-0.07397488
-4.257631	hit	-0.07397488
-4.257631	condensate	-0.07397488
-4.257631	liquefied	-0.07397488
-4.257631	LPG	-0.07397488
-4.257631	).	-0.07397488
-4.257631	POREX	-0.07397488
-4.257631	PORX	-0.07397488
-4.257631	MEDCO	-0.07397488
-4.257631	MCCS	-0.07397488
-4.257631	Porex	-0.07397488
-4.257631	Technologies	-0.07397488
-4.257631	partly	-0.07397488
-4.257631	Medco	-0.07397488
-4.257631	Containment	-0.07397488
-4.257631	STRIKING	-0.07397488
-4.257631	BRAZILIAN	-0.07397488
-4.257631	SEAMEN	-0.07397488
-4.257631	HOLD	-0.07397488
-4.257631	TALKS	-0.07397488
-4.257631	Striking	-0.07397488
-4.257631	Brazilian	-0.07397488
-4.257631	seamen	-0.07397488
-4.257631	158	-0.07397488
-4.257631	halted	-0.07397488
-4.257631	Janeiro	-0.07397488
-4.257631	Labour	-0.07397488
-4.257631	Almir	-0.07397488
-4.257631	Pazzianotto	-0.07397488
-4.257631	union	-0.07397488
-4.257631	shocked	-0.07397488
-4.257631	spending	-0.07397488
-4.257631	Oct	-0.07397488
-4.257631	Affandi	-0.07397488
-4.257631	fel	-0.07397488
-4.257631	159	-0.07397488
-4.257631	BANKAMERICA	-0.07397488
-4.257631	BAC	-0.07397488
-4.257631	MORTGAGE	-0.07397488
-4.257631	BankAmerica	-0.07397488
-4.257631	Ireland	-0.07397488
-4.257631	words	-0.07397488
-4.257631	sometimes	-0.07397488
-4.257631	diametrically	-0.07397488
-4.257631	opposed	-0.07397488
-4.257631	south	-0.07397488
-4.257631	Bywater	-0.07397488
-4.257631	backed	-0.07397488
-4.257631	Defense	-0.07397488
-4.257631	Science	-0.07397488
-4.257631	task	-0.07397488
-4.257631	consortium	-0.07397488
-4.257631	develop	-0.07397488
-4.257631	electronic	-0.07397488
-4.257631	processes	-0.07397488
-4.257631	industory	-0.07397488
-4.257631	competitive	-0.07397488
-4.257631	repossession	-0.07397488
-4.257631	Gould	-0.07397488
-4.257631	systems	-0.07397488
-4.257631	focus	-0.07397488
-4.257631	computer	-0.07397488
-4.257631	electronics	-0.07397488
-4.257631	replace	-0.07397488
-4.257631	learn	-0.07397488
-4.257631	you	-0.07397488
-4.257631	cannot	-0.07397488
-4.257631	deemed	-0.07397488
-4.257631	quotas	-0.07397488
-4.257631	regional	-0.07397488
-4.257631	spoke	-0.07397488
-4.257631	named	-0.07397488
-4.257631	bags	-0.07397488
-4.257631	behind	-0.07397488
-4.257631	leaving	-0.07397488
-4.257631	shipped	-0.07397488
-4.257631	NEW	-0.07397488
-4.257631	ELECTRIC	-0.07397488
-4.257631	SYSTEM	-0.07397488
-4.257631	NES	-0.07397488
-4.257631	FIVE	-0.07397488
-4.257631	MTHS	-0.07397488
-4.257631	75	-0.07397488
-4.257631	73	-0.07397488
-4.257631	632	-0.07397488
-4.257631	629	-0.07397488
-4.257631	173	-0.07397488
-4.257631	165	-0.07397488
-4.257631	Chrysler	-0.07397488
-4.257631	rival	-0.07397488
-4.257631	dilution	-0.07397488
-4.257631	Heinl	-0.07397488
-4.257631	Nursery	-0.07397488
-4.257631	shade	-0.07397488
-4.257631	houses	-0.07397488
-4.257631	square	-0.07397488
-4.257631	feet	-0.07397488
-4.257631	greenhouses	-0.07397488
-4.257631	facilities	-0.07397488
-4.257631	using	-0.07397488
-4.257631	obtain	-0.07397488
-4.257631	liquidity	-0.07397488
-4.257631	foresake	-0.07397488
-4.257631	underlying	-0.07397488
-4.257631	unaffected	-0.07397488
-4.257631	accord	-0.07397488
-4.257631	permits	-0.07397488
-4.257631	493	-0.07397488
-4.257631	502	-0.07397488
-4.257631	gained	-0.07397488
-4.257631	forced	-0.07397488
-4.257631	India	-0.07397488
-4.257631	Delhi	-0.07397488
-4.257631	fails	-0.07397488
-4.257631	PARTNERS	-0.07397488
-4.257631	BID	-0.07397488
-4.257631	GENCORP	-0.07397488
-4.257631	GY	-0.07397488
-4.257631	Partners	-0.07397488
-4.257631	GenCorp	-0.07397488
-4.257631	110	-0.07397488
-4.257631	multilaterals	-0.07397488
-4.257631	performing	-0.07397488
-4.257631	debtors	-0.07397488
-4.257631	More	-0.07397488
-4.257631	someone	-0.07397488
-4.257631	Silas	-0.07397488
-4.257631	His	-0.07397488
-4.257631	revitalize	-0.07397488
-4.257631	Texas	-0.07397488
-4.257631	exempt	-0.07397488
-4.257631	stripper	-0.07397488
-4.257631	wells	-0.07397488
-4.257631	severance	-0.07397488
-4.257631	reaffirmed	-0.07397488
-4.257631	coordinate	-0.07397488
-4.257631	inflationary	-0.07397488
-4.257631	stable	-0.07397488
-4.257631	Reagan	-0.07397488
-4.257631	ENERGY	-0.07397488
-4.257631	water	-0.07397488
-4.257631	tide	-0.07397488
-4.257631	vessel	-0.07397488
-4.257631	list	-0.07397488
-4.257631	degrees	-0.07397488
-4.257631	Baker	-0.07397488
-4.257631	changed	-0.07397488
-4.257631	comments	-0.07397488
-4.257631	senior	-0.07397488
-4.257631	thought	-0.07397488
-4.257631	undervalued	-0.07397488
-4.257631	replied	-0.07397488
-4.257631	No	-0.07397488
-4.257631	MIYAZAWA	-0.07397488
-4.257631	BELOW	-0.07397488
-4.257631	YEN	-0.07397488
-4.257631	IS	-0.07397488
-4.257631	COUNTER	-0.07397488
-4.257631	PARIS	-0.07397488
-4.257631	ACCORD	-0.07397488
-4.257631	FIRMS	-0.07397488
-4.257631	HOPE	-0.07397488
-4.257631	JOIN	-0.07397488
-4.257631	TELECOM	-0.07397488
-4.257631	COMPANY	-0.07397488
-4.257631	telecommunications	-0.07397488
-4.257631	discreetly	-0.07397488
-4.257631	Until	-0.07397488
-4.257631	World	-0.07397488
-4.257631	confident	-0.07397488
-4.257631	adopt	-0.07397488
-4.257631	instruments	-0.07397488
-4.257631	tightening	-0.07397488
-4.257631	choke	-0.07397488
-4.257631	modest	-0.07397488
-4.257631	expansion	-0.07397488
-4.257631	threaten	-0.07397488
-4.257631	recession	-0.07397488
-4.257631	Several	-0.07397488
-4.257631	contacts	-0.07397488
-4.257631	indication	-0.07397488
-4.257631	wishes	-0.07397488
-4.257631	mention	-0.07397488
-4.257631	SENATORS	-0.07397488
-4.257631	PROPOSE	-0.07397488
-4.257631	BAN	-0.07397488
-4.257631	TOSHIBA	-0.07397488
-4.257631	IMPORTS	-0.07397488
-4.257631	Three	-0.07397488
-4.257631	went	-0.07397488
-4.257631	signed	-0.07397488
-4.257631	calling	-0.07397488
-4.257631	exchanged	-0.07397488
-4.257631	Barnett	-0.07397488
-4.257631	moved	-0.07397488
-4.257631	SDR	-0.07397488
-4.257631	MTECH	-0.07397488
-4.257631	MTCH	-0.07397488
-4.257631	HAS	-0.07397488
-4.257631	467	-0.07397488
-4.257631	SHARES	-0.07397488
-4.257631	MTech	-0.07397488
-4.257631	Commercial	-0.07397488
-4.257631	Results	-0.07397488
-4.257631	nudged	-0.07397488
-4.257631	funds	-0.07397488
-4.257631	goal	-0.07397488
-4.257631	ECONOMIC	-0.07397488
-4.257631	COUNCIL	-0.07397488
-4.257631	PESSIMISTIC	-0.07397488
-4.257631	Social	-0.07397488
-4.257631	CES	-0.07397488
-4.257631	body	-0.07397488
-4.257631	industrialists	-0.07397488
-4.257631	unionists	-0.07397488
-4.257631	INDONESIA	-0.07397488
-4.257631	LIMITS	-0.07397488
-4.257631	IMPACT	-0.07397488
-4.257631	FINANCE	-0.07397488
-4.257631	minimised	-0.07397488
-4.257631	limits	-0.07397488
-4.257631	boosted	-0.07397488
-4.257631	Radius	-0.07397488
-4.257631	Prawiro	-0.07397488
-4.257631	aimed	-0.07397488
-4.257631	preventing	-0.07397488
-4.257631	refiners	-0.07397488
-4.257631	marketers	-0.07397488
-4.257631	predatory	-0.07397488
-4.257631	monopolistic	-0.07397488
-4.257631	franchised	-0.07397488
-4.257631	Contract	-0.07397488
-4.257631	specifications	-0.07397488
-4.257631	resemble	-0.07397488
-4.257631	gasoline	-0.07397488
-4.257631	AUDIO	-0.07397488
-4.257631	VIDEO	-0.07397488
-4.257631	AVA	-0.07397488
-4.257631	SWEETENS	-0.07397488
-4.257631	CYCLOPS	-0.07397488
-4.257631	CYL	-0.07397488
-4.257631	Audio	-0.07397488
-4.257631	Video	-0.07397488
-4.257631	Affiliates	-0.07397488
-4.257631	Cyclops	-0.07397488
-4.257631	Astra	-0.07397488
-4.257631	engineering	-0.07397488
-4.257631	paint	-0.07397488
-4.257631	manufacture	-0.07397488
-4.257631	motor	-0.07397488
-4.257631	vehicles	-0.07397488
-4.257631	earthmoving	-0.07397488
-4.257631	TOP	-0.07397488
-4.257631	QUALITIES	-0.07397488
-4.257631	SOUGHT	-0.07397488
-4.257631	HAMBURG	-0.07397488
-4.257631	green	-0.07397488
-4.257631	demand	-0.07397488
-4.257631	coffees	-0.07397488
-4.257631	past	-0.07397488
-4.257631	unsatisfactory	-0.07397488
-4.257631	PEOPLE	-0.07397488
-4.257631	SAVINGS	-0.07397488
-4.257631	BROCKTON	-0.07397488
-4.257631	PBKB	-0.07397488
-4.257631	646	-0.07397488
-4.257631	470	-0.07397488
-4.257631	Quarter	-0.07397488
-4.257631	cumulative	-0.07397488
-4.257631	roastings	-0.07397488
-4.257631	845	-0.07397488
-4.257631	070	-0.07397488
-4.257631	REUTER	-0.07397488
-4.257631	forecasts	-0.07397488
-4.257631	Schrader	-0.07397488
-4.257631	Automotive	-0.07397488
-4.257631	Maremont	-0.07397488
-4.257631	acquired	-0.07397488
