\data\
ngram 1=7339
ngram 2=35655
ngram 3=53127

\1-grams:
-4.572492	<unk>	0
0	<s>	-0.4190216
-2.6305342	</s>	0
-3.3913305	while	-0.16694702
-4.430429	roth	-0.0919173
-2.1568277	-	-0.20135722
-3.2003102	american	-0.1761431
-2.0225863	said	-0.575795
-2.6202524	it	-0.27906907
-2.3179052	is	-0.27770028
-3.4558809	still	-0.101000786
-3.7404974	interested	-0.5426794
-1.8241884	in	-0.40378898
-4.010452	acquiring	-0.0919173
-4.430429	turco	-0.0919173
-1.4058433	,	-0.41734368
-4.157543	atcor	-0.09191726
-3.040495	now	-0.11700994
-3.900773	reviewing	-0.2072884
-2.5543816	its	-0.13484628
-3.4921515	options	-0.1444055
-2.4676132	with	-0.25092545
-3.0273256	other	-0.110029735
-3.813283	potential	-0.0919173
-3.678177	buyers	-0.11736894
-3.3913305	who	-0.14632663
-2.7494786	have	-0.22984105
-3.813283	expressed	-0.1261954
-2.990057	interest	-0.47585356
-3.5752792	consumer	-0.18973999
-3.0273256	products	-0.24717559
-4.010452	businesses	-0.0919173
-1.5369785	.	-0.7461779
-3.678177	german	-0.09191733
-2.8848476	net	-0.21838853
-3.3913305	currency	-0.122643284
-3.1814091	reserves	-0.16968168
-3.3351443	fall	-0.18796137
-2.9138236	5	-0.5706555
-2.894293	4	-0.66900694
-2.5414782	billion	-0.5450463
-3.678177	marks	-0.15231055
-1.7283329	to	-0.31737295
-3.813283	81	-0.17108388
-3.0021281	7	-0.49126208
-3.900773	bundesbank	-0.1019197
-1.9171591	the	-0.30782378
-3.0825825	1987	-0.21085878
-3.3351443	annual	-0.2294661
-3.2407753	dividend	-0.23826456
-2.4640527	will	-0.31554598
-3.2003102	be	-0.15178883
-3.5317295	40	-0.20785326
-2.5722048	cts	-0.86557114
-2.099597	a	-0.24372587
-3.3095613	share	-0.21754625
-4.283945	speed	-0.0919173
-4.010452	o	-0.13338809
-4.430429	print	-0.0919173
-3.1632962	business	-0.21674487
-2.354893	&	-2.0272863
-4.430429	lt	-0.0919173
-3.813283	;	-0.09311387
-4.430429	sbm	-0.0919173
-2.2457368	>	-0.37897247
-3.678177	4th	-0.59383196
-3.4558809	qtr	-0.28253326
-3.1459088	shr	-0.22670913
-3.1632962	loss	-0.17969637
-3.3913305	seven	-0.15712358
-2.7563744	vs	-0.26407906
-3.3095613	profit	-0.121098824
-3.2407753	17	-0.47835517
-3.900773	102	-0.28646964
-4.283945	000	-0.09501838
-4.157543	258	-0.1634127
-3.1632962	revs	-0.14797135
-2.5813985	1	-0.7216822
-4.430429	695	-0.0919173
-4.430429	371	-0.0919173
-2.8756032	year	-0.29182714
-3.4224074	33	-0.31158906
-3.6236877	26	-0.19898057
-4.283945	488	-0.0919173
-4.010452	384	-0.14440554
-2.9668772	6	-0.6519587
-3.813283	700	-0.1858041
-4.283945	774	-0.0919173
-3.3351443	note	-0.67814636
-3.5752792	:	-0.13716945
-2.9039485	1986	-0.26425827
-3.2003102	results	-0.18688142
-3.5317295	include	-0.105305664
-3.1814091	operations	-0.30197793
-1.7816509	of	-0.2932659
-4.010452	radio	-0.0919173
-4.430429	stations	-0.0919173
-4.430429	wjye	-0.0919173
-4.430429	fm	-0.0919173
-2.0277493	for	-0.27506638
-3.4921515	full	-0.18143317
-1.8004713	and	-0.21449389
-4.430429	wnnr	-0.0919173
-4.283945	am	-0.0919173
-2.6410656	last	-0.57137406
-3.0021281	six	-0.2635637
-3.3351443	months	-0.20613042
-4.010452	economics	-0.14440554
-3.5317295	ministry	-0.14219856
-4.157543	commenting	-0.30575043
-2.1894858	on	-0.32642356
-3.2003102	figures	-0.29312637
-3.7404974	gnp	-0.15244982
-3.2003102	first	-0.20565765
-3.3095613	quarter	-0.25466874
-2.3360054	was	-0.20123315
-2.7851079	also	-0.20755291
-3.2407753	expected	-0.30665493
-4.283945	relatively	-0.0919173
-3.900773	weak	-0.0919173
-2.70405	"	-0.18013111
-4.010452	although	-0.0919173
-3.4224074	short	-0.38004386
-3.6236877	run	-0.0919173
-3.7404974	difficult	-0.14440554
-3.900773	see	-0.11027837
-4.010452	direct	-0.0919173
-4.157543	link	-0.09191726
-3.0145442	between	-0.22324458
-3.813283	arab	-0.09191726
-4.157543	anger	-0.09191726
-4.430429	threats	-0.0919173
-2.6979315	oil	-0.26413965
-3.678177	supplies	-0.16036218
-3.2625155	current	-0.19844283
-3.900773	environment	-0.0919173
-4.010452	increasingly	-0.0919173
-4.157543	moderate	-0.09191726
-4.010452	leaders	-0.14440554
-3.4921515	seen	-0.107402585
-2.4933882	as	-0.290618
-4.283945	friendly	-0.0919173
-2.685947	u	-1.697861
-3.4921515	s	-0.10311653
-3.7404974	interests	-0.17108388
-2.5248494	,"	-0.45404676
-4.430429	ebinger	-0.0919173
-4.157543	lot	-0.13338809
-4.430429	winterkill	-0.0919173
-2.9783125	could	-0.18834215
-3.900773	occur	-0.0919173
-3.0825825	during	-0.41133502
-3.4224074	next	-0.26149064
-3.3623295	month	-0.18971197
-3.3623295	half	-0.16670369
-4.283945	martell	-0.0919173
-3.678177	chicago	-0.09191733
-3.678177	soybean	-0.13825029
-4.283945	complex	-0.0919173
-2.5500376	has	-0.21882468
-3.4921515	been	-0.107607335
-4.430429	nervous	-0.0919173
-3.1130924	some	-0.13418667
-3.2407753	time	-0.1514251
-2.7851079	about	-0.21161763
-3.3623295	large	-0.0919173
-3.2854016	south	-0.32847163
-3.813283	crops	-0.15244982
-3.6236877	developing	-0.32598585
-2.8665514	under	-0.263643
-3.678177	near	-0.16341273
-4.430429	ideal	-0.0919173
-3.6236877	conditions	-0.1144662
-4.010452	towards	-0.0919173
-3.2003102	record	-0.2252845
-3.813283	yields	-0.1261954
-3.2854016	japanese	-0.105305664
-4.430429	crushers	-0.0919173
-3.900773	continue	-0.17109063
-4.283945	concentrate	-0.20412089
-3.813283	rapeseed	-0.121129796
-3.5752792	purchases	-0.15497786
-3.0975695	since	-0.2555556
-4.430429	converts	-0.0919173
-3.1814091	higher	-0.13914025
-3.678177	percentage	-0.3537149
-3.2854016	than	-0.14889671
-4.430429	oilseeds	-0.0919173
-3.054076	they	-0.20680983
-3.5317295	royal	-0.20854205
-3.3623295	resources	-0.316283
-2.5207899	corp	-0.64666766
-4.430429	rrco	-0.0919173
-3.900773	2nd	-0.5275992
-3.813283	dec	-0.22907583
-3.1632962	31	-0.37696385
-3.7404974	72	-0.17821129
-3.7404974	48	-0.11736894
-2.5248494	dlrs	-0.5706597
-4.430429	466	-0.0919173
-4.430429	006	-0.0919173
-3.1291907	9	-0.46313906
-4.430429	091	-0.0919173
-4.010452	688	-0.13338809
-4.430429	608	-0.0919173
-4.157543	181	-0.09191726
-4.157543	280	-0.09191726
-4.430429	727	-0.0919173
-3.4224074	avg	-0.6844096
-4.430429	shrs	-0.0919173
-4.283945	194	-0.20412089
-4.283945	155	-0.0919173
-4.430429	461	-0.0919173
-3.813283	77	-0.14440554
-3.4558809	51	-0.26029477
-4.430429	752	-0.0919173
-4.430429	455	-0.0919173
-4.430429	265	-0.0919173
-4.430429	457	-0.0919173
-4.430429	444	-0.0919173
-4.157543	149	-0.1634127
-2.736007	2	-0.5456779
-4.283945	791	-0.0919173
-4.283945	188	-0.09191726
-4.430429	174	-0.0919173
-4.283945	731	-0.09191726
-3.3913305	losses	-0.12278842
-4.157543	charges	-0.1634127
-3.1291907	0	-0.6506909
-2.3204453	mln	-0.58139336
-3.3351443	both	-0.11355552
-3.7404974	periods	-0.1144662
-3.1291907	14	-0.35341644
-3.2200718	1985	-0.24473809
-4.283945	write	-0.20412089
-3.2407753	down	-0.15706614
-3.678177	gas	-0.119758435
-4.157543	properties	-0.0919173
-4.010452	california	-0.0919173
-3.7404974	water	-0.0919173
-3.4558809	service	-0.13067688
-3.0273256	co	-0.35729083
-4.430429	cwtr	-0.0919173
-3.900773	3rd	-0.5275992
-2.894293	10	-0.353293
-3.678177	83	-0.18717565
-4.283945	919	-0.09191726
-4.157543	168	-0.1634127
-3.4224074	35	-0.19626951
-3.4921515	34	-0.3535756
-2.9557354	3	-0.5170684
-3.2854016	nine	-0.30183905
-4.010452	mths	-0.20587774
-4.283945	09	-0.09191726
-3.7404974	55	-0.16876826
-4.430429	391	-0.0919173
-4.430429	099	-0.0919173
-3.900773	88	-0.0919173
-4.430429	curent	-0.0919173
-4.430429	mth	-0.0919173
-3.2625155	dlr	-0.17253113
-2.716552	or	-0.12027336
-3.900773	79	-0.14440554
-3.1291907	per	-0.22563714
-3.3351443	gain	-0.2762464
-3.900773	resulting	-0.2072884
-2.3307564	from	-0.27387238
-3.5317295	change	-0.21315119
-3.900773	accounting	-0.13338809
-4.430429	method	-0.0919173
-4.430429	unbilled	-0.0919173
-3.4921515	revenues	-0.23752111
-2.9239287	but	-0.15097874
-2.3281555	that	-0.26697552
-2.9138236	if	-0.30489087
-2.590791	had	-0.2647926
-2.9342742	not	-0.16368778
-2.736007	one	-0.28980315
-3.5752792	day	-0.11027837
-4.430429	miss	-0.0919173
-3.5317295	fed	-0.12346041
-2.2522194	'	-0.8435949
-3.4558809	reserve	-0.15294331
-4.430429	projections	-0.0919173
-3.5752792	borrowings	-0.13632852
-3.3913305	target	-0.15712358
-2.5500376	would	-0.30536917
-3.678177	probably	-0.112157896
-3.5752792	reached	-0.15665177
-3.1632962	government	-0.16013843
-3.900773	unlikely	-0.33855942
-3.2200718	cut	-0.17333937
-3.900773	expenditure	-0.0919173
-3.678177	gross	-0.2414639
-3.5752792	domestic	-0.12945007
-3.6236877	product	-0.12707551
-3.3623295	major	-0.11193706
-3.0975695	tax	-0.14918494
-3.3095613	increase	-0.35424468
-4.430429	unavoidable	-0.0919173
-4.430429	bayliss	-0.0919173
-3.4558809	m	-0.3828501
-3.5752792	showed	-0.22962806
-3.1459088	rise	-0.30502582
-2.6464286	pct	-0.4777264
-3.2854016	january	-0.13504703
-2.2207322	at	-0.3788634
-3.813283	68	-0.17821129
-4.283945	rand	-0.14440554
-2.8158777	after	-0.28438434
-3.1459088	30	-0.3218581
-3.4224074	december	-0.13715109
-3.0975695	16	-0.4601058
-3.0975695	12	-0.37200686
-3.4224074	80	-0.264945
-4.430429	1a	-0.0919173
-3.2854016	22	-0.3395768
-2.990057	20	-0.3336816
-3.5752792	54	-0.26353827
-4.283945	heller	-0.0919173
-3.4224074	sees	-0.103709
-3.678177	return	-0.2416494
-4.283945	slower	-0.09191726
-3.2200718	money	-0.38582376
-3.5752792	supply	-0.09191733
-3.0680952	growth	-0.18191679
-4.283945	consequently	-0.20412089
-3.1632962	he	-0.21009858
-3.4224074	well	-0.11736894
-3.900773	known	-0.0919173
-3.813283	abroad	-0.1261954
-3.3351443	his	-0.1268239
-4.283945	views	-0.0919173
-3.6236877	issues	-0.0919173
-3.4224074	such	-0.24533585
-3.3351443	less	-0.26232475
-4.283945	developed	-0.09191726
-3.6236877	country	-0.11736894
-3.2200718	debt	-0.20490104
-2.7426906	may	-0.1894344
-4.010452	initially	-0.0919173
-3.900773	carry	-0.13338809
-4.283945	weight	-0.0919173
-3.2854016	those	-0.14702728
-4.430429	mr	-0.0919173
-4.010452	volcker	-0.1261954
-2.716552	."	-1.6674783
-4.283945	kapok	-0.20412089
-4.430429	kpk	-0.0919173
-4.010452	technical	-0.0919173
-4.283945	default	-0.0919173
-4.430429	techical	-0.0919173
-3.4224074	loans	-0.2014076
-4.430429	southeast	-0.0919173
-3.5752792	banking	-0.15570977
-4.430429	stb	-0.0919173
-4.283945	murray	-0.0919173
-4.430429	steinfeld	-0.0919173
-3.900773	negotiating	-0.0919173
-4.430429	lenders	-0.0919173
-2.685947	this	-0.32021877
-4.157543	certainly	-0.09191726
-3.900773	reason	-0.1634127
-4.430429	heightened	-0.0919173
-4.430429	watchfulness	-0.0919173
-4.430429	stimulative	-0.0919173
-4.283945	steps	-0.0919173
-4.283945	published	-0.0919173
-3.6236877	figure	-0.161192
-2.9668772	foreign	-0.21870081
-3.1814091	exchange	-0.22317171
-3.5317295	37	-0.31158906
-3.2200718	end	-0.21193622
-3.5317295	september	-0.13132088
-3.678177	47	-0.29280195
-3.2625155	june	-0.16967054
-3.900773	59	-0.1261954
-3.5752792	dutch	-0.11027837
-3.4558809	cocoa	-0.103709
-4.157543	processors	-0.0919173
-4.283945	unhappy	-0.20412089
-4.010452	icco	-0.0919173
-3.6236877	buffer	-0.59383196
-2.6518588	are	-0.12726209
-4.430429	intermittent	-0.0919173
-3.4558809	buying	-0.0919173
-4.157543	activities	-0.09191726
-3.0273256	international	-0.21472499
-3.900773	organization	-0.0919173
-2.9239287	stock	-0.2311273
-3.813283	manager	-0.11027837
-3.2003102	industry	-0.1850133
-3.4224074	sources	-0.35024822
-2.9342742	told	-0.56901765
-4.157543	reuters	-0.0919173
-3.6236877	these	-0.105305664
-3.1459088	rates	-0.18211521
-3.1814091	compared	-0.94257253
-4.430429	averages	-0.0919173
-3.678177	53	-0.13338809
-2.9448721	three	-0.26691875
-4.010452	63	-0.09191726
-3.900773	bills	-0.09191726
-3.4224074	sold	-0.14517024
-3.2200718	week	-0.24320029
-4.157543	miyazawa	-0.0919173
-3.6236877	expects	-0.14538899
-3.2003102	dollar	-0.12914616
-4.430429	rebound	-0.0919173
-3.813283	soon	-0.0919173
-3.4224074	spokesman	-0.3359009
-3.054076	says	-0.1872181
-2.9138236	price	-0.18661718
-3.4558809	much	-0.14978832
-3.3623295	below	-0.12278842
-4.157543	380	-0.09191726
-4.283945	390	-0.0919173
-2.6052718	an	-0.1741286
-4.010452	ounce	-0.09191726
-3.678177	range	-0.11736894
-4.010452	430	-0.14440554
-4.283945	hockin	-0.0919173
-4.430429	responding	-0.0919173
-4.283945	questions	-0.0919173
-3.5752792	house	-0.1044567
-4.430429	commons	-0.0919173
-3.900773	why	-0.13338809
-3.2407753	credit	-0.12230403
-4.283945	card	-0.0919173
-2.8404758	which	-0.1541022
-3.2407753	high	-0.17550324
-3.2407753	28	-0.25825453
-3.4921515	remain	-0.103709
-3.1632962	when	-0.24167532
-3.5752792	falling	-0.0919173
-4.430429	braatz	-0.0919173
-4.157543	block	-0.09191726
-4.430429	advertising	-0.0919173
-3.4921515	budget	-0.13067688
-3.7404974	same	-0.1019197
-4.430429	helped	-0.0919173
-4.430429	bit	-0.0919173
-2.28853	by	-0.25529665
-3.3351443	lower	-0.11911993
-3.1632962	costs	-0.18602012
-4.010452	television	-0.0919173
-4.283945	ads	-0.0919173
-3.4224074	terms	-0.2166403
-3.4224074	contract	-0.1261954
-2.6800766	were	-0.15591563
-4.010452	disclosed	-0.0919173
-4.157543	kellogg	-0.1634127
-3.0680952	total	-0.12746269
-3.3623295	cost	-0.2166403
-3.678177	plant	-0.112157896
-3.4921515	300	-0.2166403
-2.9783125	exports	-0.28995085
-4.430429	905	-0.0919173
-2.9557354	against	-0.22113466
-4.283945	929	-0.0919173
-3.6236877	revised	-0.13833377
-4.283945	971	-0.0919173
-4.157543	816	-0.09191726
-3.1814091	earlier	-0.24522923
-3.2003102	imports	-0.19937381
-3.0021281	fell	-0.3328535
-4.430429	858	-0.0919173
-4.430429	895	-0.0919173
-4.283945	928	-0.0919173
-4.430429	888	-0.0919173
-3.3095613	output	-0.15071802
-3.4224074	off	-0.15071802
-3.0975695	8	-0.50120676
-4.157543	bpd	-0.112157896
-3.0273256	march	-0.24660644
-3.0680952	13	-0.42684144
-3.4224074	petroleum	-0.14851575
-3.7404974	institute	-0.121129796
-4.010452	itc	-0.0919173
-3.7404974	case	-0.1144662
-3.3623295	being	-0.13825026
-4.010452	presented	-0.14440554
-4.283945	professor	-0.0919173
-4.430429	rosalyn	-0.0919173
-4.430429	higgins	-0.0919173
-3.678177	take	-0.11324977
-3.0825825	further	-0.10825552
-2.894293	two	-0.25156462
-3.7404974	days	-0.112157896
-3.3913305	another	-0.0919173
-3.3351443	added	-0.34756392
-4.283945	americans	-0.0919173
-3.2854016	do	-0.31271207
-3.813283	get	-0.0919173
-3.4921515	what	-0.13338809
-3.900773	want	-0.25275087
-4.283945	push	-0.14440554
-4.283945	regardless	-0.20412089
-3.6236877	g	-0.6395894
-3.040495	april	-0.24402317
-4.157543	heating	-0.30575043
-3.813283	91	-0.15244982
-4.430429	gallon	-0.0919173
-3.678177	pre	-0.73171914
-4.430429	corresponded	-0.0919173
-3.3913305	stocks	-0.103709
-3.5752792	sector	-0.22396879
-4.430429	beginning	-0.0919173
-3.4224074	open	-0.103709
-4.430429	secret	-0.0919173
-2.9668772	japan	-0.28335515
-3.900773	largest	-0.0919173
-4.283945	chip	-0.0919173
-4.157543	maker	-0.09191726
-4.430429	nec	-0.0919173
-4.283945	happy	-0.0919173
-4.430429	viewed	-0.0919173
-4.430429	draconian	-0.0919173
-3.678177	measures	-0.112157896
-4.430429	miti	-0.0919173
-3.7404974	taking	-0.1144662
-4.430429	implement	-0.0919173
-3.4921515	pact	-0.17857884
-3.4921515	included	-0.107402585
-4.430429	enforced	-0.0919173
-2.9783125	production	-0.18257515
-3.4921515	cuts	-0.14161193
-3.3095613	february	-0.13906491
-3.900773	retail	-0.16036218
-2.9557354	sales	-0.22471294
-3.6236877	above	-0.16876826
-3.813283	ago	-0.14517024
-3.3913305	level	-0.30885565
-4.010452	117	-0.0919173
-3.4224074	department	-0.22496422
-4.283945	austrian	-0.0919173
-3.0273256	banks	-0.16294216
-4.157543	divided	-0.1634127
-2.9783125	over	-0.23705128
-2.9668772	rate	-0.261223
-3.7404974	calls	-0.25275087
-4.430429	grown	-0.0919173
-3.5317295	recent	-0.1019197
-2.8756032	bank	-0.22302325
-4.430429	chiefs	-0.0919173
-3.4224074	issue	-0.16145787
-2.662927	/	-0.17737459
-4.283945	87	-0.0919173
-3.900773	86	-0.12945007
-4.157543	04	-0.14440554
-4.283945	03	-0.09191726
-4.283945	usage	-0.0919173
-3.2854016	--	-0.121129796
-4.430429	01	-0.0919173
-3.5752792	66	-0.28271407
-3.900773	76	-0.15244982
-4.157543	96	-0.1261954
-3.5752792	36	-0.24152096
-3.6236877	49	-0.161192
-4.283945	avge	-0.20412089
-4.010452	x	-0.121129796
-3.900773	56	-0.17108388
-3.1632962	50	-0.29305515
-4.430429	weighted	-0.0919173
-3.4224074	average	-0.16533273
-3.1291907	five	-0.2685429
-3.678177	marketing	-0.1144662
-4.283945	projection	-0.0919173
-3.813283	johnson	-0.17821129
-3.1291907	operating	-0.22396879
-4.157543	licensing	-0.09191726
-3.0021281	agreement	-0.25156584
-4.430429	tate	-0.0919173
-4.430429	lyle	-0.0919173
-4.157543	whose	-0.0919173
-4.430429	collaborative	-0.0919173
-3.813283	research	-0.09191726
-4.430429	scientists	-0.0919173
-4.283945	queen	-0.0919173
-4.430429	elizabeth	-0.0919173
-4.430429	college	-0.0919173
-3.4921515	london	-0.15150867
-3.813283	led	-0.3413874
-4.430429	discovery	-0.0919173
-4.430429	sucralose	-0.0919173
-4.430429	1976	-0.0919173
-4.157543	bombay	-0.1634127
-3.3913305	part	-0.58374405
-3.813283	offshore	-0.0919173
-3.900773	field	-0.13338809
-4.430429	stabilised	-0.0919173
-3.2407753	around	-0.19452293
-3.4921515	500	-0.21315119
-4.010452	barrels	-0.13825029
-3.3913305	years	-0.29950908
-3.813283	sosnoff	-0.121129796
-3.2625155	made	-0.15325114
-4.430429	numerous	-0.0919173
-3.7404974	efforts	-0.22907583
-4.157543	express	-0.0919173
-3.2854016	management	-0.124771066
-4.283945	ways	-0.0919173
-4.430429	maximizing	-0.0919173
-3.678177	shareholder	-0.13825029
-3.900773	values	-0.0919173
-3.900773	caesars	-0.09191726
-4.430429	twicce	-0.0919173
-4.283945	refused	-0.0919173
-4.283945	request	-0.20412089
-3.1632962	board	-0.17849287
-4.157543	seat	-0.09191726
-4.430429	woodville	-0.0919173
-3.7404974	makes	-0.09191733
-3.5317295	technology	-0.107402585
-4.283945	precision	-0.0919173
-4.157543	aerospace	-0.1634127
-4.157543	automotive	-0.09191726
-3.4224074	industries	-0.21802494
-3.2407753	24	-0.30944386
-3.813283	stg	-0.1044567
-3.678177	dropped	-0.31074283
-4.430429	taka	-0.0919173
-3.678177	october	-0.161192
-3.813283	unadjusted	-0.0919173
-3.7404974	index	-0.25666562
-3.813283	104	-0.28646964
-3.3095613	traders	-0.17868198
-4.283945	growers	-0.0919173
-2.9783125	new	-0.18627548
-3.0680952	because	-0.4816156
-4.430429	mechanism	-0.0919173
-3.4558809	likely	-0.3218742
-4.430429	interefere	-0.0919173
-3.5752792	free	-0.12945007
-2.7705035	market	-0.2242351
-4.157543	forces	-0.0919173
-4.157543	prevent	-0.14440554
-3.7404974	sharp	-0.112157896
-3.6236877	rubber	-0.0919173
-3.813283	rises	-0.11736894
-3.3913305	dealers	-0.26366222
-3.1459088	only	-0.11252284
-4.157543	temporary	-0.09191726
-3.678177	support	-0.0919173
-3.678177	150	-0.28118482
-3.2407753	yen	-0.225724
-3.813283	toward	-0.09191726
-3.5752792	early	-0.1087183
-2.8404758	group	-0.20813721
-3.4558809	industrial	-0.19716127
-3.3913305	nations	-0.124322236
-4.283945	meets	-0.0919173
-4.430429	discuss	-0.0919173
-3.5317295	currencies	-0.14538899
-3.7404974	again	-0.121129796
-4.283945	rainbow	-0.0919173
-3.4558809	proposed	-0.11582978
-3.5317295	merger	-0.19429372
-4.157543	progressive	-0.1634127
-4.010452	form	-0.14440554
-2.990057	company	-0.18500726
-4.430429	astral	-0.0919173
-3.5317295	pacific	-0.12346041
-2.9448721	ltd	-0.46572766
-3.7404974	>.	-0.6737272
-3.813283	limited	-0.1261954
-4.283945	ability	-0.0919173
-3.5752792	buy	-0.118121535
-4.283945	sgl	-0.20412089
-2.8002203	shares	-0.35334283
-4.010452	dart	-0.0919173
-4.010452	yield	-0.0919173
-4.283945	harvested	-0.0919173
-4.157543	acre	-0.0919173
-4.283945	219	-0.09191726
-4.283945	cwt	-0.20412089
-4.283945	218	-0.0919173
-3.3623295	previously	-0.1831188
-3.4224074	estimated	-0.15665177
-4.430429	lost	-0.0919173
-4.157543	658	-0.30575043
-3.1814091	11	-0.3786903
-3.678177	ended	-0.15793875
-3.4224074	july	-0.16197449
-4.430429	committing	-0.0919173
-4.430429	himself	-0.0919173
-3.678177	action	-0.112157896
-4.430429	lawmakers	-0.0919173
-4.430429	examine	-0.0919173
-4.430429	findings	-0.0919173
-4.157543	indicate	-0.09191726
-3.813283	certificates	-0.09191726
-2.8665514	more	-0.15545776
-3.1814091	cash	-0.17454147
-3.4558809	payments	-0.15602317
-4.430429	compares	-0.0919173
-3.4558809	forecast	-0.15665177
-4.157543	shortage	-0.14440554
-3.2625155	system	-0.14965951
-3.054076	today	-0.41720036
-4.430429	showboat	-0.0919173
-4.157543	opened	-0.09191726
-4.283945	hotel	-0.0919173
-3.678177	third	-0.21315119
-4.283945	gaming	-0.0919173
-3.7404974	began	-0.121129796
-4.010452	thursday	-0.14440554
-4.010452	regular	-0.0919173
-3.678177	basis	-0.1144662
-4.010452	test	-0.0919173
-3.813283	completed	-0.112157896
-3.0680952	no	-0.14780477
-3.5317295	comment	-0.27714095
-3.1632962	official	-0.22434184
-4.010452	press	-0.0919173
-3.1814091	reported	-0.107402585
-3.3913305	farmers	-0.11736894
-4.283945	fear	-0.0919173
-3.4224074	farm	-0.0919173
-3.1814091	policy	-0.14101024
-4.430429	putting	-0.0919173
-2.9239287	their	-0.11715113
-4.430429	wealth	-0.0919173
-2.9783125	into	-0.18224421
-3.7404974	building	-0.11736894
-4.430429	graves	-0.0919173
-4.430429	memorial	-0.0919173
-4.430429	halls	-0.0919173
-4.430429	ancestors	-0.0919173
-4.430429	homes	-0.0919173
-3.2854016	point	-0.18940617
-3.4921515	drop	-0.24794951
-3.813283	instead	-0.41774064
-4.157543	usual	-0.0919173
-4.430429	avoid	-0.0919173
-4.430429	hurting	-0.0919173
-4.430429	sebaana	-0.0919173
-4.430429	kizito	-0.0919173
-4.430429	squeeze	-0.0919173
-4.157543	resolved	-0.0919173
-3.678177	weeks	-0.25275087
-3.900773	sterling	-0.0919173
-3.4224074	futures	-0.11911993
-3.6236877	make	-0.18849324
-4.283945	highs	-0.20412089
-2.8321207	up	-0.31634074
-4.430429	6300	-0.0919173
-4.430429	6500	-0.0919173
-3.6236877	positive	-0.14578296
-4.430429	atmosphere	-0.0919173
-4.430429	prevail	-0.0919173
-3.1291907	before	-0.26873615
-3.6236877	british	-0.14161193
-4.430429	elections	-0.0919173
-4.157543	possibly	-0.09191726
-4.430429	horner	-0.0919173
-4.430429	principles	-0.0919173
-3.813283	draft	-0.0919173
-3.3351443	proposal	-0.19851626
-4.283945	establishing	-0.0919173
-3.0975695	offer	-0.28208426
-4.010452	rather	-0.14440554
-3.678177	posted	-0.14440554
-3.900773	limit	-0.09191726
-3.678177	amount	-0.28022835
-3.3095613	non	-1.0839016
-3.678177	member	-0.1495074
-3.1291907	can	-0.21871656
-3.5752792	bought	-0.11911993
-3.813283	differentials	-0.121129796
-3.6236877	paid	-0.112157896
-4.010452	different	-0.0919173
-4.430429	varieties	-0.0919173
-4.157543	comprising	-0.09191726
-4.010452	delegates	-0.43068916
-4.157543	ruling	-0.0919173
-3.7404974	key	-0.0919173
-4.157543	condition	-0.09191726
-4.430429	completing	-0.0919173
-4.010452	deal	-0.0919173
-3.900773	agency	-0.13632852
-4.430429	rent	-0.0919173
-3.813283	car	-0.09191726
-2.489611	inc	-0.5749179
-4.430429	agnc	-0.0919173
-3.813283	jan	-0.121129796
-3.678177	21	-0.2287762
-4.430429	553	-0.0919173
-4.430429	307	-0.0919173
-3.2854016	45	-0.31514236
-3.900773	67	-0.17924115
-3.2625155	18	-0.33510107
-4.283945	161	-0.0919173
-3.813283	118	-0.2287762
-3.5752792	adjusted	-0.1261954
-4.010452	dividends	-0.0919173
-4.430429	tuesday	-0.09191726
-3.3351443	federal	-0.22192468
-3.678177	statistics	-0.11736894
-3.900773	office	-0.1858041
-3.1632962	national	-0.17690942
-4.283945	stagnated	-0.0919173
-3.3913305	real	-0.24925187
-4.010452	seasonally	-0.33855942
-4.157543	calendar	-0.09191726
-3.7404974	fourth	-0.31074283
-4.430429	understands	-0.0919173
-3.4224074	already	-0.13546163
-3.5317295	asked	-0.16752648
-4.283945	institutional	-0.0919173
-3.5752792	investors	-0.15497786
-3.7404974	reduce	-0.13274632
-3.7404974	head	-0.22907583
-3.040495	should	-0.23284812
-3.7404974	rice	-0.121129796
-3.3623295	producer	-0.13546163
-3.4224074	reduced	-0.12707551
-4.430429	tetsuo	-0.0919173
-4.430429	kondo	-0.0919173
-3.900773	director	-0.09191726
-3.3913305	general	-0.11557715
-3.0021281	economic	-0.16027184
-4.157543	planning	-0.1634127
-2.56768	(	-0.113387235
-4.283945	epa	-0.0919173
-3.1459088	),	-0.09903826
-4.283945	reporters	-0.0919173
-4.430429	incudes	-0.0919173
-4.010452	right	-0.0919173
-4.430429	gm	-0.0919173
-3.2407753	canadian	-0.124771066
-4.430429	transit	-0.0919173
-4.430429	bus	-0.0919173
-3.900773	parts	-0.13338809
-4.283945	contingent	-0.0919173
-4.430429	satisfactory	-0.0919173
-4.283945	labor	-0.09191726
-4.430429	cri	-0.0919173
-3.7404974	yet	-0.13338809
-3.7404974	declared	-0.264373
-3.5752792	distribution	-0.112157896
-4.283945	park	-0.0919173
-4.430429	meadows	-0.0919173
-3.5317295	loan	-0.12346041
-4.430429	disposition	-0.0919173
-4.283945	babcock	-0.0919173
-4.430429	progress	-0.0919173
-3.5752792	plc	-0.40765283
-4.430429	babk	-0.0919173
-3.813283	l	-0.16036218
-3.3913305	statement	-0.15590702
-4.430429	accompanying	-0.0919173
-3.4921515	final	-0.11582978
-4.157543	showing	-0.09191726
-3.813283	pretax	-0.13825029
-3.5752792	profits	-0.121129796
-3.7404974	overall	-0.0919173
-4.430429	lister	-0.0919173
-4.157543	manufacturer	-0.0919173
-4.430429	dyer	-0.0919173
-4.430429	finisher	-0.0919173
-3.900773	cotton	-0.0919173
-4.430429	silk	-0.0919173
-4.430429	wool	-0.0919173
-4.157543	man	-0.09191726
-4.430429	fibres	-0.0919173
-3.900773	morocco	-0.0919173
-4.430429	tenders	-0.0919173
-4.010452	pl	-0.2072884
-4.283945	480	-0.0919173
-3.2003102	wheat	-0.14852333
-3.2854016	tender	-0.19514304
-4.010452	120	-0.14440554
-4.157543	210	-0.1634127
-3.0021281	tonnes	-0.324198
-4.430429	cheapest	-0.0919173
-4.283945	variety	-0.0919173
-3.900773	preferred	-0.09191726
-3.5752792	shipments	-0.11027837
-3.4921515	private	-0.10304544
-2.9783125	export	-0.15832669
-4.283945	permanent	-0.0919173
-3.813283	health	-0.1261954
-3.7404974	insurance	-0.11736894
-4.157543	leader	-0.09191726
-2.9783125	unit	-0.2126888
-3.7404974	trust	-0.1144662
-3.678177	second	-0.16084242
-3.900773	k	-0.0919173
-4.430429	eagle	-0.0919173
-4.283945	star	-0.0919173
-4.157543	premiums	-0.09191726
-2.9342742	rose	-0.3201944
-3.678177	32	-0.19303833
-4.283945	anything	-0.0919173
-3.4224074	possible	-0.0919173
-4.010452	phase	-0.13338809
-3.4921515	even	-0.13650753
-4.430429	adjournment	-0.0919173
-3.2854016	meeting	-0.20155789
-3.3913305	until	-0.11911993
-4.283945	altus	-0.20412089
-4.430429	alts	-0.0919173
-4.283945	fails	-0.20412089
-4.010452	reach	-0.1261954
-4.283945	able	-0.20412089
-4.430429	definitive	-0.0919173
-4.283945	horizon	-0.0919173
-3.1130924	financial	-0.20246351
-4.283945	funding	-0.20412089
-4.010452	servicing	-0.0919173
-4.283945	victor	-0.0919173
-3.4558809	savings	-0.25275087
-3.4558809	association	-0.27114686
-4.283945	intermagnetics	-0.20412089
-4.430429	inma	-0.0919173
-4.283945	completes	-0.1261954
-3.7404974	purchase	-0.13833377
-4.283945	advanced	-0.0919173
-3.5317295	air	-0.23935239
-4.157543	chemicals	-0.09191726
-4.430429	apd	-0.0919173
-4.430429	geodome	-0.0919173
-3.7404974	ore	-0.11736894
-4.430429	zone	-0.0919173
-4.430429	discovered	-0.0919173
-4.157543	summer	-0.09191726
-4.430429	calculations	-0.0919173
-4.430429	metropolitan	-0.0919173
-4.157543	acquire	-0.09191733
-3.900773	option	-0.0919173
-3.1632962	all	-0.1440829
-4.283945	metex	-0.0919173
-3.4558809	owned	-0.45623797
-3.900773	william	-0.0919173
-4.430429	hack	-0.0919173
-4.010452	together	-0.14440554
-4.430429	wife	-0.0919173
-4.010452	holds	-0.121129796
-3.900773	750	-0.1261954
-3.1291907	common	-0.58921754
-4.430429	citybank	-0.0919173
-4.157543	moving	-0.09191726
-4.283945	rapidly	-0.0919173
-3.6236877	move	-0.1144662
-3.3913305	us	-0.11736894
-4.157543	fifth	-0.09191726
-4.283945	wells	-0.0919173
-4.430429	fargo	-0.0919173
-4.430429	varying	-0.0919173
-3.4224074	reports	-0.17535223
-4.430429	dresdner	-0.0919173
-3.2003102	shareholders	-0.20767671
-3.4224074	offered	-0.16036218
-4.010452	every	-0.14440554
-3.0273256	15	-0.40234286
-3.2003102	held	-0.19582711
-3.900773	bahrain	-0.0919173
-3.4558809	based	-0.2502695
-3.4558809	gulf	-0.13469252
-4.430429	bsc	-0.0919173
-3.3095613	increased	-0.14517024
-4.157543	presence	-0.09191726
-3.5317295	saudi	-0.68098205
-4.430429	busy	-0.0919173
-4.430429	upgrading	-0.0919173
-4.010452	representative	-0.0919173
-3.900773	offices	-0.0919173
-4.157543	branch	-0.09191726
-4.157543	status	-0.09191726
-4.010452	allow	-0.09191733
-4.283945	dealing	-0.0919173
-4.157543	saturday	-0.09191726
-3.7404974	cattle	-0.16036218
-4.430429	slaughter	-0.09191726
-4.430429	guesstimated	-0.0919173
-3.7404974	usda	-0.0919173
-3.813283	350	-0.41140836
-3.2003102	corn	-0.13900419
-4.283945	unknown	-0.09191726
-3.4921515	agriculture	-0.14161193
-3.813283	exporters	-0.0919173
-3.900773	delivery	-0.121129796
-4.430429	destinations	-0.09191726
-3.813283	season	-0.1261954
-3.678177	italy	-0.161192
-4.430429	attend	-0.0919173
-3.7404974	paris	-0.13274632
-4.283945	grounds	-0.09191726
-4.430429	grouping	-0.0919173
-3.900773	united	-0.0919173
-3.678177	states	-0.122643284
-3.2003102	west	-0.5576956
-4.010452	germany	-0.11582978
-3.5317295	france	-0.23634428
-3.813283	britain	-0.28646964
-4.010452	role	-0.20412089
-4.430429	stamping	-0.0919173
-3.6236877	agreements	-0.1401349
-3.678177	taken	-0.14440554
-4.157543	purpose	-0.09191726
-4.283945	consider	-0.0919173
-3.7404974	transaction	-0.1495074
-4.157543	explained	-0.1634127
-3.4224074	each	-0.121129796
-3.5752792	study	-0.12346041
-4.283945	found	-0.0919173
-3.5752792	little	-0.112157896
-4.157543	evidence	-0.20412089
-4.157543	factor	-0.09191726
-3.1814091	any	-0.0976047
-3.3913305	impact	-0.2943215
-2.7633815	trade	-0.2246453
-3.4224074	deficit	-0.16590132
-4.157543	african	-0.0919173
-3.678177	sharply	-0.1144662
-4.283945	africa	-0.0919173
-3.4558809	gold	-0.103709
-3.1130924	assets	-0.21857435
-3.4921515	rising	-0.13650753
-3.6236877	almost	-0.0919173
-3.900773	governor	-0.0919173
-4.430429	gerhard	-0.0919173
-3.813283	de	-0.0919173
-4.430429	kock	-0.0919173
-4.010452	colombia	-0.13338809
-3.2003102	coffee	-0.14343126
-4.157543	registrations	-0.1634127
-3.2003102	there	-0.39869136
-3.1814091	plans	-0.5347727
-3.6236877	close	-0.14060049
-3.4558809	them	-0.121129796
-4.010452	means	-0.0919173
-4.283945	unlimited	-0.0919173
-4.157543	registered	-0.0919173
-4.430429	gilberto	-0.0919173
-4.283945	arango	-0.09191726
-3.2625155	president	-0.14804237
-3.7404974	city	-0.0919173
-3.678177	seeking	-0.22907583
-4.010452	improving	-0.0919173
-4.430429	realizing	-0.0919173
-4.283945	inherent	-0.20412089
-4.010452	subsidiaries	-0.13338809
-3.5317295	future	-0.15112166
-4.157543	discussions	-0.09191726
-4.430429	topics	-0.0919173
-4.283945	commitment	-0.20412089
-4.430429	privatization	-0.0919173
-3.3095613	trading	-0.11324977
-4.283945	entities	-0.0919173
-3.5752792	public	-0.11582978
-4.283945	disclosure	-0.20412089
-3.7404974	involved	-0.264373
-4.430429	recognition	-0.0919173
-4.283945	reductions	-0.0919173
-3.900773	kept	-0.0919173
-3.2407753	world	-0.14042753
-2.8079784	prices	-0.2992565
-4.283945	otherwise	-0.0919173
-4.430429	organizations	-0.0919173
-3.678177	australian	-0.107402585
-3.813283	proposals	-0.0919173
-4.283945	welcome	-0.0919173
-4.430429	assessments	-0.0919173
-3.1459088	we	-0.3204377
-3.5752792	august	-0.107402585
-4.157543	produce	-0.09191726
-3.3913305	our	-0.1019197
-3.7404974	own	-0.0919173
-3.678177	quota	-0.0919173
-3.7404974	sell	-0.11324977
-3.7404974	additional	-0.09191733
-3.900773	amounts	-0.0919173
-3.813283	ecuador	-0.0919173
-4.430429	repaying	-0.0919173
-3.1814091	yesterday	-0.36889866
-3.900773	rebate	-0.0919173
-4.157543	ever	-0.0919173
-4.010452	granted	-0.0919173
-2.6979315	)	-0.19847019
-4.283945	aid	-0.0919173
-3.900773	package	-0.13338809
-3.7404974	called	-0.15244982
-3.678177	exploration	-0.17821129
-3.3913305	development	-0.14983436
-4.283945	incentive	-0.0919173
-3.2003102	program	-0.21193622
-4.283945	restrict	-0.0919173
-4.283945	individual	-0.0919173
-4.283945	claim	-0.0919173
-4.283945	.-	-0.09191726
-4.010452	ussr	-0.121129796
-4.157543	grains	-0.09191726
-4.157543	amounted	-0.30575043
-4.157543	152	-0.1634127
-4.283945	600	-0.09191726
-4.430429	808	-0.0919173
-3.1291907	100	-0.31326824
-4.430429	518	-0.0919173
-3.900773	soybeans	-0.1144662
-3.678177	met	-0.11736894
-4.430429	coil	-0.0919173
-3.4921515	systems	-0.21833718
-4.430429	mets	-0.0919173
-4.010452	feb	-0.12346041
-4.283945	206	-0.1634127
-3.6236877	38	-0.19486593
-4.157543	228	-0.14440554
-4.430429	649	-0.0919173
-4.010452	qtly	-0.43068916
-3.900773	div	-0.10304544
-3.900773	prior	-0.16166687
-3.4921515	pay	-0.119758435
-3.4558809	monetary	-0.3257318
-3.4224074	declined	-0.47211388
-3.7404974	57	-0.17821129
-4.283945	146	-0.0919173
-3.3095613	report	-0.1722739
-3.813283	charge	-0.121129796
-4.010452	bad	-0.0919173
-4.157543	doubtful	-0.09191726
-4.283945	debts	-0.0919173
-4.283945	187	-0.0919173
-4.010452	162	-0.14440554
-3.5317295	recently	-0.11027837
-4.157543	pumping	-0.09191726
-4.010452	260	-0.43068916
-3.900773	sept	-0.1261954
-4.283945	nov	-0.0919173
-4.283945	mississippi	-0.0919173
-3.900773	river	-0.2072884
-4.430429	memphis	-0.0919173
-4.430429	cairo	-0.0919173
-3.900773	137	-0.0919173
-3.3623295	bid	-0.28722137
-3.678177	145	-0.11736894
-4.283945	section	-0.0919173
-3.900773	125	-0.1634127
-4.283945	135	-0.0919173
-4.157543	comparison	-0.14440554
-3.4558809	western	-0.103709
-3.678177	taiwan	-0.12945007
-3.7404974	holding	-0.17108388
-3.4224074	talks	-0.17321569
-3.900773	clear	-0.13338809
-3.678177	how	-0.22907583
-3.5752792	far	-0.12969922
-3.7404974	washington	-0.0919173
-3.5752792	wants	-0.5083184
-4.430429	albany	-0.0919173
-4.430429	aaica	-0.0919173
-3.5317295	27	-0.17535223
-4.430429	584	-0.0919173
-4.430429	276	-0.0919173
-4.157543	97	-0.14440554
-3.900773	84	-0.11736894
-3.813283	39	-0.11736894
-4.430429	848	-0.0919173
-4.157543	290	-0.09191726
-4.430429	241	-0.0919173
-3.0975695	25	-0.35399976
-4.157543	rains	-0.0919173
-4.430429	replenished	-0.0919173
-4.283945	formerly	-0.0919173
-3.3913305	low	-0.124322236
-4.430429	soil	-0.0919173
-3.900773	moisture	-0.13338809
-3.4921515	areas	-0.13650753
-4.157543	rated	-0.0919173
-3.4921515	good	-0.0919173
-4.430429	ic	-0.0919173
-3.5752792	use	-0.18197303
-3.7404974	proceeds	-0.2295648
-4.010452	asset	-0.0919173
-3.4224074	sale	-0.23212455
-4.430429	invest	-0.09191726
-3.3623295	goods	-0.13825029
-3.5752792	services	-0.2287762
-3.7404974	feed	-0.121129796
-3.6236877	400	-0.13546163
-4.010452	460	-0.0919173
-3.5752792	85	-0.16752648
-4.430429	ttl	-0.0919173
-4.430429	domes	-0.0919173
-4.283945	485	-0.0919173
-4.283945	543	-0.0919173
-3.900773	487	-0.13338809
-4.157543	545	-0.09191726
-4.430429	stcks	-0.0919173
-3.813283	111	-0.1858041
-4.283945	184	-0.0919173
-4.430429	avgprice	-0.0919173
-4.283945	00	-0.0919173
-3.5317295	23	-0.16501212
-4.430429	bushel	-0.09191726
-4.430429	cooperative	-0.0919173
-3.900773	enterprises	-0.2072884
-4.430429	employing	-0.0919173
-3.3913305	people	-0.17507865
-3.900773	marathon	-0.09191726
-4.010452	78	-0.0919173
-4.283945	725	-0.0919173
-4.283945	451	-0.0919173
-3.7404974	98	-0.19031137
-3.7404974	deposits	-0.09191733
-3.900773	90	-0.20638105
-4.157543	warships	-0.1634127
-4.430429	protected	-0.0919173
-4.283945	kuwaiti	-0.0919173
-3.6236877	ship	-0.1087183
-4.283945	sailed	-0.0919173
-4.283945	arms	-0.0919173
-3.900773	kuwait	-0.09191726
-4.430429	neyra	-0.0919173
-3.813283	peru	-0.25275087
-3.813283	term	-0.122250386
-3.813283	including	-0.11557715
-3.678177	lines	-0.1144662
-4.283945	million	-0.0919173
-3.6236877	dollars	-0.16876826
-3.3913305	so	-0.1577713
-3.813283	working	-0.1858041
-3.1130924	capital	-0.17597552
-3.678177	credits	-0.18280862
-4.283945	adsteam	-0.0919173
-3.5752792	rights	-0.2072884
-3.7404974	raise	-0.13833377
-4.430429	adelaide	-0.0919173
-4.430429	steamship	-0.0919173
-4.430429	adsa	-0.0919173
-3.0145442	investment	-0.22563714
-3.4921515	australia	-0.19031137
-3.900773	overseas	-0.0919173
-4.157543	201	-0.14440554
-3.813283	mine	-0.121129796
-3.900773	life	-0.121129796
-3.900773	171	-0.17924115
-4.010452	covered	-0.0919173
-4.010452	dairy	-0.13338809
-4.430429	peanuts	-0.0919173
-3.2407753	sugar	-0.10627795
-3.4224074	energy	-0.15510422
-3.900773	increases	-0.13338809
-3.678177	units	-0.14060049
-3.6236877	outstanding	-0.121129796
-3.6236877	raises	-0.25727218
-4.430429	proved	-0.0919173
-4.157543	seoul	-0.09191726
-4.430429	announces	-0.0919173
-3.900773	tariff	-0.2072884
-4.157543	korea	-0.11736894
-3.5752792	import	-0.121129796
-3.900773	taxes	-0.13338809
-4.010452	items	-0.14440554
-3.7404974	construction	-0.0919173
-3.4224074	equipment	-0.19966105
-4.430429	photographic	-0.0919173
-4.430429	film	-0.0919173
-4.430429	cigarettes	-0.0919173
-4.283945	pipe	-0.0919173
-4.283945	tobacco	-0.0919173
-3.813283	help	-0.1087183
-3.3913305	surplus	-0.15533704
-3.3913305	finance	-0.23559017
-4.157543	running	-0.09191726
-4.430429	wind	-0.0919173
-4.157543	affairs	-0.09191726
-4.430429	proceeding	-0.0919173
-4.157543	quickly	-0.09191726
-3.2407753	acquisition	-0.25987345
-4.010452	substantially	-0.0919173
-4.283945	lessen	-0.0919173
-3.7404974	competition	-0.0919173
-4.157543	harm	-0.14440554
-4.430429	niskanen	-0.0919173
-4.283945	vulnerable	-0.20412089
-4.430429	resurgence	-0.0919173
-4.430429	nationalism	-0.0919173
-3.2407753	canada	-0.21802494
-3.3913305	very	-0.1144662
-3.5752792	heavy	-0.1261954
-4.430429	workload	-0.0919173
-3.0975695	due	-0.78838384
-3.5752792	number	-0.32598585
-3.900773	applications	-0.33855942
-4.010452	programs	-0.0919173
-3.813283	conservation	-0.17108388
-4.283945	hertz	-0.20412089
-4.283945	welbilt	-0.0919173
-4.430429	welb	-0.0919173
-3.900773	acquisitions	-0.0919173
-3.4224074	announced	-0.13498953
-3.6236877	manufacturing	-0.13338809
-3.6236877	food	-0.0919173
-3.813283	machinery	-0.1261954
-3.900773	engineering	-0.1261954
-4.157543	manufacturers	-0.0919173
-4.430429	automated	-0.0919173
-4.430429	bakery	-0.0919173
-4.430429	headquartered	-0.0919173
-4.157543	toronto	-0.09191726
-4.283945	trades	-0.0919173
-3.813283	post	-0.16341273
-4.010452	war	-0.0919173
-4.283945	139	-0.20412089
-3.678177	tokyo	-0.1261954
-3.900773	brokers	-0.0919173
-4.283945	linotype	-0.0919173
-4.430429	eschborn	-0.0919173
-3.678177	200	-0.21969038
-4.430429	joined	-0.0919173
-3.7404974	later	-0.0919173
-4.010452	debate	-0.14440554
-4.283945	coordination	-0.0919173
-3.813283	standard	-0.121129796
-3.7404974	poor	-0.121129796
-4.430429	weaker	-0.0919173
-4.157543	competitiveness	-0.09191726
-3.900773	face	-0.0919173
-3.813283	labour	-0.1261954
-4.010452	mean	-0.0919173
-4.430429	deteriorating	-0.0919173
-3.6236877	account	-0.12969922
-3.5317295	balance	-0.2486811
-4.283945	external	-0.20412089
-4.157543	experts	-0.0919173
-4.430429	refloat	-0.0919173
-4.157543	bodies	-0.09191726
-4.430429	trapped	-0.0919173
-4.430429	amid	-0.0919173
-4.430429	debris	-0.0919173
-4.157543	operators	-0.09191726
-4.010452	find	-0.0919173
-4.157543	hard	-0.1634127
-4.010452	either	-0.0919173
-3.5752792	way	-0.1744641
-4.430429	concerted	-0.0919173
-3.5317295	central	-0.23996498
-3.4558809	intervention	-0.13338809
-3.4224074	details	-0.21193622
-3.3351443	crop	-0.11117237
-4.430429	enrollment	-0.0919173
-4.010452	enrolled	-0.0919173
-4.010452	acres	-0.09191726
-3.900773	latest	-0.0919173
-4.430429	signup	-0.0919173
-3.1632962	four	-0.2016645
-4.157543	specialists	-0.1634127
-4.283945	deputy	-0.0919173
-3.5752792	prime	-0.34716412
-3.4558809	minister	-0.101000786
-4.430429	kim	-0.0919173
-4.430429	mahn	-0.0919173
-4.430429	je	-0.0919173
-3.7404974	local	-0.0919173
-4.157543	businessmen	-0.09191726
-4.010452	question	-0.13338809
-4.430429	revaluing	-0.0919173
-3.900773	won	-0.0919173
-4.157543	maintain	-0.18620536
-4.430429	steadfast	-0.0919173
-3.5752792	position	-0.16876826
-4.430429	newscope	-0.0919173
-3.813283	94	-0.17323767
-4.430429	319	-0.0919173
-4.283945	337	-0.0919173
-4.430429	702	-0.0919173
-4.430429	016	-0.0919173
-4.430429	899	-0.0919173
-4.430429	513	-0.0919173
-4.283945	239	-0.09191726
-4.010452	106	-0.2416494
-3.5752792	includes	-0.12864509
-3.7404974	250	-0.29280195
-4.283945	writedown	-0.20412089
-4.430429	doubly	-0.0919173
-4.430429	susceptible	-0.0919173
-4.283945	encouraged	-0.0919173
-4.283945	fertilisers	-0.0919173
-4.430429	insecticides	-0.0919173
-4.430429	treat	-0.0919173
-4.283945	pod	-0.0919173
-4.430429	rot	-0.0919173
-3.7404974	better	-0.0919173
-4.010452	sectors	-0.0919173
-4.010452	offset	-0.13338809
-3.4558809	financing	-0.121129796
-4.430429	sperry	-0.0919173
-4.283945	sharing	-0.0919173
-3.3623295	subsidiary	-0.12864509
-4.157543	honeywell	-0.09191726
-4.430429	bull	-0.0919173
-4.010452	light	-0.0919173
-3.4558809	iran	-0.25275087
-4.430429	deployment	-0.0919173
-3.813283	chinese	-0.1261954
-4.283945	built	-0.0919173
-4.010452	missiles	-0.0919173
-4.010452	cover	-0.1261954
-4.430429	entrance	-0.0919173
-4.283945	thai	-0.09191726
-4.157543	tin	-0.0919173
-3.813283	thailand	-0.121129796
-3.813283	exported	-0.1261954
-3.7404974	metal	-0.0919173
-4.430429	330	-0.09191726
-4.010452	mineral	-0.0919173
-3.813283	restructuring	-0.09191726
-4.157543	consolidation	-0.09191726
-3.3095613	brazil	-0.24030134
-3.6236877	weather	-0.1144662
-4.430429	summary	-0.0919173
-4.430429	noaa	-0.0919173
-4.157543	wet	-0.09191726
-4.283945	rio	-0.0919173
-4.430429	grande	-0.0919173
-4.430429	sul	-0.0919173
-4.283945	benefitting	-0.0919173
-4.010452	mostly	-0.0919173
-4.010452	setting	-0.0919173
-4.430429	filling	-0.0919173
-4.430429	pods	-0.0919173
-3.7404974	joint	-0.16036218
-3.678177	agricultural	-0.0919173
-3.7404974	facility	-0.0919173
-3.6236877	commerce	-0.1444055
-4.430429	departments	-0.0919173
-3.7404974	usair	-0.1144662
-3.813283	closed	-0.09191726
-3.7404974	volume	-0.25275087
-4.157543	z	-0.1634127
-3.3913305	fund	-0.13123249
-4.157543	earn	-0.0919173
-4.430429	comprised	-0.0919173
-3.7404974	41	-0.17821129
-3.3623295	crude	-0.34228835
-4.283945	sunflowerseed	-0.0919173
-3.900773	bulk	-0.09191726
-4.283945	ranging	-0.20412089
-4.283945	344	-0.0919173
-4.283945	348	-0.0919173
-4.283945	refined	-0.0919173
-4.430429	drums	-0.0919173
-4.430429	517	-0.0919173
-4.430429	522	-0.0919173
-3.813283	tonne	-0.10304544
-4.157543	freight	-0.13338809
-4.430429	alexandria	-0.0919173
-4.430429	delivered	-0.0919173
-4.010452	quality	-0.0919173
-3.7404974	base	-0.1144662
-4.157543	1980	-0.0919173
-3.900773	stood	-0.2072884
-4.283945	116	-0.0919173
-3.5752792	november	-0.12945007
-3.3095613	firm	-0.14804237
-4.157543	tvx	-0.09191726
-4.430429	tvxg	-0.0919173
-3.1814091	stake	-0.34056622
-4.430429	wedge	-0.0919173
-3.813283	houston	-0.1261954
-3.5752792	raised	-0.16752648
-4.283945	broadcast	-0.0919173
-4.283945	682	-0.0919173
-4.430429	419	-0.0919173
-4.283945	559	-0.09191726
-4.010452	crazy	-0.43068916
-4.430429	eddie	-0.09191726
-3.1814091	agreed	-0.41755515
-4.283945	oppose	-0.0919173
-4.430429	slate	-0.0919173
-4.283945	candidates	-0.0919173
-3.678177	committee	-0.10627795
-4.430429	restore	-0.0919173
-4.430429	stockholder	-0.0919173
-3.6236877	value	-0.2414639
-4.430429	oppenheimer	-0.0919173
-4.430429	palmieri	-0.0919173
-4.157543	p	-0.0919173
-4.283945	.>	-0.09191726
-4.157543	entertainment	-0.13338809
-4.430429	em	-0.0919173
-3.1291907	>,	-0.20747027
-4.430429	oust	-0.0919173
-4.283945	brennan	-0.20412089
-3.5317295	payment	-0.21016094
-4.430429	moratorium	-0.0919173
-4.283945	campbell	-0.20412089
-4.010452	taft	-0.1261954
-4.283945	narragansett	-0.0919173
-4.430429	requsted	-0.0919173
-3.813283	response	-0.35341644
-4.010452	creditors	-0.0919173
-3.900773	brought	-0.0919173
-4.157543	actions	-0.09191726
-3.678177	council	-0.1495074
-4.157543	application	-0.14440554
-4.010452	governments	-0.0919173
-4.283945	strike	-0.0919173
-3.1291907	out	-0.25948155
-3.900773	j	-0.41774064
-4.010452	h	-0.43068916
-4.430429	writeoff	-0.0919173
-3.678177	resulted	-0.43068916
-3.4224074	43	-0.34838882
-3.6236877	shearson	-0.28022835
-4.430429	lehman	-0.09191726
-3.678177	growing	-0.0919173
-3.813283	described	-0.1634127
-3.4224074	analysts	-0.3209995
-3.813283	top	-0.0919173
-4.010452	brokerage	-0.0919173
-3.7404974	give	-0.09191726
-4.283945	nippon	-0.20412089
-4.430429	ringside	-0.0919173
-4.430429	commissions	-0.0919173
-3.813283	wall	-0.6067804
-4.283945	street	-0.0919173
-3.900773	where	-0.1144662
-4.430429	invests	-0.0919173
-3.678177	increasing	-0.13338809
-4.430429	topic	-0.0919173
-3.813283	continued	-0.09191726
-4.157543	slide	-0.09191726
-4.283945	lebanese	-0.0919173
-4.010452	pound	-0.0919173
-4.430429	undermining	-0.0919173
-3.813283	effective	-0.107402585
-4.430429	danish	-0.09191726
-4.283945	downgrading	-0.0919173
-4.157543	dramatic	-0.0919173
-4.430429	palle	-0.0919173
-4.430429	simonsen	-0.0919173
-4.157543	denmark	-0.14440554
-4.430429	rating	-0.0919173
-4.430429	dramatised	-0.0919173
-4.010452	cited	-0.0919173
-4.430429	recheduling	-0.0919173
-3.6236877	improved	-0.107402585
-4.430429	perceptions	-0.0919173
-3.5317295	economy	-0.13920484
-4.157543	congressional	-0.09191726
-4.430429	panels	-0.0919173
-4.430429	portions	-0.0919173
-4.430429	wideranging	-0.0919173
-3.5752792	bill	-0.13132088
-4.283945	intends	-0.0919173
-3.0975695	companies	-0.14619063
-4.283945	fight	-0.0919173
-4.010452	unfair	-0.0919173
-4.010452	practices	-0.14440554
-3.813283	owns	-0.0919173
-4.283945	cvn	-0.0919173
-4.157543	name	-0.11736894
-3.4921515	decision	-0.18386346
-4.430429	ordnance	-0.0919173
-4.283945	defence	-0.0919173
-3.4558809	secretary	-0.18973999
-4.283945	george	-0.09191726
-4.430429	younger	-0.0919173
-4.283945	announce	-0.0919173
-3.3623295	state	-0.13954131
-4.430429	parliamentary	-0.0919173
-4.283945	venture	-0.0919173
-4.157543	merchant	-0.1634127
-3.5317295	china	-0.17863949
-4.430429	ibjt	-0.0919173
-4.157543	t	-0.09191733
-4.283945	town	-0.0919173
-4.430429	jewelry	-0.0919173
-4.430429	wasn	-0.0919173
-3.7404974	wednesday	-0.17821129
-4.283945	turned	-0.0919173
-4.430429	avalanche	-0.0919173
-4.430429	expatriate	-0.0919173
-4.157543	workforce	-0.09191726
-4.157543	fallen	-0.1261954
-4.430429	citgo	-0.0919173
-4.157543	postings	-0.15244982
-4.283945	wti	-0.1634127
-4.283945	bbl	-0.0919173
-4.283945	ors	-0.0919173
-3.900773	seeks	-0.0919173
-3.4921515	funds	-0.15665177
-4.157543	dominion	-0.0919173
-3.3623295	securities	-0.1261954
-4.430429	alberta	-0.0919173
-4.430429	appointed	-0.0919173
-4.430429	canadaina	-0.0919173
-4.283945	organized	-0.0919173
-4.430429	exploit	-0.0919173
-3.900773	opportunities	-0.13338809
-3.900773	europe	-0.11736894
-3.678177	estimates	-0.0919173
-3.678177	put	-0.1144662
-3.3623295	european	-0.30617124
-3.900773	1990	-0.1858041
-3.813283	ecus	-0.1261954
-4.430429	kistler	-0.0919173
-3.7404974	result	-0.20587774
-4.430429	fhl	-0.0919173
-3.7404974	sets	-0.10627795
-3.900773	offering	-0.15244982
-3.6236877	home	-0.112157896
-3.1459088	set	-0.2503744
-3.7404974	70	-0.16752648
-4.430429	065	-0.0919173
-3.678177	65	-0.31938997
-4.157543	375	-0.1634127
-4.283945	lipc	-0.0919173
-3.678177	beef	-0.0919173
-4.283945	livestock	-0.0919173
-4.283945	promotion	-0.0919173
-4.283945	515	-0.1634127
-3.5752792	fiscal	-0.29142773
-3.7404974	started	-0.121129796
-4.430429	simultaneous	-0.0919173
-4.430429	813	-0.0919173
-4.157543	smaller	-0.09191726
-4.157543	seasonal	-0.09191726
-4.157543	decrease	-0.09191726
-4.010452	particularly	-0.0919173
-4.010452	cold	-0.13338809
-4.430429	delaying	-0.0919173
-3.7404974	work	-0.0919173
-4.283945	morgan	-0.0919173
-4.283945	stanley	-0.0919173
-4.430429	salomon	-0.0919173
-4.283945	brothers	-0.20412089
-4.430429	hired	-0.0919173
-4.430429	1983	-0.0919173
-4.430429	advise	-0.0919173
-3.813283	southern	-0.1261954
-4.283945	santa	-0.0919173
-4.430429	fe	-0.0919173
-4.430429	appraised	-0.0919173
-3.4558809	worth	-0.107402585
-3.813283	800	-0.19898057
-4.010452	internal	-0.0919173
-4.430429	valuations	-0.0919173
-4.430429	acmex	-0.0919173
-4.283945	presently	-0.0919173
-4.157543	entitled	-0.2416494
-4.430429	cheetham	-0.0919173
-3.6236877	issued	-0.1144662
-3.4558809	discount	-0.28693932
-4.430429	mcgroarty	-0.0919173
-4.430429	impressive	-0.0919173
-4.430429	".	-0.0919173
-3.678177	french	-0.11324977
-3.813283	repayment	-0.28646964
-3.3095613	19	-0.2997899
-3.6236877	following	-0.13338809
-4.430429	contracted	-0.0919173
-4.010452	cooperation	-0.0919173
-4.157543	weekly	-0.0919173
-3.3913305	data	-0.16466272
-4.283945	massive	-0.0919173
-4.430429	docks	-0.0919173
-4.157543	handle	-0.14440554
-3.5752792	ships	-0.11027837
-4.283945	tankers	-0.0919173
-4.283945	load	-0.09191726
-4.430429	unload	-0.0919173
-4.157543	harbour	-0.09191726
-4.283945	addition	-0.09191726
-4.430429	streamlining	-0.0919173
-4.430429	efficiency	-0.0919173
-3.678177	division	-0.11736894
-4.430429	exert	-0.0919173
-4.430429	branching	-0.0919173
-4.430429	estate	-0.09191726
-4.157543	travel	-0.09191726
-4.283945	agencies	-0.0919173
-4.157543	philippines	-0.0919173
-4.430429	540	-0.0919173
-4.157543	coconut	-0.30575043
-4.430429	959	-0.0919173
-4.430429	physio	-0.0919173
-4.283945	changing	-0.0919173
-3.5752792	force	-0.14060049
-3.813283	independent	-0.09191726
-3.813283	representatives	-0.1261954
-3.7404974	employees	-0.121129796
-4.010452	significantly	-0.0919173
-3.3913305	fixed	-0.14161193
-4.283945	overhead	-0.0919173
-3.900773	enable	-0.11736894
-4.430429	accelerate	-0.0919173
-3.0975695	earnings	-0.2113228
-3.7404974	ending	-0.112157896
-4.010452	twa	-0.09191726
-3.813283	however	-0.35341644
-4.430429	discussing	-0.0919173
-3.6236877	among	-0.13825029
-4.283945	piedmont	-0.0919173
-4.430429	suna	-0.0919173
-4.430429	monitored	-0.0919173
-4.283945	broadcasting	-0.09191726
-3.7404974	corporation	-0.22907583
-4.430429	omer	-0.0919173
-3.900773	remarks	-0.0919173
-4.430429	khartoum	-0.0919173
-4.283945	imf	-0.0919173
-4.430429	envoy	-0.0919173
-4.430429	abdel	-0.0919173
-4.430429	shakour	-0.0919173
-4.430429	shaalan	-0.0919173
-4.010452	suspended	-0.14440554
-4.430429	owed	-0.0919173
-4.430429	credibility	-0.0919173
-3.3623295	opec	-0.11027837
-3.900773	come	-0.121129796
-4.283945	fresh	-0.0919173
-4.283945	scrutiny	-0.0919173
-3.900773	monday	-0.16876826
-3.7404974	activity	-0.121129796
-3.1459088	markets	-0.21460253
-3.2407753	through	-0.15684982
-3.900773	clark	-0.13338809
-4.430429	copy	-0.0919173
-3.813283	majority	-0.121129796
-4.430429	interactive	-0.0919173
-3.4921515	computer	-0.11911993
-4.430429	aids	-0.0919173
-4.283945	norway	-0.0919173
-3.4921515	i	-0.16793324
-3.813283	dome	-0.1858041
-4.430429	bothersome	-0.0919173
-4.010452	reflects	-0.14440554
-3.678177	split	-0.14772983
-4.157543	sports	-0.09191726
-4.283945	edward	-0.0919173
-3.7404974	c	-0.29572296
-4.430429	horowitz	-0.0919173
-4.157543	mike	-0.09191726
-4.430429	warren	-0.0919173
-4.430429	typical	-0.0919173
-4.430429	salaried	-0.0919173
-4.430429	employee	-0.0919173
-4.283945	reflecting	-0.0919173
-4.283945	pointing	-0.0919173
-4.157543	buoyant	-0.09191726
-3.813283	released	-0.121129796
-4.010452	lawson	-0.1261954
-3.813283	done	-0.09191726
-4.010452	resist	-0.14440554
-4.157543	pressures	-0.1634127
-3.3351443	income	-0.16218992
-4.283945	expense	-0.0919173
-4.157543	borrowing	-0.09191726
-4.157543	listed	-0.1634127
-4.430429	zurich	-0.0919173
-4.430429	basle	-0.0919173
-4.283945	geneva	-0.09191726
-4.157543	exchanges	-0.0919173
-4.430429	amsterdam	-0.0919173
-4.430429	aims	-0.0919173
-3.678177	quoted	-0.13338809
-4.430429	frankfurt	-0.0919173
-4.430429	dusseldorf	-0.0919173
-4.157543	van	-0.1634127
-4.430429	driel	-0.0919173
-4.430429	idled	-0.0919173
-3.6236877	92	-0.16028519
-3.900773	acreage	-0.0919173
-4.430429	prompting	-0.0919173
-3.813283	idle	-0.1261954
-4.283945	cropland	-0.0919173
-4.157543	according	-0.30575043
-4.283945	dynalectron	-0.0919173
-4.430429	dyn	-0.0919173
-3.900773	buys	-0.11736894
-4.430429	aviation	-0.0919173
-3.813283	purchased	-0.11027837
-3.3913305	certain	-0.1144662
-4.430429	aero	-0.0919173
-4.430429	leasehold	-0.0919173
-4.157543	aircraft	-0.09191726
-4.430429	modification	-0.0919173
-4.010452	maintenance	-0.0919173
-4.430429	phoenix	-0.0919173
-4.430429	ariz	-0.0919173
-3.1814091	grain	-0.11364039
-4.157543	loading	-0.0919173
-4.283945	portland	-0.09191726
-4.430429	waiting	-0.0919173
-4.157543	merchants	-0.09191726
-3.900773	provisions	-0.13338809
-3.900773	risk	-0.13338809
-4.157543	borrowers	-0.09191726
-3.813283	provision	-0.1261954
-4.430429	pension	-0.0919173
-4.010452	obligations	-0.0919173
-3.813283	attack	-0.1858041
-4.430429	dilemmas	-0.0919173
-4.010452	military	-0.0919173
-3.3623295	say	-0.1833792
-4.283945	faces	-0.0919173
-4.430429	dilemma	-0.0919173
-4.430429	destruction	-0.0919173
-3.678177	iranian	-0.12969922
-4.283945	platform	-0.09191726
-3.7404974	retaliation	-0.15244982
-4.430429	flagged	-0.0919173
-4.283945	tanker	-0.0919173
-4.157543	roughly	-0.09191726
-3.900773	equal	-0.13338809
-3.900773	originally	-0.09191726
-4.430429	invested	-0.0919173
-4.430429	coasts	-0.0919173
-3.4921515	late	-0.14851575
-4.283945	though	-0.0919173
-4.283945	retain	-0.09191726
-3.813283	...	-0.1858041
-4.430429	expediency	-0.0919173
-4.430429	sinclair	-0.0919173
-4.283945	mize	-0.20412089
-4.283945	dna	-0.0919173
-4.283945	become	-0.0919173
-3.3095613	chairman	-0.17398956
-4.283945	expand	-0.09191726
-4.157543	provide	-0.0919173
-4.157543	him	-0.09191726
-4.157543	representation	-0.09191726
-4.283945	upper	-0.0919173
-4.430429	strikers	-0.0919173
-4.430429	returned	-0.0919173
-4.283945	night	-0.13338809
-3.6236877	port	-0.14978832
-4.010452	authorities	-0.0919173
-3.813283	workers	-0.0919173
-3.5752792	without	-0.11027837
-3.900773	giving	-0.09191726
-4.430429	wim	-0.0919173
-4.430429	duisenberg	-0.0919173
-4.430429	defended	-0.0919173
-4.010452	saying	-0.11736894
-3.3913305	most	-0.11557715
-4.157543	noting	-0.14440554
-4.283945	moment	-0.09191726
-3.900773	important	-0.09191726
-3.900773	equivalent	-0.2072884
-4.430429	06	-0.0919173
-4.010452	provisional	-0.0919173
-3.5317295	show	-0.13546163
-4.283945	jack	-0.0919173
-3.900773	winter	-0.13338809
-4.430429	jwi	-0.0919173
-4.430429	410	-0.0919173
-4.283945	245	-0.20412089
-4.430429	748	-0.0919173
-4.430429	571	-0.0919173
-3.5317295	46	-0.5298062
-4.283945	reacting	-0.0919173
-4.430429	irish	-0.0919173
-3.900773	continues	-0.26220614
-4.430429	brewery	-0.0919173
-4.010452	side	-0.0919173
-4.283945	guinness	-0.0919173
-4.430429	galactic	-0.0919173
-4.430429	galcf	-0.0919173
-3.6236877	given	-0.105305664
-4.430429	rivet	-0.0919173
-4.283945	machine	-0.0919173
-4.430429	cvr	-0.0919173
-3.3351443	60	-0.22277519
-4.283945	156	-0.20412089
-4.430429	576	-0.0919173
-4.430429	443	-0.0919173
-4.430429	404	-0.0919173
-4.430429	309	-0.0919173
-4.430429	519	-0.0919173
-4.283945	381	-0.20412089
-4.283945	264	-0.0919173
-4.430429	788	-0.0919173
-4.430429	220	-0.0919173
-4.283945	151	-0.0919173
-4.157543	big	-0.09191726
-4.430429	taikoo	-0.0919173
-4.430429	shing	-0.0919173
-4.430429	iggi	-0.0919173
-3.900773	groups	-0.0919173
-4.283945	industrialised	-0.0919173
-4.283945	donor	-0.0919173
-3.2200718	countries	-0.19547293
-3.7404974	gave	-0.31552553
-3.4921515	indonesia	-0.15112166
-4.010452	soft	-0.14440554
-4.283945	grants	-0.0919173
-3.5317295	changes	-0.17838907
-3.7404974	lead	-0.25275087
-4.430429	pickup	-0.0919173
-4.283945	pik	-0.0919173
-4.283945	roll	-0.0919173
-4.283945	klopfenstein	-0.20412089
-4.283945	likelihood	-0.1634127
-4.430429	provisiion	-0.0919173
-3.678177	cause	-0.1144662
-4.430429	acreages	-0.0919173
-4.430429	removed	-0.0919173
-4.283945	quite	-0.0919173
-3.6236877	small	-0.112157896
-4.430429	conditional	-0.0919173
-4.157543	upon	-0.09191726
-4.430429	examination	-0.0919173
-4.430429	gordon	-0.0919173
-4.430429	pagecorp	-0.0919173
-3.900773	revenue	-0.17924115
-4.430429	bilateral	-0.0919173
-3.7404974	negotiations	-0.16036218
-3.5317295	must	-0.13632852
-4.430429	concluded	-0.0919173
-4.430429	least	-0.0919173
-4.430429	progressing	-0.0919173
-4.157543	yeutter	-0.13338809
-4.283945	difficulties	-0.0919173
-4.430429	clayton	-0.0919173
-4.430429	unsure	-0.0919173
-3.5317295	whether	-0.14161193
-4.430429	straining	-0.0919173
-4.010452	relations	-0.14440554
-4.157543	really	-0.09191726
-3.3351443	strong	-0.119758435
-4.430429	rationale	-0.0919173
-3.5752792	need	-0.161192
-3.813283	gatt	-0.09191726
-3.900773	round	-0.13338809
-4.157543	nation	-0.0919173
-4.430429	verification	-0.0919173
-4.430429	papua	-0.0919173
-4.283945	guinea	-0.0919173
-4.157543	combined	-0.09191726
-4.010452	barley	-0.14440554
-4.430429	02	-0.09191726
-3.2407753	period	-0.3648929
-4.430429	welch	-0.0919173
-4.283945	doesn	-0.20412089
-4.157543	exposure	-0.09191726
-3.7404974	defense	-0.0919173
-3.5317295	analyst	-0.12346041
-4.283945	heard	-0.0919173
-4.157543	rumors	-0.09191726
-4.430429	doubted	-0.0919173
-4.430429	accuracy	-0.0919173
-4.430429	marcom	-0.0919173
-3.900773	telecommunications	-0.0919173
-4.283945	kay	-0.0919173
-4.430429	pursuing	-0.0919173
-4.283945	placement	-0.09191726
-4.010452	corporate	-0.0919173
-4.430429	purposes	-0.0919173
-3.6236877	treasury	-0.20926122
-3.678177	baker	-0.16964068
-3.4558809	within	-0.25972632
-4.430429	ranges	-0.0919173
-3.813283	reflect	-0.09191726
-4.283945	fundamentals	-0.0919173
-4.157543	wanted	-0.2416494
-4.157543	lending	-0.09191726
-4.157543	appropriate	-0.09191726
-4.430429	ultimately	-0.0919173
-4.430429	fnb	-0.0919173
-3.5317295	1st	-0.37995207
-4.283945	wholly	-0.1634127
-4.430429	decide	-0.0919173
-4.283945	follow	-0.0919173
-4.430429	throw	-0.0919173
-4.430429	dunn	-0.0919173
-4.157543	ease	-0.09191726
-4.010452	easier	-0.14440554
-4.157543	begun	-0.09191726
-4.430429	quick	-0.0919173
-4.157543	dealer	-0.1634127
-4.283945	intervened	-0.0919173
-4.430429	opening	-0.09191726
-3.3913305	here	-0.17507865
-4.430429	confirm	-0.0919173
-4.430429	telexed	-0.0919173
-4.430429	insisted	-0.0919173
-4.430429	cancel	-0.0919173
-4.430429	elsewhere	-0.0919173
-4.430429	santana	-0.0919173
-3.900773	times	-0.0919173
-4.430429	exploiting	-0.0919173
-4.157543	profitable	-0.09191726
-4.010452	best	-0.0919173
-4.430429	partner	-0.0919173
-4.010452	jobless	-0.0919173
-4.283945	699	-0.0919173
-4.430429	671	-0.0919173
-4.430429	rainier	-0.0919173
-4.283945	merge	-0.0919173
-4.010452	security	-0.0919173
-4.430429	spc	-0.0919173
-4.010452	lowered	-0.13338809
-3.5752792	special	-0.1044567
-4.157543	advances	-0.09191726
-3.5752792	repurchase	-0.18280862
-4.430429	cathay	-0.0919173
-4.430429	airways	-0.0919173
-4.430429	caph	-0.0919173
-4.283945	hk	-0.0919173
-4.283945	toledo	-0.0919173
-4.430429	elevators	-0.0919173
-4.430429	finishing	-0.0919173
-4.283945	boats	-0.0919173
-3.5317295	shipping	-0.11027837
-4.430429	supporting	-0.0919173
-3.813283	spot	-0.09191726
-4.010452	terminal	-0.0919173
-3.900773	points	-0.13338809
-3.3623295	long	-0.23216815
-4.283945	secondary	-0.0919173
-4.010452	debentures	-0.13338809
-3.7404974	bankers	-0.11736894
-4.430429	kubota	-0.0919173
-4.430429	kub	-0.0919173
-3.6236877	58	-0.13338809
-4.430429	248	-0.0919173
-4.430429	789	-0.0919173
-4.430429	127	-0.0919173
-4.010452	130	-0.2072884
-3.900773	134	-0.13338809
-3.813283	119	-0.2287762
-4.430429	446	-0.0919173
-3.813283	extended	-0.121129796
-3.6236877	tomorrow	-0.13338809
-4.430429	breakthrough	-0.0919173
-3.900773	session	-0.17924115
-4.010452	genova	-0.14440554
-4.430429	gnva	-0.0919173
-3.5317295	approved	-0.26798883
-4.430429	consumated	-0.0919173
-3.900773	few	-0.11736894
-4.430429	bradford	-0.0919173
-4.430429	recommending	-0.0919173
-4.157543	usx	-0.14440554
-4.430429	gabelli	-0.0919173
-4.157543	filing	-0.09191726
-3.7404974	commission	-0.13546163
-4.430429	digiorgio	-0.0919173
-4.430429	gamco	-0.0919173
-4.010452	seek	-0.0919173
-3.678177	control	-0.14578296
-4.430429	stone	-0.0919173
-3.813283	available	-0.1261954
-3.4921515	just	-0.12707551
-3.678177	enough	-0.28022835
-4.157543	prompt	-0.09191726
-4.430429	pig	-0.0919173
-3.678177	170	-0.22907583
-4.157543	versus	-0.0919173
-4.430429	poultry	-0.0919173
-4.283945	287	-0.0919173
-3.900773	256	-0.2072884
-4.010452	rejects	-0.0919173
-4.010452	buyout	-0.14440554
-4.430429	theta	-0.0919173
-4.430429	faygo	-0.0919173
-4.157543	excess	-0.1634127
-4.283945	beverage	-0.0919173
-4.430429	federated	-0.0919173
-4.157543	ask	-0.0919173
-4.283945	approve	-0.13338809
-4.010452	authorized	-0.17924115
-4.283945	shoe	-0.0919173
-4.283945	irna	-0.0919173
-3.6236877	received	-0.1087183
-4.430429	nicosia	-0.0919173
-4.283945	informed	-0.09191726
-3.7404974	source	-0.25275087
-4.283945	identified	-0.0919173
-4.157543	platforms	-0.09191726
-4.430429	resalat	-0.0919173
-4.430429	reshadat	-0.0919173
-3.900773	miles	-0.13338809
-4.430429	lavan	-0.0919173
-3.813283	island	-0.1858041
-3.900773	storage	-0.09191726
-4.157543	site	-0.09191726
-4.430429	infinitesimal	-0.0919173
-4.430429	magnitude	-0.0919173
-4.430429	collander	-0.0919173
-4.430429	touche	-0.0919173
-4.283945	ross	-0.0919173
-4.430429	cti	-0.0919173
-4.430429	rabbit	-0.0919173
-4.430429	intermedics	-0.0919173
-4.430429	itm	-0.0919173
-3.5317295	oper	-0.5989651
-4.283945	877	-0.20412089
-4.283945	838	-0.20412089
-3.813283	44	-0.11736894
-3.900773	excludes	-0.15497786
-4.430429	carryforward	-0.09191726
-4.283945	694	-0.20412089
-4.283945	ends	-0.0919173
-3.4558809	firms	-0.121129796
-4.283945	becoming	-0.09191726
-4.283945	aggressive	-0.0919173
-4.283945	sort	-0.20412089
-4.430429	sum	-0.0919173
-4.283945	unilever	-0.0919173
-4.157543	hoped	-0.1634127
-4.430429	realise	-0.09191726
-4.010452	operation	-0.13338809
-4.283945	beyond	-0.0919173
-4.430429	chesebrough	-0.0919173
-4.430429	stauffer	-0.0919173
-4.010452	chemical	-0.14440554
-4.430429	operates	-0.0919173
-3.900773	outside	-0.0919173
-4.157543	core	-0.1634127
-3.678177	totalled	-0.11736894
-3.5317295	eight	-0.18280862
-4.430429	metric	-0.0919173
-4.283945	cra	-0.0919173
-3.900773	cents	-0.1858041
-4.430429	craa	-0.0919173
-3.7404974	making	-0.105305664
-4.430429	forthe	-0.0919173
-4.283945	donald	-0.0919173
-4.157543	prepared	-0.09191726
-4.430429	york	-0.0919173
-4.430429	household	-0.0919173
-4.430429	excellent	-0.0919173
-3.7404974	equity	-0.112157896
-4.010452	santos	-0.0919173
-4.430429	alvite	-0.0919173
-3.5752792	cargo	-0.112157896
-4.157543	leave	-0.1634127
-4.430429	maracaibo	-0.0919173
-4.157543	weekend	-0.09191726
-4.430429	refineries	-0.0919173
-4.430429	guayaquil	-0.0919173
-4.157543	approach	-0.09191726
-3.678177	needed	-0.16036218
-4.430429	revival	-0.0919173
-4.157543	postponed	-0.09191726
-4.430429	explosive	-0.0919173
-4.430429	fabricators	-0.0919173
-4.430429	724	-0.0919173
-4.283945	329	-0.0919173
-4.430429	556	-0.0919173
-4.283945	504	-0.0919173
-3.4558809	commercial	-0.11736894
-3.900773	paper	-0.09191726
-4.157543	falls	-0.09191726
-4.010452	shift	-0.14440554
-4.010452	strategy	-0.0919173
-3.813283	designed	-0.41774064
-4.430429	appease	-0.0919173
-4.283945	mounting	-0.0919173
-3.813283	policies	-0.15244982
-4.010452	comes	-0.14440554
-4.430429	reconvene	-0.0919173
-3.7404974	review	-0.0919173
-4.430429	stabilize	-0.0919173
-4.430429	stiff	-0.0919173
-4.157543	rally	-0.09191726
-4.010452	bring	-0.17108388
-3.900773	bonds	-0.0919173
-4.430429	quinn	-0.0919173
-3.5317295	economists	-0.40006003
-3.4224074	gains	-0.18837394
-4.010452	outlook	-0.14440554
-4.157543	ems	-0.09191726
-4.430429	transferred	-0.0919173
-4.430429	autonomous	-0.0919173
-4.430429	geodynamics	-0.0919173
-4.430429	gdyn	-0.0919173
-4.430429	596	-0.0919173
-4.157543	594	-0.30575043
-4.430429	693	-0.0919173
-4.430429	164	-0.0919173
-3.813283	61	-0.14440554
-4.283945	784	-0.20412089
-4.430429	653	-0.0919173
-4.283945	strength	-0.0919173
-4.010452	allowed	-0.20412089
-4.283945	asian	-0.0919173
-4.430429	neighbours	-0.0919173
-4.283945	traditional	-0.09191726
-4.283945	frozen	-0.0919173
-4.283945	completion	-0.20412089
-3.813283	subject	-0.6067804
-4.283945	regulatory	-0.20412089
-4.430429	approvals	-0.0919173
-4.157543	refinery	-0.09191726
-3.5317295	capacity	-0.12945007
-4.430429	overhaul	-0.0919173
-4.430429	interstate	-0.0919173
-4.283945	skewed	-0.0919173
-3.678177	soviet	-0.11736894
-3.5752792	union	-0.0919173
-4.283945	difference	-0.0919173
-4.283945	premium	-0.0919173
-4.283945	interior	-0.0919173
-3.4224074	levels	-0.19910674
-4.430429	872	-0.0919173
-3.900773	came	-0.0919173
-4.430429	completions	-0.0919173
-4.430429	765	-0.0919173
-4.283945	accounts	-0.0919173
-4.430429	ethiopian	-0.0919173
-3.4558809	despite	-0.25891057
-4.283945	rules	-0.0919173
-4.283945	forthcoming	-0.0919173
-4.283945	believes	-0.0919173
-4.157543	stabilise	-0.09191726
-4.283945	pentron	-0.20412089
-4.430429	pen	-0.0919173
-4.283945	ice	-0.20412089
-4.430429	creations	-0.0919173
-4.430429	rotational	-0.0919173
-4.430429	molding	-0.0919173
-4.010452	privately	-0.14440554
-4.157543	undisclosed	-0.14440554
-4.283945	considerations	-0.0919173
-4.010452	cargoes	-0.0919173
-4.157543	often	-0.09191726
-4.430429	resold	-0.0919173
-4.430429	shipowners	-0.0919173
-4.157543	know	-0.09191726
-4.157543	start	-0.0919173
-4.430429	voyage	-0.0919173
-3.678177	al	-0.73171914
-4.430429	rai	-0.0919173
-4.430429	aam	-0.0919173
-3.900773	newspaper	-0.121129796
-4.157543	ceiling	-0.1634127
-4.283945	consumers	-0.0919173
-4.430429	drawing	-0.0919173
-4.430429	cuba	-0.0919173
-4.430429	cuban	-0.0919173
-4.283945	suggest	-0.20412089
-4.430429	ericsson	-0.0919173
-4.430429	ericy	-0.0919173
-4.283945	rest	-0.13338809
-4.010452	spanish	-0.0919173
-4.283945	banker	-0.0919173
-4.157543	speculated	-0.09191726
-4.430429	bolivia	-0.0919173
-3.4921515	might	-0.27529913
-3.678177	back	-0.2115147
-4.157543	written	-0.09191726
-4.430429	mim	-0.0919173
-3.813283	copper	-0.1261954
-4.283945	mount	-0.0919173
-4.430429	isa	-0.0919173
-3.900773	mines	-0.13338809
-3.678177	primary	-0.0919173
-4.430429	norddeutsche	-0.0919173
-4.430429	affinerie	-0.0919173
-3.7404974	ag	-0.16036218
-4.430429	metallgesellschaft	-0.0919173
-4.430429	sparks	-0.0919173
-3.678177	does	-0.36189532
-3.678177	pressure	-0.15570977
-4.283945	bearish	-0.0919173
-4.283945	positions	-0.0919173
-3.5752792	daily	-0.11027837
-4.430429	peasant	-0.0919173
-4.430429	ortheast	-0.0919173
-4.010452	province	-0.0919173
-4.430429	heilongjiang	-0.0919173
-3.900773	108	-0.13338809
-4.283945	yuan	-0.20412089
-4.430429	mu	-0.0919173
-4.430429	0667	-0.0919173
-4.283945	hectares	-0.0919173
-4.157543	112	-0.09191726
-4.430429	sugarbeet	-0.0919173
-4.430429	columbia	-0.0919173
-4.430429	ferc	-0.0919173
-4.430429	rleated	-0.0919173
-3.900773	liabilities	-0.13338809
-4.010452	laws	-0.0919173
-4.430429	gone	-0.0919173
-4.157543	confidence	-0.1634127
-4.283945	commented	-0.0919173
-4.157543	saw	-0.09191726
-3.900773	having	-0.0919173
-4.283945	marginal	-0.0919173
-4.010452	influence	-0.1261954
-4.283945	fundamental	-0.0919173
-3.6236877	problems	-0.13338809
-4.283945	detail	-0.0919173
-3.900773	settlement	-0.1261954
-4.283945	explaining	-0.0919173
-4.430429	favour	-0.0919173
-3.900773	legal	-0.0919173
-4.430429	answer	-0.0919173
-4.430429	unresolved	-0.0919173
-4.430429	disputes	-0.0919173
-3.6236877	court	-0.11027837
-4.430429	hearings	-0.0919173
-4.430429	expiry	-0.0919173
-3.3913305	ec	-0.11287296
-4.283945	series	-0.0919173
-3.813283	white	-0.2287762
-4.430429	rebates	-0.09191726
-3.900773	maximum	-0.0919173
-4.430429	496	-0.0919173
-4.010452	kilos	-0.13338809
-3.900773	community	-0.1087183
-3.813283	payable	-0.2416494
-3.3095613	officials	-0.28783777
-4.430429	amounting	-0.0919173
-4.283945	805	-0.0919173
-4.157543	launched	-0.0919173
-4.283945	att	-0.0919173
-4.283945	cgct	-0.0919173
-4.430429	abandoned	-0.0919173
-4.283945	introduction	-0.0919173
-4.430429	privatisation	-0.0919173
-4.430429	reopened	-0.0919173
-4.283945	bidding	-0.0919173
-4.430429	wider	-0.0919173
-4.430429	applicants	-0.0919173
-4.283945	declining	-0.0919173
-4.430429	compound	-0.0919173
-4.430429	coarse	-0.0919173
-4.283945	355	-0.0919173
-4.157543	cif	-0.0919173
-4.283945	358	-0.0919173
-4.283945	bellies	-0.09191726
-4.157543	neutral	-0.09191726
-3.7404974	negative	-0.11736894
-4.157543	mercantile	-0.09191726
-4.157543	floor	-0.09191726
-4.157543	immediate	-0.09191726
-4.010452	reaction	-0.2416494
-3.813283	pork	-0.1261954
-4.430429	slightly	-0.0919173
-4.283945	amvestors	-0.20412089
-4.430429	avfc	-0.0919173
-3.900773	holders	-0.13338809
-4.010452	legislation	-0.14440554
-3.7404974	natural	-0.48468745
-4.430429	lousiana	-0.0919173
-4.283945	democrat	-0.0919173
-4.283945	agree	-0.0919173
-4.430429	demands	-0.0919173
-4.010452	benefits	-0.0919173
-4.157543	institutes	-0.09191726
-4.157543	believed	-0.1634127
-4.283945	dynamic	-0.0919173
-4.157543	jobs	-0.09191726
-4.283945	created	-0.0919173
-4.283945	origins	-0.0919173
-4.010452	cooper	-0.14440554
-4.157543	basin	-0.1634127
-4.283945	api	-0.0919173
-4.430429	distillate	-0.0919173
-3.5752792	52	-0.161192
-4.430429	bbls	-0.0919173
-3.7404974	gasoline	-0.0919173
-4.430429	arisen	-0.0919173
-4.430429	quantity	-0.0919173
-4.283945	320	-0.0919173
-3.813283	predicted	-0.09191726
-4.430429	dismal	-0.0919173
-4.430429	logging	-0.0919173
-3.678177	left	-0.11736894
-4.283945	especially	-0.0919173
-4.430429	careful	-0.0919173
-4.430429	flare	-0.0919173
-3.4921515	inflation	-0.11736894
-4.430429	accelerating	-0.0919173
-4.430429	berger	-0.0919173
-4.430429	devalued	-0.0919173
-4.430429	depressions	-0.0919173
-3.900773	partners	-0.121129796
-3.813283	america	-0.11736894
-4.430429	fujitsu	-0.0919173
-4.283945	executives	-0.0919173
-4.283945	enthusiastic	-0.0919173
-4.430429	fairchild	-0.0919173
-4.430429	sumita	-0.0919173
-3.7404974	access	-0.40833417
-3.678177	steel	-0.0919173
-4.283945	ensure	-0.0919173
-4.430429	accurate	-0.0919173
-3.7404974	used	-0.13338809
-4.430429	backdoor	-0.0919173
-4.430429	suppliers	-0.0919173
-4.283945	carney	-0.20412089
-4.157543	structural	-0.1634127
-3.813283	adjustments	-0.1261954
-4.157543	1993	-0.09191726
-4.430429	criticism	-0.0919173
-4.283945	damages	-0.0919173
-4.010452	nakasone	-0.0919173
-4.283945	jamaica	-0.0919173
-4.157543	agrees	-0.09191726
-4.283945	rescheduling	-0.0919173
-4.283945	principle	-0.09191726
-4.157543	advisory	-0.09191726
-3.900773	1989	-0.2072884
-4.430429	jamaican	-0.0919173
-3.5752792	information	-0.0919173
-4.283945	kenya	-0.0919173
-4.157543	relied	-0.30575043
-4.157543	pakistan	-0.09191726
-4.157543	egypt	-0.09191726
-4.430429	lesser	-0.0919173
-4.157543	extent	-0.09191726
-3.900773	tea	-0.1261954
-3.813283	consolidated	-0.0919173
-3.5752792	stores	-0.13338809
-4.430429	cns	-0.0919173
-4.430429	602	-0.0919173
-4.430429	879	-0.0919173
-4.430429	141	-0.0919173
-4.010452	71	-0.14440554
-3.7404974	42	-0.2679719
-4.283945	397	-0.0919173
-4.157543	esso	-0.09191726
-4.430429	keen	-0.0919173
-4.283945	diversify	-0.09191726
-4.430429	gippsland	-0.0919173
-4.157543	lyng	-0.14440554
-3.3623295	did	-0.8437094
-4.010452	think	-0.13338809
-4.430429	eni	-0.0919173
-4.430429	agip	-0.0919173
-4.430429	carbone	-0.0919173
-4.010452	sign	-0.14440554
-3.813283	letter	-0.2115147
-4.430429	intent	-0.0919173
-4.430429	caracas	-0.0919173
-4.430429	enter	-0.09191726
-3.900773	partnership	-0.11736894
-4.283945	pdvsa	-0.0919173
-4.283945	coal	-0.0919173
-4.430429	guasare	-0.0919173
-4.430429	zulia	-0.0919173
-4.157543	suit	-0.09191726
-4.430429	alleges	-0.0919173
-4.430429	harcourt	-0.0919173
-4.283945	exceeds	-0.0919173
-4.430429	harcout	-0.0919173
-3.900773	law	-0.13338809
-4.430429	contstitutes	-0.0919173
-4.430429	fraudulent	-0.0919173
-4.430429	conveyance	-0.0919173
-3.900773	larger	-0.09191726
-4.283945	miller	-0.0919173
-4.283945	bruce	-0.0919173
-4.157543	fields	-0.09191726
-3.2407753	producers	-0.15378615
-4.283945	intend	-0.20412089
-3.813283	present	-0.0919173
-4.010452	single	-0.0919173
-4.430429	candidate	-0.0919173
-4.430429	edouard	-0.0919173
-4.430429	kouame	-0.0919173
-4.430429	ivory	-0.0919173
-4.157543	coast	-0.1634127
-4.157543	failure	-0.1634127
-4.430429	address	-0.0919173
-3.5752792	decline	-0.19898057
-3.6236877	remains	-0.1144662
-4.430429	worrying	-0.0919173
-4.010452	appears	-0.14440554
-4.157543	approached	-0.09191726
-4.283945	cautiously	-0.0919173
-4.430429	montagu	-0.0919173
-4.283945	reluctant	-0.20412089
-4.430429	countenance	-0.0919173
-4.430429	wished	-0.0919173
-4.283945	delay	-0.0919173
-3.813283	reduction	-0.1144662
-4.430429	thereby	-0.0919173
-4.430429	preserving	-0.0919173
-4.157543	chancellor	-0.1634127
-4.157543	exchequer	-0.1634127
-4.430429	nigel	-0.0919173
-3.813283	call	-0.28646964
-4.283945	active	-0.0919173
-4.283945	dropping	-0.0919173
-4.283945	appropriations	-0.20412089
-4.283945	demonstrated	-0.0919173
-4.283945	process	-0.09191726
-4.010452	warrants	-0.0919173
-4.283945	exercisable	-0.0919173
-4.430429	nonetheless	-0.0919173
-3.813283	expect	-0.1144662
-4.430429	unstable	-0.0919173
-4.010452	concerned	-0.14440554
-4.430429	officially	-0.0919173
-4.430429	trintoc	-0.0919173
-3.7404974	land	-0.11736894
-3.7404974	purolator	-0.2736325
-4.430429	nicholas	-0.0919173
-3.7404974	f	-0.31552553
-4.430429	brady	-0.0919173
-4.157543	emery	-0.09191726
-3.813283	john	-0.09191726
-4.430429	prefer	-0.0919173
-4.283945	negotiate	-0.09191726
-4.430429	structure	-0.0919173
-4.430429	format	-0.0919173
-4.283945	drafting	-0.09191726
-4.430429	separate	-0.09191726
-3.3095613	plan	-0.22007464
-4.430429	reconciled	-0.0919173
-3.900773	senate	-0.1144662
-4.430429	version	-0.0919173
-3.813283	spain	-0.161192
-3.813283	overnight	-0.09191726
-4.157543	view	-0.09191726
-4.430429	disappointing	-0.0919173
-4.283945	discounted	-0.0919173
-4.283945	young	-0.0919173
-3.6236877	planned	-0.13338809
-4.283945	protect	-0.0919173
-3.813283	itself	-0.121129796
-4.010452	chance	-0.0919173
-4.430429	complicated	-0.0919173
-4.430429	hedging	-0.0919173
-4.283945	instrument	-0.0919173
-4.283945	england	-0.09191726
-4.283945	signals	-0.0919173
-4.157543	referred	-0.09191726
-4.157543	marked	-0.09191726
-4.283945	downturn	-0.20412089
-4.283945	textiles	-0.09191726
-4.430429	leather	-0.0919173
-4.430429	furniture	-0.0919173
-4.157543	particular	-0.0919173
-3.7404974	decided	-0.35341644
-4.430429	ita	-0.0919173
-4.430429	wound	-0.0919173
-4.157543	expires	-0.2416494
-4.430429	delegate	-0.0919173
-4.430429	rarely	-0.0919173
-4.430429	invites	-0.0919173
-3.900773	ordinary	-0.13338809
-3.7404974	assistance	-0.14440554
-4.430429	abms	-0.0919173
-3.900773	zinc	-0.17924115
-4.430429	slab	-0.0919173
-4.430429	smelters	-0.0919173
-4.430429	735	-0.0919173
-4.010452	tons	-0.13338809
-4.010452	bureau	-0.0919173
-4.157543	iraq	-0.1261954
-4.430429	foiled	-0.0919173
-4.430429	pronged	-0.0919173
-4.283945	thrust	-0.0919173
-4.157543	km	-0.1634127
-4.430429	basra	-0.0919173
-4.430429	admitted	-0.0919173
-4.430429	iranians	-0.0919173
-4.430429	occupied	-0.0919173
-4.283945	ground	-0.0919173
-4.430429	mohammed	-0.0919173
-4.283945	qassem	-0.0919173
-4.430429	divisions	-0.0919173
-4.283945	attacked	-0.0919173
-4.157543	redstone	-0.09191726
-4.283945	arsenal	-0.0919173
-3.6236877	holdings	-0.2414639
-4.430429	amusements	-0.0919173
-4.157543	viacom	-0.09191726
-3.3623295	takeover	-0.16073065
-4.283945	conagra	-0.0919173
-4.430429	cag	-0.0919173
-3.900773	diluted	-0.10627795
-4.283945	closely	-0.0919173
-4.430429	computerland	-0.0919173
-4.157543	pc	-0.09191726
-4.430429	retailing	-0.0919173
-4.430429	chain	-0.0919173
-4.010452	investor	-0.0919173
-3.813283	e	-0.48468745
-4.430429	warburg	-0.0919173
-4.430429	pincus	-0.0919173
-4.430429	cigra	-0.0919173
-4.157543	89	-0.0919173
-4.430429	transcontinental	-0.0919173
-4.430429	windfall	-0.0919173
-4.430429	acts	-0.0919173
-4.430429	disincentive	-0.0919173
-3.813283	existing	-0.1261954
-4.430429	reduces	-0.0919173
-4.157543	flow	-0.14440554
-4.430429	864	-0.0919173
-4.283945	678	-0.09191726
-3.900773	previous	-0.1087183
-4.157543	indications	-0.09191726
-3.900773	planted	-0.0919173
-3.7404974	69	-0.3537149
-4.010452	unchanged	-0.0919173
-3.900773	moves	-0.13338809
-4.430429	divest	-0.0919173
-4.430429	encor	-0.0919173
-4.430429	favor	-0.0919173
-4.430429	retaining	-0.0919173
-3.813283	go	-0.107402585
-4.430429	directly	-0.0919173
-3.6236877	members	-0.16876826
-4.157543	malaysia	-0.09191726
-4.010452	nearby	-0.0919173
-4.157543	intermediate	-0.0919173
-4.157543	forward	-0.09191726
-4.010452	richard	-0.0919173
-4.430429	visit	-0.0919173
-4.430429	alusuisse	-0.09191726
-4.157543	swiss	-0.0919173
-3.6236877	francs	-0.1401349
-4.283945	restated	-0.0919173
-4.283945	756	-0.20412089
-4.430429	comsat	-0.0919173
-4.430429	1962	-0.0919173
-3.813283	act	-0.14440554
-3.5752792	congress	-0.11027837
-4.430429	contel	-0.0919173
-4.010452	telephone	-0.0919173
-3.7404974	communications	-0.14440554
-3.900773	filed	-0.13338809
-4.430429	giorgio	-0.0919173
-4.430429	boutique	-0.0919173
-4.430429	beverly	-0.0919173
-4.283945	hills	-0.0919173
-4.430429	calif	-0.0919173
-3.3623295	.,	-0.17868198
-4.283945	fred	-0.0919173
-4.430429	hayman	-0.0919173
-4.430429	operate	-0.09191726
-4.283945	independently	-0.0919173
-4.430429	avon	-0.0919173
-3.900773	firmed	-0.13338809
-4.283945	ideas	-0.0919173
-4.157543	fact	-0.09191726
-4.010452	generally	-0.0919173
-4.430429	yielding	-0.0919173
-4.157543	substantial	-0.0919173
-4.430429	sensitively	-0.0919173
-3.900773	looking	-0.2448028
-4.430429	happening	-0.0919173
-4.283945	averaging	-0.0919173
-4.283945	whole	-0.0919173
-4.283945	requirement	-0.09191726
-4.430429	thackeray	-0.0919173
-4.430429	thk	-0.0919173
-4.430429	013	-0.0919173
-4.010452	74	-0.17108388
-4.157543	107	-0.1634127
-4.430429	401	-0.09191726
-4.430429	361	-0.0919173
-4.430429	793	-0.0919173
-4.283945	surcharge	-0.0919173
-4.430429	urgently	-0.0919173
-4.430429	depreciation	-0.0919173
-3.5752792	n	-0.5083184
-4.430429	foremost	-0.0919173
-3.7404974	stability	-0.14440554
-4.283945	successful	-0.0919173
-3.7404974	nothing	-0.0919173
-4.283945	else	-0.20412089
-4.283945	build	-0.0919173
-4.283945	auto	-0.0919173
-4.430429	inventories	-0.0919173
-4.283945	steep	-0.0919173
-4.283945	finally	-0.0919173
-4.430429	caught	-0.0919173
-3.813283	ahead	-0.41774064
-3.900773	exxon	-0.17108388
-4.010452	ratio	-0.0919173
-4.430429	ankara	-0.0919173
-4.010452	greece	-0.0919173
-4.430429	contravening	-0.0919173
-4.430429	courts	-0.0919173
-4.283945	none	-0.0919173
-4.430429	fired	-0.0919173
-4.430429	forecaster	-0.0919173
-4.430429	wales	-0.09191726
-4.430429	queensland	-0.0919173
-4.010452	suffered	-0.0919173
-4.430429	subscribers	-0.0919173
-4.283945	carried	-0.0919173
-4.430429	fiber	-0.0919173
-4.430429	optic	-0.0919173
-4.430429	leased	-0.0919173
-3.7404974	news	-0.29572296
-3.678177	conference	-0.15665177
-4.430429	create	-0.0919173
-4.430429	expedite	-0.0919173
-4.157543	processing	-0.09191726
-4.010452	tonnage	-0.0919173
-3.813283	required	-0.25275087
-4.430429	preference	-0.0919173
-4.283945	goes	-0.0919173
-3.813283	going	-0.28646964
-4.283945	harder	-0.0919173
-4.010452	meet	-0.1261954
-3.900773	confirmed	-0.13338809
-4.010452	preliminary	-0.0919173
-4.157543	turkey	-0.09191726
-4.010452	respectively	-0.29572296
-3.6236877	tariffs	-0.13825029
-4.283945	imposed	-0.0919173
-4.157543	recommended	-0.09191726
-4.283945	curbs	-0.0919173
-4.283945	panel	-0.0919173
-4.283945	headed	-0.0919173
-4.283945	pierson	-0.0919173
-4.430429	heldring	-0.0919173
-4.430429	en	-0.0919173
-3.900773	estimate	-0.0919173
-4.283945	sentiment	-0.0919173
-3.678177	hit	-0.264373
-3.7404974	leading	-0.0919173
-4.430429	onshore	-0.0919173
-4.430429	stos	-0.0919173
-4.430429	condensate	-0.0919173
-4.430429	liquefied	-0.0919173
-4.283945	lpg	-0.0919173
-3.678177	).	-0.73171914
-4.157543	porex	-0.09191726
-4.430429	porx	-0.0919173
-4.283945	medco	-0.0919173
-4.430429	mccs	-0.0919173
-4.430429	technologies	-0.0919173
-4.010452	partly	-0.0919173
-4.430429	containment	-0.0919173
-4.283945	striking	-0.20412089
-3.678177	brazilian	-0.14440554
-4.430429	seamen	-0.0919173
-3.900773	hold	-0.0919173
-4.430429	158	-0.0919173
-4.430429	halted	-0.0919173
-4.430429	janeiro	-0.0919173
-4.430429	almir	-0.0919173
-4.430429	pazzianotto	-0.0919173
-4.430429	shocked	-0.0919173
-3.6236877	spending	-0.0919173
-4.157543	oct	-0.1634127
-4.283945	affandi	-0.0919173
-4.430429	fel	-0.0919173
-4.430429	159	-0.0919173
-4.157543	bankamerica	-0.0919173
-4.430429	bac	-0.0919173
-4.010452	mortgage	-0.0919173
-4.283945	ireland	-0.09191726
-4.430429	words	-0.0919173
-4.430429	sometimes	-0.0919173
-4.430429	diametrically	-0.0919173
-3.900773	opposed	-0.13338809
-4.430429	bywater	-0.0919173
-4.157543	backed	-0.09191726
-4.283945	science	-0.0919173
-4.430429	task	-0.0919173
-4.283945	consortium	-0.0919173
-4.430429	develop	-0.0919173
-4.010452	electronic	-0.0919173
-4.430429	processes	-0.0919173
-4.430429	industory	-0.0919173
-4.157543	competitive	-0.09191726
-4.430429	repossession	-0.0919173
-4.430429	gould	-0.0919173
-4.010452	focus	-0.14440554
-4.157543	electronics	-0.0919173
-4.430429	replace	-0.0919173
-4.430429	learn	-0.0919173
-3.6236877	you	-0.12945007
-3.813283	cannot	-0.0919173
-4.430429	deemed	-0.0919173
-3.813283	quotas	-0.112157896
-4.010452	regional	-0.09191726
-4.430429	spoke	-0.0919173
-4.283945	named	-0.0919173
-4.157543	bags	-0.11736894
-4.010452	behind	-0.0919173
-4.283945	leaving	-0.0919173
-3.7404974	shipped	-0.264373
-3.900773	electric	-0.11736894
-4.430429	nes	-0.0919173
-3.5317295	75	-0.16197449
-4.010452	73	-0.121129796
-4.283945	632	-0.0919173
-4.157543	629	-0.1634127
-4.157543	173	-0.1634127
-4.157543	165	-0.14440554
-3.7404974	chrysler	-0.121129796
-4.010452	rival	-0.13338809
-4.430429	dilution	-0.0919173
-4.430429	heinl	-0.0919173
-4.283945	nursery	-0.0919173
-4.430429	shade	-0.0919173
-4.157543	houses	-0.09191726
-4.430429	square	-0.0919173
-3.900773	feet	-0.17924115
-4.430429	greenhouses	-0.0919173
-4.010452	facilities	-0.0919173
-3.7404974	using	-0.0919173
-4.430429	obtain	-0.0919173
-3.900773	liquidity	-0.13338809
-4.430429	foresake	-0.0919173
-4.157543	underlying	-0.0919173
-4.430429	unaffected	-0.0919173
-3.6236877	accord	-0.13274632
-4.430429	permits	-0.0919173
-4.430429	493	-0.0919173
-4.283945	502	-0.20412089
-4.010452	gained	-0.14440554
-3.900773	forced	-0.33855942
-4.010452	india	-0.0919173
-3.900773	delhi	-0.0919173
-3.900773	gencorp	-0.15244982
-4.430429	gy	-0.0919173
-3.678177	110	-0.14440554
-4.430429	multilaterals	-0.0919173
-4.430429	performing	-0.0919173
-4.430429	debtors	-0.0919173
-4.430429	someone	-0.0919173
-4.430429	silas	-0.0919173
-4.430429	revitalize	-0.0919173
-3.5752792	texas	-0.09191726
-4.430429	exempt	-0.0919173
-4.430429	stripper	-0.0919173
-4.157543	severance	-0.1634127
-4.010452	reaffirmed	-0.14440554
-4.430429	coordinate	-0.0919173
-4.157543	inflationary	-0.09191726
-3.900773	stable	-0.0919173
-3.813283	reagan	-0.13338809
-4.283945	tide	-0.0919173
-4.157543	vessel	-0.09191726
-4.283945	list	-0.0919173
-4.430429	degrees	-0.0919173
-3.6236877	changed	-0.112157896
-4.010452	comments	-0.14440554
-3.900773	senior	-0.09191726
-4.430429	thought	-0.0919173
-4.283945	undervalued	-0.0919173
-4.283945	replied	-0.0919173
-4.283945	counter	-0.09191726
-3.900773	hope	-0.1634127
-4.430429	join	-0.0919173
-4.430429	telecom	-0.0919173
-4.430429	discreetly	-0.0919173
-4.010452	confident	-0.0919173
-4.430429	adopt	-0.0919173
-4.157543	instruments	-0.09191726
-4.283945	tightening	-0.0919173
-4.430429	choke	-0.0919173
-4.157543	modest	-0.09191726
-3.678177	expansion	-0.0919173
-4.157543	threaten	-0.09191726
-3.900773	recession	-0.13338809
-3.4921515	several	-0.0919173
-4.430429	contacts	-0.0919173
-4.430429	indication	-0.0919173
-4.430429	wishes	-0.0919173
-4.430429	mention	-0.0919173
-4.430429	senators	-0.0919173
-4.430429	propose	-0.0919173
-3.813283	ban	-0.1261954
-4.283945	toshiba	-0.0919173
-4.010452	went	-0.14440554
-3.900773	signed	-0.1261954
-4.283945	calling	-0.20412089
-4.430429	exchanged	-0.0919173
-4.430429	barnett	-0.0919173
-4.283945	moved	-0.0919173
-4.430429	sdr	-0.0919173
-4.283945	mtech	-0.0919173
-4.430429	mtch	-0.0919173
-4.430429	467	-0.0919173
-4.430429	nudged	-0.0919173
-4.283945	goal	-0.0919173
-4.283945	pessimistic	-0.20412089
-4.010452	social	-0.0919173
-4.430429	ces	-0.0919173
-4.283945	body	-0.0919173
-4.430429	industrialists	-0.0919173
-4.430429	unionists	-0.0919173
-4.010452	limits	-0.0919173
-4.430429	minimised	-0.0919173
-4.157543	boosted	-0.09191726
-4.430429	radius	-0.0919173
-4.430429	prawiro	-0.0919173
-3.7404974	aimed	-0.48468745
-4.430429	preventing	-0.0919173
-4.283945	refiners	-0.0919173
-4.430429	marketers	-0.0919173
-4.430429	predatory	-0.0919173
-4.430429	monopolistic	-0.0919173
-4.430429	franchised	-0.0919173
-4.430429	specifications	-0.0919173
-4.430429	resemble	-0.0919173
-4.283945	audio	-0.20412089
-3.678177	video	-0.11027837
-4.430429	ava	-0.0919173
-4.430429	sweetens	-0.0919173
-4.010452	cyclops	-0.0919173
-4.430429	cyl	-0.0919173
-4.157543	affiliates	-0.09191726
-4.430429	astra	-0.0919173
-4.430429	paint	-0.0919173
-4.157543	manufacture	-0.14440554
-4.283945	motor	-0.0919173
-4.283945	vehicles	-0.0919173
-4.430429	earthmoving	-0.0919173
-4.430429	qualities	-0.0919173
-3.7404974	sought	-0.121129796
-4.430429	hamburg	-0.0919173
-4.283945	green	-0.0919173
-3.3913305	demand	-0.17863949
-4.430429	coffees	-0.0919173
-4.283945	past	-0.112157896
-4.430429	unsatisfactory	-0.0919173
-4.430429	brockton	-0.0919173
-4.430429	pbkb	-0.0919173
-4.430429	646	-0.0919173
-4.157543	470	-0.30575043
-4.010452	cumulative	-0.0919173
-4.430429	roastings	-0.0919173
-4.430429	845	-0.0919173
-4.430429	070	-0.0919173
-4.283945	reuter	-0.09191726
-4.157543	forecasts	-0.09191726
-4.430429	schrader	-0.0919173
-4.283945	maremont	-0.20412089
-3.5317295	acquired	-0.11736894
-4.430429	bu	-0.0919173
-4.430429	forfeited	-0.0919173
-4.283945	portuguese	-0.09191726
-4.010452	crisis	-0.0919173
-4.157543	portugal	-0.30575043
-4.430429	enjoying	-0.0919173
-4.283945	decade	-0.0919173
-4.430429	shrug	-0.0919173
-4.283945	heinz	-0.0919173
-4.430429	sight	-0.0919173
-4.430429	22nd	-0.0919173
-4.157543	consecutive	-0.1634127
-4.430429	records	-0.0919173
-4.157543	chief	-0.14440554
-4.010452	executive	-0.13338809
-4.430429	officer	-0.0919173
-4.430429	anthony	-0.0919173
-4.430429	reilly	-0.0919173
-4.283945	arkla	-0.0919173
-4.430429	alg	-0.0919173
-4.430429	settle	-0.0919173
-4.283945	dispute	-0.09191726
-4.283945	ip	-0.0919173
-4.430429	arkansas	-0.0919173
-4.157543	resolve	-0.0919173
-4.283945	pipelines	-0.0919173
-4.283945	mill	-0.0919173
-4.283945	pine	-0.0919173
-4.430429	bluff	-0.0919173
-4.430429	camden	-0.0919173
-4.430429	utilisation	-0.0919173
-4.430429	mode	-0.0919173
-4.430429	{	-0.0919173
-4.430429	nised	-0.0919173
-4.157543	mills	-0.14440554
-4.430429	lucht	-0.0919173
-4.430429	function	-0.0919173
-4.010452	innovex	-0.0919173
-4.157543	whatever	-0.1634127
-4.283945	stick	-0.20412089
-4.283945	keeping	-0.09191726
-4.430429	guilder	-0.0919173
-4.283945	sure	-0.0919173
-4.010452	getting	-0.0919173
-4.430429	solomon	-0.0919173
-4.010452	medium	-0.2072884
-3.7404974	commodity	-0.0919173
-4.430429	injuries	-0.0919173
-4.430429	emirate	-0.0919173
-4.430429	fujairah	-0.0919173
-3.7404974	power	-0.0919173
-4.283945	fire	-0.0919173
-4.157543	order	-0.09191726
-4.157543	living	-0.0919173
-3.678177	north	-0.112157896
-4.430429	rhine	-0.0919173
-4.430429	westphalia	-0.0919173
-4.430429	populous	-0.0919173
-4.010452	mid	-0.43068916
-4.283945	stand	-0.0919173
-4.430429	esquire	-0.0919173
-4.430429	ee	-0.0919173
-4.157543	yr	-0.14440554
-4.430429	075	-0.0919173
-4.283945	203	-0.20412089
-4.010452	stockholders	-0.0919173
-4.430429	conable	-0.0919173
-4.010452	pressing	-0.14440554
-4.430429	arguing	-0.0919173
-4.430429	possibility	-0.0919173
-4.010452	global	-0.09191726
-4.157543	imperial	-0.09191726
-3.4921515	contracts	-0.1858041
-4.430429	cote	-0.0919173
-4.430429	cancelling	-0.0919173
-4.157543	suspending	-0.09191726
-4.283945	buyer	-0.09191726
-4.157543	discussed	-0.0919173
-4.283945	table	-0.0919173
-4.430429	hormuz	-0.0919173
-4.430429	strait	-0.0919173
-4.430429	everyone	-0.0919173
-4.157543	intelligent	-0.1634127
-4.430429	inp	-0.0919173
-4.010452	initial	-0.1261954
-4.010452	payout	-0.0919173
-4.283945	master	-0.20412089
-3.7404974	quarterly	-0.25275087
-4.010452	investments	-0.0919173
-4.010452	parent	-0.14440554
-4.283945	recapitalization	-0.0919173
-3.7404974	alternative	-0.0919173
-3.6236877	receive	-0.1087183
-3.7404974	approval	-0.17821129
-4.430429	narrows	-0.0919173
-4.157543	narrowed	-0.2416494
-4.430429	336	-0.0919173
-4.430429	escudos	-0.0919173
-4.430429	354	-0.0919173
-4.430429	rtrs	-0.0919173
-4.430429	associates	-0.0919173
-4.430429	169	-0.0919173
-3.900773	others	-0.0919173
-3.813283	bp	-0.121129796
-4.010452	course	-0.14440554
-4.430429	retained	-0.0919173
-4.283945	boston	-0.20412089
-4.430429	cravath	-0.0919173
-4.430429	swaine	-0.0919173
-4.283945	moore	-0.0919173
-3.900773	advisers	-0.11736894
-3.6236877	too	-0.17821129
-4.157543	determine	-0.121129796
-4.283945	parties	-0.0919173
-4.010452	longer	-0.0919173
-4.010452	doubt	-0.0919173
-4.157543	greenmail	-0.0919173
-4.430429	surprises	-0.0919173
-4.283945	me	-0.0919173
-4.430429	anymore	-0.0919173
-4.283945	crushing	-0.0919173
-4.283945	873	-0.20412089
-4.430429	904	-0.0919173
-4.010452	bushels	-0.0919173
-4.430429	459	-0.0919173
-4.430429	238	-0.0919173
-4.283945	apparently	-0.0919173
-4.430429	anyone	-0.0919173
-4.430429	regret	-0.0919173
-3.813283	threatened	-0.2287762
-4.283945	protest	-0.20412089
-4.430429	regarded	-0.0919173
-4.430429	vital	-0.0919173
-4.283945	smooth	-0.0919173
-3.900773	transactions	-0.18620536
-4.430429	doubled	-0.0919173
-4.430429	alan	-0.0919173
-4.430429	garcia	-0.0919173
-4.430429	directed	-0.0919173
-3.678177	drilling	-0.16036218
-4.430429	rigs	-0.0919173
-4.430429	caspar	-0.0919173
-4.430429	weinberger	-0.0919173
-4.283945	sunday	-0.09191726
-4.430429	specifics	-0.0919173
-4.283945	necessary	-0.09191726
-4.283945	keep	-0.0919173
-4.283945	anti	-0.20412089
-4.430429	region	-0.09191726
-4.157543	w	-0.2072884
-4.430429	manufactured	-0.0919173
-4.430429	ifo	-0.0919173
-4.430429	conrac	-0.0919173
-4.430429	marketer	-0.0919173
-4.010452	related	-0.0919173
-4.430429	display	-0.0919173
-4.157543	produces	-0.0919173
-4.430429	architectural	-0.0919173
-4.430429	macandrews	-0.0919173
-4.010452	revlon	-0.0919173
-4.430429	plaintiff	-0.0919173
-4.430429	pending	-0.0919173
-4.283945	litigation	-0.0919173
-4.430429	challenging	-0.0919173
-4.430429	macanrews	-0.0919173
-4.283945	cnt	-0.0919173
-4.430429	quantum	-0.0919173
-4.430429	exercising	-0.0919173
-4.157543	bringing	-0.1634127
-4.283945	philips	-0.1634127
-4.430429	electrical	-0.0919173
-4.010452	sells	-0.09191726
-4.157543	unidare	-0.09191726
-4.283945	arranged	-0.0919173
-4.010452	aluminium	-0.14440554
-4.430429	nsbk	-0.0919173
-4.430429	289	-0.0919173
-4.283945	849	-0.20412089
-4.430429	980	-0.0919173
-4.430429	814	-0.0919173
-3.7404974	consumption	-0.0919173
-3.813283	continuing	-0.0919173
-4.430429	rhetoric	-0.0919173
-4.430429	marlin	-0.0919173
-4.283945	fitzwater	-0.20412089
-4.157543	statements	-0.09191726
-4.283945	borg	-0.20412089
-4.283945	warner	-0.09191726
-4.430429	irwin	-0.0919173
-4.157543	jacobs	-0.14440554
-4.283945	jamesway	-0.0919173
-4.430429	jmy	-0.0919173
-4.430429	intec	-0.0919173
-4.430429	intk	-0.0919173
-4.430429	029	-0.0919173
-4.430429	930	-0.0919173
-4.283945	764	-0.0919173
-4.430429	544	-0.0919173
-4.430429	463	-0.0919173
-4.430429	718	-0.0919173
-4.430429	566	-0.0919173
-4.430429	680	-0.0919173
-4.283945	window	-0.1634127
-4.157543	averaged	-0.09191726
-4.430429	302	-0.0919173
-4.157543	interview	-0.09191726
-4.430429	aired	-0.0919173
-4.157543	don	-0.30575043
-4.430429	encompassed	-0.0919173
-4.430429	087	-0.0919173
-4.430429	19th	-0.0919173
-4.010452	exceeding	-0.0919173
-4.430429	398	-0.0919173
-4.430429	liffe	-0.0919173
-4.430429	studies	-0.0919173
-4.430429	aside	-0.0919173
-4.283945	county	-0.0919173
-4.157543	trigger	-0.09191726
-4.010452	requirements	-0.0919173
-4.010452	staff	-0.0919173
-4.157543	double	-0.09191726
-4.430429	indicates	-0.0919173
-4.430429	jump	-0.0919173
-4.430429	bhp	-0.0919173
-4.283945	ounces	-0.1634127
-4.283945	mcm	-0.20412089
-4.283945	yearend	-0.0919173
-4.010452	release	-0.0919173
-4.157543	effects	-0.0919173
-4.283945	sheet	-0.0919173
-4.283945	outright	-0.0919173
-4.430429	band	-0.0919173
-4.430429	jorge	-0.0919173
-4.283945	cardenas	-0.0919173
-4.430429	colombian	-0.0919173
-4.157543	federation	-0.09191726
-4.430429	rosenbaum	-0.0919173
-4.283945	mutual	-0.0919173
-4.283945	adding	-0.0919173
-4.430429	860	-0.0919173
-4.430429	vicinity	-0.0919173
-4.430429	seismic	-0.0919173
-4.283945	underway	-0.0919173
-4.430429	evaluate	-0.0919173
-3.813283	meat	-0.09191726
-4.430429	packers	-0.0919173
-4.157543	promising	-0.09191726
-4.430429	1981	-0.0919173
-4.430429	subroto	-0.0919173
-4.430429	granting	-0.0919173
-4.430429	remote	-0.0919173
-4.157543	deep	-0.09191726
-4.430429	lichtblau	-0.0919173
-4.430429	dependency	-0.0919173
-4.283945	happen	-0.0919173
-4.157543	impose	-0.09191726
-4.430429	dls	-0.0919173
-4.157543	alleged	-0.09191726
-4.430429	live	-0.0919173
-4.283945	microchip	-0.0919173
-4.283945	rainfall	-0.0919173
-3.900773	recorded	-0.2072884
-4.283945	hours	-0.09191726
-4.283945	parana	-0.0919173
-4.430429	umuarama	-0.0919173
-3.678177	nil	-0.2072884
-4.430429	paranavai	-0.0919173
-4.430429	londrina	-0.0919173
-4.430429	maringa	-0.0919173
-4.430429	pushing	-0.0919173
-4.430429	permission	-0.0919173
-4.010452	lay	-0.0919173
-4.157543	cable	-0.09191726
-4.283945	widened	-0.20412089
-4.430429	drs	-0.0919173
-4.430429	rospatch	-0.0919173
-3.813283	provided	-0.1261954
-4.283945	prudential	-0.0919173
-4.157543	encourage	-0.09191726
-4.430429	foreseeable	-0.0919173
-4.157543	largely	-0.09191726
-4.430429	upsetting	-0.0919173
-4.283945	wage	-0.0919173
-4.430429	shiments	-0.0919173
-4.430429	instill	-0.0919173
-4.430429	willingness	-0.0919173
-4.430429	pcc	-0.0919173
-3.900773	courier	-0.1261954
-4.430429	flowering	-0.0919173
-3.900773	followed	-0.2072884
-4.430429	onset	-0.0919173
-4.430429	subsequent	-0.0919173
-4.430429	dissappointing	-0.0919173
-4.430429	suspension	-0.0919173
-4.430429	forseeable	-0.0919173
-4.430429	category	-0.0919173
-4.430429	sunflower	-0.0919173
-4.010452	oils	-0.13338809
-4.283945	importers	-0.0919173
-4.430429	basket	-0.0919173
-4.430429	categories	-0.0919173
-4.283945	paying	-0.0919173
-3.813283	specific	-0.1144662
-4.430429	nevertheless	-0.0919173
-4.283945	gurria	-0.20412089
-3.900773	mexico	-0.2072884
-4.430429	draw	-0.0919173
-4.430429	contingency	-0.0919173
-3.813283	mining	-0.0919173
-4.430429	pt	-0.0919173
-4.430429	tambang	-0.0919173
-4.430429	timah	-0.0919173
-4.430429	easy	-0.0919173
-4.430429	516	-0.0919173
-4.157543	636	-0.1634127
-4.010452	discontinued	-0.43068916
-4.430429	922	-0.0919173
-4.430429	dominated	-0.0919173
-4.157543	reporting	-0.09191726
-4.157543	involving	-0.09191726
-4.430429	fnma	-0.0919173
-4.283945	arbitrage	-0.0919173
-4.430429	beatty	-0.0919173
-4.430429	packer	-0.0919173
-4.430429	morrell	-0.0919173
-4.430429	soymeal	-0.0919173
-4.283945	quantities	-0.0919173
-4.010452	imported	-0.0919173
-4.283945	quarters	-0.0919173
-4.430429	argentina	-0.0919173
-4.430429	refining	-0.0919173
-4.430429	worried	-0.0919173
-4.430429	environmental	-0.0919173
-4.283945	regulations	-0.0919173
-3.813283	grade	-0.09191726
-4.283945	unleaded	-0.0919173
-4.430429	dearly	-0.0919173
-4.430429	recovering	-0.0919173
-4.283945	slump	-0.0919173
-4.430429	chauvco	-0.0919173
-4.157543	476	-0.30575043
-4.430429	creditwatch	-0.0919173
-4.283945	affects	-0.0919173
-3.813283	notes	-0.14440554
-4.157543	guaranteed	-0.0919173
-4.430429	eurobond	-0.0919173
-4.430429	warn	-0.0919173
-4.157543	warned	-0.1634127
-4.283945	excessive	-0.0919173
-4.430429	goodwill	-0.0919173
-4.283945	delegations	-0.0919173
-4.430429	hesse	-0.0919173
-4.430429	advises	-0.0919173
-4.010452	italian	-0.0919173
-4.010452	declines	-0.0919173
-4.283945	surprised	-0.0919173
-4.283945	disbursed	-0.0919173
-4.430429	slaughtered	-0.0919173
-4.430429	herd	-0.0919173
-4.430429	gaf	-0.0919173
-4.283945	bayer	-0.1634127
-4.430429	usa	-0.0919173
-4.430429	bayry	-0.0919173
-4.283945	affiliated	-0.0919173
-4.430429	cmpanies	-0.0919173
-4.430429	manoeuvres	-0.0919173
-4.010452	narrow	-0.0919173
-4.430429	variable	-0.0919173
-4.010452	seriously	-0.0919173
-4.430429	eastman	-0.0919173
-4.430429	kodak	-0.0919173
-4.283945	acquires	-0.0919173
-4.430429	enzon	-0.0919173
-4.430429	idea	-0.0919173
-4.010452	require	-0.2072884
-4.430429	bureacracy	-0.0919173
-4.430429	administer	-0.0919173
-4.283945	numac	-0.20412089
-4.430429	nmc	-0.0919173
-3.900773	significant	-0.1261954
-3.900773	improvement	-0.1261954
-3.6236877	performance	-0.13825029
-4.157543	argentine	-0.1634127
-4.430429	243	-0.0919173
-4.283945	217	-0.0919173
-4.157543	ual	-0.09191726
-4.430429	citing	-0.0919173
-4.283945	unusual	-0.0919173
-4.430429	ramifications	-0.0919173
-4.010452	believe	-0.0919173
-4.430429	affiliation	-0.0919173
-4.283945	amoskeag	-0.0919173
-4.430429	portsmouth	-0.0919173
-4.430429	bushnell	-0.0919173
-4.283945	reflected	-0.0919173
-3.4921515	noted	-0.24636588
-4.430429	blocks	-0.0919173
-4.430429	7219	-0.0919173
-4.430429	7220	-0.0919173
-4.283945	awarded	-0.0919173
-4.430429	norsk	-0.0919173
-4.430429	hydro	-0.0919173
-4.430429	operator	-0.0919173
-4.430429	statoil	-0.0919173
-4.157543	mobil	-0.1634127
-4.430429	mob	-0.09191726
-4.430429	petrofina	-0.0919173
-4.010452	sa	-0.14440554
-4.430429	petb	-0.0919173
-4.430429	br	-0.0919173
-4.430429	norske	-0.0919173
-4.430429	fina	-0.0919173
-4.283945	meridian	-0.0919173
-4.157543	castone	-0.09191726
-4.430429	jointly	-0.0919173
-4.430429	terminate	-0.0919173
-4.430429	widespread	-0.0919173
-4.283945	speculation	-0.0919173
-4.430429	autumn	-0.0919173
-4.283945	darman	-0.0919173
-4.283945	job	-0.0919173
-4.157543	valley	-0.09191726
-4.430429	fivc	-0.0919173
-3.813283	62	-0.1858041
-3.813283	99	-0.0919173
-4.430429	scientific	-0.0919173
-4.430429	measurement	-0.0919173
-4.430429	scms	-0.0919173
-4.430429	352	-0.0919173
-4.430429	568	-0.0919173
-4.283945	640	-0.20412089
-4.430429	377	-0.0919173
-4.430429	865	-0.0919173
-4.430429	063	-0.0919173
-4.430429	333	-0.0919173
-4.283945	singapore	-0.0919173
-4.283945	netherlands	-0.0919173
-4.430429	complying	-0.0919173
-4.283945	lumber	-0.0919173
-4.430429	softwood	-0.0919173
-3.813283	circulation	-0.28646964
-4.430429	235	-0.0919173
-4.157543	eased	-0.09191726
-4.157543	solid	-0.0919173
-4.430429	michelin	-0.0919173
-4.430429	spika	-0.0919173
-4.430429	raiders	-0.0919173
-4.010452	once	-0.14440554
-4.157543	communique	-0.13338809
-4.430429	alter	-0.0919173
-4.010452	prevailing	-0.0919173
-3.900773	needs	-0.13338809
-4.430429	redress	-0.0919173
-4.010452	huge	-0.14440554
-4.430429	imbalance	-0.0919173
-4.283945	kellwood	-0.0919173
-4.430429	kwd	-0.0919173
-4.010452	robert	-0.0919173
-4.283945	scott	-0.0919173
-4.283945	david	-0.0919173
-4.430429	brooks	-0.0919173
-4.430429	andrew	-0.0919173
-4.430429	harvey	-0.0919173
-4.430429	dedham	-0.0919173
-4.283945	mass	-0.0919173
-4.157543	sent	-0.0919173
-4.283945	consideration	-0.0919173
-4.430429	committees	-0.0919173
-4.157543	seemed	-0.1634127
-4.430429	repeat	-0.0919173
-3.900773	monthly	-0.0919173
-4.010452	surpluses	-0.0919173
-3.900773	1984	-0.1858041
-4.283945	dayton	-0.20412089
-4.283945	hudson	-0.09191726
-4.010452	spokeswoman	-0.0919173
-4.430429	identify	-0.0919173
-4.430429	darta	-0.0919173
-4.157543	105	-0.1634127
-4.430429	died	-0.0919173
-4.430429	accidents	-0.0919173
-4.430429	appreciation	-0.0919173
-4.283945	depressed	-0.0919173
-4.157543	orders	-0.0919173
-4.157543	suggested	-0.1634127
-3.900773	administration	-0.12945007
-4.430429	recommendations	-0.0919173
-4.283945	grace	-0.0919173
-4.283945	lp	-0.0919173
-4.430429	anglo	-0.0919173
-4.010452	willing	-0.43068916
-3.900773	deposit	-0.13338809
-4.283945	escrow	-0.09191726
-4.430429	insure	-0.0919173
-4.283945	approves	-0.0919173
-4.157543	healthsouth	-0.1634127
-4.430429	hsrc	-0.0919173
-4.283945	rehabilitation	-0.09191726
-4.430429	medicine	-0.0919173
-4.010452	center	-0.0919173
-4.157543	fort	-0.1634127
-4.430429	lauderdale	-0.0919173
-4.430429	fla	-0.0919173
-4.430429	incorporate	-0.0919173
-4.283945	users	-0.0919173
-4.430429	fructose	-0.0919173
-4.430429	actively	-0.0919173
-4.430429	millers	-0.0919173
-4.430429	bottlers	-0.0919173
-4.430429	henderson	-0.0919173
-3.813283	metals	-0.0919173
-4.283945	underground	-0.0919173
-4.430429	extensive	-0.0919173
-4.430429	sampling	-0.0919173
-3.900773	silver	-0.0919173
-4.430429	yielded	-0.0919173
-4.430429	beall	-0.0919173
-4.283945	los	-0.20412089
-4.430429	angeles	-0.09191726
-4.283945	allen	-0.0919173
-4.430429	bradley	-0.0919173
-4.157543	flat	-0.09191726
-4.430429	landmark	-0.0919173
-4.157543	realized	-0.09191726
-4.430429	continuation	-0.0919173
-4.157543	downward	-0.1634127
-4.283945	trend	-0.09191726
-3.813283	d	-0.1261954
