\data\
ngram 1=7339

\1-grams:
-4.8514295	<unk>
0	<s>
-1.508871	</s>
-3.3228815	while
-4.7043614	roth
-2.096304	-
-3.2383025	american
-1.8436102	said
-2.197479	it
-2.3648844	is
-3.5019374	still
-3.8552043	interested
-1.7671331	in
-4.2844424	acquiring
-4.7043614	turco
-1.3777108	,
-4.427796	atcor
-3.22746	now
-4.1768475	reviewing
-2.3828855	its
-3.7726808	options
-2.4920049	with
-3.0462482	other
-4.018821	potential
-3.9571767	buyers
-3.3228815	who
-2.7689874	have
-4.090686	expressed
-3.123238	interest
-3.73664	consumer
-3.272555	products
-4.2844424	businesses
-1.2762707	.
-3.4634058	german
-2.4179595	net
-3.4634058	currency
-3.2846007	reserves
-3.4822445	fall
-2.5289783	5
-2.6218567	4
-2.4400997	billion
-3.5910757	marks
-1.6923369	to
-3.9571767	81
-2.6938972	7
-3.522566	bundesbank
-1.4153129	the
-2.9032702	1987
-3.4822445	annual
-3.2969897	dividend
-2.5019636	will
-2.4297407	be
-3.4453506	40
-2.3504336	cts
-1.8566347	a
-2.7998679	share
-4.578661	speed
-3.272555	o
-4.578661	print
-3.2969897	business
-2.2846165	&
-2.2846165	lt
-2.2761495	;
-4.7043614	sbm
-2.3575988	>
-3.350415	4th
-2.828816	qtr
-2.6192093	shr
-2.666566	loss
-3.411347	seven
-2.0931487	vs
-2.9630375	profit
-3.22746	17
-4.090686	102
-2.1944911	000
-4.2844424	258
-2.8691165	revs
-2.2045317	1
-4.578661	695
-4.7043614	371
-2.4048753	year
-3.6165442	33
-3.73664	26
-4.578661	488
-4.2844424	384
-2.7366848	6
-3.7033622	700
-4.578661	774
-3.1675408	note
-3.114895	:
-2.6192093	1986
-3.395294	results
-3.6724539	include
-3.2969897	operations
-1.6910894	of
-4.2844424	radio
-4.7043614	stations
-4.7043614	wjye
-4.7043614	fm
-2.1099758	for
-3.522566	full
-1.8644555	and
-4.7043614	wnnr
-4.578661	am
-2.7164118	last
-3.123238	six
-3.350415	months
-4.2844424	economics
-3.4634058	ministry
-4.427796	commenting
-2.2821803	on
-3.33643	figures
-4.018821	gnp
-3.0058553	first
-2.9748464	quarter
-2.452506	was
-2.8079438	also
-3.1769707	expected
-4.578661	relatively
-4.1768475	weak
-2.436619	"
-3.9032044	although
-3.6165442	short
-3.9032044	run
-3.9032044	difficult
-3.7726808	see
-4.1768475	direct
-4.427796	link
-3.22746	between
-3.9571767	arab
-4.427796	anger
-4.7043614	threats
-2.713123	oil
-3.9571767	supplies
-3.123238	current
-4.1768475	environment
-4.2844424	increasingly
-4.427796	moderate
-4.2844424	leaders
-3.73664	seen
-2.62452	as
-4.578661	friendly
-2.438356	u
-2.0576952	s
-4.018821	interests
-2.7579508	,"
-4.7043614	ebinger
-4.1768475	lot
-4.7043614	winterkill
-3.1317444	could
-4.1768475	occur
-3.350415	during
-3.4822445	next
-3.1067095	month
-3.3798132	half
-4.578661	martell
-3.8119855	chicago
-3.9032044	soybean
-4.578661	complex
-2.60621	has
-2.9348474	been
-4.7043614	nervous
-3.2065547	some
-3.1964679	time
-2.8507419	about
-3.428016	large
-3.350415	south
-4.018821	crops
-3.8119855	developing
-3.0189066	under
-3.8552043	near
-4.7043614	ideal
-3.9032044	conditions
-4.2844424	towards
-3.1964679	record
-4.090686	yields
-3.33643	japanese
-4.7043614	crushers
-3.5442235	continue
-4.427796	concentrate
-4.018821	rapeseed
-3.7726808	purchases
-3.2969897	since
-4.7043614	converts
-3.350415	higher
-3.9571767	percentage
-3.1675408	than
-4.7043614	oilseeds
-2.8834262	they
-3.6165442	royal
-3.522566	resources
-2.660719	corp
-4.578661	rrco
-3.7726808	2nd
-3.9571767	dec
-3.0462482	31
-3.8119855	72
-3.8552043	48
-2.1592374	dlrs
-4.7043614	466
-4.7043614	006
-2.7727294	9
-4.578661	091
-4.1768475	688
-4.7043614	608
-4.427796	181
-4.427796	280
-4.7043614	727
-3.0754275	avg
-3.090787	shrs
-4.427796	194
-4.427796	155
-4.578661	461
-3.8119855	77
-3.6165442	51
-4.7043614	752
-4.7043614	455
-4.7043614	265
-4.7043614	457
-4.7043614	444
-4.427796	149
-2.4579334	2
-4.578661	791
-4.427796	188
-4.578661	174
-4.427796	731
-3.6165442	losses
-4.427796	charges
-2.7841532	0
-1.9975858	mln
-3.4453506	both
-3.8119855	periods
-3.2383025	14
-3.0255823	1985
-4.578661	write
-3.3097427	down
-3.3798132	gas
-4.018821	properties
-4.1768475	california
-4.018821	water
-3.6436	service
-3.1583114	co
-4.7043614	cwtr
-3.5019374	3rd
-2.893235	10
-3.7033622	83
-4.427796	919
-4.427796	168
-3.3798132	35
-3.5442235	34
-2.6113632	3
-3.260835	nine
-3.3228815	mths
-3.6165442	09
-3.7726808	55
-4.7043614	391
-4.7043614	099
-4.018821	88
-4.7043614	curent
-4.7043614	mth
-3.0754275	dlr
-2.7401576	or
-3.8119855	79
-2.8738341	per
-3.3798132	gain
-4.090686	resulting
-2.3722944	from
-3.7033622	change
-4.1768475	accounting
-4.7043614	method
-4.7043614	unbilled
-3.6436	revenues
-2.7066195	but
-2.3844197	that
-3.0323622	if
-2.723065	had
-2.5960836	not
-2.7579508	one
-3.428016	day
-4.7043614	miss
-3.272555	fed
-2.2189903	'
-3.411347	reserve
-4.7043614	projections
-3.7726808	borrowings
-3.5019374	target
-2.616578	would
-3.8552043	probably
-3.6724539	reached
-3.0533614	government
-3.9571767	unlikely
-3.2383025	cut
-4.1768475	expenditure
-3.9032044	gross
-3.73664	domestic
-3.6724539	product
-3.272555	major
-3.1583114	tax
-3.2383025	increase
-4.7043614	unavoidable
-4.7043614	bayliss
-3.4453506	m
-3.73664	showed
-3.1067095	rise
-2.2678442	pct
-2.913543	january
-2.3813565	at
-3.7033622	68
-4.018821	rand
-2.9748464	after
-3.1404207	30
-3.3798132	december
-3.123238	16
-3.0754275	12
-3.5019374	80
-4.7043614	1a
-3.3228815	22
-3.03925	20
-3.6724539	54
-4.578661	heller
-3.6165442	sees
-3.9032044	return
-4.427796	slower
-3.2168815	money
-3.428016	supply
-3.1769707	growth
-4.578661	consequently
-2.5442524	he
-3.4822445	well
-4.1768475	known
-4.090686	abroad
-3.5019374	his
-4.1768475	views
-3.8552043	issues
-3.6436	such
-3.567018	less
-4.427796	developed
-3.4634058	country
-3.2969897	debt
-2.8038871	may
-4.2844424	initially
-4.018821	carry
-4.578661	weight
-3.5019374	those
-4.7043614	mr
-4.018821	volcker
-2.9869857	."
-4.578661	kapok
-4.7043614	kpk
-4.2844424	technical
-4.578661	default
-4.7043614	techical
-3.6165442	loans
-4.7043614	southeast
-3.8552043	banking
-4.7043614	stb
-4.578661	murray
-4.7043614	steinfeld
-4.018821	negotiating
-4.7043614	lenders
-2.7401576	this
-4.427796	certainly
-4.018821	reason
-4.7043614	heightened
-4.7043614	watchfulness
-4.7043614	stimulative
-4.578661	steps
-4.578661	published
-3.8119855	figure
-3.0323622	foreign
-3.1067095	exchange
-3.5910757	37
-2.9869857	end
-3.411347	september
-3.7033622	47
-3.260835	june
-3.8552043	59
-3.8119855	dutch
-3.567018	cocoa
-4.2844424	processors
-4.578661	unhappy
-4.2844424	icco
-3.6165442	buffer
-2.7919395	are
-4.7043614	intermittent
-3.6436	buying
-4.427796	activities
-3.114895	international
-3.9571767	organization
-2.8462672	stock
-3.8119855	manager
-3.33643	industry
-3.33643	sources
-3.0255823	told
-3.4822445	reuters
-3.6724539	these
-3.067947	rates
-3.2846007	compared
-4.7043614	averages
-3.7726808	53
-3.0533614	three
-3.9032044	63
-4.090686	bills
-3.5910757	sold
-2.9240646	week
-4.2844424	miyazawa
-3.522566	expects
-3.0323622	dollar
-4.7043614	rebound
-3.9571767	soon
-3.350415	spokesman
-3.2383025	says
-2.9748464	price
-3.6724539	much
-3.567018	below
-4.427796	380
-4.578661	390
-2.6011171	an
-4.090686	ounce
-3.9571767	range
-4.1768475	430
-4.578661	hockin
-4.7043614	responding
-4.578661	questions
-3.6165442	house
-4.7043614	commons
-4.1768475	why
-3.3798132	credit
-3.9571767	card
-2.6845944	which
-3.3648655	high
-3.33643	28
-3.5910757	remain
-3.3798132	when
-3.6724539	falling
-4.7043614	braatz
-4.427796	block
-4.7043614	advertising
-3.6436	budget
-3.395294	same
-4.7043614	helped
-4.7043614	bit
-2.3921735	by
-3.3228815	lower
-3.395294	costs
-4.1768475	television
-4.578661	ads
-3.350415	terms
-3.5910757	contract
-2.8120387	were
-3.8119855	disclosed
-4.427796	kellogg
-3.0189066	total
-3.522566	cost
-3.8552043	plant
-3.522566	300
-3.123238	exports
-4.7043614	905
-3.0462482	against
-4.578661	929
-3.6165442	revised
-4.578661	971
-4.427796	816
-3.123238	earlier
-3.428016	imports
-3.2383025	fell
-4.7043614	858
-4.7043614	895
-4.427796	928
-4.7043614	888
-3.5442235	output
-3.4822445	off
-2.72643	8
-3.6436	bpd
-2.9240646	march
-3.114895	13
-3.6165442	petroleum
-4.018821	institute
-4.2844424	itc
-3.9032044	case
-3.411347	being
-4.2844424	presented
-4.578661	professor
-4.7043614	rosalyn
-4.7043614	higgins
-3.4634058	take
-3.272555	further
-2.859832	two
-3.8552043	days
-3.522566	another
-3.3097427	added
-4.578661	americans
-3.4822445	do
-3.9571767	get
-3.6724539	what
-3.9571767	want
-4.1768475	push
-4.578661	regardless
-3.8119855	g
-2.9748464	april
-4.427796	heating
-4.018821	91
-4.7043614	gallon
-3.9571767	pre
-4.7043614	corresponded
-3.567018	stocks
-3.8552043	sector
-4.427796	beginning
-3.567018	open
-4.7043614	secret
-2.9689016	japan
-3.6724539	largest
-4.578661	chip
-4.427796	maker
-4.7043614	nec
-4.578661	happy
-4.7043614	viewed
-4.7043614	draconian
-3.8552043	measures
-4.7043614	miti
-3.9032044	taking
-4.427796	implement
-3.7033622	pact
-3.73664	included
-4.7043614	enforced
-3.1404207	production
-3.6724539	cuts
-2.893235	february
-3.9032044	retail
-2.9294224	sales
-3.7726808	above
-3.4822445	ago
-3.5910757	level
-4.2844424	117
-3.2065547	department
-4.578661	austrian
-3.1964679	banks
-4.2844424	divided
-3.1964679	over
-2.9459047	rate
-4.018821	calls
-4.578661	grown
-3.5019374	recent
-2.7066195	bank
-4.7043614	chiefs
-3.395294	issue
-2.4880843	/
-3.350415	87
-3.73664	86
-3.9032044	04
-3.8119855	03
-4.427796	usage
-3.522566	--
-4.7043614	01
-3.6436	66
-3.8552043	76
-4.018821	96
-3.6724539	36
-3.7726808	49
-4.578661	avge
-4.018821	x
-3.9571767	56
-3.0323622	50
-4.7043614	weighted
-3.6724539	average
-3.1964679	five
-3.9032044	marketing
-4.578661	projection
-3.9032044	johnson
-3.350415	operating
-4.427796	licensing
-2.993185	agreement
-4.7043614	tate
-4.7043614	lyle
-4.2844424	whose
-4.7043614	collaborative
-4.090686	research
-4.7043614	scientists
-4.578661	queen
-4.7043614	elizabeth
-4.7043614	college
-3.411347	london
-3.73664	led
-4.578661	discovery
-4.7043614	sucralose
-4.7043614	1976
-4.427796	bombay
-3.567018	part
-3.9032044	offshore
-4.090686	field
-4.7043614	stabilised
-3.3097427	around
-3.272555	500
-3.6724539	barrels
-3.395294	years
-4.018821	sosnoff
-3.260835	made
-4.7043614	numerous
-3.9571767	efforts
-4.018821	express
-3.4453506	management
-4.578661	ways
-4.7043614	maximizing
-3.8552043	shareholder
-4.018821	values
-4.090686	caesars
-4.7043614	twicce
-4.578661	refused
-4.578661	request
-3.1492739	board
-4.427796	seat
-4.7043614	woodville
-3.7726808	makes
-3.73664	technology
-4.578661	precision
-4.427796	aerospace
-4.427796	automotive
-3.567018	industries
-3.3228815	24
-3.350415	stg
-3.9571767	dropped
-4.7043614	taka
-3.6724539	october
-3.9032044	unadjusted
-3.7033622	index
-4.090686	104
-3.395294	traders
-4.578661	growers
-2.7998679	new
-3.33643	because
-4.7043614	mechanism
-3.4822445	likely
-4.7043614	interefere
-3.8119855	free
-2.788029	market
-4.2844424	forces
-4.2844424	prevent
-3.7726808	sharp
-3.9032044	rubber
-3.9571767	rises
-3.3228815	dealers
-3.2494226	only
-4.427796	temporary
-3.8119855	support
-3.8119855	150
-3.3228815	yen
-4.090686	toward
-3.7726808	early
-2.9459047	group
-3.6436	industrial
-3.567018	nations
-4.578661	meets
-4.1768475	discuss
-3.7033622	currencies
-3.9571767	again
-4.578661	rainbow
-3.6165442	proposed
-3.428016	merger
-4.427796	progressive
-4.1768475	form
-2.6011171	company
-4.7043614	astral
-3.73664	pacific
-3.0323622	ltd
-3.9571767	>.
-3.9571767	limited
-4.427796	ability
-3.2065547	buy
-4.578661	sgl
-2.8418384	shares
-4.1768475	dart
-4.1768475	yield
-4.578661	harvested
-4.2844424	acre
-4.427796	219
-4.578661	cwt
-4.578661	218
-3.4634058	previously
-3.6724539	estimated
-4.578661	lost
-4.427796	658
-3.2168815	11
-3.350415	ended
-3.6165442	july
-4.7043614	committing
-4.7043614	himself
-3.8552043	action
-4.7043614	lawmakers
-4.7043614	examine
-4.7043614	findings
-4.427796	indicate
-4.090686	certificates
-3.0189066	more
-3.2383025	cash
-3.6165442	payments
-4.7043614	compares
-3.6436	forecast
-4.2844424	shortage
-3.4453506	system
-3.2065547	today
-4.7043614	showboat
-4.427796	opened
-4.578661	hotel
-3.5442235	third
-4.578661	gaming
-4.018821	began
-4.2844424	thursday
-4.1768475	regular
-3.9032044	basis
-4.2844424	test
-3.6724539	completed
-3.067947	no
-3.567018	comment
-3.1866097	official
-4.1768475	press
-3.3798132	reported
-3.6436	farmers
-4.427796	fear
-3.6165442	farm
-3.2383025	policy
-4.7043614	putting
-3.03925	their
-4.7043614	wealth
-3.22746	into
-3.9571767	building
-4.7043614	graves
-4.7043614	memorial
-4.7043614	halls
-4.7043614	ancestors
-4.7043614	homes
-3.350415	point
-3.7033622	drop
-4.090686	instead
-4.2844424	usual
-4.578661	avoid
-4.7043614	hurting
-4.7043614	sebaana
-4.7043614	kizito
-4.7043614	squeeze
-4.2844424	resolved
-3.6724539	weeks
-4.090686	sterling
-3.6724539	futures
-3.4822445	make
-4.578661	highs
-2.951541	up
-4.7043614	6300
-4.7043614	6500
-3.8552043	positive
-4.7043614	atmosphere
-4.7043614	prevail
-3.33643	before
-3.6724539	british
-4.7043614	elections
-4.090686	possibly
-4.7043614	horner
-4.7043614	principles
-4.018821	draft
-3.4634058	proposal
-4.578661	establishing
-3.0189066	offer
-4.2844424	rather
-3.9032044	posted
-4.090686	limit
-3.8119855	amount
-3.411347	non
-3.7726808	member
-3.260835	can
-3.6436	bought
-4.018821	differentials
-3.8119855	paid
-4.2844424	different
-4.7043614	varieties
-4.427796	comprising
-4.1768475	delegates
-4.1768475	ruling
-3.8552043	key
-4.427796	condition
-4.7043614	completing
-3.9032044	deal
-3.7726808	agency
-4.7043614	rent
-4.090686	car
-2.6192093	inc
-4.7043614	agnc
-3.7033622	jan
-3.6165442	21
-4.7043614	553
-4.7043614	307
-3.33643	45
-4.090686	67
-3.350415	18
-4.578661	161
-4.090686	118
-3.567018	adjusted
-4.1768475	dividends
-4.2844424	tuesday
-3.3228815	federal
-3.9571767	statistics
-3.9571767	office
-3.272555	national
-4.578661	stagnated
-3.567018	real
-3.8552043	seasonally
-3.9571767	calendar
-3.73664	fourth
-4.7043614	understands
-3.5910757	already
-3.6724539	asked
-4.578661	institutional
-3.7726808	investors
-3.6724539	reduce
-3.8552043	head
-3.2969897	should
-4.018821	rice
-3.6165442	producer
-3.6724539	reduced
-4.7043614	tetsuo
-4.7043614	kondo
-4.018821	director
-3.4453506	general
-3.1675408	economic
-4.2844424	planning
-2.7401576	(
-4.578661	epa
-3.395294	),
-3.73664	reporters
-4.7043614	incudes
-3.9032044	right
-4.7043614	gm
-3.395294	canadian
-4.7043614	transit
-4.7043614	bus
-4.1768475	parts
-4.578661	contingent
-4.7043614	satisfactory
-4.427796	labor
-4.7043614	cri
-3.8119855	yet
-3.9032044	declared
-3.8552043	distribution
-4.578661	park
-4.7043614	meadows
-3.6724539	loan
-4.7043614	disposition
-4.578661	babcock
-4.578661	progress
-3.8119855	plc
-4.7043614	babk
-3.7033622	l
-3.2969897	statement
-4.7043614	accompanying
-3.5910757	final
-4.427796	showing
-3.9032044	pretax
-3.6724539	profits
-3.9571767	overall
-4.7043614	lister
-4.2844424	manufacturer
-4.7043614	dyer
-4.7043614	finisher
-4.1768475	cotton
-4.7043614	silk
-4.7043614	wool
-4.427796	man
-4.7043614	fibres
-4.090686	morocco
-4.578661	tenders
-4.1768475	pl
-4.2844424	480
-3.3097427	wheat
-3.350415	tender
-4.2844424	120
-4.427796	210
-2.7332397	tonnes
-4.7043614	cheapest
-4.578661	variety
-4.090686	preferred
-3.8119855	shipments
-3.5442235	private
-3.060593	export
-4.578661	permanent
-4.090686	health
-3.9571767	insurance
-4.427796	leader
-3.1583114	unit
-3.9032044	trust
-3.4822445	second
-3.3228815	k
-4.7043614	eagle
-4.578661	star
-4.427796	premiums
-3.123238	rose
-3.6724539	32
-4.578661	anything
-3.5910757	possible
-4.1768475	phase
-3.7033622	even
-4.7043614	adjournment
-3.22746	meeting
-3.6724539	until
-4.578661	altus
-4.7043614	alts
-4.578661	fails
-3.9571767	reach
-4.2844424	able
-4.090686	definitive
-4.578661	horizon
-3.2846007	financial
-4.578661	funding
-4.2844424	servicing
-4.578661	victor
-3.6724539	savings
-3.5910757	association
-4.578661	intermagnetics
-4.7043614	inma
-4.090686	completes
-3.567018	purchase
-4.578661	advanced
-3.8119855	air
-4.427796	chemicals
-4.7043614	apd
-4.7043614	geodome
-3.9571767	ore
-4.7043614	zone
-4.7043614	discovered
-4.427796	summer
-4.7043614	calculations
-4.7043614	metropolitan
-3.411347	acquire
-4.018821	option
-3.3228815	all
-4.578661	metex
-3.522566	owned
-4.1768475	william
-4.7043614	hack
-4.1768475	together
-4.7043614	wife
-3.9571767	holds
-3.9571767	750
-3.22746	common
-4.7043614	citybank
-4.427796	moving
-4.578661	rapidly
-3.5910757	move
-3.6436	us
-4.427796	fifth
-4.578661	wells
-4.7043614	fargo
-4.7043614	varying
-3.6724539	reports
-4.7043614	dresdner
-3.3097427	shareholders
-3.6436	offered
-4.2844424	every
-2.9689016	15
-3.395294	held
-4.1768475	bahrain
-3.3648655	based
-3.3798132	gulf
-4.7043614	bsc
-3.567018	increased
-4.427796	presence
-3.8119855	saudi
-4.7043614	busy
-4.7043614	upgrading
-4.018821	representative
-4.1768475	offices
-4.427796	branch
-4.427796	status
-3.8119855	allow
-4.578661	dealing
-4.427796	saturday
-3.9571767	cattle
-4.427796	slaughter
-4.7043614	guesstimated
-3.522566	usda
-3.8552043	350
-3.272555	corn
-4.1768475	unknown
-3.4453506	agriculture
-4.018821	exporters
-3.9032044	delivery
-4.427796	destinations
-4.090686	season
-3.8119855	italy
-4.7043614	attend
-3.7033622	paris
-4.2844424	grounds
-4.7043614	grouping
-3.3097427	united
-3.33643	states
-3.2969897	west
-3.4822445	germany
-3.6165442	france
-4.018821	britain
-4.2844424	role
-4.7043614	stamping
-3.7033622	agreements
-3.9571767	taken
-4.427796	purpose
-3.8552043	consider
-3.5910757	transaction
-4.427796	explained
-3.4634058	each
-3.73664	study
-4.578661	found
-3.8552043	little
-4.2844424	evidence
-4.427796	factor
-3.2846007	any
-3.5442235	impact
-2.7841532	trade
-3.2969897	deficit
-3.9571767	african
-3.9032044	sharply
-4.018821	africa
-3.6165442	gold
-3.22746	assets
-3.7033622	rising
-3.8552043	almost
-4.018821	governor
-4.7043614	gerhard
-4.018821	de
-4.7043614	kock
-4.1768475	colombia
-3.33643	coffee
-4.427796	registrations
-3.1583114	there
-3.350415	plans
-3.8119855	close
-3.7033622	them
-4.2844424	means
-4.578661	unlimited
-4.2844424	registered
-4.7043614	gilberto
-4.427796	arango
-3.428016	president
-3.9032044	city
-3.9032044	seeking
-4.2844424	improving
-4.7043614	realizing
-4.578661	inherent
-4.1768475	subsidiaries
-3.567018	future
-4.427796	discussions
-4.7043614	topics
-4.427796	commitment
-4.7043614	privatization
-3.567018	trading
-4.578661	entities
-3.6165442	public
-4.578661	disclosure
-3.9032044	involved
-4.7043614	recognition
-4.578661	reductions
-4.1768475	kept
-3.1964679	world
-2.9083762	prices
-4.578661	otherwise
-4.578661	organizations
-3.7033622	australian
-4.018821	proposals
-4.578661	welcome
-4.7043614	assessments
-3.060593	we
-3.7033622	august
-4.018821	produce
-3.5442235	our
-3.7033622	own
-3.8552043	quota
-3.5019374	sell
-3.8119855	additional
-4.1768475	amounts
-4.018821	ecuador
-4.7043614	repaying
-3.4453506	yesterday
-4.1768475	rebate
-4.2844424	ever
-4.2844424	granted
-2.8834262	)
-4.578661	aid
-4.1768475	package
-3.9571767	called
-3.9032044	exploration
-3.522566	development
-4.578661	incentive
-3.3228815	program
-4.578661	restrict
-4.578661	individual
-4.578661	claim
-4.018821	.-
-4.018821	ussr
-4.2844424	grains
-4.427796	amounted
-4.427796	152
-3.8119855	600
-4.578661	808
-3.22746	100
-4.578661	518
-3.9032044	soybeans
-3.9571767	met
-4.7043614	coil
-3.6436	systems
-4.7043614	mets
-3.7033622	feb
-4.427796	206
-3.6165442	38
-4.2844424	228
-4.7043614	649
-3.73664	qtly
-3.567018	div
-3.4822445	prior
-3.3798132	pay
-3.522566	monetary
-3.6436	declined
-3.8119855	57
-4.578661	146
-3.2969897	report
-4.018821	charge
-4.2844424	bad
-4.427796	doubtful
-4.578661	debts
-4.578661	187
-4.2844424	162
-3.8119855	recently
-4.427796	pumping
-4.1768475	260
-4.090686	sept
-4.578661	nov
-4.578661	mississippi
-4.1768475	river
-4.7043614	memphis
-4.7043614	cairo
-4.1768475	137
-3.5019374	bid
-3.9032044	145
-4.578661	section
-4.018821	125
-4.578661	135
-4.2844424	comparison
-3.5910757	western
-3.73664	taiwan
-4.018821	holding
-3.5442235	talks
-4.1768475	clear
-3.9571767	how
-3.7033622	far
-3.8552043	washington
-3.8552043	wants
-4.7043614	albany
-4.7043614	aaica
-3.6436	27
-4.7043614	584
-4.7043614	276
-4.1768475	97
-3.9571767	84
-3.9032044	39
-4.7043614	848
-4.427796	290
-4.7043614	241
-3.1583114	25
-4.2844424	rains
-4.7043614	replenished
-4.578661	formerly
-3.5442235	low
-4.7043614	soil
-4.1768475	moisture
-3.7033622	areas
-4.2844424	rated
-3.6436	good
-4.7043614	ic
-3.7033622	use
-3.8119855	proceeds
-4.2844424	asset
-3.2168815	sale
-4.2844424	invest
-3.5910757	goods
-3.7726808	services
-4.018821	feed
-3.5910757	400
-4.2844424	460
-3.6436	85
-4.7043614	ttl
-4.7043614	domes
-4.578661	485
-4.578661	543
-4.1768475	487
-4.427796	545
-4.7043614	stcks
-4.090686	111
-4.578661	184
-4.7043614	avgprice
-3.6165442	00
-3.4822445	23
-4.2844424	bushel
-4.7043614	cooperative
-4.1768475	enterprises
-4.7043614	employing
-3.6436	people
-4.090686	marathon
-4.1768475	78
-4.578661	725
-4.578661	451
-3.8119855	98
-3.8119855	deposits
-4.018821	90
-4.427796	warships
-4.7043614	protected
-4.427796	kuwaiti
-3.7726808	ship
-4.578661	sailed
-4.578661	arms
-4.090686	kuwait
-4.7043614	neyra
-4.018821	peru
-3.3798132	term
-3.4453506	including
-3.9032044	lines
-4.578661	million
-3.8119855	dollars
-3.567018	so
-4.090686	working
-3.22746	capital
-3.73664	credits
-4.578661	adsteam
-3.8552043	rights
-3.5910757	raise
-4.7043614	adelaide
-4.7043614	steamship
-4.7043614	adsa
-3.2065547	investment
-3.6436	australia
-4.1768475	overseas
-4.2844424	201
-4.018821	mine
-4.018821	life
-4.1768475	171
-4.2844424	covered
-4.090686	dairy
-4.7043614	peanuts
-3.33643	sugar
-3.6436	energy
-4.1768475	increases
-3.6724539	units
-3.5442235	outstanding
-3.8119855	raises
-4.7043614	proved
-4.427796	seoul
-4.7043614	announces
-4.1768475	tariff
-3.8552043	korea
-3.6724539	import
-4.1768475	taxes
-4.2844424	items
-4.018821	construction
-3.5910757	equipment
-4.7043614	photographic
-4.7043614	film
-4.7043614	cigarettes
-4.578661	pipe
-4.578661	tobacco
-3.7726808	help
-3.3798132	surplus
-3.5442235	finance
-4.427796	running
-4.7043614	wind
-4.427796	affairs
-4.7043614	proceeding
-4.427796	quickly
-3.3097427	acquisition
-4.2844424	substantially
-4.578661	lessen
-3.9571767	competition
-4.2844424	harm
-4.7043614	niskanen
-4.578661	vulnerable
-4.578661	resurgence
-4.7043614	nationalism
-3.22746	canada
-3.5910757	very
-3.7726808	heavy
-4.7043614	workload
-3.3097427	due
-3.5442235	number
-4.1768475	applications
-4.2844424	programs
-3.9571767	conservation
-4.578661	hertz
-4.578661	welbilt
-4.7043614	welb
-4.1768475	acquisitions
-3.4822445	announced
-3.8552043	manufacturing
-3.9032044	food
-4.090686	machinery
-4.090686	engineering
-4.2844424	manufacturers
-4.7043614	automated
-4.7043614	bakery
-4.7043614	headquartered
-4.1768475	toronto
-4.578661	trades
-3.9032044	post
-4.2844424	war
-4.427796	139
-3.7726808	tokyo
-4.1768475	brokers
-4.578661	linotype
-4.7043614	eschborn
-3.522566	200
-4.7043614	joined
-4.018821	later
-4.2844424	debate
-4.578661	coordination
-4.018821	standard
-3.9571767	poor
-4.7043614	weaker
-4.427796	competitiveness
-4.018821	face
-4.090686	labour
-4.2844424	mean
-4.7043614	deteriorating
-3.4822445	account
-3.8119855	balance
-4.578661	external
-4.2844424	experts
-4.7043614	refloat
-4.427796	bodies
-4.7043614	trapped
-4.7043614	amid
-4.7043614	debris
-4.427796	operators
-4.2844424	find
-4.427796	hard
-4.2844424	either
-3.7726808	way
-4.7043614	concerted
-3.411347	central
-3.6165442	intervention
-3.6165442	details
-3.4822445	crop
-4.7043614	enrollment
-4.2844424	enrolled
-3.9571767	acres
-3.8119855	latest
-4.7043614	signup
-3.3228815	four
-4.427796	specialists
-4.578661	deputy
-3.7033622	prime
-3.5019374	minister
-4.7043614	kim
-4.7043614	mahn
-4.7043614	je
-3.9571767	local
-4.427796	businessmen
-4.1768475	question
-4.7043614	revaluing
-4.018821	won
-4.018821	maintain
-4.7043614	steadfast
-3.8119855	position
-4.7043614	newscope
-3.8552043	94
-4.7043614	319
-4.578661	337
-4.578661	702
-4.7043614	016
-4.7043614	899
-4.7043614	513
-4.427796	239
-4.2844424	106
-3.4822445	includes
-3.7726808	250
-4.2844424	writedown
-4.7043614	doubly
-4.7043614	susceptible
-4.578661	encouraged
-4.578661	fertilisers
-4.7043614	insecticides
-4.7043614	treat
-4.578661	pod
-4.7043614	rot
-3.8552043	better
-4.1768475	sectors
-4.090686	offset
-3.7033622	financing
-4.7043614	sperry
-4.578661	sharing
-3.5019374	subsidiary
-4.427796	honeywell
-4.7043614	bull
-4.1768475	light
-3.6724539	iran
-4.7043614	deployment
-4.090686	chinese
-4.578661	built
-4.2844424	missiles
-4.090686	cover
-4.7043614	entrance
-4.427796	thai
-4.2844424	tin
-4.018821	thailand
-4.090686	exported
-3.9571767	metal
-4.2844424	330
-4.1768475	mineral
-4.090686	restructuring
-4.427796	consolidation
-3.522566	brazil
-3.9032044	weather
-4.7043614	summary
-4.7043614	noaa
-4.427796	wet
-4.578661	rio
-4.7043614	grande
-4.7043614	sul
-4.578661	benefitting
-4.2844424	mostly
-4.2844424	setting
-4.7043614	filling
-4.7043614	pods
-3.8552043	joint
-3.9571767	agricultural
-4.018821	facility
-3.7726808	commerce
-4.7043614	departments
-3.9032044	usair
-4.090686	closed
-3.9571767	volume
-4.090686	z
-3.428016	fund
-4.2844424	earn
-4.578661	comprised
-3.8552043	41
-3.3648655	crude
-4.578661	sunflowerseed
-4.090686	bulk
-4.427796	ranging
-4.578661	344
-4.578661	348
-4.2844424	refined
-4.7043614	drums
-4.7043614	517
-4.7043614	522
-3.522566	tonne
-4.090686	freight
-4.7043614	alexandria
-4.7043614	delivered
-4.2844424	quality
-3.7726808	base
-4.090686	1980
-4.1768475	stood
-4.578661	116
-3.8119855	november
-3.4453506	firm
-4.427796	tvx
-4.7043614	tvxg
-3.2383025	stake
-4.7043614	wedge
-4.090686	houston
-3.5910757	raised
-4.578661	broadcast
-4.578661	682
-4.7043614	419
-4.427796	559
-4.2844424	crazy
-4.2844424	eddie
-3.2969897	agreed
-4.578661	oppose
-4.7043614	slate
-4.578661	candidates
-3.7033622	committee
-4.7043614	restore
-4.7043614	stockholder
-3.8552043	value
-4.7043614	oppenheimer
-4.7043614	palmieri
-3.9032044	p
-4.427796	.>
-4.1768475	entertainment
-4.7043614	em
-3.2168815	>,
-4.7043614	oust
-4.578661	brennan
-3.8119855	payment
-4.7043614	moratorium
-4.427796	campbell
-4.018821	taft
-4.578661	narragansett
-4.7043614	requsted
-3.7033622	response
-4.2844424	creditors
-4.1768475	brought
-4.427796	actions
-3.73664	council
-4.2844424	application
-4.1768475	governments
-4.578661	strike
-3.33643	out
-4.090686	j
-4.2844424	h
-4.7043614	writeoff
-3.9571767	resulted
-3.6436	43
-3.8552043	shearson
-4.090686	lehman
-3.8552043	growing
-4.090686	described
-3.3648655	analysts
-3.8552043	top
-4.1768475	brokerage
-3.7726808	give
-4.578661	nippon
-4.7043614	ringside
-4.7043614	commissions
-4.018821	wall
-3.9571767	street
-3.9032044	where
-4.7043614	invests
-3.8552043	increasing
-4.7043614	topic
-4.090686	continued
-4.427796	slide
-4.578661	lebanese
-4.1768475	pound
-4.7043614	undermining
-3.7033622	effective
-4.427796	danish
-4.578661	downgrading
-4.2844424	dramatic
-4.7043614	palle
-4.7043614	simonsen
-4.2844424	denmark
-4.7043614	rating
-4.7043614	dramatised
-4.2844424	cited
-4.7043614	recheduling
-3.73664	improved
-4.7043614	perceptions
-3.4822445	economy
-4.427796	congressional
-4.7043614	panels
-4.7043614	portions
-4.7043614	wideranging
-3.5019374	bill
-4.578661	intends
-3.2383025	companies
-4.578661	fight
-4.2844424	unfair
-4.2844424	practices
-4.018821	owns
-4.578661	cvn
-3.8552043	name
-3.5442235	decision
-4.578661	ordnance
-4.578661	defence
-3.5910757	secretary
-4.427796	george
-4.7043614	younger
-4.578661	announce
-3.4453506	state
-4.7043614	parliamentary
-4.018821	venture
-4.427796	merchant
-3.6165442	china
-4.7043614	ibjt
-3.6165442	t
-4.578661	town
-4.7043614	jewelry
-4.7043614	wasn
-3.8552043	wednesday
-4.578661	turned
-4.7043614	avalanche
-4.7043614	expatriate
-4.427796	workforce
-4.090686	fallen
-4.578661	citgo
-3.9571767	postings
-4.1768475	wti
-3.8119855	bbl
-4.578661	ors
-4.1768475	seeks
-3.6436	funds
-4.2844424	dominion
-3.4634058	securities
-4.7043614	alberta
-4.7043614	appointed
-4.7043614	canadaina
-4.578661	organized
-4.7043614	exploit
-4.1768475	opportunities
-3.9571767	europe
-3.9571767	estimates
-3.9032044	put
-3.411347	european
-4.090686	1990
-3.9032044	ecus
-4.7043614	kistler
-3.5910757	result
-4.7043614	fhl
-3.6165442	sets
-4.018821	offering
-3.8119855	home
-3.3648655	set
-3.6724539	70
-4.7043614	065
-3.7726808	65
-4.427796	375
-4.578661	lipc
-3.9032044	beef
-4.578661	livestock
-4.578661	promotion
-4.2844424	515
-3.5910757	fiscal
-4.018821	started
-4.7043614	simultaneous
-4.7043614	813
-4.427796	smaller
-4.427796	seasonal
-4.427796	decrease
-4.090686	particularly
-4.090686	cold
-4.7043614	delaying
-4.018821	work
-4.578661	morgan
-4.578661	stanley
-4.578661	salomon
-4.2844424	brothers
-4.7043614	hired
-4.7043614	1983
-4.7043614	advise
-4.090686	southern
-4.578661	santa
-4.7043614	fe
-4.7043614	appraised
-3.73664	worth
-3.73664	800
-4.2844424	internal
-4.7043614	valuations
-4.7043614	acmex
-4.578661	presently
-4.1768475	entitled
-4.7043614	cheetham
-3.9032044	issued
-3.5910757	discount
-4.7043614	mcgroarty
-4.7043614	impressive
-4.7043614	".
-3.5442235	french
-4.090686	repayment
-3.4634058	19
-3.8119855	following
-4.7043614	contracted
-4.2844424	cooperation
-4.1768475	weekly
-3.5910757	data
-4.578661	massive
-4.7043614	docks
-4.2844424	handle
-3.7033622	ships
-4.578661	tankers
-4.427796	load
-4.7043614	unload
-4.427796	harbour
-4.1768475	addition
-4.7043614	streamlining
-4.7043614	efficiency
-3.9571767	division
-4.7043614	exert
-4.7043614	branching
-3.9571767	estate
-4.427796	travel
-4.578661	agencies
-4.2844424	philippines
-4.578661	540
-4.427796	coconut
-4.578661	959
-4.7043614	physio
-4.578661	changing
-3.8119855	force
-4.090686	independent
-4.090686	representatives
-4.018821	employees
-4.2844424	significantly
-3.6724539	fixed
-4.578661	overhead
-3.9032044	enable
-4.7043614	accelerate
-3.272555	earnings
-3.8552043	ending
-4.090686	twa
-3.4634058	however
-4.7043614	discussing
-3.8552043	among
-4.578661	piedmont
-4.7043614	suna
-4.7043614	monitored
-4.2844424	broadcasting
-3.9032044	corporation
-4.7043614	omer
-4.090686	remarks
-4.7043614	khartoum
-4.578661	imf
-4.7043614	envoy
-4.7043614	abdel
-4.7043614	shakour
-4.7043614	shaalan
-4.2844424	suspended
-4.7043614	owed
-4.7043614	credibility
-3.4822445	opec
-4.018821	come
-4.578661	fresh
-4.578661	scrutiny
-3.8552043	monday
-4.018821	activity
-3.2969897	markets
-3.4453506	through
-4.1768475	clark
-4.7043614	copy
-3.9571767	majority
-4.7043614	interactive
-3.6436	computer
-4.7043614	aids
-4.578661	norway
-3.33643	i
-4.090686	dome
-4.7043614	bothersome
-4.2844424	reflects
-3.428016	split
-4.427796	sports
-4.578661	edward
-3.9571767	c
-4.7043614	horowitz
-4.427796	mike
-4.7043614	warren
-4.7043614	typical
-4.7043614	salaried
-4.7043614	employee
-4.2844424	reflecting
-4.578661	pointing
-4.427796	buoyant
-4.018821	released
-4.090686	lawson
-4.090686	done
-4.2844424	resist
-4.427796	pressures
-3.522566	income
-4.578661	expense
-4.427796	borrowing
-4.427796	listed
-4.7043614	zurich
-4.7043614	basle
-4.427796	geneva
-4.2844424	exchanges
-4.7043614	amsterdam
-4.7043614	aims
-3.7726808	quoted
-4.2844424	frankfurt
-4.7043614	dusseldorf
-4.427796	van
-4.7043614	driel
-4.7043614	idled
-3.5019374	92
-4.1768475	acreage
-4.7043614	prompting
-4.090686	idle
-4.578661	cropland
-3.7033622	according
-4.578661	dynalectron
-4.7043614	dyn
-3.9571767	buys
-4.7043614	aviation
-3.8119855	purchased
-3.5910757	certain
-4.7043614	aero
-4.7043614	leasehold
-4.427796	aircraft
-4.7043614	modification
-4.2844424	maintenance
-4.7043614	phoenix
-4.578661	ariz
-3.395294	grain
-4.2844424	loading
-4.427796	portland
-4.7043614	waiting
-4.427796	merchants
-4.1768475	provisions
-4.1768475	risk
-4.427796	borrowers
-4.090686	provision
-4.7043614	pension
-4.2844424	obligations
-4.018821	attack
-4.7043614	dilemmas
-4.2844424	military
-3.4453506	say
-4.578661	faces
-4.7043614	dilemma
-4.7043614	destruction
-3.7033622	iranian
-4.427796	platform
-3.9032044	retaliation
-4.7043614	flagged
-4.578661	tanker
-4.427796	roughly
-4.1768475	equal
-4.090686	originally
-4.7043614	invested
-4.7043614	coasts
-3.6165442	late
-4.2844424	though
-4.427796	retain
-4.090686	...
-4.7043614	expediency
-4.7043614	sinclair
-4.578661	mize
-4.578661	dna
-4.578661	become
-3.395294	chairman
-4.427796	expand
-4.018821	provide
-4.2844424	him
-4.427796	representation
-4.578661	upper
-4.7043614	strikers
-4.7043614	returned
-4.090686	night
-3.73664	port
-4.2844424	authorities
-3.9571767	workers
-3.8119855	without
-4.018821	giving
-4.7043614	wim
-4.7043614	duisenberg
-4.7043614	defended
-3.8552043	saying
-3.4453506	most
-4.2844424	noting
-4.427796	moment
-4.090686	important
-4.090686	equivalent
-4.090686	06
-3.9571767	provisional
-3.6165442	show
-4.578661	jack
-4.090686	winter
-4.7043614	jwi
-4.7043614	410
-4.578661	245
-4.7043614	748
-4.578661	571
-3.73664	46
-4.578661	reacting
-4.7043614	irish
-4.1768475	continues
-4.7043614	brewery
-4.2844424	side
-4.578661	guinness
-4.7043614	galactic
-4.7043614	galcf
-3.6436	given
-4.7043614	rivet
-4.578661	machine
-4.7043614	cvr
-3.395294	60
-4.578661	156
-4.7043614	576
-4.7043614	443
-4.7043614	404
-4.578661	309
-4.7043614	519
-4.578661	381
-4.578661	264
-4.7043614	788
-4.7043614	220
-4.578661	151
-4.427796	big
-4.7043614	taikoo
-4.7043614	shing
-4.578661	iggi
-4.1768475	groups
-4.578661	industrialised
-4.578661	donor
-3.3097427	countries
-3.8552043	gave
-3.6165442	indonesia
-4.1768475	soft
-4.578661	grants
-3.7726808	changes
-3.9571767	lead
-4.7043614	pickup
-4.578661	pik
-4.578661	roll
-4.578661	klopfenstein
-4.427796	likelihood
-4.7043614	provisiion
-3.8552043	cause
-4.7043614	acreages
-4.7043614	removed
-4.578661	quite
-3.8552043	small
-4.7043614	conditional
-4.427796	upon
-4.7043614	examination
-4.7043614	gordon
-4.7043614	pagecorp
-4.1768475	revenue
-4.7043614	bilateral
-3.9571767	negotiations
-3.7726808	must
-4.7043614	concluded
-3.8119855	least
-4.7043614	progressing
-4.090686	yeutter
-4.578661	difficulties
-4.427796	clayton
-4.7043614	unsure
-3.6436	whether
-4.7043614	straining
-4.2844424	relations
-4.427796	really
-3.5019374	strong
-4.7043614	rationale
-3.7726808	need
-4.018821	gatt
-4.1768475	round
-4.2844424	nation
-4.7043614	verification
-4.7043614	papua
-4.578661	guinea
-4.427796	combined
-4.2844424	barley
-4.2844424	02
-3.411347	period
-4.7043614	welch
-4.578661	doesn
-4.427796	exposure
-4.018821	defense
-3.73664	analyst
-4.578661	heard
-4.427796	rumors
-4.7043614	doubted
-4.7043614	accuracy
-4.7043614	marcom
-4.1768475	telecommunications
-4.578661	kay
-4.7043614	pursuing
-4.427796	placement
-4.2844424	corporate
-4.7043614	purposes
-3.5442235	treasury
-3.5442235	baker
-3.73664	within
-4.7043614	ranges
-4.090686	reflect
-4.578661	fundamentals
-4.1768475	wanted
-4.427796	lending
-4.427796	appropriate
-4.7043614	ultimately
-4.7043614	fnb
-3.3798132	1st
-4.1768475	wholly
-4.7043614	decide
-4.578661	follow
-4.7043614	throw
-4.7043614	dunn
-4.090686	ease
-4.2844424	easier
-4.427796	begun
-4.7043614	quick
-4.2844424	dealer
-4.578661	intervened
-4.427796	opening
-3.6436	here
-4.7043614	confirm
-4.7043614	telexed
-4.7043614	insisted
-4.7043614	cancel
-4.7043614	elsewhere
-4.7043614	santana
-4.1768475	times
-4.7043614	exploiting
-4.427796	profitable
-4.1768475	best
-4.7043614	partner
-4.2844424	jobless
-4.578661	699
-4.7043614	671
-4.7043614	rainier
-3.8552043	merge
-4.2844424	security
-4.7043614	spc
-4.1768475	lowered
-3.6165442	special
-4.427796	advances
-3.73664	repurchase
-4.7043614	cathay
-4.7043614	airways
-4.7043614	caph
-4.578661	hk
-4.578661	toledo
-4.7043614	elevators
-4.7043614	finishing
-4.578661	boats
-3.8119855	shipping
-4.7043614	supporting
-4.090686	spot
-4.1768475	terminal
-4.1768475	points
-3.5019374	long
-4.578661	secondary
-4.1768475	debentures
-3.8552043	bankers
-4.7043614	kubota
-4.7043614	kub
-3.6724539	58
-4.7043614	248
-4.7043614	789
-4.7043614	127
-4.1768475	130
-4.1768475	134
-4.090686	119
-4.7043614	446
-4.018821	extended
-3.8552043	tomorrow
-4.7043614	breakthrough
-4.090686	session
-4.2844424	genova
-4.7043614	gnva
-3.7033622	approved
-4.7043614	consumated
-3.9571767	few
-4.7043614	bradford
-4.7043614	recommending
-4.2844424	usx
-4.7043614	gabelli
-4.2844424	filing
-3.522566	commission
-4.7043614	digiorgio
-4.7043614	gamco
-4.018821	seek
-3.8552043	control
-4.7043614	stone
-4.018821	available
-3.6165442	just
-3.8552043	enough
-4.427796	prompt
-4.7043614	pig
-3.9571767	170
-4.2844424	versus
-4.7043614	poultry
-4.578661	287
-4.1768475	256
-4.1768475	rejects
-4.1768475	buyout
-4.578661	theta
-4.7043614	faygo
-4.2844424	excess
-4.578661	beverage
-4.7043614	federated
-4.2844424	ask
-4.090686	approve
-4.090686	authorized
-4.578661	shoe
-4.578661	irna
-3.7033622	received
-4.7043614	nicosia
-4.427796	informed
-4.018821	source
-4.578661	identified
-4.427796	platforms
-4.7043614	resalat
-4.7043614	reshadat
-4.1768475	miles
-4.7043614	lavan
-4.090686	island
-4.018821	storage
-4.427796	site
-4.7043614	infinitesimal
-4.7043614	magnitude
-4.7043614	collander
-4.7043614	touche
-4.578661	ross
-4.7043614	cti
-4.7043614	rabbit
-4.7043614	intermedics
-4.7043614	itm
-3.3097427	oper
-4.578661	877
-4.578661	838
-3.9571767	44
-3.6436	excludes
-4.2844424	carryforward
-4.578661	694
-4.578661	ends
-3.7033622	firms
-4.427796	becoming
-4.578661	aggressive
-4.578661	sort
-4.7043614	sum
-4.578661	unilever
-4.427796	hoped
-4.427796	realise
-4.1768475	operation
-4.578661	beyond
-4.7043614	chesebrough
-4.7043614	stauffer
-4.2844424	chemical
-4.578661	operates
-4.1768475	outside
-4.427796	core
-3.9571767	totalled
-3.8119855	eight
-4.7043614	metric
-4.578661	cra
-4.090686	cents
-4.7043614	craa
-3.6724539	making
-4.7043614	forthe
-4.578661	donald
-4.2844424	prepared
-3.522566	york
-4.578661	household
-4.7043614	excellent
-3.8552043	equity
-4.2844424	santos
-4.7043614	alvite
-3.8552043	cargo
-4.427796	leave
-4.7043614	maracaibo
-4.090686	weekend
-4.7043614	refineries
-4.7043614	guayaquil
-4.427796	approach
-3.9571767	needed
-4.7043614	revival
-4.427796	postponed
-4.7043614	explosive
-4.7043614	fabricators
-4.578661	724
-4.578661	329
-4.7043614	556
-4.578661	504
-3.6165442	commercial
-4.090686	paper
-4.427796	falls
-4.2844424	shift
-4.2844424	strategy
-4.018821	designed
-4.7043614	appease
-4.578661	mounting
-4.018821	policies
-4.2844424	comes
-4.7043614	reconvene
-3.9571767	review
-4.2844424	stabilize
-4.7043614	stiff
-4.427796	rally
-4.018821	bring
-4.1768475	bonds
-4.7043614	quinn
-3.5910757	economists
-3.6724539	gains
-4.090686	outlook
-4.427796	ems
-4.7043614	transferred
-4.7043614	autonomous
-4.7043614	geodynamics
-4.7043614	gdyn
-4.7043614	596
-4.427796	594
-4.578661	693
-4.578661	164
-3.9032044	61
-4.578661	784
-4.7043614	653
-4.578661	strength
-4.2844424	allowed
-4.578661	asian
-4.7043614	neighbours
-4.427796	traditional
-4.578661	frozen
-4.578661	completion
-3.6436	subject
-4.578661	regulatory
-4.7043614	approvals
-4.090686	refinery
-3.8119855	capacity
-4.7043614	overhaul
-4.578661	interstate
-4.578661	skewed
-3.6165442	soviet
-3.522566	union
-4.578661	difference
-4.2844424	premium
-4.578661	interior
-3.6436	levels
-4.7043614	872
-4.1768475	came
-4.7043614	completions
-4.7043614	765
-4.578661	accounts
-4.7043614	ethiopian
-3.6724539	despite
-4.578661	rules
-4.578661	forthcoming
-4.578661	believes
-4.427796	stabilise
-4.578661	pentron
-4.7043614	pen
-4.578661	ice
-4.578661	creations
-4.7043614	rotational
-4.7043614	molding
-4.2844424	privately
-4.1768475	undisclosed
-4.578661	considerations
-4.2844424	cargoes
-4.427796	often
-4.7043614	resold
-4.7043614	shipowners
-4.427796	know
-3.9032044	start
-4.7043614	voyage
-3.9571767	al
-4.7043614	rai
-4.7043614	aam
-3.9571767	newspaper
-4.427796	ceiling
-4.578661	consumers
-4.7043614	drawing
-4.7043614	cuba
-4.7043614	cuban
-4.578661	suggest
-4.7043614	ericsson
-4.7043614	ericy
-3.9571767	rest
-4.2844424	spanish
-4.578661	banker
-4.427796	speculated
-4.7043614	bolivia
-3.6724539	might
-3.9032044	back
-4.427796	written
-4.7043614	mim
-4.090686	copper
-4.578661	mount
-4.7043614	isa
-4.1768475	mines
-3.6436	primary
-4.7043614	norddeutsche
-4.7043614	affinerie
-3.9571767	ag
-4.7043614	metallgesellschaft
-4.7043614	sparks
-3.8119855	does
-3.8552043	pressure
-4.578661	bearish
-4.578661	positions
-3.8119855	daily
-4.7043614	peasant
-4.7043614	ortheast
-4.1768475	province
-4.7043614	heilongjiang
-4.1768475	108
-4.578661	yuan
-4.427796	mu
-4.7043614	0667
-4.1768475	hectares
-4.427796	112
-4.7043614	sugarbeet
-4.7043614	columbia
-4.7043614	ferc
-4.7043614	rleated
-4.1768475	liabilities
-4.2844424	laws
-4.7043614	gone
-4.427796	confidence
-4.578661	commented
-4.427796	saw
-4.1768475	having
-4.578661	marginal
-4.018821	influence
-4.578661	fundamental
-3.8552043	problems
-4.578661	detail
-4.090686	settlement
-4.578661	explaining
-4.7043614	favour
-4.1768475	legal
-4.7043614	answer
-4.7043614	unresolved
-4.7043614	disputes
-3.8119855	court
-4.7043614	hearings
-4.7043614	expiry
-3.2383025	ec
-4.2844424	series
-3.9032044	white
-4.1768475	rebates
-3.8552043	maximum
-4.578661	496
-3.9571767	kilos
-3.5910757	community
-3.9032044	payable
-3.3097427	officials
-4.7043614	amounting
-4.578661	805
-4.1768475	launched
-4.578661	att
-4.578661	cgct
-4.7043614	abandoned
-4.578661	introduction
-4.7043614	privatisation
-4.7043614	reopened
-4.578661	bidding
-4.7043614	wider
-4.7043614	applicants
-4.578661	declining
-4.7043614	compound
-4.7043614	coarse
-4.578661	355
-4.2844424	cif
-4.578661	358
-4.427796	bellies
-4.427796	neutral
-3.9571767	negative
-4.427796	mercantile
-4.427796	floor
-4.427796	immediate
-4.1768475	reaction
-4.090686	pork
-4.578661	slightly
-4.578661	amvestors
-4.7043614	avfc
-3.9571767	holders
-4.2844424	legislation
-3.8552043	natural
-4.7043614	lousiana
-4.578661	democrat
-4.578661	agree
-4.7043614	demands
-4.2844424	benefits
-4.427796	institutes
-4.427796	believed
-4.578661	dynamic
-4.427796	jobs
-4.578661	created
-4.578661	origins
-4.2844424	cooper
-4.427796	basin
-4.2844424	api
-4.427796	distillate
-3.7726808	52
-4.427796	bbls
-3.8119855	gasoline
-4.7043614	arisen
-4.7043614	quantity
-4.578661	320
-4.090686	predicted
-4.7043614	dismal
-4.7043614	logging
-3.9571767	left
-4.578661	especially
-4.7043614	careful
-4.7043614	flare
-3.6165442	inflation
-4.7043614	accelerating
-4.7043614	berger
-4.7043614	devalued
-4.7043614	depressions
-4.018821	partners
-3.9571767	america
-4.7043614	fujitsu
-4.578661	executives
-4.578661	enthusiastic
-4.7043614	fairchild
-4.7043614	sumita
-4.018821	access
-3.9571767	steel
-4.1768475	ensure
-4.7043614	accurate
-3.8119855	used
-4.7043614	backdoor
-4.7043614	suppliers
-4.578661	carney
-4.427796	structural
-4.090686	adjustments
-4.427796	1993
-4.7043614	criticism
-4.578661	damages
-4.2844424	nakasone
-4.578661	jamaica
-4.427796	agrees
-4.578661	rescheduling
-3.9571767	principle
-4.427796	advisory
-4.1768475	1989
-4.7043614	jamaican
-3.8552043	information
-4.578661	kenya
-4.427796	relied
-4.427796	pakistan
-4.427796	egypt
-4.7043614	lesser
-4.427796	extent
-4.090686	tea
-3.9032044	consolidated
-3.8552043	stores
-4.7043614	cns
-4.578661	602
-4.7043614	879
-4.7043614	141
-4.018821	71
-3.9571767	42
-4.427796	397
-4.427796	esso
-4.7043614	keen
-4.427796	diversify
-4.7043614	gippsland
-4.2844424	lyng
-3.3798132	did
-3.73664	think
-4.7043614	eni
-4.7043614	agip
-4.7043614	carbone
-4.1768475	sign
-3.6165442	letter
-3.8119855	intent
-4.7043614	caracas
-4.2844424	enter
-3.9571767	partnership
-4.578661	pdvsa
-4.578661	coal
-4.7043614	guasare
-4.7043614	zulia
-4.427796	suit
-4.7043614	alleges
-4.7043614	harcourt
-4.578661	exceeds
-4.7043614	harcout
-4.1768475	law
-4.7043614	contstitutes
-4.7043614	fraudulent
-4.7043614	conveyance
-4.090686	larger
-4.578661	miller
-4.578661	bruce
-4.2844424	fields
-3.522566	producers
-4.578661	intend
-3.8552043	present
-4.2844424	single
-4.7043614	candidate
-4.7043614	edouard
-4.7043614	kouame
-4.7043614	ivory
-4.427796	coast
-4.2844424	failure
-4.427796	address
-3.7033622	decline
-3.9032044	remains
-4.7043614	worrying
-4.2844424	appears
-4.427796	approached
-4.578661	cautiously
-4.7043614	montagu
-4.578661	reluctant
-4.7043614	countenance
-4.7043614	wished
-4.2844424	delay
-3.8552043	reduction
-4.7043614	thereby
-4.7043614	preserving
-4.427796	chancellor
-4.2844424	exchequer
-4.578661	nigel
-4.090686	call
-4.578661	active
-4.578661	dropping
-4.578661	appropriations
-4.578661	demonstrated
-4.427796	process
-4.1768475	warrants
-4.578661	exercisable
-4.7043614	nonetheless
-3.8119855	expect
-4.7043614	unstable
-4.2844424	concerned
-4.7043614	officially
-4.7043614	trintoc
-3.9571767	land
-3.8552043	purolator
-4.7043614	nicholas
-3.73664	f
-4.7043614	brady
-4.427796	emery
-4.090686	john
-4.7043614	prefer
-4.427796	negotiate
-4.7043614	structure
-4.7043614	format
-4.427796	drafting
-4.427796	separate
-3.5019374	plan
-4.7043614	reconciled
-3.8552043	senate
-4.7043614	version
-3.7726808	spain
-4.090686	overnight
-4.1768475	view
-4.7043614	disappointing
-4.578661	discounted
-4.578661	young
-3.8552043	planned
-4.2844424	protect
-4.018821	itself
-4.2844424	chance
-4.7043614	complicated
-4.7043614	hedging
-4.578661	instrument
-3.8552043	england
-4.578661	signals
-4.427796	referred
-4.427796	marked
-4.578661	downturn
-4.427796	textiles
-4.7043614	leather
-4.7043614	furniture
-4.1768475	particular
-4.018821	decided
-4.7043614	ita
-4.7043614	wound
-4.2844424	expires
-4.7043614	delegate
-4.7043614	rarely
-4.7043614	invites
-4.018821	ordinary
-3.9032044	assistance
-4.7043614	abms
-4.1768475	zinc
-4.7043614	slab
-4.7043614	smelters
-4.7043614	735
-4.018821	tons
-4.1768475	bureau
-4.090686	iraq
-4.7043614	foiled
-4.7043614	pronged
-4.578661	thrust
-4.427796	km
-4.7043614	basra
-4.7043614	admitted
-4.7043614	iranians
-4.7043614	occupied
-4.578661	ground
-4.7043614	mohammed
-4.578661	qassem
-4.7043614	divisions
-4.578661	attacked
-4.427796	redstone
-4.578661	arsenal
-3.8552043	holdings
-4.7043614	amusements
-4.427796	viacom
-3.522566	takeover
-4.578661	conagra
-4.7043614	cag
-3.5910757	diluted
-4.578661	closely
-4.7043614	computerland
-4.427796	pc
-4.7043614	retailing
-4.7043614	chain
-4.090686	investor
-4.018821	e
-4.7043614	warburg
-4.7043614	pincus
-4.7043614	cigra
-4.2844424	89
-4.7043614	transcontinental
-4.7043614	windfall
-4.7043614	acts
-4.7043614	disincentive
-4.090686	existing
-4.7043614	reduces
-4.1768475	flow
-4.578661	864
-4.427796	678
-3.6165442	previous
-4.427796	indications
-4.1768475	planted
-3.8119855	69
-4.2844424	unchanged
-4.1768475	moves
-4.578661	divest
-4.7043614	encor
-4.7043614	favor
-4.7043614	retaining
-3.7033622	go
-4.578661	directly
-3.8552043	members
-4.427796	malaysia
-4.2844424	nearby
-4.2844424	intermediate
-4.427796	forward
-4.1768475	richard
-4.578661	visit
-4.427796	alusuisse
-4.090686	swiss
-3.73664	francs
-4.578661	restated
-4.578661	756
-4.7043614	comsat
-4.7043614	1962
-3.9571767	act
-3.8119855	congress
-4.7043614	contel
-4.2844424	telephone
-3.8552043	communications
-4.1768475	filed
-4.7043614	giorgio
-4.7043614	boutique
-4.7043614	beverly
-4.578661	hills
-4.427796	calif
-3.5019374	.,
-4.578661	fred
-4.7043614	hayman
-4.427796	operate
-4.578661	independently
-4.7043614	avon
-4.1768475	firmed
-4.578661	ideas
-4.2844424	fact
-4.2844424	generally
-4.7043614	yielding
-3.9571767	substantial
-4.7043614	sensitively
-3.9571767	looking
-4.7043614	happening
-4.578661	averaging
-4.1768475	whole
-4.427796	requirement
-4.7043614	thackeray
-4.7043614	thk
-4.7043614	013
-4.018821	74
-4.427796	107
-4.427796	401
-4.7043614	361
-4.7043614	793
-4.578661	surcharge
-4.7043614	urgently
-4.7043614	depreciation
-3.7726808	n
-4.7043614	foremost
-3.9571767	stability
-4.578661	successful
-4.018821	nothing
-4.578661	else
-4.2844424	build
-4.578661	auto
-4.7043614	inventories
-4.578661	steep
-4.578661	finally
-4.7043614	caught
-4.090686	ahead
-3.9571767	exxon
-4.2844424	ratio
-4.7043614	ankara
-4.2844424	greece
-4.7043614	contravening
-4.7043614	courts
-4.578661	none
-4.7043614	fired
-4.7043614	forecaster
-4.427796	wales
-4.7043614	queensland
-4.2844424	suffered
-4.7043614	subscribers
-4.578661	carried
-4.7043614	fiber
-4.7043614	optic
-4.7043614	leased
-3.8119855	news
-3.6436	conference
-4.7043614	create
-4.7043614	expedite
-4.427796	processing
-4.2844424	tonnage
-4.018821	required
-4.7043614	preference
-4.578661	goes
-4.018821	going
-4.578661	harder
-4.018821	meet
-4.1768475	confirmed
-4.1768475	preliminary
-4.427796	turkey
-3.7033622	respectively
-3.8552043	tariffs
-4.427796	imposed
-4.427796	recommended
-4.578661	curbs
-4.578661	panel
-4.578661	headed
-4.578661	pierson
-4.7043614	heldring
-4.7043614	en
-4.1768475	estimate
-4.578661	sentiment
-3.9571767	hit
-3.9571767	leading
-4.7043614	onshore
-4.7043614	stos
-4.7043614	condensate
-4.7043614	liquefied
-4.578661	lpg
-3.9571767	).
-4.427796	porex
-4.7043614	porx
-4.578661	medco
-4.7043614	mccs
-4.7043614	technologies
-4.2844424	partly
-4.7043614	containment
-4.578661	striking
-3.9032044	brazilian
-4.578661	seamen
-4.1768475	hold
-4.7043614	158
-4.7043614	halted
-4.7043614	janeiro
-4.7043614	almir
-4.7043614	pazzianotto
-4.7043614	shocked
-3.9032044	spending
-4.427796	oct
-4.578661	affandi
-4.7043614	fel
-4.7043614	159
-4.2844424	bankamerica
-4.7043614	bac
-4.2844424	mortgage
-4.427796	ireland
-4.7043614	words
-4.7043614	sometimes
-4.7043614	diametrically
-4.1768475	opposed
-4.7043614	bywater
-4.427796	backed
-4.578661	science
-4.7043614	task
-4.578661	consortium
-4.578661	develop
-4.2844424	electronic
-4.7043614	processes
-4.7043614	industory
-4.427796	competitive
-4.7043614	repossession
-4.7043614	gould
-4.2844424	focus
-4.1768475	electronics
-4.7043614	replace
-4.7043614	learn
-3.8119855	you
-4.018821	cannot
-4.7043614	deemed
-3.8119855	quotas
-4.090686	regional
-4.7043614	spoke
-4.2844424	named
-3.9571767	bags
-4.2844424	behind
-4.578661	leaving
-3.9571767	shipped
-3.9571767	electric
-4.7043614	nes
-3.5442235	75
-3.9571767	73
-4.578661	632
-4.427796	629
-4.427796	173
-4.2844424	165
-4.018821	chrysler
-4.1768475	rival
-4.7043614	dilution
-4.7043614	heinl
-4.578661	nursery
-4.7043614	shade
-4.427796	houses
-4.7043614	square
-4.1768475	feet
-4.7043614	greenhouses
-4.2844424	facilities
-4.018821	using
-4.578661	obtain
-4.1768475	liquidity
-4.7043614	foresake
-4.1768475	underlying
-4.7043614	unaffected
-3.6724539	accord
-4.7043614	permits
-4.7043614	493
-4.578661	502
-4.2844424	gained
-4.018821	forced
-4.2844424	india
-4.1768475	delhi
-4.018821	gencorp
-4.578661	gy
-3.9571767	110
-4.7043614	multilaterals
-4.578661	performing
-4.7043614	debtors
-4.7043614	someone
-4.7043614	silas
-4.7043614	revitalize
-3.7726808	texas
-4.7043614	exempt
-4.7043614	stripper
-4.427796	severance
-4.2844424	reaffirmed
-4.7043614	coordinate
-4.427796	inflationary
-4.1768475	stable
-3.6436	reagan
-4.578661	tide
-4.090686	vessel
-4.427796	list
-4.7043614	degrees
-3.8552043	changed
-4.2844424	comments
-4.090686	senior
-4.578661	thought
-4.578661	undervalued
-4.578661	replied
-4.427796	counter
-4.090686	hope
-4.578661	join
-4.7043614	telecom
-4.7043614	discreetly
-4.1768475	confident
-4.7043614	adopt
-4.427796	instruments
-4.578661	tightening
-4.7043614	choke
-4.427796	modest
-3.9571767	expansion
-4.427796	threaten
-4.1768475	recession
-3.6724539	several
-4.7043614	contacts
-4.7043614	indication
-4.7043614	wishes
-4.7043614	mention
-4.578661	senators
-4.7043614	propose
-4.090686	ban
-4.578661	toshiba
-4.2844424	went
-3.7033622	signed
-4.578661	calling
-4.7043614	exchanged
-4.7043614	barnett
-4.578661	moved
-4.7043614	sdr
-4.578661	mtech
-4.7043614	mtch
-4.578661	467
-4.7043614	nudged
-4.578661	goal
-4.578661	pessimistic
-4.2844424	social
-4.7043614	ces
-4.578661	body
-4.7043614	industrialists
-4.7043614	unionists
-4.2844424	limits
-4.7043614	minimised
-4.427796	boosted
-4.7043614	radius
-4.7043614	prawiro
-4.018821	aimed
-4.7043614	preventing
-4.578661	refiners
-4.7043614	marketers
-4.7043614	predatory
-4.7043614	monopolistic
-4.7043614	franchised
-4.7043614	specifications
-4.7043614	resemble
-4.427796	audio
-3.8119855	video
-4.7043614	ava
-4.7043614	sweetens
-4.2844424	cyclops
-4.7043614	cyl
-4.427796	affiliates
-4.7043614	astra
-4.7043614	paint
-4.2844424	manufacture
-4.578661	motor
-4.578661	vehicles
-4.7043614	earthmoving
-4.7043614	qualities
-4.018821	sought
-4.7043614	hamburg
-4.578661	green
-3.567018	demand
-4.7043614	coffees
-3.8552043	past
-4.7043614	unsatisfactory
-4.7043614	brockton
-4.7043614	pbkb
-4.7043614	646
-4.2844424	470
-4.2844424	cumulative
-4.7043614	roastings
-4.7043614	845
-4.7043614	070
-4.018821	reuter
-4.427796	forecasts
-4.7043614	schrader
-4.578661	maremont
-3.6436	acquired
-4.7043614	bu
-4.7043614	forfeited
-4.427796	portuguese
-4.2844424	crisis
-4.427796	portugal
-4.7043614	enjoying
-4.578661	decade
-4.7043614	shrug
-4.2844424	heinz
-4.7043614	sight
-4.7043614	22nd
-4.427796	consecutive
-4.7043614	records
-3.9032044	chief
-3.9571767	executive
-4.578661	officer
-4.7043614	anthony
-4.7043614	reilly
-4.578661	arkla
-4.7043614	alg
-4.7043614	settle
-4.427796	dispute
-4.578661	ip
-4.7043614	arkansas
-4.2844424	resolve
-4.578661	pipelines
-4.578661	mill
-4.578661	pine
-4.7043614	bluff
-4.7043614	camden
-4.7043614	utilisation
-4.7043614	mode
-4.7043614	{
-4.7043614	nised
-4.2844424	mills
-4.7043614	lucht
-4.7043614	function
-4.2844424	innovex
-4.427796	whatever
-4.427796	stick
-4.427796	keeping
-4.578661	guilder
-4.578661	sure
-4.2844424	getting
-4.7043614	solomon
-4.1768475	medium
-3.8119855	commodity
-4.7043614	injuries
-4.7043614	emirate
-4.7043614	fujairah
-4.018821	power
-4.2844424	fire
-4.090686	order
-4.1768475	living
-3.8552043	north
-4.7043614	rhine
-4.7043614	westphalia
-4.7043614	populous
-3.9571767	mid
-4.578661	stand
-4.7043614	esquire
-4.7043614	ee
-4.2844424	yr
-4.7043614	075
-4.578661	203
-4.1768475	stockholders
-4.578661	conable
-4.2844424	pressing
-4.7043614	arguing
-4.1768475	possibility
-4.090686	global
-4.427796	imperial
-3.7726808	contracts
-4.7043614	cote
-4.7043614	cancelling
-4.427796	suspending
-4.427796	buyer
-4.1768475	discussed
-4.578661	table
-4.7043614	hormuz
-4.7043614	strait
-4.7043614	everyone
-4.427796	intelligent
-4.7043614	inp
-4.018821	initial
-4.1768475	payout
-4.578661	master
-3.7726808	quarterly
-4.2844424	investments
-4.1768475	parent
-4.578661	recapitalization
-4.018821	alternative
-3.7726808	receive
-3.73664	approval
-4.578661	narrows
-4.1768475	narrowed
-4.7043614	336
-4.7043614	escudos
-4.7043614	354
-4.578661	rtrs
-4.578661	associates
-4.7043614	169
-4.1768475	others
-4.018821	bp
-4.1768475	course
-4.7043614	retained
-4.427796	boston
-4.7043614	cravath
-4.7043614	swaine
-4.578661	moore
-3.9571767	advisers
-3.9032044	too
-4.018821	determine
-4.578661	parties
-4.1768475	longer
-4.2844424	doubt
-4.2844424	greenmail
-4.7043614	surprises
-4.578661	me
-4.7043614	anymore
-4.578661	crushing
-4.427796	873
-4.578661	904
-4.018821	bushels
-4.7043614	459
-4.7043614	238
-4.578661	apparently
-4.7043614	anyone
-4.7043614	regret
-4.018821	threatened
-4.578661	protest
-4.7043614	regarded
-4.7043614	vital
-4.578661	smooth
-4.018821	transactions
-4.7043614	doubled
-4.7043614	alan
-4.7043614	garcia
-4.7043614	directed
-3.9571767	drilling
-4.427796	rigs
-4.7043614	caspar
-4.7043614	weinberger
-4.427796	sunday
-4.7043614	specifics
-4.427796	necessary
-3.9571767	keep
-4.578661	anti
-4.427796	region
-4.090686	w
-4.7043614	manufactured
-4.7043614	ifo
-4.7043614	conrac
-4.7043614	marketer
-4.1768475	related
-4.7043614	display
-4.2844424	produces
-4.7043614	architectural
-4.7043614	macandrews
-4.2844424	revlon
-4.7043614	plaintiff
-4.7043614	pending
-4.578661	litigation
-4.7043614	challenging
-4.7043614	macanrews
-4.578661	cnt
-4.7043614	quantum
-4.7043614	exercising
-4.427796	bringing
-4.427796	philips
-4.578661	electrical
-4.090686	sells
-4.427796	unidare
-4.578661	arranged
-4.2844424	aluminium
-4.7043614	nsbk
-4.7043614	289
-4.578661	849
-4.7043614	980
-4.7043614	814
-4.018821	consumption
-4.018821	continuing
-4.7043614	rhetoric
-4.7043614	marlin
-4.578661	fitzwater
-4.427796	statements
-4.578661	borg
-4.427796	warner
-4.7043614	irwin
-4.2844424	jacobs
-4.578661	jamesway
-4.7043614	jmy
-4.7043614	intec
-4.7043614	intk
-4.578661	029
-4.578661	930
-4.578661	764
-4.7043614	544
-4.7043614	463
-4.7043614	718
-4.7043614	566
-4.7043614	680
-4.1768475	window
-4.427796	averaged
-4.7043614	302
-4.2844424	interview
-4.7043614	aired
-4.090686	don
-4.7043614	encompassed
-4.7043614	087
-4.7043614	19th
-4.2844424	exceeding
-4.578661	398
-4.7043614	liffe
-4.7043614	studies
-4.7043614	aside
-4.578661	county
-4.427796	trigger
-4.2844424	requirements
-4.1768475	staff
-4.427796	double
-4.7043614	indicates
-4.7043614	jump
-4.7043614	bhp
-4.427796	ounces
-4.578661	mcm
-4.578661	yearend
-4.1768475	release
-4.2844424	effects
-4.2844424	sheet
-4.578661	outright
-4.427796	band
-4.7043614	jorge
-4.578661	cardenas
-4.7043614	colombian
-4.427796	federation
-4.7043614	rosenbaum
-4.427796	mutual
-4.090686	adding
-4.7043614	860
-4.7043614	vicinity
-4.7043614	seismic
-4.578661	underway
-4.7043614	evaluate
-4.090686	meat
-4.7043614	packers
-4.427796	promising
-4.7043614	1981
-4.7043614	subroto
-4.7043614	granting
-4.7043614	remote
-4.427796	deep
-4.7043614	lichtblau
-4.7043614	dependency
-4.578661	happen
-4.090686	impose
-4.7043614	dls
-4.427796	alleged
-4.7043614	live
-4.578661	microchip
-4.578661	rainfall
-4.1768475	recorded
-4.427796	hours
-4.578661	parana
-4.7043614	umuarama
-3.8552043	nil
-4.7043614	paranavai
-4.7043614	londrina
-4.7043614	maringa
-4.7043614	pushing
-4.7043614	permission
-4.2844424	lay
-4.427796	cable
-4.578661	widened
-4.7043614	drs
-4.7043614	rospatch
-3.9571767	provided
-4.578661	prudential
-4.427796	encourage
-4.7043614	foreseeable
-4.427796	largely
-4.7043614	upsetting
-4.578661	wage
-4.7043614	shiments
-4.7043614	instill
-4.578661	willingness
-4.427796	pcc
-3.9571767	courier
-4.7043614	flowering
-4.1768475	followed
-4.578661	onset
-4.7043614	subsequent
-4.7043614	dissappointing
-4.7043614	suspension
-4.7043614	forseeable
-4.7043614	category
-4.7043614	sunflower
-4.1768475	oils
-4.578661	importers
-4.7043614	basket
-4.7043614	categories
-4.578661	paying
-3.8552043	specific
-4.7043614	nevertheless
-4.578661	gurria
-4.1768475	mexico
-4.7043614	draw
-4.7043614	contingency
-4.018821	mining
-4.7043614	pt
-4.7043614	tambang
-4.7043614	timah
-4.7043614	easy
-4.7043614	516
-4.427796	636
-3.8552043	discontinued
-4.7043614	922
-4.7043614	dominated
-4.427796	reporting
-4.427796	involving
-4.7043614	fnma
-4.578661	arbitrage
-4.7043614	beatty
-4.7043614	packer
-4.7043614	morrell
-4.7043614	soymeal
-4.578661	quantities
-4.2844424	imported
-4.578661	quarters
-4.7043614	argentina
-4.7043614	refining
-4.7043614	worried
-4.7043614	environmental
-4.578661	regulations
-4.090686	grade
-4.578661	unleaded
-4.7043614	dearly
-4.7043614	recovering
-4.578661	slump
-4.7043614	chauvco
-4.427796	476
-4.7043614	creditwatch
-4.578661	affects
-3.9571767	notes
-4.2844424	guaranteed
-4.7043614	eurobond
-4.7043614	warn
-4.427796	warned
-4.578661	excessive
-4.7043614	goodwill
-4.578661	delegations
-4.7043614	hesse
-4.7043614	advises
-4.2844424	italian
-4.2844424	declines
-4.578661	surprised
-4.578661	disbursed
-4.7043614	slaughtered
-4.7043614	herd
-4.7043614	gaf
-4.427796	bayer
-4.578661	usa
-4.7043614	bayry
-4.578661	affiliated
-4.7043614	cmpanies
-4.7043614	manoeuvres
-4.2844424	narrow
-4.7043614	variable
-4.2844424	seriously
-4.7043614	eastman
-4.7043614	kodak
-4.578661	acquires
-4.7043614	enzon
-4.578661	idea
-4.1768475	require
-4.7043614	bureacracy
-4.7043614	administer
-4.578661	numac
-4.7043614	nmc
-4.090686	significant
-3.9571767	improvement
-3.8119855	performance
-4.427796	argentine
-4.7043614	243
-4.578661	217
-4.427796	ual
-4.7043614	citing
-4.578661	unusual
-4.7043614	ramifications
-4.1768475	believe
-4.7043614	affiliation
-4.578661	amoskeag
-4.7043614	portsmouth
-4.7043614	bushnell
-4.578661	reflected
-3.6436	noted
-4.7043614	blocks
-4.7043614	7219
-4.7043614	7220
-4.578661	awarded
-4.7043614	norsk
-4.7043614	hydro
-4.7043614	operator
-4.7043614	statoil
-4.2844424	mobil
-4.427796	mob
-4.7043614	petrofina
-4.2844424	sa
-4.7043614	petb
-4.7043614	br
-4.7043614	norske
-4.7043614	fina
-4.427796	meridian
-4.427796	castone
-4.7043614	jointly
-4.7043614	terminate
-4.7043614	widespread
-4.578661	speculation
-4.7043614	autumn
-4.578661	darman
-4.578661	job
-4.427796	valley
-4.7043614	fivc
-4.090686	62
-4.018821	99
-4.7043614	scientific
-4.7043614	measurement
-4.7043614	scms
-4.7043614	352
-4.7043614	568
-4.578661	640
-4.7043614	377
-4.7043614	865
-4.7043614	063
-4.578661	333
-4.578661	singapore
-3.9032044	netherlands
-4.7043614	complying
-4.578661	lumber
-4.7043614	softwood
-4.090686	circulation
-4.7043614	235
-4.427796	eased
-4.2844424	solid
-4.7043614	michelin
-4.7043614	spika
-4.7043614	raiders
-4.2844424	once
-4.090686	communique
-4.578661	alter
-4.2844424	prevailing
-4.1768475	needs
-4.7043614	redress
-4.2844424	huge
-4.7043614	imbalance
-4.578661	kellwood
-4.7043614	kwd
-4.2844424	robert
-4.578661	scott
-4.578661	david
-4.7043614	brooks
-4.7043614	andrew
-4.7043614	harvey
-4.7043614	dedham
-4.578661	mass
-4.2844424	sent
-4.578661	consideration
-4.7043614	committees
-4.427796	seemed
-4.7043614	repeat
-4.1768475	monthly
-4.1768475	surpluses
-4.090686	1984
-4.578661	dayton
-4.427796	hudson
-4.1768475	spokeswoman
-4.578661	identify
-4.7043614	darta
-4.427796	105
-4.7043614	died
-4.7043614	accidents
-4.578661	appreciation
-4.578661	depressed
-4.1768475	orders
-4.427796	suggested
-3.73664	administration
-4.7043614	recommendations
-4.427796	grace
-4.578661	lp
-4.7043614	anglo
-4.1768475	willing
-4.1768475	deposit
-4.427796	escrow
-4.7043614	insure
-4.578661	approves
-4.427796	healthsouth
-4.7043614	hsrc
-4.427796	rehabilitation
-4.7043614	medicine
-4.1768475	center
-4.427796	fort
-4.578661	lauderdale
-4.7043614	fla
-4.7043614	incorporate
-4.578661	users
-4.7043614	fructose
-4.7043614	actively
-4.7043614	millers
-4.7043614	bottlers
-4.7043614	henderson
-3.9571767	metals
-4.578661	underground
-4.7043614	extensive
-4.7043614	sampling
-4.1768475	silver
-4.7043614	yielded
-4.578661	beall
-4.427796	los
-4.427796	angeles
-4.578661	allen
-4.7043614	bradley
-4.427796	flat
-4.7043614	landmark
-4.427796	realized
-4.7043614	continuation
-4.427796	downward
-4.427796	trend
-4.090686	d
-4.7043614	affaires
-4.7043614	mohammad
-4.7043614	baqeri
-4.7043614	summoned
-4.7043614	confer
-4.7043614	undersecretary
-4.7043614	suleiman
-4.7043614	majed
-4.7043614	shaheen
-4.7043614	cargill
-4.427796	spread
-4.7043614	certificate
-4.018821	normal
-4.7043614	micronetics
-4.7043614	nmic
-4.7043614	divs
-4.7043614	underwrote
-4.7043614	yamamoto
-4.427796	slash
-4.7043614	kilobit
-4.7043614	random
-4.7043614	erasable
-4.7043614	programmable
-4.7043614	read
-4.7043614	memory
-4.578661	chips
-4.578661	vbi
-4.7043614	179
-4.1768475	morning
-3.9571767	expenses
-4.7043614	adjusments
-4.1768475	continental
-4.7043614	louis
-4.7043614	dreyfus
-4.090686	fob
-4.1768475	greater
-3.9571767	situation
-4.7043614	decreased
-4.1768475	carrying
-4.578661	semiconductor
-4.7043614	complied
-4.578661	./
-4.7043614	shoichi
-4.7043614	saba
-4.7043614	819
-4.578661	cardis
-4.578661	depending
-4.2844424	exercise
-4.7043614	substitute
-3.8552043	arabia
-4.578661	seasons
-4.578661	hotels
-4.7043614	449
-4.7043614	509
-4.7043614	440
-3.73664	extraordinary
-4.1768475	lme
-4.7043614	annul
-4.090686	minimum
-4.427796	450
-4.7043614	bars
-4.7043614	sows
-4.7043614	visiting
-4.018821	motors
-4.7043614	roger
-4.090686	smith
-4.7043614	viktor
-4.7043614	nikonov
-4.090686	harvest
-4.7043614	browing
-4.578661	ferris
-4.7043614	bfi
-4.578661	declares
-4.7043614	browning
-4.7043614	industires
-4.7043614	soaring
-4.578661	tougher
-4.578661	optimistic
-4.7043614	critical
-4.578661	stage
-4.7043614	heat
-4.7043614	stress
-4.2844424	therefore
-4.7043614	exportable
-4.7043614	oxford
-4.7043614	ofc
-4.7043614	766
-4.578661	950
-4.2844424	321
-4.7043614	298
-4.427796	985
-4.7043614	894
-4.7043614	464
-4.7043614	226
-4.018821	failed
-4.7043614	fsb
-4.7043614	abny
-3.5442235	29
-4.018821	05
-4.578661	writedowns
-4.427796	book
-4.018821	meal
-4.2844424	steadily
-4.2844424	ton
-4.7043614	416
-4.7043614	746
-4.578661	837
-4.7043614	prevented
-4.427796	movement
-4.090686	nearly
-4.578661	vessels
-4.7043614	decides
-4.090686	accept
-4.7043614	alternate
-4.7043614	defensive
-4.7043614	features
-4.2844424	safety
-4.2844424	kleen
-4.578661	sk
-4.427796	mckesson
-4.7043614	mck
-4.7043614	envirosystems
-4.578661	canned
-4.578661	fruit
-4.427796	remaining
-4.7043614	suppies
-4.7043614	tight
-4.7043614	consequence
-4.578661	strengthened
-4.7043614	renegotiation
-4.427796	commissioner
-4.578661	welcomes
-4.7043614	stabilisation
-4.578661	promoting
-4.7043614	equilibrium
-4.578661	lorenzo
-4.7043614	natali
-4.578661	assessment
-4.7043614	assess
-3.7726808	ministers
-4.2844424	meetings
-4.7043614	undoubtedly
-4.7043614	embraced
-4.2844424	housing
-4.7043614	education
-4.578661	transport
-4.2844424	pests
-4.427796	disease
-4.427796	destroyed
-4.7043614	threatening
-3.9571767	64
-4.2844424	charged
-4.578661	dynamics
-4.578661	hartmarx
-4.7043614	hmx
-4.2844424	targets
-4.7043614	meinert
-4.7043614	.(
-4.7043614	)......
-4.578661	propane
-4.7043614	..............
-4.7043614	butane
-4.7043614	...........
-4.7043614	411
-4.578661	poised
-4.7043614	threshold
-4.578661	golden
-4.1768475	paul
-4.7043614	oreffice
-4.578661	giant
-4.1768475	dow
-4.578661	carefully
-4.427796	studying
-4.7043614	reject
-4.018821	unemployment
-4.7043614	climb
-4.7043614	susumu
-4.7043614	taketomi
-4.7043614	surveyed
-4.090686	projects
-4.427796	drops
-3.8552043	bond
-4.427796	lend
-4.7043614	offsetting
-4.7043614	outflows
-4.090686	balances
-4.090686	add
-4.2844424	gdp
-4.427796	109
-4.578661	signal
-4.7043614	fss
-4.7043614	healthmate
-4.427796	auditors
-4.578661	qualify
-4.090686	corning
-4.7043614	glw
-4.427796	hazleton
-4.7043614	hlc
-4.7043614	excahnge
-4.7043614	glass
-4.7043614	works
-4.578661	laboratories
-4.018821	established
-4.7043614	5165
-4.427796	saur
-4.7043614	klaus
-4.578661	owner
-4.7043614	munich
-4.578661	1975
-4.578661	vietnam
-4.7043614	resettled
-4.578661	cities
-4.7043614	crowded
-4.7043614	deltas
-4.578661	zones
-4.090686	complete
-4.578661	outflow
-4.7043614	combining
-4.427796	flows
-4.578661	inflow
-4.427796	ups
-4.7043614	frn
-4.7043614	681
-4.2844424	551
-4.578661	send
-4.578661	missions
-4.7043614	fit
-4.578661	laboratory
-4.7043614	bindley
-4.7043614	bind
-4.7043614	826
-4.7043614	205
-4.578661	512
-4.578661	462
-4.7043614	510
-4.578661	393
-4.578661	955
-4.427796	719
-4.7043614	633
-4.578661	511
-4.427796	591
-4.578661	508
-4.578661	379
-4.7043614	122
-4.578661	722
-4.7043614	323
-4.7043614	612
-4.7043614	compensating
-4.1768475	sanctions
-4.2844424	effect
-4.1768475	commitments
-4.7043614	cancellations
-4.7043614	comparisons
-4.2844424	follows
-4.578661	except
-4.7043614	prev
-4.578661	368
-4.7043614	001
-3.8552043	900
-4.7043614	927
-4.578661	240
-4.578661	soy
-4.578661	cake
-4.7043614	y
-4.7043614	minus
-4.7043614	alcan
-4.2844424	zealand
-4.7043614	proven
-4.578661	probable
-4.7043614	mineable
-4.427796	oxide
-4.578661	grading
-4.578661	yearly
-4.578661	reference
-4.7043614	freights
-4.7043614	cam
-3.9571767	great
-4.7043614	lakes
-4.7043614	algeria
-4.7043614	vamand
-4.7043614	wave
-4.427796	played
-4.7043614	membership
-4.7043614	shared
-4.7043614	nazer
-4.7043614	midsouth
-4.7043614	railroad
-4.427796	louisiana
-4.427796	contributed
-4.578661	pacificare
-4.7043614	phsy
-4.7043614	hmo
-4.427796	care
-4.7043614	salem
-4.7043614	corvallis
-4.2844424	uk
-4.578661	785
-4.7043614	jucker
-4.7043614	knew
-4.7043614	radical
-4.578661	elimination
-4.7043614	mortgages
-4.7043614	painful
-4.7043614	foundation
-4.7043614	laid
-4.7043614	schlesinger
-4.578661	apparel
-4.7043614	upkeep
-4.7043614	fend
-4.7043614	hostile
-4.2844424	attempt
-4.427796	sir
-4.090686	james
-4.7043614	goldsmith
-4.7043614	sustain
-4.578661	fewer
-4.578661	raw
-4.2844424	materials
-4.578661	ecuadorean
-4.7043614	presidency
-4.7043614	patricio
-4.7043614	quevedo
-4.090686	venezuela
-4.578661	repaid
-4.578661	kind
-4.1768475	180
-4.7043614	accomplished
-4.7043614	onpraise
-4.018821	hong
-3.9571767	kong
-4.578661	controlled
-4.578661	michael
-3.8552043	main
-4.2844424	factors
-4.7043614	affecting
-4.7043614	maturing
-4.578661	hands
-4.578661	drain
-4.7043614	feel
-4.427796	allied
-4.7043614	lyons
-4.7043614	immediately
-4.7043614	quake
-4.1768475	144
-4.2844424	quest
-4.427796	blood
-4.578661	executed
-4.2844424	alza
-4.7043614	patent
-4.7043614	staubli
-4.427796	predictions
-4.578661	considerably
-4.7043614	fluctuations
-4.578661	franc
-4.427796	del
-4.7043614	webb
-4.7043614	dwpa
-4.7043614	166
-4.7043614	801
-4.578661	687
-3.9571767	ccc
-4.7043614	authorised
-4.7043614	awards
-4.427796	103
-4.7043614	restitution
-4.7043614	jiang
-4.7043614	feng
-4.7043614	xiang
-4.7043614	deepest
-4.7043614	handled
-3.9571767	95
-4.7043614	schultz
-4.427796	malcolm
-4.1768475	baldrige
-4.578661	look
-4.7043614	shifts
-4.578661	away
-4.018821	mark
-4.7043614	concerning
-4.7043614	deteriorated
-4.7043614	raytheon
-4.7043614	rtn
-4.018821	101
-4.7043614	ad
-4.7043614	hoc
-4.7043614	763
-4.7043614	financed
-4.7043614	bridge
-4.7043614	donaldson
-4.7043614	lufkin
-4.7043614	jenrette
-4.427796	arrange
-4.7043614	pleased
-4.2844424	reynolds
-4.578661	stated
-4.578661	concept
-4.7043614	repugnant
-4.578661	unable
-4.7043614	elcor
-4.7043614	doug
-4.7043614	stillmann
-4.578661	statistician
-4.7043614	statistic
-4.7043614	austin
-4.018821	sec
-4.7043614	probes
-4.427796	tre
-4.7043614	violations
-4.578661	connection
-4.7043614	unsuccessful
-4.7043614	hollywood
-4.7043614	burt
-4.7043614	sugarman
-4.7043614	attorneys
-4.7043614	contacted
-4.7043614	investigators
-4.578661	tmoc
-4.427796	jumped
-4.427796	announcement
-4.018821	friday
-4.427796	closing
-4.7043614	gleske
-4.2844424	strongly
-4.578661	sceptical
-4.427796	binding
-4.7043614	fluctuating
-4.7043614	bands
-4.578661	supermarkets
-4.578661	millions
-4.7043614	disappointment
-4.578661	reverse
-4.578661	stars
-4.427796	gets
-4.578661	650
-4.427796	centers
-4.7043614	cvs
-4.2844424	located
-4.578661	circle
-4.7043614	ckp
-4.7043614	iwc
-4.578661	kinds
-4.7043614	allowing
-4.578661	fiji
-4.090686	interim
-4.2844424	schedule
-4.578661	harvesting
-4.2844424	drought
-4.7043614	ratu
-4.7043614	penaia
-4.7043614	ganilau
-4.7043614	diseases
-4.018821	problem
-4.7043614	prod
-4.427796	faster
-4.578661	grinding
-4.578661	restraints
-4.2844424	exceed
-3.7726808	1988
-4.578661	670
-4.578661	deadline
-4.578661	promote
-4.7043614	vigorous
-4.578661	committed
-4.427796	ibc
-4.578661	630
-4.578661	robusta
-4.2844424	behalf
-4.427796	confirms
-4.427796	ownership
-4.2844424	speaking
-4.7043614	reviglio
-4.427796	eventually
-4.2844424	annually
-4.018821	shell
-4.7043614	rd
-4.7043614	ams
-4.578661	belgium
-4.7043614	targetted
-4.427796	depend
-4.427796	indian
-4.578661	boliden
-4.7043614	kjell
-4.7043614	nilsson
-4.578661	allis
-4.578661	chalmers
-4.7043614	synergy
-4.578661	"(
-4.578661	barriers
-4.578661	place
-4.7043614	punta
-4.7043614	este
-4.578661	uruguay
-4.2844424	duty
-4.578661	detailed
-4.7043614	kiichi
-4.578661	stabilising
-4.578661	convince
-4.7043614	guesses
-4.427796	marine
-4.578661	midland
-4.7043614	mm
-4.090686	customer
-4.7043614	ovest
-4.7043614	northeastern
-4.7043614	mcneil
-4.7043614	mantha
-4.7043614	widely
-4.2844424	mideast
-4.7043614	graco
-4.7043614	ggg
-4.090686	votes
-4.578661	suggests
-4.7043614	participating
-4.7043614	995
-4.578661	liebert
-4.7043614	3322
-4.7043614	emerson
-4.7043614	superdrug
-4.7043614	670p
-4.7043614	480p
-4.7043614	tcw
-4.7043614	anticipates
-4.7043614	pilot
-4.7043614	disaster
-4.427796	feedgrains
-4.7043614	midwestern
-4.7043614	flooding
-4.7043614	interalumina
-4.427796	material
-4.7043614	alumina
-4.427796	bolivars
-4.7043614	alcasa
-4.427796	earned
-4.427796	412
-4.7043614	venalum
-4.7043614	042
-4.7043614	bln
-4.7043614	perelman
-4.7043614	cosmetics
-4.7043614	comecon
-4.7043614	insistence
-4.7043614	declaration
-4.7043614	stipulate
-4.7043614	berlin
-4.578661	contained
-4.427796	fidelcor
-4.7043614	ficr
-4.578661	lazere
-4.578661	portion
-4.7043614	bkne
-4.578661	raids
-4.427796	nowruz
-4.427796	warplanes
-4.7043614	bombing
-4.7043614	oilfield
-3.8552043	northern
-4.578661	berisford
-4.2844424	stay
-4.7043614	brfd
-4.578661	attracted
-4.578661	bids
-4.427796	effort
-4.7043614	henry
-4.578661	lewis
-4.578661	soyoil
-4.1768475	scheduled
-4.7043614	napa
-4.427796	bancorp
-4.7043614	nvbc
-4.7043614	435
-4.578661	403
-4.7043614	appear
-4.578661	beneficial
-4.7043614	wastage
-4.7043614	overdependence
-4.1768475	fuel
-4.578661	traditionally
-4.7043614	catchword
-4.7043614	reluctance
-4.578661	watchword
-4.1768475	affected
-4.2844424	transfer
-4.7043614	society
-4.7043614	corrects
-4.7043614	ncr
-4.7043614	watanabe
-4.7043614	acted
-4.7043614	mediator
-4.2844424	compete
-4.7043614	kokusai
-4.7043614	denshin
-4.7043614	denwa
-4.7043614	monopolizes
-4.7043614	retaliate
-4.578661	honor
-4.7043614	dumping
-4.427796	semiconductors
-4.2844424	exclude
-4.7043614	439
-4.7043614	666
-4.427796	224
-4.578661	271
-4.578661	349
-4.2844424	turnover
-4.7043614	lifted
-4.578661	helping
-4.578661	curb
-4.7043614	1b
-4.7043614	050
-4.7043614	erect
-4.7043614	artificial
-4.7043614	shultz
-4.578661	urging
-4.090686	highest
-4.578661	priority
-4.7043614	item
-4.7043614	upcoming
-4.578661	summit
-4.7043614	heads
-4.578661	venice
-4.7043614	pclb
-4.578661	531
-4.7043614	twelve
-4.427796	combination
-4.7043614	permit
-4.2844424	shamrock
-4.7043614	nawara
-4.1768475	voting
-4.427796	approximately
-4.7043614	boosting
-4.7043614	brief
-4.578661	always
-4.7043614	negotations
-4.7043614	dipped
-4.7043614	relative
-4.7043614	vontobel
-3.8552043	many
-4.7043614	ratings
-4.578661	barely
-4.7043614	cml
-4.7043614	cmli
-4.7043614	975
-4.7043614	527
-4.7043614	597
-4.578661	492
-4.7043614	847
-4.578661	017
-4.578661	209
-4.7043614	175
-4.578661	138
-4.427796	549
-4.7043614	197
-4.578661	edelman
-4.7043614	drexel
-4.7043614	exceptionally
-4.7043614	588
-4.7043614	ofd
-4.090686	date
-4.578661	snows
-4.7043614	floods
-4.7043614	izvestia
-4.7043614	evacuated
-4.578661	mountain
-4.578661	damaged
-4.578661	hundreds
-4.7043614	kilometres
-4.7043614	roads
-4.427796	calgary
-4.578661	convert
-4.578661	formula
-4.578661	negotiated
-4.7043614	strengthening
-4.578661	adversely
-4.427796	affect
-4.427796	generated
-4.7043614	carolian
-4.578661	supplier
-4.578661	utility
-4.090686	software
-4.7043614	hewlett
-4.7043614	packard
-4.578661	consensus
-4.7043614	583
-4.578661	borman
-4.7043614	brf
-4.578661	safeway
-4.578661	utah
-4.7043614	salt
-4.2844424	lake
-4.7043614	indicating
-4.7043614	revise
-4.7043614	herald
-4.7043614	interviews
-4.427796	signs
-4.578661	slowing
-4.578661	stimulus
-4.7043614	offing
-4.578661	minority
-4.578661	peter
-4.7043614	friend
-4.7043614	walywn
-4.7043614	stodgell
-4.7043614	cochran
-4.7043614	eager
-4.578661	portfolios
-4.427796	blue
-4.7043614	nge
-4.427796	terminated
-4.578661	8063
-4.427796	intervene
-4.7043614	8231
-4.7043614	applaud
-4.018821	csr
-4.578661	bold
-4.427796	csra
-3.8119855	selling
-4.7043614	ploughing
-4.578661	provisionally
-4.427796	actual
-4.578661	254
-4.7043614	r
-4.427796	stoltenberg
-4.7043614	regain
-4.7043614	aramco
-4.7043614	chevron
-4.578661	chv
-4.2844424	xon
-3.8119855	texaco
-4.578661	tx
-4.427796	ex
-4.1768475	various
-4.7043614	additionally
-4.7043614	aspects
-4.1768475	unless
-4.7043614	prevails
-4.7043614	consequences
-4.7043614	dependant
-4.7043614	catastrophic
-4.578661	sroka
-4.7043614	glasstite
-4.7043614	manufactures
-4.7043614	truck
-4.7043614	rely
-4.2844424	adjustment
-4.7043614	realities
-4.578661	exception
-4.090686	waste
-4.578661	advantage
-4.578661	icahn
-4.427796	talked
-4.1768475	airline
-4.7043614	bugs
-4.7043614	restates
-4.7043614	acknowledged
-4.427796	survey
-4.7043614	sismik
-4.2844424	aegean
-4.7043614	flanked
-4.578661	disputed
-4.018821	waters
-4.2844424	turkish
-4.7043614	sweetened
-4.578661	via
-4.7043614	sumner
-4.7043614	leads
-4.7043614	vying
-4.7043614	sweeten
-4.7043614	europeesche
-4.7043614	specialises
-4.7043614	recreation
-4.578661	guilders
-4.7043614	ry
-4.578661	banco
-4.7043614	brasil
-4.7043614	bigelow
-4.7043614	textbook
-4.427796	normally
-4.7043614	incurs
-4.578661	adverse
-4.578661	publishing
-4.578661	trace
-4.427796	platinum
-4.7043614	palladium
-4.7043614	cards
-4.7043614	robertson
-4.578661	spent
-4.578661	barge
-4.427796	steady
-4.7043614	loadings
-4.7043614	barges
-4.427796	190
-4.427796	team
-4.578661	multinational
-4.7043614	probing
-4.7043614	favored
-4.578661	flowing
-4.578661	waterway
-4.7043614	sonatrach
-4.578661	algerian
-4.7043614	canceled
-4.2844424	deliveries
-4.578661	occidental
-4.578661	oxy
-4.7043614	demanded
-4.427796	atlantic
-4.7043614	richfield
-4.7043614	arc
-4.7043614	safeguards
-4.2844424	virginia
-4.7043614	effectively
-4.427796	ten
-4.7043614	departing
-4.2844424	san
-4.578661	francisco
-4.427796	abu
-4.578661	dhabi
-4.7043614	compagnie
-4.7043614	francaise
-4.427796	des
-4.7043614	petroles
-4.7043614	tpn
-4.7043614	pa
-4.7043614	bukhoosh
-4.578661	reopening
-4.7043614	definitely
-4.578661	slight
-4.7043614	nominal
-4.427796	420
-4.578661	elect
-4.578661	class
-4.2844424	b
-4.1768475	vote
-4.7043614	lennar
-4.7043614	speculative
-4.578661	influences
-4.2844424	risen
-4.7043614	financially
-4.7043614	pressed
-4.2844424	organisation
-4.7043614	exporting
-4.7043614	assigned
-4.7043614	cartel
-4.7043614	internally
-4.578661	spend
-4.578661	requires
-4.7043614	presentation
-4.7043614	injection
-4.7043614	turning
-4.7043614	mart
-4.7043614	fauber
-4.7043614	pump
-4.7043614	ngfa
-4.7043614	convention
-4.578661	controversial
-3.8119855	rejected
-4.427796	guarantee
-4.2844424	extension
-4.578661	essential
-4.7043614	curbing
-4.578661	shortfall
-4.7043614	fraternite
-4.7043614	matin
-4.7043614	mainstays
-4.7043614	ivorian
-4.427796	dry
-4.7043614	chemed
-4.7043614	che
-4.7043614	053
-4.578661	803
-4.7043614	963
-4.7043614	031
-4.7043614	010
-4.7043614	finished
-4.7043614	determination
-4.7043614	satellite
-4.7043614	fleet
-4.7043614	owners
-4.2844424	metres
-4.7043614	movements
-4.7043614	lorries
-4.427796	cars
-4.2844424	islamic
-4.578661	establish
-4.2844424	portfolio
-4.578661	idb
-4.578661	urgent
-4.2844424	thing
-4.7043614	plateau
-4.427796	she
-4.7043614	surprise
-4.7043614	rpt
-4.578661	oilseed
-4.427796	brackets
-4.427796	sorghum
-4.7043614	expellers
-4.7043614	pellets
-4.7043614	linseed
-4.7043614	274
-4.7043614	groundnutseed
-4.7043614	445
-4.578661	powers
-4.1768475	like
-4.018821	then
-4.578661	wesbanco
-4.7043614	wsbc
-4.578661	sissonville
-4.7043614	provisioning
-4.427796	uncertainties
-4.7043614	boosts
-4.578661	scandinavia
-4.7043614	scf
-4.1768475	swedish
-4.7043614	norwegian
-4.7043614	978
-4.7043614	ball
-4.7043614	bll
-4.578661	267
-4.578661	288
-4.7043614	839
-4.7043614	836
-4.7043614	moreover
-4.578661	borrow
-4.7043614	unexpectedly
-4.7043614	anticipated
-4.7043614	hole
-4.7043614	graded
-4.7043614	foot
-4.7043614	advised
-4.427796	size
-4.7043614	emphasis
-4.7043614	preservation
-4.578661	sri
-4.7043614	lanka
-4.7043614	lankan
-4.7043614	caf
-4.7043614	colombo
-4.578661	northwest
-4.7043614	remove
-4.7043614	azpurua
-4.578661	retroactive
-4.7043614	detection
-4.7043614	detc
-4.7043614	713
-4.427796	328
-4.578661	usp
-4.7043614	uspts
-4.7043614	216
-4.7043614	villa
-4.7043614	apartments
-4.7043614	savannah
-4.7043614	ga
-4.578661	lifting
-4.578661	restrictions
-4.7043614	reinforces
-4.578661	lira
-4.7043614	voted
-4.1768475	measure
-4.7043614	endorsed
-4.7043614	flying
-4.578661	flag
-4.1768475	poehl
-4.7043614	rockport
-4.7043614	reebok
-4.7043614	acuqired
-4.2844424	republican
-4.7043614	stalling
-4.7043614	tactics
-4.7043614	stbk
-4.7043614	woodhouse
-4.7043614	drake
-4.7043614	carey
-4.427796	237
-4.7043614	extra
-4.7043614	whites
-4.427796	grew
-4.7043614	compensate
-4.578661	forego
-4.427796	deferred
-4.7043614	realization
-4.1768475	fully
-4.7043614	assured
-4.578661	ve
-4.427796	forest
-4.7043614	feca
-4.7043614	store
-4.2844424	excluding
-4.7043614	handy
-4.7043614	andy
-4.7043614	gurnee
-4.578661	ill
-4.7043614	233
-4.578661	complaints
-4.578661	citrus
-4.7043614	blaming
-4.7043614	inconsistent
-4.2844424	lack
-4.578661	incentives
-4.7043614	sergey
-4.7043614	frolov
-4.090686	economist
-4.7043614	amtorg
-4.2844424	agent
-4.7043614	organisations
-4.7043614	writeoffs
-4.2844424	plants
-4.7043614	connected
-4.7043614	johannesburg
-4.578661	tony
-4.7043614	norton
-4.7043614	shape
-4.7043614	awful
-4.578661	talk
-4.7043614	cure
-4.578661	serious
-4.578661	nlcs
-4.427796	improve
-4.2844424	virtually
-4.7043614	swung
-4.7043614	177
-4.578661	115
-4.578661	formally
-4.2844424	adopted
-4.7043614	inra
-4.7043614	manaspas
-4.578661	xuto
-4.7043614	mchn
-4.1768475	mainly
-4.7043614	surrounding
-4.1768475	latin
-4.7043614	chris
-4.7043614	tinker
-4.427796	phillips
-4.7043614	drew
-4.427796	prove
-4.7043614	aberrational
-4.2844424	coming
-4.7043614	station
-4.7043614	cbs
-4.7043614	network
-4.427796	affiliate
-4.578661	healthvest
-4.7043614	hvt
-4.578661	maryland
-4.578661	148
-3.8552043	east
-4.578661	334
-4.7043614	580
-4.7043614	710
-4.1768475	129
-4.7043614	forecasters
-4.427796	requested
-4.7043614	fair
-4.7043614	gac
-4.7043614	liquidating
-4.7043614	gactz
-4.7043614	stimulate
-4.7043614	snat
-4.7043614	859
-4.7043614	454
-4.578661	577
-4.578661	gidel
-4.7043614	marketings
-4.7043614	unloading
-3.9032044	commodities
-4.7043614	navy
-4.7043614	personnel
-4.427796	rule
-4.7043614	microwave
-4.7043614	gvmf
-4.7043614	871
-4.7043614	751
-4.7043614	952
-4.7043614	833
-4.7043614	883
-4.7043614	059
-4.578661	692
-4.7043614	gwf
-4.7043614	branches
-4.578661	florida
-4.578661	185
-4.7043614	lift
-4.578661	greenwood
-4.7043614	grrl
-4.7043614	peat
-4.7043614	sidro
-4.7043614	0000
-4.7043614	896
-4.7043614	condemns
-4.018821	producing
-4.090686	vice
-4.7043614	supplement
-4.7043614	exceptional
-4.7043614	character
-4.578661	154
-4.7043614	128
-4.7043614	facsimile
-4.427796	machines
-4.7043614	tape
-4.7043614	recorders
-4.7043614	contributor
-4.2844424	origin
-4.427796	balanced
-4.427796	roy
-4.578661	disney
-4.427796	family
-4.578661	turnaround
-4.7043614	acceleration
-4.427796	visual
-4.7043614	vsalc
-4.7043614	hambrecht
-4.7043614	quist
-4.578661	bayou
-4.7043614	solomecs
-4.7043614	solmecs
-4.1768475	v
-4.7043614	antilles
-4.578661	carolco
-4.578661	pictures
-4.7043614	crc
-4.578661	orbis
-4.578661	context
-4.427796	developments
-4.578661	worldwide
-4.7043614	eaf
-4.7043614	910
-4.578661	calny
-4.7043614	franchisee
-4.7043614	pepsico
-4.7043614	taco
-4.7043614	bell
-4.7043614	restaurants
-4.7043614	143
-4.578661	oregon
-4.7043614	la
-4.7043614	petite
-4.7043614	boulangerie
-4.7043614	bakeries
-4.7043614	seattle
-4.7043614	valued
-4.7043614	341
-4.7043614	ports
-4.7043614	transshipment
-4.427796	iraqi
-4.7043614	struck
-4.7043614	oilfields
-4.7043614	cyrus
-4.7043614	ardeshir
-4.7043614	kharg
-4.427796	things
-4.7043614	accentuate
-4.7043614	jerry
-4.7043614	gh
-4.427796	threat
-4.7043614	contrary
-4.578661	expectations
-4.7043614	shelved
-4.7043614	dean
-4.7043614	witter
-4.7043614	enhance
-4.578661	bottom
-3.9032044	line
-4.7043614	crash
-4.7043614	osborne
-4.7043614	kleinwort
-4.7043614	grieveson
-4.2844424	sweet
-4.090686	property
-4.578661	gate
-4.7043614	arrays
-4.7043614	complexity
-4.7043614	radiation
-4.7043614	hardening
-4.7043614	capabilities
-4.7043614	composed
-4.7043614	michel
-4.7043614	noir
-4.7043614	yugoslavian
-4.7043614	egon
-4.7043614	padovan
-4.578661	sacrifices
-4.7043614	meant
-4.7043614	restored
-4.7043614	wattari
-4.7043614	attract
-4.7043614	diw
-4.2844424	crucial
-4.7043614	buildings
-4.427796	introduced
-4.018821	institutions
-4.578661	goodman
-4.578661	fielder
-4.1768475	ranks
-4.1768475	hovis
-4.7043614	goow
-4.7043614	mcdougall
-4.7043614	rhml
-4.7043614	rhm
-4.427796	publicly
-4.7043614	1959
-4.7043614	disruption
-4.7043614	wilson
-4.2844424	entered
-4.7043614	swamp
-4.7043614	safely
-4.7043614	headquarters
-4.578661	minorities
-4.7043614	cranes
-4.7043614	yugoslavia
-4.7043614	broaden
-3.9032044	bonus
-4.7043614	erodible
-4.090686	aide
-4.578661	senator
-4.1768475	former
-4.7043614	hatfield
-4.090686	try
-4.7043614	unlike
-4.578661	fairly
-4.578661	sluggish
-4.7043614	strains
-4.578661	firming
-4.7043614	choices
-4.7043614	arifin
-4.7043614	siregar
-4.7043614	antara
-4.7043614	chamorro
-4.578661	nicaragua
-4.427796	supports
-4.7043614	establishment
-4.2844424	boost
-4.7043614	sagging
-4.7043614	professionals
-4.578661	convinced
-4.7043614	story
-4.7043614	victors
-4.7043614	burlington
-4.7043614	actually
-4.578661	play
-4.7043614	conseco
-4.7043614	968
-4.7043614	westamerica
-4.7043614	bancorporation
-4.7043614	wsam
-4.7043614	942
-4.7043614	834
-4.7043614	729
-4.578661	flowers
-4.7043614	history
-4.427796	profitability
-4.7043614	ongoing
-4.7043614	productvitiy
-4.7043614	stabilization
-4.2844424	pipeline
-4.7043614	resume
-4.7043614	paralysed
-4.7043614	earthquake
-4.7043614	ring
-4.578661	implications
-4.7043614	cases
-4.578661	collapse
-4.7043614	doe
-4.2844424	140
-4.7043614	boss
-4.7043614	montana
-4.427796	smelter
-4.7043614	corpses
-4.7043614	recovered
-4.7043614	bracho
-4.7043614	forex
-4.090686	controls
-4.7043614	premier
-4.7043614	yu
-4.7043614	kuo
-4.7043614	hua
-4.7043614	ordered
-4.7043614	quicken
-4.578661	pace
-4.7043614	relaxing
-4.427796	cabinet
-4.7043614	somphol
-4.7043614	kiatpaiboon
-4.7043614	absence
-4.090686	ico
-4.7043614	depressing
-4.7043614	bearer
-4.578661	490
-4.578661	participation
-4.578661	similar
-4.578661	argument
-4.7043614	capitol
-4.578661	hill
-4.578661	meanwhile
-4.578661	cologne
-4.2844424	authority
-4.578661	principal
-4.427796	broad
-4.7043614	liquid
-4.7043614	alp
-4.7043614	annualised
-4.7043614	heyman
-4.7043614	considerable
-4.7043614	elapsed
-4.1768475	original
-4.427796	submitted
-4.7043614	experienced
-4.7043614	unprecedented
-4.2844424	deterioration
-4.7043614	"...
-4.018821	concern
-4.7043614	deloitte
-4.7043614	haskins
-4.7043614	hawkeye
-4.578661	controlling
-4.7043614	renewed
-4.7043614	iea
-4.578661	communist
-4.7043614	muted
-4.2844424	matter
-4.427796	generate
-4.7043614	contribution
-4.578661	spin
-4.7043614	hanna
-4.7043614	hnm
-4.7043614	acqure
-4.7043614	pms
-4.7043614	reformer
-4.7043614	hydrotreater
-4.7043614	upgraded
-4.427796	decisions
-4.7043614	rsi
-4.7043614	rsic
-4.578661	266
-4.7043614	236
-4.7043614	619
-4.7043614	splits
-4.2844424	interbank
-4.7043614	shedding
-4.7043614	stockbroker
-4.1768475	convertible
-3.9571767	shipment
-4.7043614	visibility
-4.427796	disposal
-4.7043614	reconsider
-4.7043614	bag
-4.7043614	felt
-4.578661	passage
-4.7043614	reform
-4.7043614	bow
-4.2844424	benefit
-4.578661	valuation
-4.7043614	extreme
-4.2844424	prospects
-4.578661	reassemble
-4.578661	policymaking
-4.427796	possibilities
-4.427796	inadequate
-4.7043614	larive
-4.7043614	inadeuqate
-4.7043614	contingencies
-4.7043614	fbgi
-4.7043614	840
-4.578661	tell
-4.7043614	costly
-4.7043614	seguin
-4.578661	submit
-4.578661	heritage
-4.7043614	lite
-4.7043614	lean
-4.7043614	refiner
-4.7043614	tentatively
-4.7043614	breslube
-4.578661	reaffirmation
-4.578661	louvre
-4.427796	welcomed
-4.578661	bosphorus
-4.578661	istanbul
-4.7043614	remained
-4.578661	virtual
-4.7043614	standstill
-4.578661	snow
-4.7043614	meter
-4.578661	linking
-4.1768475	sea
-4.7043614	marmara
-4.578661	black
-4.7043614	removal
-4.7043614	wastes
-4.578661	521
-4.7043614	ninth
-4.7043614	munim
-4.7043614	bangladesh
-4.7043614	feared
-4.7043614	jute
-4.2844424	accounted
-4.7043614	olivetti
-4.018821	considered
-4.578661	interesting
-4.7043614	investing
-4.578661	governing
-4.427796	shortly
-4.7043614	path
-4.578661	award
-4.578661	intention
-4.7043614	centurion
-4.7043614	269
-4.7043614	936
-4.7043614	028
-4.7043614	tertiary
-4.427796	expensive
-4.7043614	methods
-4.578661	inject
-4.7043614	recover
-4.7043614	exempted
-4.7043614	nugent
-4.578661	finalized
-4.427796	components
-4.7043614	germans
-4.2844424	clearly
-4.7043614	budge
-4.578661	chirac
-4.7043614	separately
-4.7043614	muskogee
-4.7043614	okla
-4.578661	placed
-4.7043614	receivership
-4.7043614	cook
-4.7043614	psl2
-4.7043614	jersey
-4.578661	delaware
-4.7043614	connecticut
-4.7043614	rhode
-4.7043614	massachusetts
-4.7043614	hampshire
-4.7043614	philadelphia
-4.090686	area
-4.578661	el
-4.578661	nino
-4.7043614	phenomenon
-4.7043614	winds
-4.7043614	save
-4.7043614	forfeitures
-4.7043614	smc
-4.427796	preparing
-4.1768475	pesos
-4.7043614	assuming
-4.427796	stop
-4.427796	priced
-4.7043614	ghana
-4.578661	zero
-4.427796	malaysian
-4.7043614	fms
-4.578661	subsidized
-4.2844424	inventory
-4.2844424	subsidy
-4.578661	paco
-4.427796	pharmaceutical
-4.7043614	pps
-4.7043614	767
-4.7043614	676
-4.7043614	897
-4.7043614	image
-4.090686	traded
-4.7043614	lamont
-4.7043614	appoint
-4.578661	utilicorp
-4.7043614	ucu
-4.7043614	wci
-4.2844424	hutton
-4.7043614	tied
-4.7043614	flowed
-4.578661	healthcare
-4.427796	hospital
-4.7043614	lease
-4.578661	intermark
-4.7043614	imi
-4.578661	pier
-4.7043614	pir
-4.427796	bally
-4.1768475	considering
-4.578661	flags
-4.578661	theme
-4.7043614	parks
-4.7043614	sequestered
-4.7043614	filipinos
-4.7043614	cch
-4.427796	meston
-4.578661	870
-4.7043614	labatt
-4.7043614	tumbled
-4.578661	amo
-4.427796	qualified
-4.7043614	expire
-4.7043614	bonuses
-4.7043614	pontiacs
-4.7043614	equipped
-4.7043614	packages
-4.7043614	vehicle
-4.7043614	unamortized
-4.578661	rubbermaid
-4.7043614	pledged
-4.578661	standards
-4.578661	cantrex
-4.2844424	ontario
-4.7043614	groupe
-4.7043614	cap
-4.578661	appliance
-4.7043614	purchasers
-4.7043614	woodstock
-4.7043614	retailers
-4.7043614	lawsuits
-4.7043614	competent
-4.578661	exact
-4.427796	damage
-4.427796	calculated
-4.7043614	telling
-4.7043614	tehran
-4.7043614	ecgd
-4.7043614	refinancing
-4.578661	wildlife
-4.578661	proposes
-4.578661	alaska
-4.7043614	refuge
-4.7043614	wilderness
-4.7043614	lands
-4.7043614	cheap
-4.7043614	rig
-4.7043614	finding
-3.8119855	barrel
-4.427796	walter
-4.7043614	hees
-4.7043614	potent
-4.1768475	political
-4.578661	diplomatic
-4.7043614	exercised
-4.578661	530
-4.2844424	alternatives
-4.7043614	foods
-4.578661	vegetables
-4.7043614	merrill
-4.427796	lynch
-4.7043614	queried
-4.578661	retender
-4.7043614	rbd
-4.2844424	palm
-4.7043614	bleached
-4.7043614	deodorised
-4.578661	failing
-4.1768475	offers
-4.7043614	totals
-4.578661	warrant
-4.7043614	entitles
-4.578661	holder
-4.7043614	tradeable
-4.7043614	cleopatra
-4.7043614	kohlique
-4.7043614	cleo
-4.578661	723
-4.7043614	specialty
-4.578661	names
-4.7043614	edge
-4.090686	oecd
-4.7043614	examines
-4.7043614	curious
-4.7043614	octoer
-4.7043614	1991
-4.7043614	5940
-4.7043614	5970
-4.7043614	residual
-4.7043614	eia
-4.7043614	jeffrey
-4.7043614	hoare
-4.7043614	govett
-4.7043614	confines
-4.7043614	philosophy
-4.578661	183
-4.7043614	frenzy
-4.578661	valuing
-4.7043614	hydrocarbons
-4.7043614	previouly
-4.7043614	emergency
-4.578661	prerequisite
-4.7043614	rebels
-4.7043614	auctions
-4.7043614	sharon
-4.578661	tendered
-4.427796	middle
-4.7043614	mtrc
-4.7043614	precedent
-4.578661	exists
-4.578661	distillers
-4.7043614	dr
-4.7043614	realize
-4.7043614	spirits
-4.7043614	brands
-4.578661	amb
-4.7043614	filtrona
-4.7043614	afil
-4.7043614	064
-4.578661	525
-4.7043614	relocation
-4.7043614	nonaccrual
-4.7043614	restructured
-4.7043614	637
-4.578661	514
-4.7043614	cheung
-4.427796	rich
-4.7043614	colony
-4.7043614	li
-4.7043614	reclamation
-4.1768475	project
-4.2844424	along
-4.7043614	exchanging
-4.578661	airport
-4.578661	hand
-4.7043614	clearcut
-4.578661	reversed
-4.7043614	luncheon
-4.7043614	txc
-4.7043614	edmonton
-4.7043614	swann
-4.578661	warning
-4.578661	understood
-4.7043614	callao
-4.7043614	crotone
-4.7043614	mt
-4.7043614	minerals
-4.427796	took
-4.578661	offs
-4.7043614	deplete
-4.7043614	allowance
-4.7043614	draught
-4.7043614	cinram
-4.7043614	829
-4.578661	332
-4.578661	428
-4.7043614	diht
-4.578661	differences
-4.578661	tenneco
-4.7043614	tennessee
-4.427796	runs
-4.7043614	muda
-4.578661	aice
-4.427796	attended
-4.7043614	contact
-4.7043614	silkworm
-4.7043614	posed
-4.7043614	weapons
-4.7043614	jawa
-4.7043614	predecessor
-4.578661	abdul
-4.7043614	hadi
-4.7043614	taher
-4.7043614	shake
-4.7043614	peaked
-4.090686	subsidies
-4.427796	troon
-4.7043614	advance
-4.7043614	partially
-4.427796	secured
-4.7043614	lien
-4.7043614	chapman
-4.7043614	argosystems
-4.7043614	officers
-4.7043614	boeing
-4.578661	clothing
-4.7043614	footwear
-4.7043614	expecting
-4.427796	something
-4.578661	trader
-4.7043614	alfa
-4.7043614	laval
-4.427796	ab
-4.7043614	alfs
-4.427796	st
-3.8119855	crowns
-4.578661	651
-4.427796	computers
-4.7043614	integrated
-4.7043614	3m
-4.7043614	ties
-4.7043614	chang
-4.7043614	chi
-4.7043614	cheng
-4.7043614	liberalise
-4.427796	inter
-4.7043614	governmental
-4.2844424	doing
-4.7043614	deserve
-4.7043614	couple
-4.7043614	formation
-4.7043614	portending
-4.7043614	carson
-4.578661	thus
-4.7043614	normalisation
-4.7043614	lieberman
-4.7043614	competitively
-4.1768475	chase
-4.578661	entregrowth
-4.7043614	chca
-4.7043614	optional
-4.578661	jun
-4.7043614	animal
-4.7043614	cyprus
-4.7043614	fearless
-4.7043614	841
-4.7043614	dw
-4.7043614	grounded
-4.7043614	towed
-4.7043614	yantai
-4.7043614	reloaded
-4.578661	825
-4.578661	resistance
-4.7043614	fabrics
-4.578661	backlog
-4.7043614	odc
-4.7043614	discontinue
-4.578661	design
-4.7043614	fabrication
-4.7043614	installation
-4.7043614	apr
-4.090686	123
-4.578661	police
-4.7043614	death
-4.7043614	suicide
-4.7043614	propel
-4.578661	flurry
-4.7043614	kindled
-4.578661	fears
-4.578661	instability
-4.7043614	jpn
-4.7043614	seekers
-4.578661	recommend
-4.7043614	buoy
-4.2844424	hopes
-4.7043614	376
-4.7043614	onex
-4.7043614	filters
-4.7043614	motion
-4.578661	picture
-4.7043614	admissions
-4.427796	shown
-4.7043614	schweizerische
-4.2844424	vegetable
-4.578661	fuels
-4.578661	suchard
-4.7043614	jens
-4.7043614	indirectly
-4.7043614	arranging
-4.7043614	wallenbergs
-4.578661	match
-4.7043614	sweden
-4.7043614	wallenberg
-4.7043614	fought
-4.7043614	financier
-4.7043614	erik
-4.7043614	penser
-4.7043614	secure
-4.7043614	smbs
-4.7043614	empire
-4.578661	break
-4.7043614	zccm
-4.7043614	kwacha
-4.7043614	frederick
-4.7043614	chiluba
-4.7043614	zambian
-4.2844424	unions
-4.7043614	auction
-4.7043614	licht
-4.578661	beet
-4.578661	plantings
-4.7043614	png
-4.7043614	geological
-4.1768475	distributed
-4.7043614	iagifu
-4.7043614	mixed
-4.427796	urges
-4.7043614	fulfillment
-4.7043614	accords
-4.7043614	depart
-4.578661	allies
-4.427796	fulfill
-4.427796	poison
-4.427796	pill
-4.7043614	waves
-4.2844424	achieved
-4.7043614	octane
-4.578661	prompted
-4.7043614	embassy
-4.7043614	peking
-4.7043614	trans
-4.7043614	bearishness
-4.7043614	tempt
-4.7043614	downside
-4.7043614	harkin
-4.7043614	termed
-4.7043614	returns
-4.427796	monfort
-4.578661	nabisco
-4.2844424	currently
-4.7043614	chemclear
-4.7043614	combinations
-4.7043614	seaxe
-4.7043614	northeast
-4.7043614	durian
-4.7043614	orchards
-4.2844424	eastern
-4.7043614	chanthaburi
-4.578661	tigrel
-4.578661	surge
-4.578661	blame
-4.427796	deficits
-4.7043614	obligation
-4.427796	borrower
-4.7043614	lotus
-4.7043614	lots
-4.7043614	528
-4.2844424	08
-4.7043614	hoping
-4.427796	moscow
-4.1768475	amoco
-4.578661	arco
-4.7043614	sohio
-4.7043614	voiding
-4.7043614	leases
-4.7043614	staggering
-4.578661	specify
-4.7043614	productivity
-4.7043614	lowest
-4.7043614	differential
-4.578661	coastal
-4.7043614	cgp
-4.427796	transamerican
-4.578661	frivolous
-4.7043614	belives
-4.7043614	merit
-4.7043614	nonpartisan
-4.7043614	arm
-4.578661	subcommittee
-4.7043614	hearing
-4.2844424	textile
-4.578661	optimism
-4.578661	aug
-4.7043614	korean
-4.578661	allocation
-4.7043614	obtained
-4.7043614	1978
-4.7043614	957
-4.7043614	886
-4.7043614	452
-4.7043614	king
-4.7043614	fahd
-4.7043614	cyril
-4.7043614	wagner
-4.7043614	conversation
-4.7043614	reed
-4.578661	throughout
-4.7043614	falkirk
-4.578661	teck
-4.2844424	trilogy
-4.578661	resource
-4.7043614	ferrous
-4.7043614	associations
-4.578661	doors
-4.7043614	pullout
-4.7043614	tfb
-4.7043614	narr
-4.7043614	dudley
-4.7043614	stages
-4.7043614	snowstorm
-4.7043614	bootle
-4.7043614	entirely
-4.7043614	conservative
-4.578661	disclose
-4.578661	recommendation
-4.7043614	urge
-4.578661	reneging
-4.7043614	vlissingen
-4.7043614	attempts
-4.7043614	pull
-4.7043614	shallow
-4.427796	deluxe
-4.7043614	troy
-4.7043614	.+
-4.7043614	revalue
-4.7043614	suddenly
-4.7043614	tremendous
-4.7043614	degenerate
-4.427796	lbs
-4.7043614	471
-4.7043614	greek
-4.7043614	searching
-4.7043614	thasos
-4.578661	arose
-4.1768475	airlines
-4.7043614	jc
-4.578661	penney
-4.7043614	jcp
-4.427796	barney
-4.578661	opinion
-4.578661	momentum
-4.7043614	buyback
-4.578661	hike
-4.7043614	explain
-4.7043614	shrinking
-4.578661	?
-4.7043614	editor
-4.7043614	theodore
-4.7043614	cross
-4.578661	harper
-4.427796	row
-4.578661	linked
-4.7043614	negligible
-4.7043614	brunswick
-4.578661	425
-4.7043614	huckaby
-4.7043614	drastically
-4.7043614	israeli
-4.7043614	pacts
-4.7043614	spur
-4.7043614	israel
-4.7043614	pave
-4.7043614	liberalizing
-4.578661	compromise
-4.090686	indonesian
-4.578661	lobby
-4.7043614	resolution
-4.7043614	deadlocked
-4.7043614	surging
-4.7043614	slowly
-4.7043614	envisaged
-4.7043614	14th
-4.7043614	cambiste
-4.7043614	prospect
-4.7043614	unified
-4.578661	plus
-4.578661	cds
-4.7043614	caribbean
-4.2844424	urged
-4.7043614	rejection
-4.7043614	campeau
-4.7043614	shopping
-4.7043614	debartolo
-4.578661	lukman
-4.578661	logic
-4.7043614	dlog
-4.7043614	aspen
-4.578661	colo
-4.7043614	denial
-4.7043614	booming
-4.7043614	matches
-4.7043614	significance
-4.7043614	retreat
-4.578661	emerge
-4.7043614	meteorological
-4.7043614	experiencing
-4.578661	worst
-4.7043614	1951
-4.578661	spell
-4.7043614	monsoon
-4.7043614	nat
-4.7043614	check
-4.7043614	printers
-4.7043614	dlx
-4.7043614	subordinated
-4.578661	749
-4.427796	asia
-4.7043614	exceeded
-4.427796	renta
-4.578661	inmobiliaria
-4.578661	cannon
-4.7043614	media
-4.2844424	jose
-4.7043614	luis
-4.7043614	sanchez
-4.578661	oak
-4.7043614	norstar
-4.2844424	directors
-4.7043614	equals
-4.578661	172
-4.7043614	methyl
-4.7043614	chloride
-4.7043614	integral
-4.7043614	silicone
-4.7043614	cereal
-4.7043614	tapioca
-4.7043614	disappear
-4.7043614	completely
-4.578661	sdc
-4.578661	sydney
-4.7043614	eliminate
-4.7043614	unprofitable
-4.7043614	strategic
-4.578661	ali
-4.578661	crudes
-4.7043614	dealt
-4.7043614	properly
-4.7043614	afternoon
-4.427796	recovery
-4.578661	statistical
-4.427796	bulletin
-4.578661	252
-4.7043614	wallis
-4.7043614	containing
-4.7043614	retaliatory
-4.7043614	antagonising
-4.7043614	panelists
-4.7043614	discourage
-4.7043614	revising
-4.427796	cutting
-4.7043614	basic
-4.7043614	114
-4.578661	389
-4.1768475	82
-4.7043614	dominican
-4.7043614	republic
-4.7043614	yulo
-4.7043614	expressions
-4.7043614	rockwell
-4.7043614	eastpark
-4.7043614	realty
-4.7043614	ert
-4.7043614	306
-4.2844424	rev
-4.578661	758
-4.7043614	313
-4.427796	285
-4.578661	933
-4.7043614	970
-4.578661	912
-4.7043614	attitude
-4.7043614	explains
-4.7043614	tendency
-4.7043614	countervailing
-4.7043614	duties
-4.7043614	advantages
-4.7043614	williams
-4.7043614	wmsi
-4.7043614	842
-4.7043614	965
-4.7043614	924
-4.7043614	008
-4.7043614	beasley
-4.7043614	fluids
-4.578661	handling
-4.7043614	pumps
-4.578661	valves
-4.7043614	satisfied
-4.578661	coins
-4.7043614	bullion
-4.7043614	perth
-4.7043614	mint
-4.7043614	treasurer
-4.7043614	keating
-4.7043614	inched
-4.2844424	represent
-4.7043614	thirds
-4.7043614	eurofer
-4.578661	scope
-4.7043614	closure
-4.7043614	redundancy
-4.7043614	freakish
-4.1768475	economies
-4.7043614	mgmt
-4.7043614	gami
-4.7043614	atco
-4.7043614	bijan
-4.7043614	moussavar
-4.7043614	rahmani
-4.7043614	harvard
-4.7043614	university
-4.578661	excesses
-4.7043614	vincent
-4.7043614	siew
-4.7043614	front
-4.7043614	forged
-4.7043614	cavaco
-4.7043614	silva
-4.578661	accused
-4.7043614	wing
-4.578661	opposition
-4.7043614	blocking
-4.7043614	reforms
-4.7043614	snyder
-4.578661	cenergy
-4.7043614	lugar
-4.7043614	reopen
-4.7043614	acquistion
